<?xml version="1.0"?>
<opencv_storage>
<opencv_ml_svm>
  <format>3</format>
  <svmType>C_SVC</svmType>
  <kernel>
    <type>LINEAR</type></kernel>
  <C>1.</C>
  <term_criteria><iterations>100</iterations></term_criteria>
  <var_count>322</var_count>
  <class_count>2</class_count>
  <class_labels type_id="opencv-matrix">
    <rows>2</rows>
    <cols>1</cols>
    <dt>i</dt>
    <data>
      -1 1</data></class_labels>
  <sv_total>1</sv_total>
  <support_vectors>
    <_>
      -1.45320319e-005 -1.25032648e-005 -2.48520450e-006 1.69583527e-005
      2.85849328e-005 1.24219496e-005 -1.59419524e-005 -1.87480819e-005
      1.23294303e-005 4.16737857e-005 3.61243365e-005 4.10015082e-006
      -1.32523546e-005 -2.02205629e-005 -1.52286702e-005
      -7.00517876e-006 1.81146897e-005 4.75202396e-005 5.60916524e-005
      2.17055549e-005 -2.65150611e-005 -2.98028954e-005 1.50029773e-005
      6.37338308e-005 6.80897137e-005 3.20963263e-005 -2.59724493e-006
      -1.68561455e-005 -1.47252194e-005 4.18061200e-006 4.23498132e-005
      6.84030747e-005 5.97260077e-005 -5.01387285e-006 -6.77374192e-005
      -7.31423061e-005 -1.97336594e-005 5.26859840e-005 8.26458272e-005
      6.06038229e-005 1.87374153e-005 -9.25601671e-006 -9.44398198e-006
      2.22943818e-005 6.65865009e-005 7.53081258e-005 4.78651818e-005
      -3.51448980e-005 -1.01569080e-004 -1.09377623e-004
      -5.82828325e-005 2.73634960e-005 8.12612489e-005 7.84195508e-005
      3.89008237e-005 -2.93043604e-006 -6.96994221e-007 3.70586495e-005
      7.46053120e-005 7.29828753e-005 3.29364702e-005 -5.60486042e-005
      -1.20380908e-004 -1.28495405e-004 -8.65375550e-005 1.03364194e-007
      6.85738050e-005 8.09596386e-005 4.70927371e-005 2.47657522e-006
      1.69800921e-006 3.80533311e-005 7.66104204e-005 7.38123781e-005
      3.18255406e-005 -6.07143957e-005 -1.22909565e-004 -1.31197157e-004
      -9.34217751e-005 -1.04799828e-005 6.42943414e-005 8.15068415e-005
      5.12306833e-005 6.55420081e-006 -1.23197754e-006 3.20963736e-005
      7.33220659e-005 7.37441878e-005 2.90974403e-005 -6.15604222e-005
      -1.23752063e-004 -1.33376132e-004 -9.44968706e-005
      -1.53539258e-005 6.29054557e-005 8.42716545e-005 5.54045146e-005
      8.47376305e-006 -1.21975711e-006 3.32999844e-005 7.61724223e-005
      7.49722385e-005 2.64339633e-005 -6.03331500e-005 -1.18242584e-004
      -1.29033608e-004 -9.21377505e-005 -2.21833143e-005 5.91984208e-005
      8.39255081e-005 5.77995161e-005 7.25793097e-006 1.84913915e-007
      3.36662197e-005 7.66111989e-005 7.56601803e-005 2.78193220e-005
      -5.86024289e-005 -1.15063434e-004 -1.27665597e-004
      -9.39374513e-005 -2.58867840e-005 5.82124376e-005 8.27341137e-005
      5.59962500e-005 2.68120334e-006 -2.05791252e-006 3.24827015e-005
      7.60963085e-005 7.74232176e-005 2.91837623e-005 -5.70771117e-005
      -1.12833608e-004 -1.28893647e-004 -1.00069061e-004
      -2.95027967e-005 5.64213879e-005 8.18163244e-005 5.57226485e-005
      -1.20323443e-006 -2.85940632e-006 3.18830462e-005 8.02464783e-005
      8.00401976e-005 3.30157491e-005 -6.06599388e-005 -1.13380811e-004
      -1.31707347e-004 -1.03124825e-004 -2.74066624e-005 6.08127993e-005
      8.37122279e-005 6.04322413e-005 1.25980275e-008 -2.32799198e-006
      3.14363497e-005 8.59341817e-005 8.09378907e-005 4.10381363e-005
      -6.14168530e-005 -1.15691051e-004 -1.38103074e-004
      -1.06437619e-004 -2.38411867e-005 6.43790554e-005 8.32052101e-005
      6.29321003e-005 3.24927896e-006 -1.77213690e-006 3.16977312e-005
      8.69280848e-005 7.94528096e-005 4.37801100e-005 -5.34346946e-005
      -1.15434021e-004 -1.40776028e-004 -1.08269669e-004
      -1.93334799e-005 6.79165678e-005 8.70328950e-005 6.38376659e-005
      7.81021663e-006 -3.46263027e-006 3.24546927e-005 8.52943413e-005
      7.74887158e-005 4.07338739e-005 -4.48406645e-005 -1.09421089e-004
      -1.36003422e-004 -1.06455838e-004 -2.07259291e-005 6.95065537e-005
      9.39277743e-005 6.76452619e-005 1.32120995e-005 -4.23533402e-006
      3.46766465e-005 8.36239415e-005 7.63418502e-005 3.56746168e-005
      -4.30078289e-005 -1.01921469e-004 -1.29270236e-004
      -1.04013561e-004 -2.73270743e-005 6.46728004e-005 9.22372856e-005
      6.64093386e-005 1.37191191e-005 -4.67768268e-006 3.44755863e-005
      8.07980323e-005 7.66398953e-005 3.11503391e-005 -4.31792723e-005
      -9.66875014e-005 -1.24512546e-004 -1.02894715e-004
      -3.25078072e-005 5.49082470e-005 8.65259208e-005 6.56725169e-005
      1.33040012e-005 -5.08414996e-006 3.41136511e-005 7.58873794e-005
      7.54607245e-005 3.16940204e-005 -3.56027558e-005 -9.00453524e-005
      -1.21260076e-004 -1.03092250e-004 -3.52935349e-005 4.98647314e-005
      8.58336280e-005 6.64854451e-005 1.41729088e-005 -7.07268646e-006
      2.93760495e-005 7.23691774e-005 7.82657662e-005 4.09559470e-005
      -2.26251850e-005 -8.01952992e-005 -1.15535753e-004
      -1.00741046e-004 -3.00962802e-005 5.30245670e-005 8.62724119e-005
      6.32530719e-005 1.03566645e-005 -7.62067020e-006 1.71309530e-005
      6.51920345e-005 8.42349909e-005 6.40162980e-005 6.98459053e-006
      -6.70762165e-005 -1.11211761e-004 -8.94697077e-005
      -1.10761157e-005 6.45931650e-005 8.35399114e-005 5.25786018e-005
      4.77816411e-006 -9.54453481e-006 3.09480902e-006 4.38222305e-005
      7.76137531e-005 8.40855573e-005 5.59425935e-005 -1.95501125e-005
      -7.41066178e-005 -4.84328084e-005 2.18335008e-005 8.08949699e-005
      7.67743186e-005 3.33223215e-005 -3.09913594e-006 -1.08888835e-005
      -8.96854090e-006 2.23159859e-005 6.20609426e-005 8.53617094e-005
      8.25691968e-005 2.04972857e-005 -3.30968469e-005 -1.98499783e-005
      3.16854639e-005 7.89378246e-005 4.53375724e-005 4.58145405e-006
      -1.28084457e-005 -1.48458639e-005 -1.73335029e-005
      -5.80870483e-006 2.55648883e-005 5.78381405e-005 6.48188798e-005
      1.87945243e-005 -2.40447262e-005 -2.52755672e-005 1.44953447e-006
      3.23145468e-005 6.98432905e-006 -1.21039357e-005 -1.71316642e-005
      -1.49227562e-005 -1.45844824e-005 -1.23826667e-005
      -5.04035052e-006 1.00779334e-005 1.56039368e-005 -1.38872047e-005
      -5.19104469e-005 -6.32798983e-005 -4.46642407e-005
      -1.50662818e-005 -1.12393773e-005 -1.44796277e-005
      -1.72207765e-005</_></support_vectors>
  <uncompressed_sv_total>4</uncompressed_sv_total>
  <uncompressed_support_vectors>
    <_>
      35. 39. 48. 64. 77. 99. 126. 134. 132. 121. 90. 56. 38. 32. 34.
      41. 60. 101. 152. 184. 194. 195. 191. 180. 150. 106. 61. 36. 35.
      52. 91. 143. 175. 182. 181. 179. 179. 183. 183. 158. 108. 55. 44.
      80. 136. 177. 178. 156. 125. 111. 126. 157. 183. 184. 149. 79. 60.
      100. 155. 186. 164. 104. 59. 52. 64. 110. 166. 190. 168. 94. 63.
      105. 164. 185. 155. 84. 48. 49. 52. 84. 150. 189. 175. 101. 63.
      100. 161. 183. 153. 70. 35. 39. 50. 76. 143. 187. 176. 99. 66.
      102. 167. 185. 156. 62. 34. 43. 58. 73. 140. 186. 179. 94. 66.
      103. 169. 185. 161. 56. 28. 39. 52. 65. 139. 184. 179. 85. 52.
      101. 175. 189. 165. 52. 26. 34. 36. 59. 140. 182. 180. 78. 45.
      103. 182. 193. 171. 36. 27. 32. 30. 59. 148. 185. 189. 84. 49.
      108. 191. 192. 177. 25. 27. 27. 26. 57. 156. 188. 197. 98. 56.
      108. 186. 187. 173. 37. 25. 27. 26. 62. 154. 189. 196. 111. 53.
      107. 188. 184. 165. 48. 25. 34. 32. 64. 154. 192. 195. 117. 54.
      107. 186. 187. 162. 55. 33. 38. 35. 62. 152. 190. 188. 112. 63.
      108. 180. 188. 154. 54. 37. 37. 37. 66. 150. 188. 184. 106. 67.
      115. 173. 187. 150. 65. 44. 42. 44. 75. 148. 188. 182. 103. 62.
      112. 167. 184. 152. 84. 63. 64. 67. 97. 155. 190. 176. 95. 51. 89.
      153. 186. 173. 128. 93. 86. 93. 127. 171. 196. 167. 88. 44. 67.
      124. 173. 184. 170. 152. 145. 152. 172. 195. 199. 143. 72. 41. 50.
      104. 160. 185. 194. 197. 198. 200. 203. 205. 159. 88. 47. 35. 28.
      55. 117. 164. 185. 191. 194. 198. 190. 156. 88. 48. 37. 35. 33.
      39. 53. 78. 112. 135. 143. 133. 101. 62. 41. 38. 36.</_>
    <_>
      21. 27. 53. 105. 160. 184. 182. 178. 173. 156. 109. 48. 18. 13.
      17. 38. 100. 159. 177. 165. 142. 137. 152. 172. 153. 89. 30. 14.
      17. 58. 139. 176. 151. 90. 49. 45. 77. 140. 169. 128. 51. 15. 23.
      87. 168. 165. 96. 29. 11. 12. 29. 94. 165. 158. 78. 16. 30. 100.
      170. 151. 65. 19. 16. 13. 15. 61. 144. 162. 89. 21. 31. 105. 173.
      155. 70. 20. 17. 13. 14. 58. 140. 163. 97. 27. 29. 100. 169. 154.
      72. 19. 13. 12. 15. 61. 145. 168. 105. 33. 30. 100. 168. 150. 65.
      17. 14. 14. 15. 55. 140. 166. 106. 32. 29. 97. 166. 151. 62. 16.
      15. 15. 17. 58. 141. 164. 101. 26. 26. 92. 163. 153. 58. 15. 16.
      16. 16. 52. 135. 163. 101. 24. 23. 87. 169. 156. 54. 14. 15. 15.
      15. 48. 133. 166. 109. 26. 18. 82. 178. 159. 56. 15. 15. 14. 14.
      44. 127. 157. 108. 24. 12. 85. 185. 158. 56. 16. 15. 14. 12. 42.
      131. 164. 108. 23. 11. 89. 178. 156. 60. 21. 16. 13. 11. 43. 137.
      178. 118. 30. 13. 95. 173. 150. 61. 18. 14. 12. 11. 43. 136. 178.
      120. 37. 13. 95. 170. 148. 61. 18. 16. 14. 13. 42. 123. 168. 123.
      43. 14. 90. 163. 145. 63. 20. 16. 14. 15. 44. 119. 166. 127. 47.
      14. 79. 158. 156. 82. 26. 15. 13. 16. 53. 126. 164. 121. 43. 13.
      61. 147. 173. 127. 58. 19. 14. 37. 90. 146. 156. 99. 30. 14. 37.
      109. 167. 170. 138. 96. 84. 118. 151. 164. 137. 66. 18. 14. 19.
      65. 134. 169. 172. 169. 172. 178. 165. 133. 79. 30. 12. 13. 13.
      24. 60. 105. 133. 150. 165. 150. 107. 59. 25. 13. 11. 12. 14. 14.
      20. 36. 54. 56. 44. 28. 20. 15. 12. 12. 11.</_>
    <_>
      54. 56. 58. 61. 77. 129. 192. 202. 147. 81. 46. 48. 51. 56. 52.
      54. 56. 57. 72. 135. 210. 219. 156. 82. 47. 49. 51. 52. 52. 52.
      52. 51. 60. 133. 216. 228. 164. 84. 48. 49. 50. 49. 51. 52. 50.
      50. 50. 137. 225. 238. 176. 87. 48. 49. 52. 52. 48. 44. 47. 51.
      51. 142. 228. 242. 185. 90. 49. 50. 54. 54. 46. 48. 50. 52. 52.
      141. 227. 244. 189. 93. 46. 49. 55. 54. 50. 53. 52. 51. 58. 135.
      219. 241. 190. 100. 48. 46. 53. 53. 52. 52. 50. 48. 61. 128. 209.
      236. 190. 108. 50. 45. 51. 52. 49. 50. 49. 47. 60. 122. 201. 232.
      191. 112. 52. 45. 51. 52. 44. 48. 51. 47. 57. 117. 197. 232. 192.
      110. 52. 45. 52. 54. 40. 47. 51. 47. 51. 115. 198. 235. 193. 103.
      47. 45. 53. 56. 38. 47. 51. 47. 42. 112. 202. 243. 196. 93. 41.
      42. 52. 56. 37. 48. 51. 47. 37. 105. 200. 247. 197. 86. 36. 40.
      50. 54. 38. 49. 51. 48. 42. 99. 190. 240. 194. 90. 37. 38. 49. 52.
      41. 49. 50. 48. 50. 99. 181. 229. 190. 100. 44. 40. 49. 53. 46.
      50. 50. 47. 54. 101. 177. 222. 190. 109. 52. 43. 50. 54. 49. 51.
      51. 47. 53. 96. 170. 219. 194. 118. 57. 43. 50. 53. 50. 51. 51.
      47. 50. 87. 162. 219. 201. 125. 59. 42. 49. 53. 45. 50. 50. 48.
      48. 77. 157. 223. 207. 130. 59. 45. 50. 52. 46. 49. 50. 50. 45.
      62. 151. 230. 213. 131. 53. 47. 52. 51. 47. 51. 51. 51. 43. 49.
      149. 239. 222. 134. 41. 47. 53. 52. 50. 51. 51. 49. 42. 52. 138.
      218. 214. 145. 53. 46. 52. 54. 49. 49. 48. 46. 41. 56. 116. 177.
      184. 135. 64. 46. 50. 53.</_>
    <_>
      22. 23. 29. 49. 79. 102. 104. 78. 42. 22. 22. 23. 25. 35. 24. 23.
      32. 62. 115. 172. 188. 144. 68. 19. 20. 22. 26. 40. 21. 23. 37.
      67. 124. 190. 215. 170. 80. 15. 18. 20. 25. 38. 20. 22. 34. 61.
      114. 181. 210. 167. 81. 19. 18. 20. 22. 27. 19. 21. 31. 54. 109.
      178. 210. 172. 90. 29. 18. 20. 21. 20. 18. 20. 30. 50. 105. 176.
      214. 182. 102. 35. 18. 21. 22. 20. 18. 20. 29. 46. 98. 174. 217.
      191. 106. 31. 18. 22. 22. 22. 19. 19. 24. 41. 90. 170. 219. 195.
      105. 23. 18. 21. 21. 22. 18. 19. 24. 44. 84. 164. 218. 196. 108.
      26. 17. 20. 22. 21. 18. 19. 25. 45. 85. 161. 215. 198. 117. 39.
      17. 20. 22. 22. 18. 19. 24. 39. 83. 158. 214. 201. 123. 45. 17.
      20. 23. 23. 18. 21. 24. 37. 75. 153. 215. 203. 125. 46. 17. 19.
      23. 24. 17. 24. 24. 33. 60. 149. 219. 209. 133. 48. 18. 19. 22.
      23. 16. 21. 21. 31. 51. 144. 218. 220. 150. 49. 17. 18. 21. 21.
      17. 19. 20. 30. 52. 132. 206. 223. 159. 55. 17. 18. 20. 20. 20.
      18. 21. 28. 52. 115. 190. 217. 161. 68. 20. 18. 21. 23. 23. 19.
      20. 26. 46. 102. 180. 215. 170. 82. 24. 18. 21. 26. 23. 20. 21.
      28. 40. 96. 176. 218. 179. 86. 26. 18. 21. 28. 21. 20. 20. 27. 35.
      91. 171. 219. 180. 80. 25. 18. 20. 23. 17. 20. 19. 23. 30. 79.
      162. 220. 187. 87. 27. 17. 18. 19. 16. 18. 19. 21. 27. 69. 151.
      214. 199. 117. 38. 16. 18. 18. 19. 18. 18. 17. 26. 69. 145. 202.
      194. 121. 42. 15. 17. 18. 23. 20. 21. 19. 24. 52. 96. 124. 111.
      68. 30. 19. 21. 23.</_></uncompressed_support_vectors>
  <decision_functions>
    <_>
      <sv_count>1</sv_count>
      <rho>6.6139552741801055e-002</rho>
      <alpha>
        1.</alpha></_></decision_functions></opencv_ml_svm>
</opencv_storage>
