<?xml version="1.0"?>
<opencv_storage>
<opencv_ml_ann_mlp>
  <format>3</format>
  <layer_sizes>
    322 6 1</layer_sizes>
  <activation_function>SIGMOID_SYM</activation_function>
  <f_param1>6.6666666666666663e-001</f_param1>
  <f_param2>1.7159000000000000e+000</f_param2>
  <min_val>-9.4999999999999996e-001</min_val>
  <max_val>9.4999999999999996e-001</max_val>
  <min_val1>-9.7999999999999998e-001</min_val1>
  <max_val1>9.7999999999999998e-001</max_val1>
  <training_params>
    <train_method>BACKPROP</train_method>
    <dw_scale>1.0000000000000001e-001</dw_scale>
    <moment_scale>1.0000000000000001e-001</moment_scale>
    <term_criteria>
      <iterations>10000</iterations></term_criteria></training_params>
  <input_scale>
    7.6249285166302333e-002 -2.9737221214857912e+000
    5.9366852291953071e-002 -2.7679794881123119e+000
    3.8601425878566242e-002 -2.3595121568273614e+000
    2.6753010144245932e-002 -2.2806941147969657e+000
    2.1711652339175103e-002 -2.5809726718194401e+000
    2.3141886856941993e-002 -3.6101343496829510e+000
    2.5269934785963448e-002 -4.5359532940804392e+000
    2.3155939232993316e-002 -3.9741380708624781e+000
    2.0677495966508499e-002 -2.7526916505414438e+000
    1.9508713806073153e-002 -1.7850473132556934e+000
    2.9080528473977171e-002 -1.8211680956828205e+000
    7.2121844597461890e-002 -3.0651783953921301e+000
    7.7498425829212861e-002 -2.7124449040224503e+000
    6.4549722436790274e-002 -2.3883397301612401e+000
    6.5531956796703747e-002 -2.6786187340652656e+000
    4.0146804243978519e-002 -2.1980375323578238e+000
    2.1095039590235103e-002 -1.7139719667066022e+000
    1.5923023095370664e-002 -1.7495421626038516e+000
    1.7656989854583471e-002 -2.5249495492054366e+000
    2.6752561379925873e-002 -4.8789983816639815e+000
    3.1856838476460599e-002 -6.5346339924839807e+000
    2.8628633442494496e-002 -5.6147907339092331e+000
    1.8181113865119565e-002 -2.8657980729894716e+000
    1.3327725761753610e-002 -1.5909972628093372e+000
    1.6487347241591378e-002 -1.5436278854939929e+000
    3.1376650810698077e-002 -1.9924173264793279e+000
    7.0957797649602139e-002 -2.9003999789274872e+000
    6.8988592493625392e-002 -2.5439543482024365e+000
    5.3023171217831087e-002 -2.3462753263890255e+000
    2.4784079854830481e-002 -1.6977094700558879e+000
    1.4376797606953555e-002 -1.4682304556101318e+000
    1.2830335984589113e-002 -1.5685085741160192e+000
    1.6833639278739928e-002 -2.3440842695645348e+000
    2.3915251022238043e-002 -3.9639528569359554e+000
    1.7594872897255396e-002 -3.2594502042165621e+000
    1.8611497104423651e-002 -3.3268051074157277e+000
    1.7027752844242142e-002 -2.5158504827367763e+000
    1.2186417159167505e-002 -1.4852195912735398e+000
    1.2554446077557240e-002 -1.4076672664461056e+000
    1.7713383122924798e-002 -1.5432785045848230e+000
    3.5377456883861250e-002 -1.9103826717285075e+000
    7.0534561585859828e-002 -2.6450460594697436e+000
    4.4303145832329562e-002 -2.1874678254712721e+000
    1.8143808479613319e-002 -1.5376877686472288e+000
    1.2631942864537917e-002 -1.4526734294218604e+000
    1.3814329926753773e-002 -1.6041890627442819e+000
    2.3988787861899511e-002 -2.5518073088095603e+000
    1.6703281474493702e-002 -2.0983497352332714e+000
    1.1306847324393727e-002 -1.6324260824593444e+000
    1.2752052647927193e-002 -1.7661592917379161e+000
    2.1191105019794255e-002 -2.4396259654038137e+000
    1.4549808114587936e-002 -1.5331860300747038e+000
    1.1820514707297544e-002 -1.3741348347233395e+000
    1.4308202588886995e-002 -1.5041497971567455e+000
    2.3775851718273702e-002 -1.6524216944200223e+000
    5.1760694136267001e-002 -1.9927867242462796e+000
    3.8477550389338686e-002 -2.0681683334269545e+000
    1.4766381918707536e-002 -1.3917314958381852e+000
    1.2338173856576205e-002 -1.4512776998797761e+000
    1.5648417560434009e-002 -1.6743806789664391e+000
    2.5725733587791941e-002 -2.1095101541989392e+000
    1.3779347351845998e-002 -1.4537211456197527e+000
    9.9938260348871825e-003 -1.2879543302460856e+000
    1.0719517926247922e-002 -1.3198406446692754e+000
    1.8787005014071483e-002 -1.7753719738297551e+000
    1.9753688583742428e-002 -1.6914095849829454e+000
    1.2354052162695993e-002 -1.3604899944168962e+000
    1.3089258217670258e-002 -1.4578161339930249e+000
    1.9676104048814404e-002 -1.5273575767892180e+000
    4.2772187498887136e-002 -1.7162340233928464e+000
    4.0340806634721504e-002 -2.1229349491522194e+000
    1.4039863554424565e-002 -1.3741516453893043e+000
    1.2328324866446321e-002 -1.4716937809320296e+000
    1.5949171239047242e-002 -1.6866248585292458e+000
    2.6627788890111401e-002 -2.0536682181498418e+000
    1.3907366015088150e-002 -1.3855213392531569e+000
    9.9169218843458105e-003 -1.2693660011962637e+000
    1.0374128114724946e-002 -1.3006563123836401e+000
    1.6688701026681033e-002 -1.5353604944546551e+000
    2.6728659954491526e-002 -2.0213549090584215e+000
    1.2768820853689100e-002 -1.3423222922440667e+000
    1.2595879569815564e-002 -1.4327813010665205e+000
    1.8427897365337467e-002 -1.4926596865923349e+000
    3.9653066379435206e-002 -1.6406456214491316e+000
    4.7431200545124896e-002 -2.3715600272562449e+000
    1.4236971631314129e-002 -1.3827658696913847e+000
    1.2329305775793735e-002 -1.4702697137634029e+000
    1.5710362871560118e-002 -1.6672622597443174e+000
    2.8409728624132942e-002 -2.1768954558241869e+000
    1.4326545564018321e-002 -1.3592310103862382e+000
    9.8482220734166862e-003 -1.2322587869362629e+000
    1.0092293417395785e-002 -1.2691058972375200e+000
    1.5870798004988779e-002 -1.4740003647133328e+000
    3.0615856317199645e-002 -2.2387844931952241e+000
    1.3059645026409224e-002 -1.3500408046050536e+000
    1.2233860427077723e-002 -1.4114816467740923e+000
    1.7746125883828789e-002 -1.5106389658609256e+000
    4.1239852881726741e-002 -1.7475387658631707e+000
    5.5994736742107740e-002 -2.6737486794356444e+000
    1.4480996008920506e-002 -1.3956059903597138e+000
    1.1928452996661745e-002 -1.4254501331010785e+000
    1.4970567324187825e-002 -1.6055933455191442e+000
    2.8225060725842459e-002 -2.1309920848011057e+000
    1.4726298830834770e-002 -1.3437747683136727e+000
    9.9801918229080119e-003 -1.2338012141070029e+000
    1.0106691297882489e-002 -1.2797597855943701e+000
    1.5289130315600459e-002 -1.4410005322453432e+000
    3.1202662480769104e-002 -2.2192893689447026e+000
    1.3286836943758748e-002 -1.3585790774993320e+000
    1.2063099730394506e-002 -1.4068590060572592e+000
    1.6712573232240860e-002 -1.4456375845888343e+000
    4.3529720540635308e-002 -1.8717779832473183e+000
    6.4568641802866061e-002 -2.8490913195514649e+000
    1.4406021823223590e-002 -1.3757750841178529e+000
    1.1691758815165119e-002 -1.4000881181160230e+000
    1.4237693113943892e-002 -1.5679259541730710e+000
    2.6652455812118073e-002 -1.9722817300967375e+000
    1.5252101784647963e-002 -1.3364654188797778e+000
    1.0045820831691244e-002 -1.2193115034465247e+000
    1.0092012350603441e-002 -1.2779010638951607e+000
    1.4664711502135329e-002 -1.4004799484539239e+000
    3.4045327482409772e-002 -2.3831729237686838e+000
    1.3590062299037501e-002 -1.3810900811396860e+000
    1.2105562263919310e-002 -1.4057584178976299e+000
    1.6204029308772846e-002 -1.3935465205544648e+000
    4.6619698318061023e-002 -1.9172350933302595e+000
    8.9197761610258233e-002 -3.4118143815923774e+000
    1.4571997345800178e-002 -1.3570172528276416e+000
    1.1676667321866585e-002 -1.4114171625306235e+000
    1.3504903829835846e-002 -1.5176135678778033e+000
    2.5094774502369074e-002 -1.8381922322985347e+000
    1.5783913675897120e-002 -1.3140108135184352e+000
    1.0109983521759186e-002 -1.2144617705513221e+000
    9.9387010882298187e-003 -1.2659420511132731e+000
    1.3835613322812138e-002 -1.3351366856513713e+000
    3.9742998261420533e-002 -2.6578130087324983e+000
    1.3653865341984008e-002 -1.3653865341984008e+000
    1.1832921335030397e-002 -1.3814935658647989e+000
    1.5960848176422297e-002 -1.4324861238339011e+000
    5.0271730430030269e-002 -2.0485730150237336e+000
    1.0871532199880470e-001 -3.7099103632092101e+000
    1.4843169138404845e-002 -1.3525837877371414e+000
    1.1443153224557152e-002 -1.4132294232328082e+000
    1.2500869841763101e-002 -1.4391626405329772e+000
    2.3072870321391364e-002 -1.6554784455598304e+000
    1.6061925665060029e-002 -1.2648766461234773e+000
    1.0013535243412012e-002 -1.2078826887365739e+000
    9.7422055528176305e-003 -1.2506556378429634e+000
    1.3285609308209436e-002 -1.2970076087139462e+000
    4.4067939030484116e-002 -2.7211952351323943e+000
    1.3373383434895084e-002 -1.3222932871252515e+000
    1.1537886845253906e-002 -1.3715662987295580e+000
    1.5229615980222993e-002 -1.4430061141261286e+000
    4.6092861186344751e-002 -1.9935162463094105e+000
    8.5053457614599565e-002 -2.7536056902726611e+000
    1.5443929108730820e-002 -1.3918841109243651e+000
    1.1211389381421952e-002 -1.4182407567498769e+000
    1.1790858881210186e-002 -1.4104814936647685e+000
    2.1497377521888242e-002 -1.5290009762443013e+000
    1.6809245274108833e-002 -1.2564910842396353e+000
    1.0107272044862997e-002 -1.2217165084228148e+000
    9.4797443377051521e-003 -1.2264419236906041e+000
    1.2571051060737009e-002 -1.2555337246911087e+000
    4.7266170034764791e-002 -2.7355295907620123e+000
    1.3085598064755344e-002 -1.2562174142165130e+000
    1.1168229361065122e-002 -1.3276232652966165e+000
    1.4344013838078458e-002 -1.4128853630507281e+000
    3.9047625965070401e-002 -1.7913098411476047e+000
    6.7806350362081047e-002 -2.1359000364055531e+000
    1.6601798507993717e-002 -1.4734096175844424e+000
    1.1164748474223229e-002 -1.4053627141928489e+000
    1.1684174604007329e-002 -1.4050219961318813e+000
    2.1649868694367400e-002 -1.5073721078453302e+000
    1.8547212647790783e-002 -1.3423545153838579e+000
    1.0251230346611418e-002 -1.2186150074534323e+000
    9.4565026060440330e-003 -1.2340735900887463e+000
    1.2424037925576665e-002 -1.2486158115204549e+000
    5.3849166018551116e-002 -3.1838319408468347e+000
    1.3464445921241264e-002 -1.2606087493762133e+000
    1.1023687190668352e-002 -1.3159526583860346e+000
    1.3970991410265145e-002 -1.3831281496162493e+000
    3.4214287961780471e-002 -1.6251786781845723e+000
    7.0581214155767708e-002 -2.1439043799814441e+000
    1.7337637454485941e-002 -1.4997056398130340e+000
    1.1214748794002215e-002 -1.3864233196585238e+000
    1.1701622879885487e-002 -1.4144336656061582e+000
    2.2758980022553228e-002 -1.6187324541040984e+000
    2.0705664550556484e-002 -1.4908078476400668e+000
    1.0548922670670089e-002 -1.2249936451315642e+000
    9.4984348351283970e-003 -1.2407330503386469e+000
    1.1970254962562371e-002 -1.2568767710690489e+000
    5.3597204710680565e-002 -3.3297263426510302e+000
    1.3768914490738804e-002 -1.2856723905727359e+000
    1.0963554680021815e-002 -1.3211083389426288e+000
    1.3903395923806126e-002 -1.4007671393234673e+000
    3.1440799224270129e-002 -1.5759700611165401e+000
    7.3683445120542729e-002 -2.3026076600169603e+000
    1.9086611143795607e-002 -1.5937320305069331e+000
    1.1488183300665509e-002 -1.3958142710308594e+000
    1.1629332034603200e-002 -1.3926125111437331e+000
    2.3334129381013261e-002 -1.7296423403676080e+000
    2.2481934987633217e-002 -1.6046481097423209e+000
    1.0946227465170226e-002 -1.2465016525962596e+000
    9.5874547779479912e-003 -1.2547581440639433e+000
    1.1765634650984987e-002 -1.2839248812887367e+000
    4.5344159284154237e-002 -2.9983825326646989e+000
    1.4625668455814653e-002 -1.3473897064919249e+000
    1.1146613623031074e-002 -1.3306270012493344e+000
    1.3944140108300213e-002 -1.4223022910466216e+000
    3.2425357181367714e-002 -1.7144907609648179e+000
    6.2532450181616753e-002 -2.0870205248114591e+000
    2.1496679019617389e-002 -1.7197343215693910e+000
    1.1987497566034859e-002 -1.4295090847496570e+000
    1.1527616867022833e-002 -1.3717864071757171e+000
    2.3712683045136126e-002 -1.7962357406690614e+000
    2.5472153113776329e-002 -1.7671306222682328e+000
    1.1405516018462758e-002 -1.2702893465562897e+000
    9.7649385130325166e-003 -1.2657801547518399e+000
    1.1516908797423375e-002 -1.2898937853114181e+000
    3.7307086667445526e-002 -2.5881791375540333e+000
    1.5805462363360657e-002 -1.4303943438841396e+000
    1.1418985834158880e-002 -1.3374487158258588e+000
    1.3848874720779208e-002 -1.4264340962402584e+000
    3.3920541973181180e-002 -1.8698698762716126e+000
    5.7604663862387093e-002 -2.0233638181663465e+000
    2.2506387973290330e-002 -1.7723780528966135e+000
    1.2391816930950175e-002 -1.4451956495720641e+000
    1.1640307771478179e-002 -1.3793764709201641e+000
    2.3019319157594961e-002 -1.7667327453454134e+000
    2.9733613991066304e-002 -2.0181690496436255e+000
    1.1913206796158564e-002 -1.2925829373832041e+000
    9.8884267111155541e-003 -1.2780791524116855e+000
    1.1456204857470988e-002 -1.3303517890738183e+000
    3.3419604604240004e-002 -2.4688732901382302e+000
    1.7629700741069385e-002 -1.5381913896583037e+000
    1.1449913863203447e-002 -1.3238962904328986e+000
    1.3575946269008970e-002 -1.4322623313804463e+000
    3.3886443011997919e-002 -1.9357630570603812e+000
    6.2019230881223478e-002 -2.1474158692623631e+000
    2.4961514830500173e-002 -1.8658732335798880e+000
    1.2818817478611981e-002 -1.4597428403769395e+000
    1.1700759246679409e-002 -1.4128666790365387e+000
    2.1045636961695022e-002 -1.7467878678206867e+000
    3.5874800166708763e-002 -2.5471108118363222e+000
    1.2588142848921876e-002 -1.3689605348202540e+000
    1.0107618927617145e-002 -1.3417864126411760e+000
    1.1578321261969072e-002 -1.4053187431714962e+000
    3.4742241827751992e-002 -2.7924076869055665e+000
    1.8353307007884827e-002 -1.6265618335737928e+000
    1.1713156293278799e-002 -1.3426205401170823e+000
    1.3711843544616775e-002 -1.4208897873109132e+000
    3.3485116099959314e-002 -1.9128372572101757e+000
    7.4204606788178223e-002 -2.3652718413731808e+000
    3.6002812829632767e-002 -2.2546761534557520e+000
    1.4101673396141360e-002 -1.5035909258635725e+000
    1.1561659439202626e-002 -1.4220841110219229e+000
    1.5731246328664166e-002 -1.5554269807466694e+000
    4.4601653246670050e-002 -4.0252992055119723e+000
    1.4817254069760926e-002 -1.7632532343015503e+000
    1.0690182425276942e-002 -1.4992980851450910e+000
    1.2538260890797305e-002 -1.6801269593668389e+000
    4.6306253419735599e-002 -4.5322245534566221e+000
    1.6197684225713691e-002 -1.5934471857045844e+000
    1.1884777045493761e-002 -1.3786341372772761e+000
    1.4540000064384937e-002 -1.4121975062533871e+000
    3.3170472224863974e-002 -1.7870591911145466e+000
    8.0386787105814081e-002 -2.4517970067273294e+000
    6.2561124708985449e-002 -2.9716534236768091e+000
    1.9071202348538235e-002 -1.6830336072584993e+000
    1.2434373609884504e-002 -1.4501588222527804e+000
    1.2099233477343796e-002 -1.3974614666332084e+000
    2.0754661566481331e-002 -2.5009367187610003e+000
    2.9968642981735318e-002 -4.5627258939692021e+000
    1.5889068428100925e-002 -2.7706563071500989e+000
    1.9643986657582890e-002 -3.3738547084398611e+000
    2.9304422501564512e-002 -3.8864990342699937e+000
    1.3022478291679041e-002 -1.5106074818347688e+000
    1.1639371407696259e-002 -1.3588966118485384e+000
    1.5810431057627122e-002 -1.3695785903669495e+000
    3.5640489924669928e-002 -1.7285637613464915e+000
    7.9340251939667455e-002 -2.4496302786372328e+000
    7.6032025731674890e-002 -2.7086409166909178e+000
    3.4125767655113701e-002 -2.1584548041859417e+000
    1.6099871367572845e-002 -1.6059621689153913e+000
    1.1721904265641609e-002 -1.3729280371132735e+000
    1.3759298899027496e-002 -1.8833040368043885e+000
    3.7993712560813735e-002 -6.9718462549093205e+000
    3.8823974412291615e-002 -8.2598005562150405e+000
    4.7262045695076936e-002 -9.8423210159997723e+000
    2.3394713282479419e-002 -3.7460784643570171e+000
    1.1850148413854546e-002 -1.4249803467660092e+000
    1.3709105210895784e-002 -1.3280695673055292e+000
    2.2179223204123050e-002 -1.4222426879643906e+000
    4.8853196874603148e-002 -1.9785544734214275e+000
    7.8420067125890752e-002 -2.5780597067636584e+000
    7.1821851374153492e-002 -2.2354551240205276e+000
    7.0446995367634685e-002 -2.8178798147053872e+000
    3.0254667393602712e-002 -2.0081535482503798e+000
    1.6317426383497778e-002 -1.5175206536652934e+000
    1.5457155267429667e-002 -1.9282801196118511e+000
    2.8613064596241727e-002 -5.1145852965782090e+000
    3.8642383265196936e-002 -8.3177729978336412e+000
    3.6739404236929160e-002 -7.7198673152847395e+000
    2.0220855145155446e-002 -3.1190669061402274e+000
    1.4353453446210659e-002 -1.3940791659632104e+000
    1.9580162250768918e-002 -1.2751580665813258e+000
    3.8577631506916947e-002 -1.7263490099345333e+000
    6.0971076084969232e-002 -2.1644732010164076e+000
    6.2838422360669485e-002 -2.3250216273447708e+000
    5.9590419896853611e-002 -2.1378063137996235e+000
    5.4763699590853303e-002 -2.0125659599638590e+000
    5.9896953573350675e-002 -2.4183395005240333e+000
    4.8572348604857263e-002 -2.4711182352721131e+000
    2.7515138834566466e-002 -2.2046504991196381e+000
    2.3264072340582920e-002 -2.8672969159768447e+000
    1.9047673037698505e-002 -2.8309604052279402e+000
    1.7454771646770895e-002 -2.4349406447245396e+000
    1.7542214637449413e-002 -1.7695709015527095e+000
    2.1572277697341703e-002 -1.3347846825230179e+000
    4.1885964928017952e-002 -1.7749177638247606e+000
    5.8863323980856308e-002 -2.1705850717940764e+000
    5.3047645334628385e-002 -1.9693938330480787e+000</input_scale>
  <output_scale>
    5.2631578947368418e-001 4.9999999999999994e-001</output_scale>
  <inv_output_scale>
    1.8999999999999999e+000 -9.4999999999999996e-001</inv_output_scale>
  <weights>
    <_>
      -5.1052823915707285e-002 2.8974306603586446e-002
      4.5717910842392878e-002 5.3333396244020686e-003
      -7.9727416309411509e-004 3.0740250355233836e-002
      -4.4624762754798597e-002 2.3557859921038860e-002
      3.5554880576418320e-002 -5.1362301751631969e-005
      -6.6398252882351391e-003 3.1103699400768934e-002
      -2.9857184995035143e-002 1.2985353654017045e-002
      2.9286254461169798e-002 -4.3231397034858565e-003
      -1.2369019208390097e-002 2.3195556986944886e-002
      -1.3958355632833187e-002 7.7781963661525269e-003
      9.3766689205278028e-003 -4.7533450086190672e-003
      -1.6216839571342852e-002 3.6805316693686837e-003
      -1.6497411284601256e-002 9.7147674999736346e-003
      1.4908986468317472e-002 -1.1326953421994336e-002
      -1.1035435494166785e-002 1.1542004265517953e-002
      -3.5848919584371176e-002 1.7574638887763453e-002
      3.1528037102413108e-002 -1.5644312421673337e-003
      -2.9695911729464412e-003 2.5636173855137289e-002
      -4.2646835756664080e-002 3.0848048242042746e-002
      4.0025949142459834e-002 -4.1353924776724518e-004
      -7.3862522251338502e-004 2.2470074643441782e-002
      -3.1044314127709298e-002 1.5666613451103251e-002
      1.9857172902689929e-002 -3.7998253996084524e-003
      9.7994709346003865e-004 2.2945082715895987e-002
      1.5953173469989968e-002 -1.3650400860830681e-002
      -1.2236459026993747e-002 -1.1821519942921790e-003
      -8.3696343638029972e-003 -1.0797822723507183e-002
      5.6516764796637947e-002 -2.8587622604548859e-002
      -4.2167491137507548e-002 -6.1110976625282937e-003
      -1.5761039787115814e-002 -2.5346825809230270e-002
      6.6638717461831476e-002 -3.0359730342936108e-002
      -5.9631633070376631e-002 -9.0214713345163292e-003
      -1.4169110640528339e-002 -2.7730981515236845e-002
      4.5604170122235242e-002 -2.0196827271770655e-002
      -3.9250041350973514e-002 -4.1526145415133964e-003
      5.3252898022923491e-004 -1.7637851259161952e-002
      -2.8188521342433145e-002 1.4089376840056476e-002
      2.3093967118954502e-002 8.2923129230404440e-003
      1.2203631447898057e-003 1.5909333575116934e-002
      -5.4085142568184995e-002 3.5105755001097909e-002
      4.0899319984913689e-002 3.9453491456535716e-003
      4.4064395956939532e-003 2.5593928224357361e-002
      -5.8477149683859968e-002 3.7459986450725180e-002
      5.1813716240669078e-002 -3.7660107688191550e-004
      -1.2945023817957574e-003 2.6264020885007316e-002
      -4.1428386515596174e-002 2.7415347324393775e-002
      3.5833995016726634e-002 -1.4830400373555173e-003
      -1.2333527060672891e-002 1.9774049630125492e-002
      -9.9626936542387464e-003 -2.0976702818790768e-004
      9.2434832503372737e-003 -1.0575644860205517e-002
      -1.1543855964903834e-002 7.7606158377798405e-003
      1.4037256274454960e-002 -7.0888522544135324e-003
      -7.4401380962707342e-003 -5.6281004927963632e-003
      -1.3001918416423907e-002 -7.5258608560909079e-003
      1.7600598614036771e-002 -7.7810370403909590e-003
      -2.2780695656564064e-002 -4.4672185551662639e-003
      -6.7095779007487304e-003 -9.6047483251514194e-003
      -1.2471966301607653e-002 1.1574755624316214e-002
      6.2837380881153680e-003 -2.1022308409113224e-003
      -6.7631137555546816e-003 8.6680803836850142e-003
      -5.9710833273206976e-002 3.9025414738340071e-002
      5.4837192546382849e-002 -3.4724164074010715e-003
      4.0138571814634641e-003 3.4635761809705755e-002
      -4.7211581162454573e-002 2.4908960669808397e-002
      4.2922229214958377e-002 -1.6021930473921102e-003
      -5.2075932461779035e-003 2.7777299837302864e-002
      1.7792348608842115e-002 -1.0994211964127131e-002
      -1.9787547497411684e-002 -9.9174271904709961e-003
      -1.2253917060159691e-002 -1.4776604759670266e-002
      4.2306173978956051e-002 -2.1415747559130584e-002
      -4.7772582892257477e-002 -1.0155418071314433e-002
      -1.4448889339272563e-002 -2.7290793988464127e-002
      6.1975652122243485e-002 -3.7090494693933732e-002
      -5.3439354208579246e-002 -1.0386690995029018e-002
      -7.6908775965409265e-003 -2.2198064344559301e-002
      6.1867611426788441e-002 -3.4774012165260756e-002
      -6.2802753458556251e-002 -6.0731762625364774e-003
      -4.1325463268690838e-003 -3.2227356078228603e-002
      2.7215134700194096e-002 -2.4080429314353859e-002
      -2.9279693071539298e-002 -6.7903701201043384e-003
      4.9640561294426845e-003 -1.5203172733463633e-002
      -4.7408805248745793e-002 1.9398613604152352e-002
      3.9311957545573158e-002 8.1029691607701487e-004
      3.4001008017760350e-003 2.5987875777342014e-002
      -4.9125536697252170e-002 3.1518555046216645e-002
      4.3378760767621843e-002 -5.3359049600190285e-003
      -6.8737212961676904e-004 2.6447821977923759e-002
      -2.6687151475840037e-002 1.8333776234864940e-002
      2.2713720907604609e-002 -9.8424010295808367e-003
      -3.1525440090588294e-003 1.3787372344209549e-002
      2.3238817233244297e-003 4.1267698991249470e-004
      -3.3178129273715713e-003 -2.2959167148832809e-003
      -1.2502107789728526e-002 -3.9090808165884190e-003
      2.9424582117772630e-002 -9.8099213776197004e-003
      -2.0137303565878641e-002 -2.2750122984705337e-003
      -1.2429313272628632e-002 -8.9983355913628039e-003
      2.5093892468787696e-002 -1.0550984790778374e-002
      -1.9233741634387166e-002 -7.6537255966202386e-003
      -1.5651195424412893e-002 -6.8527037720336487e-003
      -2.9435169121551141e-002 1.4480496312140602e-002
      2.8641858591111399e-002 -3.8542965893354573e-003
      -3.5236480356864073e-003 9.3329775105156897e-003
      -6.1906927634992732e-002 3.2441345606212334e-002
      5.4936237810453301e-002 8.2146131541634276e-003
      8.6295601244814769e-003 2.5998688512052559e-002
      -6.6547816599111270e-002 3.4132022487136988e-002
      6.1825606129182843e-002 -1.4362175773823952e-003
      -1.7676990687010554e-003 3.5063247427401599e-002
      -1.2833992094615646e-002 3.5227282909541450e-003
      1.2966147544277266e-002 2.8011240035271173e-003
      -4.6547030347949860e-003 7.0684339256272708e-003
      3.7884040681548117e-002 -1.6795593120828699e-002
      -2.7142304529410424e-002 -5.4514487065918981e-003
      -1.2201574542646176e-002 -1.7281088515397433e-002
      5.2303787215669070e-002 -2.8060210841809683e-002
      -4.3582298569403627e-002 -1.0407348193515093e-002
      -1.1788020836851766e-002 -2.4788397382991476e-002
      6.7113895688692263e-002 -3.8175888923855386e-002
      -5.0562589240742771e-002 -2.1902169375361919e-003
      -1.4849928161349292e-002 -2.8156859034513336e-002
      5.9899246882582545e-002 -4.0414880781519315e-002
      -5.3857454393378482e-002 -8.3684498620242680e-003
      1.0100843365694403e-004 -3.7393989230541311e-002
      9.2337346659005187e-004 -1.6320282161361058e-003
      -9.8684375166645400e-003 7.1468452172265733e-003
      1.0786948915607787e-002 -4.2579864198512033e-003
      -3.5459080927190349e-002 1.6176414936386052e-002
      3.0400300308014001e-002 1.4956294478906992e-003
      -1.0111957882484597e-002 1.8328230538153484e-002
      1.5193504667881050e-003 1.2567559768328124e-005
      8.8920871322480739e-004 -7.8316745533831868e-003
      -9.9161050860643758e-003 1.2057568386139869e-003
      2.1158962689477250e-002 -1.4816151365966222e-002
      -2.1240449769806016e-002 -6.8359665257207800e-003
      -1.2079583638733439e-002 -1.0675952218596404e-002
      5.3418677403448460e-002 -2.6124263643698634e-002
      -4.5172300751228689e-002 -1.1377928778564055e-003
      -1.0435182877483358e-002 -2.7298542497832465e-002
      5.4212679565754006e-002 -3.7670675619990705e-002
      -5.2461451237470834e-002 -7.9963976959404326e-003
      -2.2597451028996086e-003 -2.7002731502945528e-002
      -2.6899582185908429e-002 1.1855686226011925e-002
      2.2683590893485154e-002 8.7160320040048037e-003
      1.1031129354954211e-002 9.5887334252551266e-003
      -4.3047867953887271e-002 3.0238956417446269e-002
      3.7176235887091610e-002 7.2032027975054381e-003
      9.5349268900326092e-003 2.5203515867411545e-002
      -4.9012213419351101e-002 2.9005905967871011e-002
      4.8950475172532842e-002 7.1899133636795015e-003
      7.1796825493864206e-003 2.3311733662464498e-002
      -3.8484007184986346e-002 2.2696950114374718e-002
      3.4071181804504559e-002 2.1777889641234520e-003
      2.1848126108108411e-003 1.6704779426438554e-002
      2.7252135171160978e-002 -1.4685620845722813e-002
      -1.9635812697926431e-002 -6.7087366822325785e-003
      -3.3245099544366250e-003 -1.7037967186984873e-002
      4.2144893125007167e-002 -2.7561292330378896e-002
      -3.5279942709682807e-002 -1.0840119279482408e-002
      -8.1173498311729441e-003 -2.4210516046056622e-002
      6.1863055188564053e-002 -3.4620825488414178e-002
      -5.8726517758687619e-002 -9.9812199111440937e-003
      -1.2376056907532481e-002 -2.3650390952133019e-002
      6.6903768120834914e-002 -4.1775147501221105e-002
      -6.7632100630757877e-002 -8.6058856839834538e-003
      -1.0644404232890087e-002 -3.8305167862011033e-002
      4.6068883263576915e-002 -3.4723283941839371e-002
      -4.0623930992078235e-002 6.8038187625279103e-003
      8.4927069843791989e-003 -3.0476841966891023e-002
      -1.5808584802780079e-002 3.9243733476710639e-003
      1.1580013606666106e-002 -6.2393775357467750e-003
      -1.2531781889616825e-002 9.8846130489199206e-003
      1.0233731362815314e-003 -3.6475796470224214e-004
      -4.6345140899077342e-003 -2.7842028193531560e-003
      -7.0560880765452262e-003 -2.9207619056470188e-003
      3.7036166140651312e-002 -1.8465005104513554e-002
      -2.4705063116986010e-002 -4.4472947433847143e-004
      -5.0728101116259434e-003 -1.6355966300587891e-002
      6.3301901873147923e-002 -3.1698265461491369e-002
      -5.6498075737002378e-002 -2.6928448521084743e-003
      -8.9531527537077861e-003 -3.6238219954776621e-002
      6.8439692107665970e-002 -4.4067250142492596e-002
      -5.6950883288805196e-002 -7.1864357387126368e-003
      -7.2260556751537353e-003 -3.7752803947833743e-002
      -3.4395663501235428e-002 1.2919907904021092e-002
      3.0638627682329896e-002 -1.6815294009712773e-005
      5.0747673395432104e-003 1.8217838190187255e-002
      -5.6216610419427986e-002 3.1329307772684847e-002
      4.9378524365906909e-002 1.1093310756863680e-002
      4.6454176415071267e-003 2.2403481975930308e-002
      -5.6385649666693488e-002 3.8041437782846563e-002
      4.9088401490157280e-002 7.3977118618308354e-003
      6.3897214699670680e-003 2.7076061382724406e-002
      -6.0376783420615636e-002 3.2283719878295446e-002
      5.6021325704645561e-002 3.2520738748102870e-003
      5.9975339534414666e-003 2.9130364337450289e-002
      2.5248002911810105e-003 -8.1807609513881163e-003
      -3.2616065856983260e-003 2.9521189463557525e-003
      -1.0780660786149129e-003 -5.0599969889417746e-003
      4.0997854098540003e-002 -1.9840549065182886e-002
      -3.5142089874628704e-002 -6.8293711392132328e-003
      -5.5575502444152290e-003 -1.5232673125753026e-002
      4.9736506028070192e-002 -2.6852904295331489e-002
      -5.4411714102109300e-002 -1.0898290268689196e-002
      -1.2527375825346411e-002 -3.0394089421791826e-002
      7.2192332579880530e-002 -4.1477926302132012e-002
      -6.5372549945026059e-002 -5.5455168855914122e-003
      -4.2833987597446473e-003 -3.5725748726465417e-002
      5.9239181096733456e-002 -4.6349989195055098e-002
      -6.2828406521752020e-002 4.5524206940728198e-003
      -3.5356383729501302e-003 -3.7420935671472692e-002
      -1.0789257781596291e-002 5.2356770710666658e-003
      7.9192982704391589e-003 -9.2248528830750735e-003
      -6.0559410255859262e-003 4.2697455275467226e-003
      1.9170528609062671e-003 -8.8135221024940678e-003
      -6.6686047363957177e-003 -5.1717012075196004e-003
      -5.1003648986444805e-003 -6.0686010295219689e-003
      4.0886472657481840e-002 -1.9552557651944778e-002
      -3.5087918033380690e-002 -4.7156960482083564e-004
      -8.7553829654904557e-003 -1.6221029048770336e-002
      6.2179264698551458e-002 -4.2236461794281061e-002
      -5.9150767096927209e-002 -5.3537177766983489e-003
      -1.4039452456720879e-002 -3.5958632120807049e-002
      6.6328571900236971e-002 -3.6302764880874638e-002
      -6.0609808078141231e-002 -3.9709454602715200e-004
      -3.4427204270359594e-003 -3.1401206503529712e-002
      -3.4923607785581193e-002 2.0277780815639610e-002
      3.3542802239003508e-002 4.8248967032673689e-004
      8.9847135881841681e-003 1.1813521373393089e-002
      -5.4124001314566406e-002 3.7856876693000349e-002
      5.1693738093888886e-002 8.7279608611265276e-003
      7.9363790522631646e-003 2.7794622705657919e-002
      -6.0569256915277599e-002 3.8016243560531460e-002
      5.0757802600269852e-002 1.0946887223779773e-002
      9.8378274288707431e-003 2.4915902243197809e-002
      -5.4094052482648224e-002 3.9594614784823498e-002
      5.2556214453571226e-002 9.1216248918209349e-003
      9.9796526916887084e-003 2.4242979583564462e-002
      -8.8493415960058024e-004 2.4326857176988621e-003
      3.0223913038172961e-003 3.4283781373217158e-003
      -9.1620022809208220e-003 -1.2980155005992012e-003
      2.6930302492536428e-002 -2.5741078121708887e-002
      -3.2609016297807825e-002 -6.6333526503576179e-003
      -1.5174380967599335e-003 -1.2373064648282608e-002
      4.5397444122783001e-002 -3.1798734341208494e-002
      -4.8313526614939685e-002 -1.0079412380640739e-002
      -1.2278653168653102e-002 -1.9504294494941666e-002
      6.7801406903959027e-002 -3.8210148315286747e-002
      -6.1662241932590678e-002 -5.7290962857204312e-003
      -1.0555578655656747e-002 -2.8072386899319911e-002
      6.9826261765595810e-002 -4.8800144720734774e-002
      -6.8101845742151598e-002 5.1350747157102332e-003
      -4.1866211251349178e-003 -3.8262909852127776e-002
      -6.1075582066403419e-003 1.0058327479176184e-003
      7.8469953128674722e-003 -8.3004202559523871e-003
      -3.1759055476066251e-003 6.4097671008860541e-003
      -1.7825252040808034e-004 -4.5330964416033705e-003
      -5.7051610284783892e-003 -2.1995589848611708e-004
      -8.2551226984550301e-003 2.7681390395022415e-003
      3.9595473966258003e-002 -2.2151022653685560e-002
      -3.3256738886433809e-002 -3.6523983054695453e-003
      -1.1121142713646535e-002 -1.5071799816828437e-002
      6.1388412992287957e-002 -3.3563678414780147e-002
      -5.3979352208725427e-002 -3.3640136714513601e-003
      -1.0121205540060638e-002 -2.8250524997782418e-002
      7.1840880505622012e-002 -4.2417869106149420e-002
      -6.3736987119469707e-002 -6.6404929144219167e-004
      -1.3524660381811315e-003 -3.7009503429838581e-002
      -4.2031431292564043e-002 2.9344548340065529e-002
      3.6370694904481839e-002 9.1540954876435255e-003
      5.1638962875180626e-003 2.5336914104176027e-002
      -6.3485168795999872e-002 3.6491065708849524e-002
      5.5042149247099256e-002 6.7218750716994402e-003
      5.9920376031786559e-003 3.6412751451994296e-002
      -5.7980622765055417e-002 3.2267973429920854e-002
      6.0397376679396493e-002 7.2201650033097897e-003
      9.2136956206363106e-003 2.9741121498976245e-002
      -5.9957863643639205e-002 3.0454900452678985e-002
      4.7199542812297657e-002 6.3963370506092288e-003
      1.0557882587795636e-002 2.5631047577870492e-002
      -5.7769611734194391e-003 2.8076998239623635e-003
      8.8739090455131307e-003 -1.0919482853864973e-003
      2.6672140625830761e-003 -3.5417611805992236e-003
      3.0711470464329520e-002 -2.7848125929772274e-002
      -2.9237642125222289e-002 -5.5619227298913353e-003
      -5.7452681356202151e-003 -2.0320192018582612e-002
      4.4766848817855961e-002 -2.7701369095987326e-002
      -4.1269710456670591e-002 -7.7819502813830819e-003
      -9.5527547446277554e-003 -2.3908506535205230e-002
      6.3689977089902997e-002 -4.1040378414180199e-002
      -6.0524231423338196e-002 -1.2691289059588442e-002
      -1.4263096523213994e-002 -3.6994798014905170e-002
      7.8926553489664389e-002 -5.0524167609892902e-002
      -6.9650535041582404e-002 3.2647876490385689e-003
      -2.1282390502545167e-004 -3.4648266269676077e-002
      1.5260217413012145e-002 -1.3665519583857482e-002
      -9.6538283878170924e-003 -8.7695514684022428e-003
      -1.0462856962284793e-002 -7.3220880783867901e-003
      6.6429282400188002e-003 1.8731307053241398e-003
      5.4319909357795567e-004 -9.1310341587595590e-003
      -1.3282827873781272e-002 1.8729726788218059e-003
      3.8785819872966844e-002 -1.9752185062265167e-002
      -3.3156080180184136e-002 -5.8936218023966699e-003
      -3.6351366009707412e-003 -2.1367227573879450e-002
      6.4134561692342107e-002 -3.5323270693254916e-002
      -4.7653156185063314e-002 -8.6300493945391608e-003
      -8.7892949231291855e-003 -2.8593245795752540e-002
      7.7461513904723181e-002 -4.5798201368518601e-002
      -6.2205936020620273e-002 -7.8415314540658063e-003
      -1.2281528843388605e-003 -3.1975834317230001e-002
      -4.0205020751083613e-002 2.8180921359709274e-002
      3.2818601965699586e-002 9.9426141866159751e-003
      1.2444675895104510e-002 2.1605479110666924e-002
      -6.4142439962543041e-002 3.3457438129639687e-002
      5.3432160891209834e-002 4.9850342191932809e-003
      2.1555452460821699e-003 2.9469604285483026e-002
      -6.5147422979764211e-002 3.1343308525659315e-002
      5.5937259593883466e-002 1.1999147410311313e-002
      1.3223996244429978e-002 3.0475230248558725e-002
      -5.1844652527083319e-002 3.2136083034189147e-002
      5.1102544621764175e-002 3.2969342634664802e-004
      1.8172363310580064e-003 2.9977195217229181e-002
      -6.9799267547053078e-003 6.1931985896682671e-004
      5.6174166009931286e-003 2.5309832692346585e-003
      -5.1108038965592701e-003 -3.0900973985563758e-003
      3.2227679077212912e-002 -1.8331853146827073e-002
      -2.4021466543082248e-002 -4.5447870324991117e-003
      -1.2295693911351362e-002 -1.1930736143838008e-002
      5.0636446129652998e-002 -2.9829238007441344e-002
      -4.3724171619454022e-002 -9.6167988158928387e-003
      -7.6290976378344958e-003 -2.5687885249358392e-002
      6.9371761391047629e-002 -4.0330405161391365e-002
      -6.0796119956772705e-002 -8.3114910971088408e-003
      -1.2139850632605928e-002 -2.3653645547937929e-002
      7.3647225827344800e-002 -3.6463062164142940e-002
      -6.2504512384613214e-002 -8.6352863085293781e-003
      -7.3477178839812148e-004 -3.7821636583976664e-002
      2.5229531175062023e-002 -1.5683858822405257e-002
      -2.7692779549157946e-002 -1.7848918147071922e-003
      -5.1969640801432567e-003 -1.4434807049372445e-002
      9.3536198926251046e-003 1.2926252548233241e-003
      -1.0306156999930392e-002 -2.0486125890253051e-003
      -2.8626545217360928e-003 -5.7183332125907271e-003
      3.6579328957119739e-002 -2.4711799306212180e-002
      -3.3239141979355576e-002 -1.9955370063117471e-003
      -1.1684209010338339e-002 -1.5727458853793910e-002
      5.1705297402891426e-002 -2.9805204578738528e-002
      -5.0969130688848861e-002 -5.3927342241031177e-003
      -4.9532320526688598e-003 -2.4401736978614731e-002
      7.8594873593551315e-002 -4.5647154051518389e-002
      -6.8749789101175740e-002 -4.0480809611196100e-003
      1.7494830574493545e-003 -4.1273581797578743e-002
      -4.1224695424037831e-002 2.1993748441610818e-002
      4.0280318661165264e-002 1.6273406233897386e-003
      5.6044065351025830e-003 1.9596074110234684e-002
      -6.6131800475978900e-002 3.0615077374496234e-002
      5.0680698223960034e-002 7.8355470855645763e-003
      1.2326231888413457e-002 3.6795924521021858e-002
      -5.5984765817013053e-002 3.8169772856849637e-002
      5.8348406537770590e-002 7.5075183709293961e-003
      1.0789953924253059e-002 2.4375896260949759e-002
      -5.0538518190072317e-002 2.9655038235399729e-002
      4.6504164482650601e-002 6.6152539921268084e-003
      7.1642822994610750e-003 2.5511443820019221e-002
      -1.4572662784349630e-002 4.8690943762110103e-003
      5.7961232994503719e-003 7.5325520384701876e-003
      4.3336205526573147e-003 4.5164968272458110e-003
      3.6482291815808865e-002 -1.7165123961041671e-002
      -2.5367562010829018e-002 -1.4193324838422841e-003
      -2.0418259412058408e-003 -2.3216049081717201e-002
      5.0277173794880732e-002 -2.0889717624727546e-002
      -3.6122395038000715e-002 -2.0209252357155146e-003
      -1.0224756473522747e-002 -1.6375564971428006e-002
      5.4610939282396652e-002 -3.3253906701497436e-002
      -5.4559863282312444e-002 -5.4614097212056234e-003
      -5.5613940761225578e-003 -2.9195909154492803e-002
      5.4319182203539963e-002 -2.8424310983367382e-002
      -4.4348325932515711e-002 3.3194597271414168e-003
      -7.0042003636949313e-003 -3.1920483859743894e-002
      1.7299015409789748e-002 -8.4622457426165084e-003
      -1.7715221945871006e-002 2.2888887592812440e-003
      -4.1907981029206329e-003 -4.6124649221937503e-003
      3.1472576850349074e-003 1.1925577197508994e-003
      -1.1009590627522176e-003 -7.1051847923778487e-003
      -4.2430511546732615e-003 3.3292418476969237e-003
      3.8785973158947960e-002 -2.7408414895494469e-002
      -3.7735642952471553e-002 -7.7960419767425290e-003
      -4.5253518183313033e-003 -1.3964904020376709e-002
      5.3449262386734399e-002 -2.5466471553705149e-002
      -4.7154663100235937e-002 -1.2999820172301387e-002
      -5.5024421850075307e-003 -2.3340707273153301e-002
      7.4604022565247910e-002 -4.3463258728153278e-002
      -6.0630789271556955e-002 -2.5208582708530687e-003
      -8.4991126382892475e-003 -3.7556304770828310e-002
      -4.2391963736682248e-002 2.4195993421775235e-002
      4.0736158642243336e-002 9.9074740463471807e-003
      8.0595789256645289e-003 1.6237063736908093e-002
      -5.6171614472195555e-002 4.0229131132997344e-002
      5.6282248194377542e-002 7.3202263061810371e-003
      4.5811734895701171e-003 3.6212013743544672e-002
      -6.0102268369025977e-002 4.2360322140788671e-002
      6.1154713670638169e-002 1.0020405213560957e-003
      3.9695150682535875e-003 2.9760997661145771e-002
      -5.8717699911354310e-002 3.5700132202528392e-002
      5.0855302457297122e-002 7.3106977202182823e-003
      8.6527559200931161e-003 2.4485301070892779e-002
      -1.8594619667384522e-002 6.6170040555803850e-003
      1.7775498058532804e-002 7.7234391102110464e-003
      -2.0653769311694318e-003 1.2702440044107179e-002
      3.4918947414900640e-002 -2.8022614375043095e-002
      -3.2511688783926310e-002 -1.7413332852241857e-003
      -7.2343940316487642e-003 -1.9279337285157881e-002
      4.5276288800337523e-002 -2.6432932208785578e-002
      -3.9056791726936567e-002 -2.7134028148738805e-004
      -1.3532514867286698e-002 -2.6602440887690773e-002
      6.0023478098440115e-002 -2.5092322998393389e-002
      -4.6826179955875812e-002 -1.0234933776542242e-002
      -1.1674189130286868e-002 -2.0570453771167212e-002
      4.3881757217037194e-002 -3.3068019647286291e-002
      -3.8175608258689729e-002 -8.4032810911065983e-003
      -7.6108457205889470e-004 -2.9186900122337735e-002
      1.6021640788183807e-002 -6.4954345427426455e-003
      -1.4801910091979864e-002 -2.3655717779861888e-003
      -5.6259423026968410e-004 -1.0647802848678582e-002
      6.9906628364598145e-003 -5.6768835267870556e-003
      -5.2818623157715018e-003 -3.8232547226248626e-003
      -6.7728359844955646e-003 -8.1929247072454383e-003
      3.5619662079237668e-002 -2.4294530067088899e-002
      -3.8322978742858255e-002 -2.9301953488492646e-003
      -4.1774571472147151e-003 -1.5231531266743745e-002
      4.9989054294665283e-002 -2.5461596007273938e-002
      -4.3097116407680179e-002 -4.5800043234279367e-003
      -8.6118261028814702e-003 -2.3188703708306571e-002
      7.6099598367119770e-002 -4.1974911012130904e-002
      -6.4181577223935610e-002 -1.4693936127147466e-003
      -1.0856561408763574e-002 -3.7287846853492262e-002
      -5.4838952023443709e-002 2.4351177372105015e-002
      4.7321237504236356e-002 -1.4514385577666985e-003
      8.1088342282865759e-003 2.6519497701459754e-002
      -6.1867586021995970e-002 3.2768284901882494e-002
      5.8253522473923187e-002 8.6762415647701988e-003
      1.2733947825378848e-002 2.5050657466057977e-002
      -5.7406983257427317e-002 3.1417043872887233e-002
      5.3773849436615020e-002 4.1586627032330148e-003
      1.0361292860125876e-002 3.1683622089629410e-002
      -5.9248161431827359e-002 3.9049903498671705e-002
      5.8204012557276898e-002 3.6548225928330741e-003
      9.4282815530896368e-003 3.2413484981937364e-002
      -1.6189513811802534e-002 8.3661755771065292e-003
      1.9551469839103497e-002 2.9305118349047744e-003
      -5.7299649717260474e-003 2.2921850318395436e-003
      4.0783912967399666e-002 -2.7640165269319641e-002
      -3.3352485995924018e-002 -5.6440599717513138e-003
      -3.9531277792365389e-003 -2.0760039297356647e-002
      4.5755523836841901e-002 -3.0463588641163428e-002
      -4.1802111540943467e-002 -9.4398783800563515e-003
      -1.2254182867060103e-002 -2.5190582965253963e-002
      5.5650177894685654e-002 -2.6826009114646564e-002
      -5.0314570622074374e-002 -2.8371333302211225e-003
      -5.7132592166183179e-003 -2.2296878518907874e-002
      5.2872952811316799e-002 -3.0202336199883127e-002
      -3.8917483121761534e-002 -2.9124183823265883e-003
      2.4043162112150785e-003 -1.9534711805488141e-002
      2.5941857613872864e-002 -1.8724980564745135e-002
      -1.7566408385590308e-002 1.6556703982600297e-003
      6.9509372830814202e-003 -8.8645905585661329e-003
      7.1358475210820064e-003 -9.2515125336113310e-004
      -1.1193991111249220e-002 3.6793431233824993e-004
      -1.0497480446611062e-002 -2.1910418982257706e-003
      3.7947024365081600e-002 -2.3525750311802977e-002
      -3.3569412251751980e-002 2.7029343937785067e-005
      -6.6914269969718778e-003 -2.5671804522587553e-002
      3.9721250820188202e-002 -2.9747596892677544e-002
      -3.8848469993111319e-002 -2.8861831066272475e-003
      -5.1311700804118066e-003 -2.2138258819955240e-002
      7.7397929507567853e-002 -4.8785192920616526e-002
      -6.3264524102475142e-002 -7.3688517328037508e-005
      -7.3793057078130938e-003 -3.1554421002661120e-002
      -5.8057713357931161e-002 3.4692713362559226e-002
      4.7754925724672458e-002 1.5536936246109757e-003
      9.7048269603675751e-003 3.4432264048891749e-002
      -6.4691951060577679e-002 3.2894675645056541e-002
      6.0967125601453724e-002 3.3183695805853270e-003
      1.6613125637152133e-003 3.6320537759863672e-002
      -5.9760226992274276e-002 3.1986544076387742e-002
      5.3809211930458387e-002 1.1141517274587055e-002
      1.3748742115784357e-002 2.7437789787455102e-002
      -6.6871322809462105e-002 3.9096113999410168e-002
      5.3640142297854340e-002 1.0524790600031324e-002
      1.3163471365908152e-002 3.3187159364674881e-002
      -1.3153348176099212e-002 2.9226971739604434e-003
      1.5661913040958569e-002 4.0123356908027819e-003
      9.8304739830641858e-004 2.2956036678012059e-004
      4.2152042935499380e-002 -3.0561428466623075e-002
      -3.0843023384895543e-002 -1.0048541215652614e-003
      -1.3251481121454975e-003 -2.0632503141221344e-002
      3.7161014074090080e-002 -2.8685179095712839e-002
      -3.3699065391723029e-002 -5.5556125269193256e-003
      -6.2287797163063990e-003 -2.1783411099942286e-002
      5.6379313759042933e-002 -3.2170994437213982e-002
      -5.1993400842442028e-002 -9.8702576246481929e-003
      -8.1447905014864694e-003 -2.8399285500354848e-002
      5.6485429735008336e-002 -2.8853688355672591e-002
      -4.8751573652906013e-002 -2.6558970582574518e-003
      -5.6339614627375740e-004 -2.9862773807127475e-002
      2.7144326671008880e-002 -2.4024177243568590e-002
      -2.4518288880665477e-002 3.0407394759651139e-003
      -1.3859544174676481e-003 -9.7878302528435577e-003
      9.1216432633259761e-003 -1.2353244362124694e-002
      -1.3640710766250220e-002 -7.6327461398885696e-003
      -1.2974186646846573e-002 -9.5699911034126499e-003
      4.0872653372951553e-002 -3.0199481336283057e-002
      -3.2615826641356857e-002 -5.7296591363689350e-003
      -9.4798308010156148e-003 -1.4560900311383433e-002
      4.2616736139076482e-002 -2.8432992499395598e-002
      -3.1177535338666025e-002 -1.1042793609866066e-002
      -3.8586768160531345e-003 -1.6981379796141907e-002
      7.3133211014940316e-002 -4.5690175477079431e-002
      -7.1038675270891791e-002 -6.4564115722026954e-004
      -1.4565634251636193e-003 -3.9004102532050861e-002
      -5.6170097138740230e-002 3.2173967684028242e-002
      3.9139374406794852e-002 9.3606745598418667e-003
      9.1198328630107441e-003 2.6651212139022509e-002
      -6.3703423835643758e-002 3.6322370009461792e-002
      5.0590657389019994e-002 1.5262410405074843e-003
      2.4375699335715578e-003 3.3609952188773592e-002
      -5.8427551390909993e-002 4.4424057012180475e-002
      5.9709661186956940e-002 6.0882195498029911e-003
      4.8419862935228652e-003 2.8449570131921953e-002
      -6.2048192113891967e-002 3.3311975423792189e-002
      5.0729243570528708e-002 2.0139881274233826e-003
      6.3224621456695555e-003 3.6129509250799767e-002
      -2.0928979444946712e-002 6.9805281573169097e-004
      1.5512529693468545e-002 -3.4189996938154082e-003
      3.1435700962402641e-003 3.5462420930366125e-003
      4.5825844302299620e-002 -3.4963482943776089e-002
      -3.5427969054723479e-002 -7.0000542117596432e-003
      -3.3418724017771949e-003 -2.7228924391846401e-002
      4.4434025351108929e-002 -2.4142106589239865e-002
      -4.1822081817854684e-002 -6.2252869231332678e-003
      -6.8189326972280927e-003 -2.4734873986318042e-002
      5.6769301518065765e-002 -3.4433113955309173e-002
      -4.2499005249399466e-002 -6.8523737397344492e-003
      -1.5117824196833995e-002 -2.2331193742347318e-002
      5.6583802130613814e-002 -3.9044013044092198e-002
      -5.3428187625921088e-002 -3.8493035838390688e-003
      -2.5277470934020542e-003 -2.7434139883793448e-002
      2.3978756430223354e-002 -1.3450653549000187e-002
      -2.5305860091374140e-002 6.6676825104352404e-003
      3.8483587765143611e-003 -1.8894110429284652e-002
      1.5158443849089600e-002 -5.9192646806967486e-003
      -1.0655825335810405e-002 -1.3676336616844226e-003
      -5.6102546765499448e-003 -1.0934368855590843e-002
      3.9779642472828072e-002 -2.9518867934225500e-002
      -3.6906974747215784e-002 -2.0824300444229329e-003
      -1.2635727846788743e-002 -2.5673589974975361e-002
      4.1481943627791763e-002 -1.7303964008003381e-002
      -3.2491347376352002e-002 -7.1687482800627967e-003
      -4.9926351334112790e-003 -1.5288743504432802e-002
      6.4714439507144672e-002 -3.8127199959298579e-002
      -6.6164465334668937e-002 -2.5578587295230475e-003
      -3.6290531131811885e-003 -3.0484492482406988e-002
      -4.1795537750737959e-002 2.8591301398767626e-002
      3.5596326718885574e-002 7.3347175203081890e-003
      2.5110386934224889e-003 1.6783128676012810e-002
      -6.6087189245954414e-002 3.9360945143477294e-002
      5.2258903124208174e-002 8.6978410051807634e-003
      9.1310459056209072e-003 3.0501024094509187e-002
      -5.5376261808432921e-002 3.8776667130006881e-002
      5.3922463023545260e-002 1.1825816941601069e-002
      5.5477940357002136e-003 3.3269401525050542e-002
      -5.6088135671129365e-002 3.1828139870006496e-002
      5.7866332812681623e-002 2.1252280106621628e-003
      4.5467160803423683e-003 3.0563690557296117e-002
      -2.0032832011255861e-002 7.6092881793352321e-003
      1.6099401571779283e-002 -2.1372741009381209e-003
      7.5364932319246444e-003 1.3081885744820288e-002
      4.0319928967313824e-002 -2.7148685539220514e-002
      -4.5575633081112579e-002 -6.5142251655194855e-003
      -2.0148162659090669e-003 -2.7191453775016354e-002
      3.8832607109977081e-002 -2.9547546614487004e-002
      -4.1714821430754723e-002 -2.2205438585681018e-003
      -3.2880191467550592e-003 -1.6480629465568900e-002
      5.8937317142520387e-002 -2.8987760586093109e-002
      -5.2845148393364551e-002 -1.3194027486808620e-002
      -1.3369345239772713e-002 -1.9176595398220291e-002
      6.3235754643397424e-002 -3.5657696348055781e-002
      -5.6898867735627835e-002 -3.1025237466357747e-003
      -3.5501744966753524e-003 -3.1295096776982341e-002
      2.7727244292565800e-002 -1.9238055349535450e-002
      -2.5634248393344328e-002 -1.5394647110341293e-003
      7.2313408383740283e-003 -2.1498303523992870e-002
      2.5934702560523631e-002 -1.9370462464133122e-002
      -2.2761755239118452e-002 -8.7726688424271618e-003
      -1.2325801890382612e-002 -1.0561109103010162e-002
      4.4893462180587033e-002 -2.9543109758354006e-002
      -3.4586341022618747e-002 5.7419678188158412e-004
      -5.5582367178269075e-003 -2.3509419773294241e-002
      4.1661817418510293e-002 -1.8562030229480612e-002
      -3.6175294264636886e-002 -7.7702375643621518e-003
      -7.0744361093050311e-003 -2.1559088670867810e-002
      6.9122824564075661e-002 -3.9181994642606639e-002
      -6.0136039994340439e-002 -9.1809248352251443e-003
      -9.5833017692436764e-003 -2.9649476384093123e-002
      -4.5873782569454666e-002 3.1417838619838906e-002
      4.2053394054057593e-002 4.7791030221679357e-003
      8.7031172875333389e-003 2.1354271668609252e-002
      -5.6133580310185949e-002 3.2686650020291898e-002
      6.0106396067454444e-002 -3.6260356102374333e-004
      9.0085325304166044e-003 2.7687248469128480e-002
      -6.1253500614373513e-002 3.1252921392261698e-002
      5.2999728650473345e-002 6.2457525258458567e-003
      3.1958113160436966e-003 3.3940809183488511e-002
      -5.9760479642438323e-002 3.5458811863865118e-002
      5.8421369989102127e-002 4.1221951154598816e-003
      1.2470247524421336e-002 2.7379012456339565e-002
      -3.6994708179351590e-002 2.0596639276141561e-002
      3.2455864892295391e-002 5.1780757808491378e-003
      1.2571535441523831e-003 2.1509814189551675e-002
      4.7396735054780724e-002 -3.4222357227566037e-002
      -4.4679363504917795e-002 3.1620309356496612e-003
      -3.6179426178016024e-004 -2.8997929445307796e-002
      4.1738090595153134e-002 -3.2732413996684848e-002
      -4.4725495081336324e-002 -1.5320771844985547e-004
      -1.0759194013872739e-002 -2.6687375826195091e-002
      4.9449898867119098e-002 -2.7005308213136094e-002
      -4.9102832841886442e-002 -1.3324849501390379e-002
      -1.0748146808736680e-002 -2.8386302297202706e-002
      5.6497452658433318e-002 -2.6005952285422847e-002
      -4.5816647644235015e-002 -1.1915374736757189e-002
      -2.5258840292475605e-003 -2.8837765483700453e-002
      3.1607349558040572e-002 -1.9129389143773792e-002
      -2.9175909592835923e-002 -1.0399954659430601e-003
      1.9724398165251989e-003 -1.7731994457573057e-002
      3.0743849590178198e-002 -1.7402369764279592e-002
      -3.2636457961041039e-002 -4.2648865453549147e-003
      -1.0411206023858567e-002 -1.1868867125944376e-002
      4.7423503294910671e-002 -2.7805284095739652e-002
      -4.0062266968718251e-002 -9.2198276482114185e-003
      -5.5061264894317409e-003 -2.2513167088966383e-002
      3.7444201013966671e-002 -1.7721162155502547e-002
      -3.9005531070427098e-002 -4.8705551874292504e-003
      -3.2933992012471936e-003 -1.3122683276241274e-002
      5.3200568654168529e-002 -4.0001900325867513e-002
      -5.1763122997810357e-002 -5.7696592084910507e-003
      -1.0846566210971062e-002 -2.6789918768684636e-002
      -4.5346679741097871e-002 2.9175313809901866e-002
      4.6658817659466986e-002 -8.2539072831730117e-004
      1.0045272741733663e-002 2.3081352470522440e-002
      -6.3011993822316051e-002 3.7783718438693825e-002
      5.8347002720076389e-002 8.2969944722573550e-003
      2.7933921123196675e-003 3.3488323358556081e-002
      -6.7248890247929544e-002 3.3201428556903632e-002
      5.7630977905880072e-002 1.1352648508663023e-002
      2.0700056260797199e-003 2.7162116596103937e-002
      -5.6143598303100034e-002 3.6899979368641159e-002
      5.3572998422277113e-002 -1.1760255070576020e-004
      8.6643522897221319e-003 3.3823714806980071e-002
      -2.6298507082688317e-002 1.7486134375752620e-002
      2.3325663487704550e-002 1.0187813985913357e-002
      8.8205458124702395e-003 1.9355768426970524e-002
      5.1430054833808241e-002 -3.6921665814552210e-002
      -4.6478839284267791e-002 -8.5339389152973705e-003
      -1.0535647798836173e-002 -3.3428389857316179e-002
      4.8716573868230202e-002 -2.6663544129028122e-002
      -3.8732872539569800e-002 -6.7285785813075570e-004
      -5.3269742494086439e-003 -2.6818683152171646e-002
      4.3119885437750888e-002 -2.7188068157658420e-002
      -4.3918878674196173e-002 -9.6747274306846417e-003
      -1.2523403472426560e-002 -2.1242074883666823e-002
      5.4968736774269285e-002 -3.0056185319729440e-002
      -4.8632875107461448e-002 -1.1886130390163412e-002
      -5.9175612436420822e-003 -2.3482001260125857e-002
      3.8578355802983841e-002 -2.6814725408561991e-002
      -2.6476531555859870e-002 3.0081451327468372e-003
      8.5881465979414980e-003 -1.5676915726783539e-002
      4.1907245775283257e-002 -2.6929169404606147e-002
      -3.8523654663399923e-002 1.3318491424403963e-003
      -1.0800184017705158e-002 -1.9467574500825403e-002
      3.8009838875491926e-002 -2.6673653447438928e-002
      -3.9922220862979439e-002 -9.9220957415103901e-003
      -1.0828369029218000e-002 -2.5249848629108316e-002
      3.0751608769549941e-002 -1.7431011495108697e-002
      -3.2144549369510354e-002 -4.3090241121469938e-003
      -8.2516144804624450e-003 -1.8039567773280762e-002
      5.4007871755640466e-002 -3.1214953022018141e-002
      -4.6388724303718688e-002 -8.6999907924690239e-003
      -3.0274776547348798e-003 -2.1164375585465724e-002
      -3.8264373822977128e-002 2.1197061650866690e-002
      3.0852709474490887e-002 3.0663948778158492e-003
      9.5951862520191368e-003 2.1409890555418889e-002
      -6.1437175345961756e-002 3.3175943083336649e-002
      5.6568476462768490e-002 7.0178849274221567e-003
      9.6074945887760881e-003 3.1237911508780226e-002
      -5.6104400694816960e-002 3.2033995012350915e-002
      5.0865921834324937e-002 8.9122625120176546e-003
      1.0200649976935722e-002 3.2409731765882077e-002
      -5.8135542907025835e-002 3.7669242881745016e-002
      4.8666997959009577e-002 1.1792368489212833e-002
      1.0724675582728389e-002 3.3334078925063369e-002
      -2.6190444459985640e-002 1.6130135438258482e-002
      2.5437319649652953e-002 8.4812410815327931e-003
      6.1745762592323667e-003 1.8761675662024604e-002
      5.8580498507312999e-002 -3.0606717773533364e-002
      -4.5526543785059936e-002 -5.0376344921322525e-003
      -5.0566406806705688e-003 -3.5534237392581380e-002
      4.1048435968795455e-002 -2.9895291542054326e-002
      -3.9015553108828489e-002 -1.1587165111320572e-005
      -2.3284533444887772e-003 -2.4570548009733680e-002
      4.1267800497257874e-002 -3.1357571590388031e-002
      -3.5194087834102147e-002 -6.5903483016625710e-003
      -3.9275222534657910e-003 -2.0072175478204425e-002
      4.7751977616265408e-002 -2.7684589144802266e-002
      -4.4569572762794642e-002 -6.8922853988481747e-003
      -1.0471234876742272e-002 -1.6704112274848030e-002
      2.9819330086577667e-002 -1.9253021980126545e-002
      -2.0708406321995953e-002 4.4022586379837414e-003
      -3.1629108319095422e-003 -1.4590392799224011e-002
      4.2888617913269589e-002 -2.3995291193272150e-002
      -3.8258291695405865e-002 -4.3911136005437695e-003
      -8.5704539398095466e-003 -2.0429314863672613e-002
      3.4711653074046493e-002 -2.3873479822619850e-002
      -2.9702986631170391e-002 -1.0902141620643985e-002
      -7.7657189918102004e-003 -2.3600405375625601e-002
      3.2502704791952247e-002 -1.8561875643845285e-002
      -2.9215155998654794e-002 -5.0367858699083999e-003
      -1.2451068885667946e-002 -2.1271238967278394e-002
      5.0191873828760558e-002 -2.7646812588651811e-002
      -5.1111003275513954e-002 -1.2282195982586131e-002
      -1.4448248816073849e-002 -2.6316176599767122e-002
      -2.7474356233229420e-002 1.7942749689964139e-002
      1.7540444773013621e-002 1.9645025482518935e-003
      1.5240459684780494e-003 1.3158094565066083e-002
      -5.3181576783992879e-002 2.8290775220704459e-002
      4.4149360887647628e-002 3.6871778765928498e-003
      2.5247393831833004e-003 2.8493786303969114e-002
      -5.2466189446482375e-002 2.8809965159133019e-002
      4.4506191982693073e-002 5.8579000757304157e-004
      7.9432319268057799e-003 3.0580970834655292e-002
      -5.3858680556591917e-002 3.5262023126322532e-002
      5.2862563254609383e-002 5.5849898624383667e-003
      5.8495355472830499e-003 2.8195048008492863e-002
      -2.2708767532848874e-003 -1.7880684405293455e-003
      -9.8817482303112107e-005 4.9776424919664919e-003
      2.4975515221380999e-003 -1.9978886420349644e-003
      6.8696877554923777e-002 -3.6428468969893692e-002
      -6.1342568151864695e-002 -3.2646841163954227e-003
      -2.3378093645328424e-003 -3.8082585827897371e-002
      5.2530342546121649e-002 -2.9400890605933917e-002
      -4.6133672579235049e-002 -6.5277554837748627e-003
      -1.0223730687373285e-002 -2.8593105781923686e-002
      4.1562158033261160e-002 -1.8534109343467612e-002
      -3.7019020589192396e-002 -8.1814671886102624e-003
      -7.4829915242080576e-003 -2.3966633999077051e-002
      2.8188112976076481e-002 -1.5151840179478083e-002
      -3.2641839039283652e-002 -1.0042831268092254e-002
      -7.8741122937616773e-003 -1.5876022387257559e-002
      1.4327111819186751e-002 -5.1053029751791058e-003
      -2.0163554163823431e-002 -1.4991361432554224e-003
      1.6249224572623122e-003 -1.1691391489104492e-002
      3.8463732295982607e-002 -2.2362380488848616e-002
      -2.9321609936943858e-002 -3.2691716535475819e-003
      -4.5143735025671141e-003 -1.3698500424621774e-002
      3.3234266167037452e-002 -2.5959636286150348e-002
      -3.7014961280834792e-002 -1.0532007851000270e-002
      -5.1363969967919412e-003 -2.2869428764735890e-002
      4.0102662871113581e-002 -2.4590095557775561e-002
      -3.6791038046814002e-002 -1.0214927141233890e-002
      -1.3052421116315577e-002 -1.8589327683509693e-002
      5.6923057110111072e-002 -2.8259100182940269e-002
      -4.5953715252004632e-002 -1.5199788567555575e-003
      -5.5066752332682736e-003 -2.6858539029108893e-002
      2.6592265844411052e-002 -1.6052976743509358e-002
      -1.8765405426232725e-002 3.3958487174146927e-003
      5.3206995992812669e-003 -1.2418073648054076e-002
      -5.2528201525731295e-002 2.5821837947341296e-002
      4.8541463787944189e-002 9.1674102489465847e-003
      3.6718584841820535e-003 2.3095752118761758e-002
      -5.1474949624631096e-002 2.8166256613384535e-002
      5.1002573547834600e-002 1.7431066536556538e-003
      8.7069621763094778e-003 3.3286731986390129e-002
      -4.4017782774150027e-002 2.9104396736137166e-002
      4.3252000336805319e-002 2.2481108818800943e-003
      8.9372776530221316e-003 1.9607831808303566e-002
      4.5279299183559572e-002 -2.7603020207496363e-002
      -3.7365915693415901e-002 8.1466929163464294e-004
      1.3327132675848480e-002 -2.6075367814866700e-002
      6.2241960456070375e-002 -3.6743877148281659e-002
      -5.2840587747838758e-002 -1.2857671165036340e-004
      -8.2793695069550231e-003 -3.1444995242435318e-002
      4.6619332233200327e-002 -2.6315934161847028e-002
      -4.3628611313145951e-002 -2.9401886903168205e-003
      -8.6452927983614210e-003 -1.9887525877735596e-002
      3.3224341479463751e-002 -1.9511119245979810e-002
      -3.4389197646853858e-002 -1.0319176394112221e-002
      -1.1823177956253407e-002 -1.9372191698523760e-002
      1.5936977504909387e-002 -3.2752687700528947e-003
      -1.8029652588459830e-002 -5.3553112132178919e-003
      -4.3803626727494599e-003 -1.8416400366618733e-003
      4.5206287045651524e-003 -1.0314594578177301e-002
      -1.0921807818081988e-002 2.5549572753661826e-003
      9.6761895360159573e-003 -5.3518734491277854e-003
      2.2125482977115252e-002 -1.2360965308151166e-002
      -2.2079816266640909e-002 -6.7631062182079123e-003
      -1.0475978393535305e-002 -1.0950262166561085e-002
      3.0287923521099741e-002 -2.1128080464640396e-002
      -2.8839902551952908e-002 -3.6543216071359837e-003
      -3.4762090712514510e-003 -1.6097380334170387e-002
      4.2856451316919349e-002 -2.3827510817091172e-002
      -4.3295360879257942e-002 -3.3890464344992969e-003
      -1.1166452243750005e-002 -2.3801137687936815e-002
      4.6523335807520043e-002 -3.1739505103346541e-002
      -3.7339902458981597e-002 -2.9802206855231044e-003
      -1.4079464765105250e-002 -2.1905634693625439e-002
      4.9739368959533119e-002 -2.4982392598455246e-002
      -4.0507337295902709e-002 9.8297207073661419e-004
      -7.5790682696946022e-003 -2.1976251888527622e-002
      -4.1349208148075092e-002 1.8225700733686855e-002
      4.0378926037530460e-002 1.0115816809236802e-002
      1.1037694053526744e-002 2.1967120186045425e-002
      -5.6894737418186889e-002 3.2455497229099121e-002
      4.3720741695903877e-002 1.1890168076521032e-002
      8.4112915613623052e-003 2.0959138347157374e-002
      -3.7735993708792909e-002 1.8591086231572108e-002
      3.0148311787524539e-002 9.8240940303786339e-003
      1.5559349588182711e-002 1.7395948390417641e-002
      5.5689824476058337e-002 -4.1653263184776669e-002
      -4.8575330215024977e-002 -1.9049922996483074e-003
      1.8874580024638085e-003 -3.7347220766821877e-002
      5.6828751222086457e-002 -3.3146359336074994e-002
      -5.0990824039567763e-002 -1.4073156237108019e-003
      -6.2669844258575486e-003 -3.3994128884023554e-002
      4.4926060294277946e-002 -2.7146012425237124e-002
      -3.5602848900669046e-002 -4.5949555781631133e-003
      -9.4717491584675462e-003 -1.9567113430064932e-002
      2.2020913357363343e-002 -1.5752237524737922e-002
      -1.9559090253478902e-002 -1.1444873058568405e-002
      -9.2031150660055391e-003 -8.9751733501904109e-003
      2.0380407353770371e-003 6.0094608758822516e-003
      3.5597573770198812e-003 -3.3750277114468854e-003
      -5.0661674914425584e-003 7.9923955203950979e-003
      -7.3390083124490572e-003 4.1645118394875386e-003
      2.2327245017152385e-003 4.8236754196163195e-003
      1.2312875170590756e-002 5.1265756213185795e-003
      8.2059376950487598e-003 -3.5073603939289929e-003
      -6.1936808796297545e-003 5.4787518302920474e-003
      9.1762375728161047e-004 -3.1699426683956069e-003
      4.7295354079447342e-002 -2.7480722156454886e-002
      -4.8787839460619202e-002 -1.0708571050840322e-002
      -1.2853469079315769e-002 -2.2163793030203466e-002
      4.5618854743442933e-002 -2.7281166404865966e-002
      -3.8472155897060614e-002 -8.6469084438642787e-003
      -1.3626003393763126e-002 -2.8628176558707356e-002
      3.9998517611429342e-002 -2.6997790437281861e-002
      -3.7276142739293569e-002 -1.1962327640877237e-002
      -1.5082387761331138e-002 -2.7107194995623946e-002
      4.1075610388756442e-002 -2.8791008238546367e-002
      -4.1209057719007305e-002 -9.7743528534653592e-003
      -1.2857274477465101e-002 -2.1358468034330145e-002
      5.1238162686220107e-003 1.1223655667152628e-003
      -8.5229431599540047e-003 -6.2951659336877453e-003
      -2.7018085608572690e-003 -3.0081272380269117e-003
      -6.2833396462179655e-002 2.6779665287181155e-002
      4.7868585949685336e-002 1.0963666522667630e-002
      7.3044033343513661e-003 2.3467176386936683e-002
      -4.6041458853637071e-002 1.9641587258638564e-002
      4.0423836507298298e-002 1.0937010166514284e-002
      1.2647667019107854e-002 2.5874748041174640e-002
      4.0700339103355763e-002 -2.0981267164300314e-002
      -3.5517265669490296e-002 -2.2471171154176315e-003
      -1.1632335379009788e-002 -2.5938945017185303e-002
      3.9625066241877456e-002 -2.0132301675559010e-002
      -3.5645029975407638e-002 -8.5707614492901915e-003
      -1.2565637028803072e-002 -1.5349688834504249e-002
      2.7401766533424434e-002 -1.1821081492693534e-002
      -2.7744255012471609e-002 -2.9346252909006952e-003
      -1.4091283521385804e-002 -1.1239094330025628e-002
      3.8010056263903857e-004 -1.7958822076217500e-003
      3.5722479920851412e-003 -8.2878292715020674e-003
      -8.2516861703484049e-003 9.5056053132893358e-003
      -2.5519957983875866e-002 1.8882877500889135e-002
      2.5004532041970069e-002 -6.3075986949615113e-003
      -1.8174977575513927e-003 1.9565962342050058e-002
      -3.4698515856704103e-002 1.9308609307921241e-002
      3.0819498503732945e-002 1.2725108807463696e-003
      4.7575885199281831e-003 1.7838037249849628e-002
      -3.6303148821463301e-002 2.7203185956309453e-002
      4.2120268930716152e-002 -5.9452795198746669e-004
      6.2486423490633880e-003 1.7669446099847604e-002
      8.2472500118693504e-003 -1.8381368439052287e-003
      -1.4304455428847767e-002 4.2389767384781321e-003
      3.7571318440044231e-003 2.5402047070791022e-003
      5.1786329195469154e-002 -2.9021535049588314e-002
      -3.9328580244701122e-002 -1.2599855454383689e-002
      -1.1367124573848695e-002 -2.6631022672634477e-002
      4.0570479277305116e-002 -3.2720821015068464e-002
      -4.7162395293009585e-002 -4.8610928906180524e-003
      -1.3485495244600281e-002 -2.6615722869991563e-002
      3.4196597610838861e-002 -2.4383974116732710e-002
      -2.7335411849752408e-002 -3.2902331136284843e-003
      -7.2987827545745636e-003 -1.8606649267770538e-002
      -1.0068347178573717e-002 3.0229206662560700e-003
      5.1912864038265978e-003 3.5007356146855956e-005
      -1.2775536211820921e-002 3.7200191074975952e-003
      -7.8992401878247964e-002 4.2554045306994769e-002
      6.7055371198605246e-002 5.2097918659234485e-003
      -3.9030573706899767e-003 4.0733497650706628e-002
      -6.9526518945146762e-002 4.1059076942620946e-002
      6.9805334981423606e-002 5.6694761791151052e-004
      3.6032797640110892e-003 3.2207654740025335e-002
      7.6988803948321045e-003 -6.1024738980222110e-003
      -1.9405928516899905e-003 -7.7840458502268786e-004
      -1.2135480130127560e-002 -6.7965035859972895e-003
      1.2341102367200351e-002 -9.7616985906833209e-003
      -9.1198646610990142e-003 -9.5274005560281212e-003
      -6.3134254354780027e-003 -7.2550827049252392e-003
      -7.8593986802213169e-003 1.0608817944727737e-002
      4.5998833521905553e-003 -2.2791925365823504e-003
      -5.2046980763707246e-003 2.3085405311934551e-003
      -2.3884701281189576e-002 2.0504497892732163e-002
      2.0504973769672995e-002 -6.7921693991886290e-003
      -8.3345783625671886e-003 1.5324208566641810e-002
      -3.0539311282250764e-002 2.7302040812476034e-002
      3.5074055279047001e-002 1.1982241060910681e-003
      9.6548695215620817e-003 2.1246341654884499e-002
      -4.5137318226274120e-002 2.8920594920163988e-002
      4.4051024040863140e-002 1.6404099916533721e-003
      2.3925487522856348e-003 2.9153531353661000e-002
      -3.5787208070748477e-002 2.7070578411840171e-002
      3.7007243259133231e-002 1.0950902752110973e-002
      5.6781654444710708e-003 2.3958383972675915e-002
      -2.1969947855653014e-002 1.6087672057658178e-002
      3.0637785572994000e-002 4.5186239448689689e-003
      9.2798992486195671e-003 7.9813437455204892e-003
      2.6046689545165060e-004 8.3782109821398960e-003
      9.1319760833422049e-004 7.8084699377206235e-003
      4.4560262316620169e-003 5.6903029011275176e-003
      3.4455287015353928e-002 -1.1582019229514384e-002
      -2.0398999419315909e-002 -9.3050153286119153e-003
      -1.2453995852498874e-002 -1.5016453573755287e-002
      1.3276584041597586e-002 -4.0710029828512238e-004
      -7.2478063279382415e-003 -1.0480634897133556e-002
      -6.6980631364499535e-003 -2.8641984675563067e-003
      -3.6655479386815064e-002 2.4830570833657091e-002
      3.4135190406733032e-002 -7.2574969064597211e-003
      -1.1048909666290791e-002 1.6191846011844438e-002
      -4.9232262047664711e-002 3.8476764947741979e-002
      5.5566689465428837e-002 -7.7845131692648212e-005
      -2.0982797607170265e-003 3.0764765120189504e-002
      -5.0294541337667205e-002 3.8978883279289209e-002
      4.4846792324112379e-002 -3.6270411812893287e-003
      -6.6148833043895930e-004 3.1622214626187174e-002
      -4.1684989611711729e-002 1.9525364012238602e-002
      3.7140845580840846e-002 -5.6297537711345706e-003
      -2.7905616316754654e-003 1.7458249864941700e-002
      -2.2887741371305229e-002 2.6473730868334270e-002
      3.0388288809021044e-002 -3.0439176157208460e-003
      -1.1575460796242290e-002 1.9335581823610264e-002
      -3.4413624382405972e-002 2.2060578470952535e-002
      2.8084346923195821e-002 -5.9720991879747163e-003
      -8.7299005983538219e-003 2.2743522304696985e-002
      -3.3168830520842144e-002 2.4483634091398501e-002
      3.4888859701418536e-002 1.4637269594343937e-003
      7.8354031542394453e-003 1.4447428022327265e-002
      -3.6357439047771653e-002 2.6022633026605478e-002
      3.6062873242341378e-002 7.3593674452087678e-004
      3.1270927769297394e-003 2.3391788093536984e-002
      6.1130382258529910e-002 -4.5965830951127197e-002
      -6.1839080996451870e-002 2.2518875702081085e-002
      2.8927717943037223e-002 -4.3537540230253288e-002</_>
    <_>
      -4.8495183424923638e-001 1.8053028409101235e-001
      3.9953860031605160e-001 -7.0394771500663686e-002
      -9.0099755901690018e-002 1.2929072241645953e-001
      -4.3612261282119438e-003</_></weights></opencv_ml_ann_mlp>
</opencv_storage>
