<?xml version="1.0"?>
<opencv_storage>
<opencv_ml_ann_mlp>
  <format>3</format>
  <layer_sizes>
    322 6 1</layer_sizes>
  <activation_function>SIGMOID_SYM</activation_function>
  <f_param1>6.6666666666666663e-001</f_param1>
  <f_param2>1.7159000000000000e+000</f_param2>
  <min_val>-9.4999999999999996e-001</min_val>
  <max_val>9.4999999999999996e-001</max_val>
  <min_val1>-9.7999999999999998e-001</min_val1>
  <max_val1>9.7999999999999998e-001</max_val1>
  <training_params>
    <train_method>BACKPROP</train_method>
    <dw_scale>1.0000000000000001e-001</dw_scale>
    <moment_scale>1.0000000000000001e-001</moment_scale>
    <term_criteria>
      <iterations>10000</iterations></term_criteria></training_params>
  <input_scale>
    7.6249285166302333e-002 -2.9737221214857912e+000
    7.6249285166302333e-002 -2.9737221214857912e+000
    7.2814582216170029e-002 -2.9944996936399924e+000
    6.5940287197158345e-002 -2.8601599571767431e+000
    6.1115016395836136e-002 -2.7883726230600239e+000
    5.4758567819339354e-002 -2.7105491070572980e+000
    4.7673129462279619e-002 -2.5743489909630992e+000
    4.1675711856541307e-002 -2.4380291436076664e+000
    3.6785983532005198e-002 -2.3680976898728345e+000
    3.2922368247506710e-002 -2.3662952177895447e+000
    2.9176102305365170e-002 -2.3195001332765308e+000
    2.6398327586931915e-002 -2.3131534548049091e+000
    2.4826529404475245e-002 -2.4392065139896930e+000
    2.3140434622590328e-002 -2.5136297108788743e+000
    7.4966331278983347e-002 -2.9424285027000963e+000
    7.4966331278983347e-002 -2.9424285027000963e+000
    7.1714997196447902e-002 -2.9941011329517000e+000
    6.3922317663899553e-002 -2.8365528463355427e+000
    5.8064081858451917e-002 -2.7362698575795465e+000
    5.0932689576501357e-002 -2.6294000993868827e+000
    4.3307191499114418e-002 -2.4576831175747431e+000
    3.6866750907288734e-002 -2.2857385562519017e+000
    3.2612067229911113e-002 -2.2339266052489113e+000
    2.9130418434611442e-002 -2.2211944056391224e+000
    2.6119812110419346e-002 -2.1940642172752249e+000
    2.3806571788706619e-002 -2.1961562475081857e+000
    2.2981769939145143e-002 -2.3642495824895566e+000
    2.2026284781188479e-002 -2.4944767514695951e+000
    6.9570478117851081e-002 -2.7915154344787747e+000
    6.9570478117851081e-002 -2.7915154344787747e+000
    6.4451190788291007e-002 -2.7955704004421222e+000
    5.6888012398857428e-002 -2.6737365827462991e+000
    4.8579512403960398e-002 -2.4593378154504952e+000
    4.0706802016612628e-002 -2.2948459636865368e+000
    3.3557802760701215e-002 -2.1309204753045270e+000
    2.8047049825183246e-002 -1.9738111314472708e+000
    2.4558023611722987e-002 -1.9185955946658584e+000
    2.2164917212807840e-002 -1.9144947242562771e+000
    2.0163546918559337e-002 -1.9130165138983171e+000
    1.8895060679591968e-002 -1.9603625455076668e+000
    1.9113230231014033e-002 -2.1812974001144765e+000
    1.9292405038147796e-002 -2.4019044272494008e+000
    6.4390619292033602e-002 -2.6561130457963862e+000
    6.4390619292033602e-002 -2.6561130457963862e+000
    5.6089618671510244e-002 -2.5310440425518999e+000
    4.7452055475714440e-002 -2.3785342807201864e+000
    3.9794100775286667e-002 -2.1737527548500344e+000
    3.2597173957707663e-002 -2.0169501386331619e+000
    2.6581887499397737e-002 -1.8707003327701157e+000
    2.2102483685126760e-002 -1.7460962111250140e+000
    1.9371936546340219e-002 -1.6926229557364767e+000
    1.7900406770388559e-002 -1.7206766008036003e+000
    1.6442259697465770e-002 -1.7223267033095393e+000
    1.5705730024402176e-002 -1.7826003577696470e+000
    1.6366010706378178e-002 -2.0191565708994079e+000
    1.7023280359166119e-002 -2.2640962877690938e+000
    5.8027411733100630e-002 -2.4734184251234144e+000
    5.8027411733100630e-002 -2.4734184251234144e+000
    4.8745159641278075e-002 -2.3458608077365075e+000
    3.9415084526632400e-002 -2.1382683355698076e+000
    3.1838668311870197e-002 -1.9302192664071307e+000
    2.6015744289384191e-002 -1.7950863559675092e+000
    2.1586723175295277e-002 -1.6918594288637674e+000
    1.8126148907220030e-002 -1.5928353352219602e+000
    1.6367620538007877e-002 -1.5794753819177600e+000
    1.5489106880718907e-002 -1.6069948388745865e+000
    1.4665524633402028e-002 -1.6333728060451509e+000
    1.4282435531451983e-002 -1.6924686104770599e+000
    1.5319037979302843e-002 -1.9301987853921581e+000
    1.6295780215544151e-002 -2.1775236313020874e+000
    5.3023171217831087e-002 -2.3462753263890255e+000
    5.3023171217831087e-002 -2.3462753263890255e+000
    4.2187732549444398e-002 -2.1568478265903450e+000
    3.2774776405732918e-002 -1.9255181138368089e+000
    2.6182546975582803e-002 -1.7444121922482043e+000
    2.1709094095708065e-002 -1.6471775145118495e+000
    1.8136207142285893e-002 -1.5665148919149441e+000
    1.5462235756046308e-002 -1.4959713093974802e+000
    1.4162176004945966e-002 -1.4887987525199446e+000
    1.3711682420737337e-002 -1.5237107090044366e+000
    1.3258140880968369e-002 -1.5561742859036622e+000
    1.3142137060640779e-002 -1.6181256255913958e+000
    1.4401002632706147e-002 -1.8451284623154751e+000
    1.5760372784506260e-002 -2.1000696735354594e+000
    4.8868689480308529e-002 -2.2785026470193852e+000
    4.8868689480308529e-002 -2.2785026470193852e+000
    3.7757698119239937e-002 -2.0672339720283865e+000
    2.8560501898109821e-002 -1.8350122469535559e+000
    2.2695149616250156e-002 -1.6652566030923552e+000
    1.9103636712957121e-002 -1.5879898017645606e+000
    1.6530372274180711e-002 -1.5352583249645335e+000
    1.4467918176126205e-002 -1.4883870823689833e+000
    1.3535468368428633e-002 -1.4889015205271496e+000
    1.3571120509191237e-002 -1.5352330076022587e+000
    1.3487446184999512e-002 -1.5746593420986932e+000
    1.3857182484499429e-002 -1.6559333068976818e+000
    1.5921225599434430e-002 -1.9185076847318487e+000
    1.8289118618101997e-002 -2.2289863315811806e+000
    4.4980746738322128e-002 -2.2040565901777844e+000
    4.4980746738322128e-002 -2.2040565901777844e+000
    3.3652977158838512e-002 -1.9729057859369077e+000
    2.5045043317239987e-002 -1.7406305105481792e+000
    1.9719093445623580e-002 -1.5849221356919951e+000
    1.7038872203703065e-002 -1.5377582163842016e+000
    1.5100065724358793e-002 -1.5043440477892447e+000
    1.3477566308725892e-002 -1.4690547276511223e+000
    1.2901883328603059e-002 -1.4772656411250502e+000
    1.3289274900557159e-002 -1.5299277729266429e+000
    1.3577510372182359e-002 -1.5749912031731537e+000
    1.4409386449679805e-002 -1.6642841349380175e+000
    1.7289347792957148e-002 -1.9558574690782773e+000
    2.0786093351189486e-002 -2.2942650536375395e+000
    4.2063337234080012e-002 -2.1557460332466007e+000
    4.2063337234080012e-002 -2.1557460332466007e+000
    3.0556839467867594e-002 -1.8754260223403736e+000
    2.2723238419487812e-002 -1.6644772142274822e+000
    1.7780939114653088e-002 -1.5069345899668491e+000
    1.5699952283256602e-002 -1.4816829967323417e+000
    1.4334638852822974e-002 -1.4746759719841633e+000
    1.3142562678992638e-002 -1.4637529183728051e+000
    1.2835355161286838e-002 -1.4792746823383081e+000
    1.3529137651763971e-002 -1.5440128345075632e+000
    1.4155080170467944e-002 -1.6012934442841862e+000
    1.5320189620883945e-002 -1.6986260242155073e+000
    1.9072719867469376e-002 -2.0217083059517540e+000
    2.3350026867596175e-002 -2.3612714669856634e+000
    3.9215686274509803e-002 -2.0784313725490198e+000
    3.9215686274509803e-002 -2.0784313725490198e+000
    2.8098209799348059e-002 -1.8017977033831942e+000
    2.0683507599800765e-002 -1.5822883313847584e+000
    1.6163001479757324e-002 -1.4364867565134323e+000
    1.4578843389785122e-002 -1.4250819413514957e+000
    1.3682612222402912e-002 -1.4452259159913077e+000
    1.2839057273548133e-002 -1.4540232362293262e+000
    1.2840462931591004e-002 -1.4878886421981077e+000
    1.3806571835479847e-002 -1.5601426174092228e+000
    1.4769602723199514e-002 -1.6283487002327464e+000
    1.6364469823251643e-002 -1.7387249187204872e+000
    2.0946786983523803e-002 -2.0763502597417971e+000
    2.5556236127579963e-002 -2.3479791942214092e+000
    3.8877575615547652e-002 -2.0653712045759689e+000
    3.8877575615547652e-002 -2.0653712045759689e+000
    2.7363903728373797e-002 -1.7786537423442967e+000
    1.9960678766687494e-002 -1.5594280286474604e+000
    1.5546236005360745e-002 -1.4166507559884978e+000
    1.4116836218853099e-002 -1.4152128309400231e+000
    1.3449519732792391e-002 -1.4441421813085831e+000
    1.2709641466478376e-002 -1.4504878323618446e+000
    1.2820792698901413e-002 -1.4920197503346520e+000
    1.3925052103794022e-002 -1.5717902562157502e+000
    1.5000433612551260e-002 -1.6387973721712252e+000
    1.6757096431073037e-002 -1.7511165770471324e+000
    2.1635929139638140e-002 -2.0851626708326259e+000
    2.6283954928838411e-002 -2.3129880337377799e+000
    4.0088794796638530e-002 -2.1096728261731026e+000
    4.0088794796638530e-002 -2.1096728261731026e+000
    2.7432190477077151e-002 -1.7865214048196494e+000
    1.9657562426214106e-002 -1.5504902363676376e+000
    1.5212424801857203e-002 -1.4109524003722556e+000
    1.3872528771194572e-002 -1.4097957363726483e+000
    1.3303820500537002e-002 -1.4418015467456975e+000
    1.2654236644740744e-002 -1.4584007733063709e+000
    1.2840314075355377e-002 -1.5023167468165790e+000
    1.3949417399763782e-002 -1.5745404889983368e+000
    1.5070243278652105e-002 -1.6407727369632479e+000
    1.6931681455598851e-002 -1.7566619510183807e+000
    2.1956820456648672e-002 -2.0858979433816240e+000
    2.6897785100617747e-002 -2.3199339649282806e+000
    4.1918152187975087e-002 -2.1849836827982014e+000
    4.1918152187975087e-002 -2.1849836827982014e+000
    2.7915432671884618e-002 -1.8005454073365579e+000
    1.9713345241682802e-002 -1.5499617696273102e+000
    1.5154369258326954e-002 -1.4112506371816977e+000
    1.3816451787011727e-002 -1.4092780822751962e+000
    1.3275800458507129e-002 -1.4454027749199636e+000
    1.2679594159471543e-002 -1.4660780746888971e+000
    1.2807773090850291e-002 -1.5001104232658402e+000
    1.3984496727517393e-002 -1.5819961923004051e+000
    1.5088539518965336e-002 -1.6408786726874802e+000
    1.6957108381283961e-002 -1.7571803560105506e+000
    2.2047437176150882e-002 -2.0862387427932774e+000
    2.7338487218907855e-002 -2.3408579681189852e+000
    4.5210729835956316e-002 -2.2887931979452887e+000
    4.5210729835956316e-002 -2.2887931979452887e+000
    2.9207196955888234e-002 -1.8546570066989030e+000
    2.0304372333663868e-002 -1.5812029954840738e+000
    1.5293935073491119e-002 -1.4146889942979286e+000
    1.3869588834548590e-002 -1.4112306639153192e+000
    1.3325044772225651e-002 -1.4457673577864831e+000
    1.2672719731970339e-002 -1.4652832190090705e+000
    1.2822241774226563e-002 -1.5018050678062862e+000
    1.3893097957303846e-002 -1.5716567064199976e+000
    1.4999062587881470e-002 -1.6348978220790802e+000
    1.6784957012744191e-002 -1.7414392900722098e+000
    2.2032716020660769e-002 -2.0848457534550251e+000
    2.7438643819551373e-002 -2.3425742160941985e+000
    4.8971128170707250e-002 -2.4179494534286703e+000
    4.8971128170707250e-002 -2.4179494534286703e+000
    3.0458128153121738e-002 -1.9112475416083892e+000
    2.0642772795481552e-002 -1.5972345450503851e+000
    1.5438607895559444e-002 -1.4203519263914688e+000
    1.3941768338956297e-002 -1.4150894864040642e+000
    1.3349975551054468e-002 -1.4468036003455280e+000
    1.2657974326078228e-002 -1.4619960346620353e+000
    1.2714439983219496e-002 -1.4907680880324861e+000
    1.3763370842088490e-002 -1.5604221692217826e+000
    1.4867628536294740e-002 -1.6242884175902004e+000
    1.6620311300982456e-002 -1.7264348363895528e+000
    2.1816676339154760e-002 -2.0644029985925192e+000
    2.7725014612494464e-002 -2.3635574957151531e+000
    5.2599715502058164e-002 -2.5379362729743065e+000
    5.2599715502058164e-002 -2.5379362729743065e+000
    3.2066768389743289e-002 -1.9881396401640838e+000
    2.1152772994661589e-002 -1.6234753273402769e+000
    1.5628845919067123e-002 -1.4319930073345253e+000
    1.3951941595732107e-002 -1.4161220719668088e+000
    1.3260745246313450e-002 -1.4387908592250094e+000
    1.2497376314559522e-002 -1.4465713084102647e+000
    1.2496598678821203e-002 -1.4699124195963440e+000
    1.3486526210041528e-002 -1.5340923563922237e+000
    1.4495822435960173e-002 -1.5891045345421340e+000
    1.6258013492100157e-002 -1.6989624099244665e+000
    2.1214562537044068e-002 -2.0100798003849256e+000
    2.7265985549080059e-002 -2.3142005234781702e+000
    5.6865013403618346e-002 -2.7010881366718715e+000
    5.6865013403618346e-002 -2.7010881366718715e+000
    3.3501260508640399e-002 -2.0435768910270644e+000
    2.1584444515836326e-002 -1.6458138943325198e+000
    1.5804598720714685e-002 -1.4421696332652150e+000
    1.3949905162763992e-002 -1.4089404214391632e+000
    1.3180805916411685e-002 -1.4268222404515649e+000
    1.2368809089684366e-002 -1.4270513487223337e+000
    1.2291484053760697e-002 -1.4457858118236020e+000
    1.3239518037357893e-002 -1.5093050562587997e+000
    1.4215018963117252e-002 -1.5654289633132874e+000
    1.5876797763449944e-002 -1.6650791654418129e+000
    2.0814145104060048e-002 -1.9773437848857045e+000
    2.6459476972832886e-002 -2.2457481080691912e+000
    6.0329697740676161e-002 -2.7450012472007654e+000
    6.0329697740676161e-002 -2.7450012472007654e+000
    3.5082658107154011e-002 -2.0918034896390578e+000
    2.1882113109988079e-002 -1.6466290115266029e+000
    1.5795231132678913e-002 -1.4334172252906114e+000
    1.3890417113101171e-002 -1.4011958262840807e+000
    1.3080069879805993e-002 -1.4159175644889987e+000
    1.2229742735859927e-002 -1.4140640038338042e+000
    1.2195929681705618e-002 -1.4375952112310497e+000
    1.3021391472894555e-002 -1.4893216497123147e+000
    1.3941958882847218e-002 -1.5493001808563971e+000
    1.5473945706612141e-002 -1.6421724881142135e+000
    2.0167070362237163e-002 -1.9259552195936491e+000
    2.5674808298154838e-002 -2.1695213011940839e+000
    6.4568641802866061e-002 -2.8490913195514649e+000
    6.4568641802866061e-002 -2.8490913195514649e+000
    3.6287243658638099e-002 -2.1137319431156691e+000
    2.2196973822316966e-002 -1.6453506845792452e+000
    1.5778018564839767e-002 -1.4239661754767889e+000
    1.3896597956015080e-002 -1.3966080945795154e+000
    1.2998133378671235e-002 -1.4021736382241594e+000
    1.2147355954750857e-002 -1.4045380322680678e+000
    1.2039580469015208e-002 -1.4221754429024214e+000
    1.2851243949174558e-002 -1.4811058651423679e+000
    1.3635943242346934e-002 -1.5289301360481500e+000
    1.5085105573963985e-002 -1.6178775728076373e+000
    1.9564229987759925e-002 -1.8757205500764829e+000
    2.4824616876207677e-002 -2.1038862802586005e+000
    7.4255733902529639e-002 -3.0537670567415316e+000
    7.4255733902529639e-002 -3.0537670567415316e+000
    3.8279702891325033e-002 -2.1340934361913706e+000
    2.2583377186687341e-002 -1.6372948460348322e+000
    1.5926556791328556e-002 -1.4194543740271575e+000
    1.3894103674131767e-002 -1.3876736044539102e+000
    1.3056635625028392e-002 -1.4068524885968092e+000
    1.2172063214508561e-002 -1.4119593328829931e+000
    1.2002666388440195e-002 -1.4268169669258282e+000
    1.2706306570399686e-002 -1.4755198504876637e+000
    1.3397065162641190e-002 -1.5155429965237845e+000
    1.4759946625915513e-002 -1.5977642222553543e+000
    1.9127647646277748e-002 -1.8434270419100178e+000
    2.4166758052637863e-002 -2.0451119002044793e+000
    8.6553529794230838e-002 -3.3431300883021660e+000
    8.6553529794230838e-002 -3.3431300883021660e+000
    4.0723148118768406e-002 -2.1786884243541098e+000
    2.3188892861508010e-002 -1.6406141699516916e+000
    1.6042795085291842e-002 -1.4077552687343591e+000
    1.3969819809182113e-002 -1.3812659336328814e+000
    1.3069121692163397e-002 -1.4032969416960448e+000
    1.2170485544360347e-002 -1.4117763231458003e+000
    1.1961273774975746e-002 -1.4278770568877297e+000
    1.2541773414405837e-002 -1.4642520461318815e+000
    1.3158624478666772e-002 -1.5017280186278454e+000
    1.4387581682512847e-002 -1.5700448511042144e+000
    1.8582804836886031e-002 -1.8002092185733343e+000
    2.3466162723196606e-002 -1.9946238314717115e+000
    9.8540402341592087e-002 -3.6090422357608101e+000
    9.8540402341592087e-002 -3.6090422357608101e+000
    4.3406522971298253e-002 -2.2571391945075092e+000
    2.3734066265802069e-002 -1.6465508471900185e+000
    1.6177006576344907e-002 -1.4013331946758776e+000
    1.4050751643109373e-002 -1.3839990368462733e+000
    1.3079999947680001e-002 -1.4060999943756001e+000
    1.2086853932431295e-002 -1.4141619100944616e+000
    1.1789834504390044e-002 -1.4221487870920491e+000
    1.2327739360524054e-002 -1.4531322771217730e+000
    1.2780677951189874e-002 -1.4745707186185317e+000
    1.3881610583059648e-002 -1.5304475667823263e+000
    1.7961254461411284e-002 -1.7512223099876001e+000
    2.2498999212283509e-002 -1.9039778083394920e+000
    1.0527227119356303e-001 -3.6450523900771197e+000
    1.0527227119356303e-001 -3.6450523900771197e+000
    4.5679991980878111e-002 -2.3011295960367351e+000
    2.4466776794595402e-002 -1.6637408220324874e+000
    1.6376431642973852e-002 -1.4022319594296360e+000
    1.4070557839027054e-002 -1.3789146682246511e+000
    1.3070499615345822e-002 -1.4116139584573488e+000
    1.1992628298316280e-002 -1.4106329035894525e+000
    1.1652995566311697e-002 -1.4187522101984491e+000
    1.2022818420414805e-002 -1.4322182443319136e+000
    1.2373290888069073e-002 -1.4414883884600471e+000
    1.3378917893708342e-002 -1.4900769804117666e+000
    1.7187814721168516e-002 -1.6844058426745145e+000
    2.1579418302520425e-002 -1.8288557011386060e+000</input_scale>
  <output_scale>
    5.2631578947368418e-001 4.9999999999999994e-001</output_scale>
  <inv_output_scale>
    1.8999999999999999e+000 -9.4999999999999996e-001</inv_output_scale>
  <weights>
    <_>
      -4.8030505863524260e-002 2.4799999654106033e-002
      4.4139935477228137e-002 1.7018229157690357e-002
      2.2024084238126151e-003 1.9595641143436985e-002
      -4.0936631929191912e-002 1.8082094895997120e-002
      3.3362664338871327e-002 1.4844765760008004e-002
      1.4517034128700749e-003 1.8182678567402761e-002
      -4.3139838604880756e-002 1.7626375752829566e-002
      4.2189986089552795e-002 1.2464597602214047e-002
      -2.5033553206010683e-003 1.9525110917789891e-002
      -4.3919664525984357e-002 2.3155932927511988e-002
      3.7252771224293164e-002 1.1041954496242873e-002
      -8.1257286582587431e-003 1.0312022434109341e-002
      -4.0926706901239111e-002 2.2603784434281855e-002
      3.7784635296161946e-002 1.9293888502929560e-003
      -6.1325011848495509e-003 1.6987163585675865e-002
      -3.1781195749734273e-002 1.3963407822619237e-002
      2.8441970293553435e-002 8.2620442491447791e-003
      -2.2354590737117281e-003 1.8141831630424210e-002
      -1.6429324236489896e-002 1.4445291454735226e-002
      1.6590392141607811e-002 6.2053507927296954e-003
      -3.8577144410786766e-003 5.2455817504829675e-003
      -1.8852351025023289e-002 7.2286821491016921e-003
      8.4676951743921248e-003 4.2199958640317236e-003
      -1.4137567662516904e-005 1.3416035957093940e-002
      -1.3350034738284887e-002 2.0693936380659864e-003
      1.3220644292332552e-002 1.1189723177148366e-002
      -3.5991383876037681e-003 1.2054520984006965e-003
      1.0949042354103202e-003 2.3383000479080757e-003
      6.3275682699358475e-003 9.0493305593817679e-003
      -7.1010821684066514e-003 6.1216443257330129e-004
      7.3439173088723116e-003 1.6010683493017264e-003
      -8.3262682184757943e-003 6.3170671768605713e-003
      -4.8833009692124266e-003 -1.3101854233262531e-004
      6.5818934975425333e-003 4.8824072743342087e-004
      -6.5427175559613316e-003 6.6956188324719416e-003
      4.2369223046339411e-003 1.3659766827242175e-003
      6.0456773642626651e-004 -2.5577651848238759e-003
      -4.9273582648720650e-003 1.3142560361843605e-002
      -2.3119339891592176e-004 3.5210393275159025e-003
      6.3267046403383425e-004 1.3466293025592680e-003
      -1.0882098305159016e-002 1.0820504692368617e-002
      6.8102833411941002e-003 -2.0083475289854927e-003
      -4.4683970787925215e-002 2.7287870475361055e-002
      4.0529692595258002e-002 1.1562097299562287e-002
      2.6919280884313721e-003 1.0169100619223605e-002
      -4.6173243102134512e-002 2.8157264649501627e-002
      4.1469976724627058e-002 1.3119946058093268e-002
      -4.0588449132878046e-003 1.2629599575693514e-002
      -4.2716517478523744e-002 1.8021330071231155e-002
      3.9942513267027469e-002 4.3918652432851282e-003
      -3.9155152042739151e-003 1.6820649768422170e-002
      -3.6244140259382579e-002 2.2537778760405316e-002
      3.8781060162993555e-002 8.3456362492051548e-003
      -7.3889698444639428e-003 1.2690846135949653e-002
      -3.2725371578459977e-002 2.2722584074560230e-002
      2.3120333219213533e-002 8.1018312145812888e-003
      -3.0181295298667399e-003 1.2650127155505881e-002
      -2.3887083940981088e-002 1.9772365514218158e-002
      1.6783728224802470e-002 8.1803714614406622e-003
      -5.3594032450146505e-003 1.2975259493637514e-002
      -1.0163099715072852e-002 1.1124812144450968e-002
      9.8037023239918655e-003 1.9384522837417877e-003
      2.0772661149372603e-004 9.3254650772208823e-003
      -1.1676685620337298e-002 4.9476613701227830e-003
      1.0090376077998583e-002 4.9117518887857583e-003
      -6.6265371921317255e-003 9.8930110652276082e-003
      -3.0588592205816486e-003 2.1261256550934903e-003
      -2.0904640345746775e-003 1.3119566228518536e-003
      -7.0094074660791714e-003 -3.6601831197336132e-003
      8.2645165468357153e-004 3.5817308058076354e-003
      -1.1759917112715372e-002 2.5080759174884401e-003
      -6.9315003564915430e-003 -5.2132318512507847e-003
      1.4227904529063577e-002 -9.8886031709706241e-003
      -1.2325057558646326e-002 3.2326673866922575e-003
      1.4936911984282254e-003 2.2035029733380976e-003
      7.1875211136347740e-003 -4.6776368034126062e-003
      -1.6080959017405184e-002 7.5657430049669797e-003
      4.8130873967655620e-003 -4.8239392515806306e-003
      7.7039740436368369e-003 -1.3023431285968844e-002
      -1.4357592051608012e-002 6.8985060781302223e-004
      5.9627139122176770e-003 -3.0888147946634506e-003
      6.7133787592962508e-003 -1.2915015353164822e-002
      -1.1916563649035176e-002 4.2474369778747311e-003
      1.2980392546113736e-003 8.9231806386206832e-004
      -3.8140129314160963e-002 2.5557631628733993e-002
      3.4786716421756070e-002 2.5953557367977037e-003
      -1.5336979231857372e-003 1.5492548890143763e-002
      -4.8008736438327350e-002 3.0929553293597374e-002
      4.3271981868037747e-002 1.5330033546928983e-003
      6.0232838404785185e-004 1.8428876829152924e-002
      -4.0606757650492785e-002 2.6570144462698501e-002
      3.6279735124053886e-002 9.1276689230354105e-003
      -9.7943475327778341e-003 1.3943687143564525e-002
      -2.4396503759817709e-002 2.3193001038758317e-002
      2.8581115657119710e-002 8.8351321652863132e-003
      -1.0435169404684969e-002 1.6325666810527988e-002
      -2.1487898440452558e-002 1.8547573103805757e-002
      2.2436744594435447e-002 2.3801217272549600e-003
      -1.4658654946123069e-002 1.6416389382033755e-002
      -7.4293168358040076e-003 3.7321054595027101e-003
      7.9713854930662381e-003 1.2279424503510532e-003
      -8.0192558431989476e-003 4.9538819740801761e-005
      -3.8103872390305528e-004 -1.6907431661036013e-003
      -1.8421224661674151e-003 8.7125896352988254e-003
      -5.8978861962544996e-004 -1.9327059280005239e-003
      4.5735337690088249e-004 -3.0508336526055032e-003
      -2.2017536728684625e-005 -3.3155344283509336e-004
      -8.4377758797412154e-003 4.9435298837376017e-003
      8.6598174034882344e-003 -7.1612136980628719e-003
      -7.9509100175568885e-003 9.7300261586525192e-003
      -2.2135367485073259e-003 -4.2764862627242957e-004
      2.2187487190089429e-002 -6.1453442534698151e-003
      -1.4644965012036425e-002 3.8794601997295067e-003
      -6.4174410585415226e-003 -6.0542795448485414e-003
      2.4353049966523169e-002 -1.1582622511061451e-002
      -2.0450536024103773e-002 -2.0621858517870685e-004
      -4.8136948844420650e-003 -8.2158560161370436e-003
      2.9911850100800979e-002 -1.7850000213965562e-002
      -1.9693857353917772e-002 8.3081009301121007e-003
      -8.0840021631065819e-003 -7.9022448563468486e-003
      2.0765057836046451e-002 -1.8335108017210604e-002
      -2.1538466587136946e-002 -7.2090646210986285e-004
      2.1592793433886015e-003 -1.4761356865386767e-002
      2.2997666391182673e-002 -1.2151896976696684e-002
      -3.2073545977452649e-002 5.5939983676197361e-003
      2.0124104183614090e-003 -8.2728751444254116e-003
      -3.7653586228762005e-002 1.9682439619006179e-002
      3.3531615703795668e-002 6.9057590541227514e-003
      -1.4150635870157508e-002 1.7085898899207193e-002
      -3.6336840922434985e-002 2.4418568173296011e-002
      3.6209547571406459e-002 -5.5093972575988626e-005
      -1.1124253495510128e-002 1.7825769310755826e-002
      -3.4842293269214633e-002 2.0403644267229182e-002
      2.9649574777340981e-002 1.4713337365412403e-003
      -1.3409551366983959e-002 1.6897229609114890e-002
      -1.3087216054214814e-002 1.5111016885529616e-002
      1.4327141654053081e-002 8.2079315643829222e-003
      -1.0577636281163861e-002 6.8857442975548688e-003
      -1.3123993024980959e-002 4.4300518420585279e-003
      6.9795035486717961e-003 2.3818677193495309e-004
      -4.1344875494896717e-003 9.5681895225421081e-003
      -6.1568904466884136e-003 2.6943640111717995e-003
      2.5233471559496109e-003 6.3088219435108823e-003
      -3.7130364970700738e-003 4.1787794118193994e-003
      1.0388147398367291e-002 7.1086798421501505e-004
      -1.2819305683111371e-002 3.4515675210032245e-003
      -4.9824039089738613e-003 2.9519919860717982e-003
      1.7911471755518393e-002 -8.6215573545264327e-003
      -1.3334235203453917e-002 3.4968521316033549e-003
      -5.6957488068923347e-003 -5.5702629772672006e-003
      1.6822391097623929e-002 -6.1098850944110612e-003
      -1.7391688500812061e-002 6.9088795981911389e-004
      -5.3698209748459652e-003 -4.3990007486733960e-003
      2.8779998284222518e-002 -1.2655784403650047e-002
      -2.2577321319012775e-002 -9.1636434660079258e-004
      -5.2218795995691693e-004 -1.2093168964795767e-002
      2.9094246247974780e-002 -1.8861218600658931e-002
      -2.5471886796421633e-002 -3.6645046455216035e-003
      -3.6272642913142035e-003 -1.3424259867608737e-002
      3.5602121468301287e-002 -1.9207797960487997e-002
      -3.7393166004508163e-002 -2.6975915291167674e-003
      -8.2090141341936498e-003 -6.7292792779616679e-003
      2.9365977711154165e-002 -1.9780127208753429e-002
      -3.6522178313228279e-002 -3.3966271850933813e-003
      -1.0653551447446861e-002 -1.4948699335868841e-002
      3.5504661699137921e-002 -2.4175168384086121e-002
      -3.3159371885450734e-002 2.3266799559556019e-003
      -4.1376524673699165e-003 -1.5065935974794432e-002
      -3.5086791249663608e-002 1.7588046451296975e-002
      2.9391380238793115e-002 -3.0634288887598440e-004
      -1.5942583405377218e-002 1.8307507921431126e-002
      -3.7555764154889683e-002 2.4587568644325535e-002
      3.0690648087291425e-002 4.1964306757964432e-003
      -9.0795807789153058e-003 1.5134247814652755e-002
      -1.6432161193397604e-002 1.5037631322012144e-002
      2.3218025971201692e-002 7.1112283367461004e-003
      -6.9973322844918470e-003 1.0854829034839671e-002
      -8.3074528000893835e-003 1.2713567336444647e-002
      6.9531542719369708e-003 4.8101983615777277e-003
      -1.1084840687417904e-002 2.2472058435236697e-003
      1.0294913794731172e-003 -1.9418032104764154e-003
      1.8273235586271012e-003 -3.0569489646584762e-003
      -1.5185317548683460e-002 7.4540573567224262e-004
      4.0072945999152267e-003 -8.0053965381119158e-003
      -5.8757765034455241e-003 -4.0985597376358533e-003
      -1.1014590686257772e-002 3.4565539611684255e-003
      1.3215103880142780e-002 -9.2341198239846989e-003
      -1.5393963750931001e-002 6.3364837444571708e-003
      -1.0486850754775422e-002 -8.9173146343335709e-003
      2.2032646221740910e-002 -8.1650995150184900e-003
      -2.3933656037623346e-002 2.8284398749935050e-003
      -7.2866251395690678e-003 -8.7895914538801394e-003
      2.3532228899552924e-002 -1.6250288536110186e-002
      -2.1795325358188851e-002 -9.5779463873672224e-004
      -5.6231255148890321e-003 -8.4958523818641045e-003
      2.7506382060912601e-002 -1.9026638024403637e-002
      -2.7096226382579202e-002 5.4740172500271911e-003
      -1.6934738589443805e-003 -1.0520304850001428e-002
      4.1460345638637583e-002 -1.8302880386443683e-002
      -3.7302320223445089e-002 -2.4747715803670549e-003
      -4.1158449954294962e-003 -9.9966182675392829e-003
      3.5265636117754968e-002 -1.7660249484626477e-002
      -4.3429892301981445e-002 -6.2204553242302656e-003
      -1.1372958920165488e-002 -1.8322985585330520e-002
      4.2698946452274379e-002 -2.4007216079860585e-002
      -4.1306511059977125e-002 -2.3664323938576504e-003
      -6.7833842429769996e-003 -1.5905265982726988e-002
      3.5930793353044124e-002 -2.7720087823253841e-002
      -4.3629881512718717e-002 -1.9921999386863305e-003
      -1.9280289069434738e-002 -1.4621191666404187e-002
      -3.2468133569692602e-002 2.0533957137630000e-002
      2.7489765751032534e-002 -4.4654030852081120e-003
      -1.0853749640490530e-002 1.4927420203588199e-002
      -3.2540377781992681e-002 1.3857616194663384e-002
      2.4574093615291080e-002 4.6621591436727392e-004
      -8.5625241735325115e-003 1.0807846122339967e-002
      -8.2392876724904692e-003 1.1098981173204146e-002
      8.3504953671568599e-003 6.1891232810136537e-003
      -1.1238557762494165e-002 9.5182583552444449e-003
      -5.9958685221165745e-003 -5.7861280958323481e-004
      7.3179434270875387e-004 2.1254975178859959e-003
      -1.5651884867457486e-002 7.6582087688526184e-004
      8.3214490080270721e-004 4.0407745459959633e-003
      -3.9542114834746206e-003 2.8855854283988762e-003
      -1.2089345974729339e-002 6.3144556889235320e-003
      1.4079316614886622e-002 -7.1334173348026400e-003
      -1.2678894901714215e-002 -4.6796293034762114e-003
      -7.6190826950684890e-003 -7.9695472207030292e-003
      2.3449394585779017e-002 -7.7551335740335733e-003
      -2.0536439668219199e-002 3.0851660080624633e-003
      -7.6764441222957518e-003 -7.4255902980750500e-003
      2.4609457992867532e-002 -1.2585263786266274e-002
      -2.8511333093915694e-002 5.5096260665620442e-003
      -4.5470038592157003e-003 -1.4323607828475844e-002
      3.4541121553202950e-002 -1.2872532278425178e-002
      -2.9813719836116460e-002 3.9095286252689536e-003
      -3.0503877062324557e-003 -1.6375123181586290e-002
      3.7959724385580061e-002 -1.6158831120539868e-002
      -3.3158740337687877e-002 3.3898930547011197e-003
      -1.2620717561531790e-002 -1.2895809206442010e-002
      3.5432891417641249e-002 -2.8139261715086402e-002
      -4.1739275222669694e-002 -4.7065793370122747e-003
      -2.8710814902648588e-003 -1.0068422775081432e-002
      3.9423249932363284e-002 -2.7086116970827849e-002
      -4.4758241277335888e-002 -7.3788312037495083e-003
      -1.3414759660842738e-002 -1.0932328389557306e-002
      4.2370882836573212e-002 -2.2803319377744963e-002
      -4.1028232795537814e-002 -4.6392695937280369e-003
      -1.5804253831322092e-002 -9.6583107211954018e-003
      4.1811155905639823e-002 -2.7222529757380362e-002
      -4.4447493437515757e-002 -3.3978811662497442e-003
      -2.2899480475628602e-002 -1.2541770009061084e-002
      -2.1769353401610507e-002 1.2910642277965489e-002
      2.1571949926516981e-002 -5.1140853919981180e-003
      -1.0272703803112989e-002 1.5296837489770242e-002
      -2.0762910519333818e-002 9.8731300203067900e-003
      1.2666919898983279e-002 4.0125632775085312e-003
      -1.3376334446988615e-002 1.3526512302524211e-002
      3.1507800025194319e-003 8.5438053364319676e-004
      -1.5582713428035368e-003 1.5834769276074758e-003
      -1.4856828657978792e-002 5.0120678710804511e-003
      8.0343905603182039e-003 -1.0786996192844408e-003
      -7.7735454677290705e-003 2.7733089942287969e-003
      -1.2648971220227522e-002 1.4309894777230494e-003
      1.2088340885115786e-002 -6.0295098058500245e-003
      -1.2594444962016104e-002 2.3177163762789382e-003
      -9.8601782575272467e-003 -2.1070612315665124e-003
      2.1134679161578279e-002 -7.0013393440693187e-003
      -2.2787555480518522e-002 3.2870622825247340e-003
      -1.1745082893621219e-002 -1.7393357097562423e-003
      2.6371481419647805e-002 -1.6834351213707410e-002
      -2.8342725557844610e-002 4.1876669914958826e-004
      -1.0024479052723061e-002 -5.1581604658553449e-003
      3.7755468810077276e-002 -2.4972355086293987e-002
      -2.8399772104034309e-002 1.2374330691708997e-003
      -5.6223418314079905e-003 -1.5024429600088748e-002
      3.5216381205061639e-002 -2.6320067449794732e-002
      -4.1067482004657381e-002 5.0853393078444489e-004
      -3.4169441354062664e-003 -1.8517956332256315e-002
      4.2385198836902546e-002 -2.1608884413828661e-002
      -3.5603798214315155e-002 -2.4256358661289700e-003
      -2.6859307446822304e-003 -2.0037210249560719e-002
      4.5616006734086077e-002 -3.3766587677192074e-002
      -4.3856076709134217e-002 -4.9610200764853458e-003
      -8.9779251607944675e-003 -2.0887550967832857e-002
      4.8162640066364636e-002 -2.8411046731239894e-002
      -4.5847499141412715e-002 -6.3924220625594342e-003
      -1.2495497158529071e-002 -1.9911121388965627e-002
      4.8957902521447466e-002 -3.1589104467952080e-002
      -4.9031485643475890e-002 -1.3076360050235282e-002
      -2.1295399382560795e-002 -2.3667727043266303e-002
      5.5064353179215098e-002 -3.1574143656028043e-002
      -4.9235241582277781e-002 -6.7890191409057275e-003
      -2.1329432333954412e-002 -1.1208701522933854e-002
      -6.6222153555756643e-003 2.3729339080962746e-003
      9.3079839108658174e-003 -7.2647047467508949e-003
      -2.0087017429766655e-002 6.3951315158573222e-003
      -7.0041911360312912e-003 1.2434784166151036e-002
      1.2394118675767339e-002 -6.6328598255765746e-003
      -2.0318768554726235e-002 1.0387768820709957e-002
      1.1259904467823193e-002 -1.9627080444350816e-003
      -9.7568694477400287e-003 -2.1080880606166030e-003
      -8.5584006206090042e-003 -4.8491811939387159e-003
      2.3350142203143149e-002 -1.0420152489793577e-002
      -1.2938284991775071e-002 -3.1983261756340186e-003
      -1.1411971339293264e-002 -4.9462345807101023e-003
      2.5901864221631217e-002 -1.4533041948434767e-002
      -1.8663838426456626e-002 -5.0705953597088424e-003
      -9.1955307980862988e-003 -1.0501258127343224e-003
      3.2950464613055001e-002 -1.4581977903968188e-002
      -3.5508112885751994e-002 3.6959728646359324e-003
      -4.3540944949166946e-003 -1.0708704162194143e-002
      3.2887330522083244e-002 -2.4459828843943043e-002
      -3.6493196117083897e-002 -1.6937750935393089e-003
      -1.4007702145635612e-002 -1.5829005451325876e-002
      3.6373613676799116e-002 -2.9520075193512796e-002
      -3.8096814890699646e-002 5.5255243990458575e-003
      -1.9896665268658766e-003 -1.7196304032286020e-002
      4.5028724512230299e-002 -2.5691627828363216e-002
      -3.8660098924924315e-002 -6.4029792796976882e-003
      -1.3346267245706277e-002 -1.4858849911648623e-002
      5.1962186718648030e-002 -3.0040915169095427e-002
      -4.8448636146034445e-002 -9.8290927661951778e-004
      -1.3422367627966851e-002 -2.4695310770072993e-002
      5.5453641796840016e-002 -2.8981974370013000e-002
      -4.5857711904102025e-002 -5.0813779848495628e-003
      -1.7002215679630912e-002 -1.6474085600629195e-002
      6.3531194191644574e-002 -3.6154858416964634e-002
      -5.6525526863710526e-002 -9.3766621054701335e-003
      -1.2182340486125142e-002 -2.6544195108277140e-002
      6.5899226333375777e-002 -3.7933785953205443e-002
      -5.9055904459087517e-002 -9.9678393337602582e-003
      -2.0970523593212411e-002 -1.6518684670349476e-002
      6.5128103863086553e-002 -2.7213841136704667e-002
      -5.5283674921829951e-002 -2.0493432421038984e-002
      -2.4081845389561499e-002 -2.3075143170199455e-002
      -6.0165033165147117e-004 3.2128523712368819e-003
      -5.3453734062633819e-003 -2.6421854454648430e-003
      -1.8336612665900712e-002 2.9134007289516304e-003
      6.2186903108730970e-003 5.9612350986368483e-003
      -7.9949851011298558e-003 -1.5679887777502446e-003
      -1.2309612128453265e-002 -1.3458257127487419e-003
      1.7947419220818526e-002 -1.2046352034608250e-002
      -1.7881694258033803e-002 4.2635622951778246e-004
      -1.8015891155548552e-002 -2.9954185613481907e-003
      2.2669489704855245e-002 -1.1908429465355181e-002
      -2.6942557078807747e-002 -1.3852100174288051e-003
      -8.6614805198852070e-003 -6.2563899300152161e-003
      3.1022575104757154e-002 -1.6833562323636309e-002
      -2.8912937301648799e-002 -1.5354533614809613e-003
      -5.8778531212985534e-003 -1.2176594299731173e-002
      3.7614163634746685e-002 -2.4244008827836876e-002
      -3.3200595843078572e-002 -5.4828715159075062e-003
      -1.2030327602115337e-002 -1.5463966666528597e-002
      3.5031039459042713e-002 -2.9849447543425792e-002
      -4.2969132075420080e-002 4.0530741421584472e-004
      -4.7134774586877213e-003 -1.0544562498711040e-002
      4.9398886380384775e-002 -2.4964334552365176e-002
      -3.9082246575889198e-002 4.1069994686506291e-004
      -5.2672454748359876e-003 -2.5168421578854558e-002
      5.0853345557738308e-002 -3.1087155913883616e-002
      -4.7265875315501353e-002 -6.0138643851547413e-004
      -8.7613729506041786e-003 -2.1837385129104232e-002
      5.3429366336887461e-002 -3.1322574899413994e-002
      -5.6285104191656873e-002 2.6383791896444292e-003
      -6.0501366340062947e-003 -2.1789716218989411e-002
      6.2310059780136068e-002 -2.9264846264805564e-002
      -4.9339359891906076e-002 -2.5093169679281913e-003
      -7.6845477037431158e-003 -2.9032610508761592e-002
      6.8556207262266744e-002 -3.0490780365780547e-002
      -5.3495127642823014e-002 -2.1738460345313748e-003
      -1.5444735692838983e-002 -2.0197594973213585e-002
      5.9979061764539557e-002 -3.6603652184301817e-002
      -6.0471272590657446e-002 -7.5622456129537507e-003
      -1.5080958903469105e-002 -2.7276591243084559e-002
      6.1784702613725914e-002 -2.8843082535280326e-002
      -5.0823945805463885e-002 -9.8757942479866488e-003
      -3.1545855269134095e-002 -2.6039219454632001e-002
      1.1801205892037517e-002 -1.8231589963393299e-003
      -1.3714125105356795e-002 -9.9043377813506027e-004
      -2.0389757332747064e-002 2.9140501120597144e-003
      1.1353690336923433e-002 -4.7598283202046350e-004
      -8.9389582253151089e-003 -8.5856839055491515e-003
      -1.6059886432655379e-002 3.0687512407613611e-003
      2.6857869641520673e-002 -1.8609016537088678e-002
      -2.8522405807820485e-002 -6.7297479738147115e-003
      -1.2099946258829937e-002 -3.9383052844695846e-003
      3.1483436909589012e-002 -1.1813336913869665e-002
      -2.9580842248249244e-002 -9.8363163108674909e-003
      -9.7651139877309688e-003 -8.4826488664315903e-003
      3.3105538957338088e-002 -1.8386435327076282e-002
      -2.6372063618550632e-002 -8.2237855487111327e-004
      -1.6622566989562413e-002 -1.1366685455400533e-002
      3.9751328653514696e-002 -2.3977674543007754e-002
      -3.5752229160179089e-002 2.1532592245131184e-003
      -1.0115165080247389e-002 -2.0236658041793108e-002
      4.7841845871017946e-002 -2.2005291777070494e-002
      -3.9945503004326109e-002 -7.2389074675950355e-004
      -1.3149925564707718e-002 -1.2510680470588259e-002
      4.8842109023840459e-002 -2.3005626284502301e-002
      -3.9446306292388711e-002 -6.6100129394024935e-003
      -1.2785665675621451e-002 -2.1640181435179890e-002
      5.1426626837812545e-002 -3.0582324023385763e-002
      -5.0716778136961994e-002 -3.8050073785326588e-004
      -7.9534566512267559e-003 -2.7687142238842503e-002
      6.2508677518378464e-002 -3.8000704377275131e-002
      -5.6125703182607241e-002 2.9359537455935321e-003
      -1.2603153526737817e-002 -2.0939619032772968e-002
      6.4333277079265255e-002 -4.2294162716722927e-002
      -5.9521701103383777e-002 -2.8476026182218117e-003
      -1.3082745950441801e-002 -2.7104710078218276e-002
      7.0370671275477442e-002 -4.0065750418535939e-002
      -6.2256135327720612e-002 -8.0766266111985949e-004
      -1.9236518963917617e-002 -3.4085449011565246e-002
      7.3433782977793599e-002 -3.2843552583454352e-002
      -5.9326661825640496e-002 -1.3073592221175993e-002
      -2.1819701704561871e-002 -2.2821081987672041e-002
      6.1902538661203751e-002 -3.9876734407877534e-002
      -5.3297842788244724e-002 -2.2217407526021079e-002
      -2.5390708898985002e-002 -2.9708025674257003e-002
      2.0301035177011199e-002 -6.1862440907497198e-003
      -1.9833937339392853e-002 -7.6734606734067835e-003
      -1.9889052022997521e-002 -8.2020259961826710e-003
      1.9247372375083366e-002 -9.8545626633414554e-003
      -1.6851016760842146e-002 -5.5564680529019252e-003
      -1.8804026977287388e-002 -1.0433663715773011e-002
      2.4671892108333714e-002 -1.6174774105078969e-002
      -3.0063992407189714e-002 -2.0169117713039215e-003
      -1.1841329490419820e-002 -5.6418477932660442e-003
      3.3087488497741194e-002 -1.4705230573652851e-002
      -3.0056895650601999e-002 -1.9197955361523506e-003
      -1.3231549876435912e-002 -1.0723360951052903e-002
      3.7890865387985161e-002 -1.8931409220704756e-002
      -3.2925076831319268e-002 3.7367291390114418e-004
      -1.8416188759025311e-002 -1.2842769141266237e-002
      3.4723479912869851e-002 -2.8552816695529136e-002
      -3.5872002919603040e-002 -9.2372791332130874e-003
      -9.8728162140451006e-003 -1.4081339798907234e-002
      4.2892409759277772e-002 -2.9864688713287488e-002
      -3.8622309579224620e-002 2.4649019217988754e-004
      -5.5234791987947424e-003 -2.3941049592724827e-002
      5.3044470820360679e-002 -3.4850486661200691e-002
      -4.8131308195768004e-002 -3.6819602589220003e-003
      -6.7790852272680549e-003 -2.0474989619288328e-002
      5.4331353984664585e-002 -2.9551416038522835e-002
      -4.6441386357144836e-002 -4.0085189581318187e-003
      -7.2195047432464451e-003 -2.1822663959597310e-002
      5.9762796158863270e-002 -3.3477074149429659e-002
      -4.9733118445582668e-002 -6.0278880502214307e-004
      -1.5172538658722732e-002 -2.8995078937118491e-002
      6.8024698202501913e-002 -4.0493677380671701e-002
      -5.8294502462624638e-002 -6.5408253962870372e-003
      -9.6921824119216363e-003 -2.7431596953001954e-002
      7.2311633991750029e-002 -4.4903998174911842e-002
      -6.6100468211437127e-002 -9.6903996604836042e-003
      -1.7654138908327250e-002 -3.3583418569673555e-002
      6.9550513490031121e-002 -3.4796078182671650e-002
      -6.2963676648440547e-002 -5.0844393442474323e-003
      -1.4855013915458534e-002 -2.5060260051395680e-002
      6.9254709217345681e-002 -3.6752065064077175e-002
      -5.2330646405114971e-002 -1.5159834425241620e-002
      -1.9803049659775619e-002 -2.0489496715609970e-002
      2.5139772700068230e-002 -1.5341867469106853e-002
      -1.8176107924112759e-002 -5.7702784308145986e-003
      -1.6127300462272065e-002 -3.1657569468526553e-003
      2.0087984430199293e-002 -5.3611847847274529e-003
      -2.3366261494393987e-002 -1.6040335015113922e-003
      -2.2890032643273089e-002 -4.5052174118134797e-003
      2.5924226964844223e-002 -1.4807412445180199e-002
      -2.4363744908872092e-002 8.5978377133438127e-004
      -1.4478069874594752e-002 -1.5484240912939776e-002
      3.0047592700919876e-002 -2.3401712268209540e-002
      -3.2349381422189752e-002 -3.0769148588990434e-004
      -9.4764898640255658e-003 -1.3493130138004300e-002
      3.8423331523199870e-002 -2.5474889910089019e-002
      -3.1339966164009955e-002 2.4183900253412819e-003
      -1.3807054216293895e-002 -7.0194264488612455e-003
      3.6889822964486681e-002 -2.1998661950612005e-002
      -4.0399466084093359e-002 -5.5750969421765459e-003
      -7.2797399897292980e-003 -9.6059745131108071e-003
      4.1740869253116090e-002 -3.0833376073085748e-002
      -3.7425282514186843e-002 -4.8869175059146576e-003
      -1.6307730507525105e-002 -1.3653946107409391e-002
      5.2583042814933791e-002 -3.5481098517001118e-002
      -4.9765772173583626e-002 3.4238277670847082e-003
      -3.2817454716178667e-003 -2.5816820931992251e-002
      4.8076260158180624e-002 -3.0474081062304998e-002
      -5.2189233745417833e-002 3.0427862316305680e-003
      -3.3243436101750754e-003 -2.1988477403145374e-002
      6.1886116521666479e-002 -3.8142566997871330e-002
      -5.2702815522902249e-002 8.3406641422255573e-004
      -7.9881080630145717e-003 -3.0438463719448351e-002
      6.6059500869995347e-002 -4.0850001267240657e-002
      -5.2604997464234006e-002 -2.1272382291153951e-003
      -7.4619831338351740e-003 -2.5033410282054476e-002
      6.6239556418322340e-002 -4.4529817219791649e-002
      -6.0145840234669713e-002 -5.1028726290468602e-003
      -1.0653412281066008e-002 -3.1600681653935078e-002
      7.2865102480050986e-002 -4.1458099425088969e-002
      -6.6752027866234215e-002 -1.1262491000618829e-002
      -1.5900606455136836e-002 -3.2557795823355218e-002
      6.8657025931885704e-002 -3.2966534761472009e-002
      -5.8235595669877939e-002 -1.3305337858126542e-002
      -2.0365546692302110e-002 -2.9063489994867821e-002
      2.1906805074873602e-002 -1.8114587872675419e-002
      -2.1168109670156449e-002 -4.0572400377428619e-003
      -2.4514130179364910e-002 -1.9570533232501166e-003
      2.0673674104819212e-002 -1.5962187895806564e-002
      -2.4456426491495313e-002 -9.5267692359831610e-003
      -2.5539202318581946e-002 -1.1308171575081054e-002
      2.9505259588034478e-002 -2.2059801440415448e-002
      -2.4001317717379785e-002 -4.5853952042199985e-003
      -1.6941284953131013e-002 -4.9816537297102358e-003
      3.6233412834214454e-002 -2.3925520670576374e-002
      -2.7595007872626101e-002 -8.7523503069092679e-003
      -8.4377134540618032e-003 -9.9490600339664573e-003
      3.4484203105463615e-002 -2.2524769482362657e-002
      -3.9362457180540995e-002 2.0492633091243068e-003
      -7.2799907488686954e-003 -1.4748532596227399e-002
      3.2990695622055706e-002 -2.0891619313060713e-002
      -4.3817925677320228e-002 2.5858535108539290e-003
      -7.6027525549004927e-003 -1.4204170267372297e-002
      4.2957427309712679e-002 -2.7503990843272423e-002
      -4.7985053754201062e-002 -6.6607432685955887e-003
      -1.5605403116585851e-002 -1.6460722424277725e-002
      5.4374905606338161e-002 -2.3311650894727316e-002
      -4.4247499206830555e-002 -1.5334625413217424e-003
      -1.2155061041738625e-002 -2.5060550443949434e-002
      5.3283079485287016e-002 -3.6497882157166907e-002
      -5.5435607947084631e-002 -5.4253401510815360e-003
      -1.0260767574118965e-002 -1.9274283384085000e-002
      5.3498627587176745e-002 -3.9430838673717543e-002
      -5.2276178357899453e-002 -7.7932081647769250e-003
      -7.4064122546327301e-003 -2.6149571316837504e-002
      6.5759673393257098e-002 -4.2943031947814389e-002
      -5.3588493605296113e-002 -7.6515501977664066e-003
      -9.0813460179265462e-003 -2.9751764633577222e-002
      7.1411318107320293e-002 -3.8767524040395913e-002
      -6.6333708256372859e-002 -5.2311140790256977e-003
      -1.0700387310077580e-002 -3.3646831708063131e-002
      7.5388790996706367e-002 -4.5009963283169779e-002
      -5.9117592601735713e-002 -7.6064572274581526e-003
      -2.1985249075751244e-002 -2.7787493534930929e-002
      6.3827037564416891e-002 -3.9889317581415923e-002
      -5.8365328445363449e-002 -1.3316938796668122e-002
      -2.0582236975078837e-002 -2.3931048856070752e-002
      2.2432722411370992e-002 -9.9760350393970059e-003
      -2.5080921696876691e-002 -3.4453587117017450e-004
      -1.9644452803265312e-002 -1.3595303036345664e-002
      2.2893291861085751e-002 -7.0773678638684544e-003
      -1.7754797896235335e-002 -3.5860539163035769e-003
      -1.9145768928719272e-002 -1.0868207973696873e-002
      2.8190426190599405e-002 -2.1077887520428336e-002
      -2.8014046861470836e-002 -1.1601622510934303e-003
      -2.0634519519690003e-002 -1.5919200433808865e-002
      3.6541464289869055e-002 -1.3540714137924710e-002
      -3.0171709048324391e-002 -4.8046958865071805e-003
      -9.4520039832531998e-003 -8.9960916765934023e-003
      2.7187542121348506e-002 -1.5703742214066143e-002
      -3.5457637707962036e-002 6.2556083377942186e-004
      -8.6007835413104538e-003 -7.1034699077530856e-003
      4.0859517841999357e-002 -2.0665605404929999e-002
      -4.1569056669710572e-002 1.0530951655062593e-003
      -1.3865135898063806e-002 -2.0814583289938810e-002
      3.9449946320835247e-002 -2.3790777446105898e-002
      -4.5312167169642328e-002 5.6530222119078829e-004
      -8.9150310215810481e-003 -1.9012657490751341e-002
      5.4888511130952146e-002 -2.7247368224589057e-002
      -4.7737264271306409e-002 4.0397196119798693e-003
      -1.1806520180689681e-002 -1.8701789984676750e-002
      5.7380892744080848e-002 -3.6559315750245402e-002
      -4.6572666533732140e-002 -5.6307210071399241e-003
      -1.2570505563712643e-002 -2.3531040039989851e-002
      5.8500055741177275e-002 -3.6491299316577346e-002
      -5.5856170212949821e-002 -8.6043886002786420e-003
      -6.7921902556911870e-003 -1.9939588249903877e-002
      5.5743392602967769e-002 -3.2247774538665584e-002
      -5.9634930669140093e-002 -7.3821403031343958e-003
      -8.3014614822895724e-003 -2.7216424280339217e-002
      6.0546470651283005e-002 -4.0907079084250071e-002
      -6.1463650579885433e-002 -1.1555914621165207e-003
      -7.3559261139485212e-003 -2.2595301361146691e-002
      7.5443084944719851e-002 -3.8232496695766546e-002
      -6.7511608565440362e-002 -1.3696574276392702e-002
      -2.0131973887988115e-002 -2.3567075806248717e-002
      6.8817040000831511e-002 -3.6183435499298630e-002
      -6.0408600344880499e-002 -1.1146267676545796e-002
      -2.0038092285927754e-002 -2.7803473753729623e-002
      2.4819922350062355e-002 -1.5379570418340994e-002
      -2.4120132906726516e-002 -7.5502798452773395e-003
      -1.5364729269507564e-002 -1.6241623091611816e-002
      2.8033071584500559e-002 -1.7678300647666064e-002
      -2.4725062225064175e-002 -1.0247679540407501e-002
      -2.5439399381934076e-002 -8.3924632388433125e-003
      3.3927908475161889e-002 -2.1551298241973212e-002
      -2.6213819020189419e-002 1.8244092815395644e-003
      -1.3317959340313185e-002 -1.4283475734696828e-002
      3.6816745796414668e-002 -1.4778270299756721e-002
      -3.3922326266982612e-002 -5.3197134890835438e-003
      -1.1526531723778009e-002 -1.5296395043719170e-002
      3.5803432570822150e-002 -1.9314631083726667e-002
      -3.3204584820186164e-002 -5.5576244272699943e-003
      -1.3810712601019678e-002 -8.6396975683491386e-003
      3.5236033935723644e-002 -1.6952114653627191e-002
      -3.3787329715180586e-002 -1.3766847836670837e-003
      -7.6904158550234452e-003 -1.5544872322897321e-002
      4.7145410599704722e-002 -2.9136372240519605e-002
      -3.5463253282543225e-002 -8.4126550723683628e-003
      -9.0637133725716152e-003 -2.0731592398433425e-002
      4.8552118443017787e-002 -3.4622678787202460e-002
      -4.8293890257105461e-002 -1.4927663129348913e-003
      -1.4210485892430003e-002 -1.7950858882655813e-002
      5.3943824458576754e-002 -3.3203696544638193e-002
      -4.6269173157672289e-002 -3.5610434051336765e-003
      -4.7152803954409401e-003 -2.7023790654839994e-002
      5.2686993788974491e-002 -3.2089109924995425e-002
      -4.9991562992782089e-002 -1.6752149444760748e-003
      -1.4387086880924466e-002 -1.9084102516622539e-002
      5.9682633336617955e-002 -3.7366894367205736e-002
      -5.5923741993604566e-002 2.2509405619850955e-003
      -6.9682267351598784e-003 -2.7344481441807646e-002
      6.2139842393669674e-002 -4.3050297233985527e-002
      -6.3265727277915601e-002 6.7415847553710601e-004
      -1.5278650867385094e-002 -3.1873247190103815e-002
      6.9316978973434556e-002 -3.8001201620160498e-002
      -6.6749278519331684e-002 -1.3919056584981153e-002
      -1.7670122900758232e-002 -3.4345526732506855e-002
      6.6489512443983934e-002 -2.9894047383826103e-002
      -5.3435041898354171e-002 -1.9085540175001948e-002
      -1.8154190269100545e-002 -2.8477303063044100e-002
      2.4928598030684476e-002 -1.3222367381203932e-002
      -2.4028793166834438e-002 -6.4065890036999057e-003
      -2.0423341160178198e-002 -1.1054445158169741e-002
      2.9108845106364269e-002 -1.3930244447479583e-002
      -3.1019408203472751e-002 -5.0449871617922991e-003
      -2.3222940257102125e-002 -8.6319166786419758e-003
      3.8779839054358535e-002 -2.1312575649700370e-002
      -3.3745639730809324e-002 -8.1345691001577496e-003
      -1.3561900195842545e-002 -1.4589132556820237e-002
      3.3972310054901173e-002 -1.4776022840571175e-002
      -3.7984685000747538e-002 -2.4631315018516604e-003
      -7.8061219341352640e-003 -7.5764802776016717e-003
      2.8753797994967342e-002 -2.5283270159570173e-002
      -3.2701723559057760e-002 -1.9418735511454628e-003
      -1.4333342277812681e-002 -1.0342988027833708e-002
      4.0284460104593238e-002 -2.2017909815677798e-002
      -3.3282990049953325e-002 -7.2201643895640809e-003
      -6.5801239777279370e-003 -1.6257511534090507e-002
      3.9520397319593295e-002 -2.3556039774786576e-002
      -3.6549287142513230e-002 -6.9024878852220093e-005
      -1.5720939917073677e-002 -1.4472195723077551e-002
      4.3323096923745794e-002 -3.3184439220633452e-002
      -4.4360679960832108e-002 3.4604492899610530e-003
      -1.5546391990520813e-002 -2.5181841669180610e-002
      5.7675439375077790e-002 -3.1853847326697771e-002
      -5.1233678204199544e-002 -8.0363922647016441e-003
      -8.8687901699355132e-003 -2.0640201472262556e-002
      6.1058302346807390e-002 -3.4741481163424515e-002
      -5.7348088990765461e-002 3.0857508656713215e-003
      -8.1281275031045482e-003 -2.0727196304482449e-002
      6.4302222770241391e-002 -4.0134512731904520e-002
      -5.8276807917878821e-002 -9.9926410471847891e-003
      -1.7959526073299793e-002 -3.1708002239838037e-002
      6.9308919505893116e-002 -3.6915834636633414e-002
      -5.7492309638710271e-002 -2.5690961649576599e-004
      -1.0587076290159552e-002 -3.1861155485883821e-002
      6.4392847426584993e-002 -3.8898703202264240e-002
      -6.2882433495977746e-002 -1.0742526694369909e-002
      -2.0316445803953753e-002 -2.7723531701227187e-002
      6.9382123764038198e-002 -3.6998502948554064e-002
      -6.0319245392443523e-002 -1.8919713218572078e-002
      -2.1755057818405844e-002 -2.5828421895113644e-002
      3.4621926929844095e-002 -2.2906193348924547e-002
      -2.3559421434754993e-002 -1.9368045169902072e-003
      -1.3596650606943123e-002 -1.1045247452583866e-002
      3.7669899557670909e-002 -2.1705368066259594e-002
      -3.4284626885487252e-002 7.1109031169931268e-004
      -2.3734353942503447e-002 -1.4917553159011908e-002
      3.4064848968138585e-002 -2.3066926722827188e-002
      -3.7781337789998586e-002 -8.8119229227866976e-003
      -1.8844685648963654e-002 -1.9902697116661618e-002
      2.9349915436164376e-002 -1.5687391554375967e-002
      -3.2985055902789433e-002 -2.0970676712464410e-003
      -1.2938756145500104e-002 -1.3500985291311553e-002
      3.6041993455932363e-002 -2.0621709271546020e-002
      -3.3163751702536923e-002 -4.6669524621814028e-003
      -5.8586058103889229e-003 -8.4384231290946105e-003
      4.0192121435380146e-002 -2.5799309934076142e-002
      -4.2735570127595025e-002 -2.6320259590136880e-003
      -6.3182834086598760e-003 -1.4299969516686419e-002
      3.9484168419563592e-002 -2.7196676265912639e-002
      -3.6898939097211390e-002 -1.4491213744255193e-003
      -9.1548232148369480e-003 -1.5873170038234165e-002
      5.4127327384493974e-002 -3.4056557525159424e-002
      -5.0828963601389054e-002 7.0098555283514897e-004
      -7.8338483207592933e-003 -1.9607102536972416e-002
      5.5180362469371365e-002 -3.0698351590022783e-002
      -5.5696797566990634e-002 3.6389895379313653e-003
      -7.1976485509401816e-003 -2.0728958742466792e-002
      5.4720200373610563e-002 -3.2779947732917175e-002
      -4.9648666669606760e-002 1.8680351324779757e-003
      -1.0804652524273085e-002 -1.8363465468307111e-002
      6.5079776780534435e-002 -3.0059918593769486e-002
      -5.1673611416508225e-002 -6.4454771160340225e-003
      -1.2796073782673330e-002 -3.0504677827245620e-002
      6.0058996343779390e-002 -3.8882941191154242e-002
      -5.6335936161418930e-002 -1.0348844432334378e-004
      -8.4429095888438454e-003 -2.8428527362590196e-002
      6.4364928253522233e-002 -4.3597368433480360e-002
      -5.5706049943655959e-002 -8.4509865014539207e-003
      -1.2769768739671577e-002 -2.6905491022718490e-002
      6.6407212950037250e-002 -3.7122337076437008e-002
      -6.0060988277968498e-002 -1.3775741946841736e-002
      -2.6318393394883340e-002 -2.1237926612440734e-002
      3.6600583496880973e-002 -2.1973274965119197e-002
      -2.7245544604991061e-002 -1.1477161780110452e-003
      -2.6009068281876643e-002 -1.5856961349528353e-002
      4.2459491231030516e-002 -2.1165220771673193e-002
      -3.7284335104367752e-002 -5.3149316599534315e-003
      -2.1961035261742722e-002 -1.8065446032442083e-002
      3.5016436576247319e-002 -2.2970258465540429e-002
      -3.1451775555946512e-002 -1.0006688981735136e-002
      -1.5846701795158881e-002 -2.0483129538431257e-002
      3.2669904890269295e-002 -1.7951161338923917e-002
      -3.1516718651606858e-002 -3.1791040425420262e-003
      -1.7454750634351753e-002 -1.7631259903347858e-002
      3.3694979091777495e-002 -1.6970111342216918e-002
      -3.8885648998514218e-002 -9.5561907323042771e-003
      -1.8250325624168871e-002 -1.3394192508469861e-002
      3.5754229858899374e-002 -1.8691462100908086e-002
      -4.2215794625110312e-002 -3.8800440371397757e-003
      -1.4500839509408605e-002 -1.3321244674506140e-002
      4.3282842150883294e-002 -2.9155041366843805e-002
      -4.5347063397041552e-002 -5.1778607505150879e-003
      -1.6775611377011616e-002 -1.5903275545982448e-002
      5.3465292053917729e-002 -3.4403416076322794e-002
      -5.3324584876743956e-002 -7.9884475515008286e-003
      -1.0668129337127729e-002 -1.8794775178139281e-002
      5.3460414186032083e-002 -2.8956173319947008e-002
      -4.6074530149837090e-002 -3.1653201365836429e-003
      -1.2957311844844574e-002 -2.2020435822495025e-002
      5.7102765628006126e-002 -3.6251957317365323e-002
      -5.5602874167332984e-002 -2.5447253710923958e-003
      -1.6055811862653722e-002 -2.6151556303028071e-002
      6.5701037049952921e-002 -3.0254272907832325e-002
      -5.9035901178089052e-002 -4.7992642257299982e-003
      -1.0591899971693453e-002 -2.8054966255173029e-002
      6.8295072887006911e-002 -3.6148443638840976e-002
      -6.0578994972844392e-002 -7.1959659062920955e-003
      -1.7078650588213388e-002 -3.0289694376481900e-002
      6.6856204854753992e-002 -3.2007049527065241e-002
      -5.9588766422442353e-002 -1.0531448800233276e-002
      -1.6916197707239893e-002 -3.1688448686805169e-002
      6.0542898418872650e-002 -3.3065054827435859e-002
      -6.0579433554250453e-002 -1.6946226930900199e-002
      -2.3575887674960192e-002 -2.7721155673697945e-002
      3.9074797811312678e-002 -1.9608145976867282e-002
      -4.2852133422556914e-002 -7.2079688698180973e-003
      -2.0978795194231629e-002 -2.3556323227063521e-002
      4.6191424303749243e-002 -2.5507842759624966e-002
      -3.5742387933079163e-002 -3.5313577285648384e-003
      -1.7009641765062946e-002 -1.6906663907221130e-002
      3.6884609940097408e-002 -2.7322940612217149e-002
      -4.1806495388532393e-002 -9.6971023863859727e-003
      -1.3293379082824913e-002 -2.1757000387395125e-002
      3.7685837899505803e-002 -2.2554113041563621e-002
      -3.6780084224951694e-002 -8.4892062891394754e-003
      -1.8292196483893759e-002 -1.3689214032873513e-002
      3.9351287067358014e-002 -1.6349310288903691e-002
      -3.2509207023203028e-002 1.9621791770691127e-004
      -1.0137900864193588e-002 -1.2793396706262774e-002
      4.1347079596677584e-002 -2.0648565901739552e-002
      -3.4243700446050372e-002 8.0411927412044092e-005
      -6.2487069747653038e-003 -1.1213698847449705e-002
      4.4754568608019081e-002 -3.1297304290824210e-002
      -4.1608981409098175e-002 -2.4021045823519562e-004
      -1.5951951105818402e-002 -2.0846028471892493e-002
      5.3892387286454096e-002 -3.4072150505681825e-002
      -4.6239597067899103e-002 -7.4941314142736512e-003
      -1.0619754835669338e-002 -1.5056791339771404e-002
      5.8920112395761393e-002 -3.1812690510022772e-002
      -5.1639841131675385e-002 -7.3651895907915479e-003
      -1.0936524707046390e-002 -2.7538294798510689e-002
      5.9947383652145643e-002 -3.1506849866592607e-002
      -5.1819191741714683e-002 -8.1500856195257324e-003
      -6.5671047330865566e-003 -2.3231311163716978e-002
      5.7720760595753956e-002 -2.9632438958352748e-002
      -4.9205813480044061e-002 -2.1977987089395671e-003
      -1.7169824164886865e-002 -2.0481524285764333e-002
      6.1121568445496134e-002 -3.1865509225061338e-002
      -5.6955205673548635e-002 -4.3069680401866609e-003
      -1.6378413857693945e-002 -2.0335590480545188e-002
      6.2186979855379174e-002 -3.5468078019446438e-002
      -6.0457044495477605e-002 -1.2834011518818578e-002
      -2.1711741724767798e-002 -2.9161247835336520e-002
      6.1533217899259043e-002 -2.8936872538566291e-002
      -5.7999715605973882e-002 -1.3373244548462091e-002
      -2.1390762316141072e-002 -2.0150209004474274e-002
      3.3547141151999672e-002 -2.6620612654898165e-002
      -3.7072239289237009e-002 -4.1321220651898399e-003
      -1.4151984687007077e-002 -1.9229361292491295e-002
      3.0087722646057830e-002 -1.7572236020427894e-002
      -2.9197343380556399e-002 -5.2741277971632052e-003
      -2.2231522772478876e-002 -1.6657133032892124e-002
      3.5760753315055058e-002 -2.4252010230926060e-002
      -3.5495143241898633e-002 -2.0250645604790811e-003
      -1.0687237863891561e-002 -1.6650933781812611e-002
      3.9929593523315737e-002 -2.1688612535521776e-002
      -4.2933971265697368e-002 -1.8033607160278923e-003
      -1.6449311882823978e-002 -1.8761763871828090e-002
      3.6092751100578857e-002 -2.4841512499857249e-002
      -3.0391474980981544e-002 -1.1306632400570928e-003
      -1.8288279315468739e-002 -1.2350447999000222e-002
      4.3785015425002835e-002 -1.9458422024167962e-002
      -3.7293402986836137e-002 1.7508455860507782e-003
      -1.2791120839583963e-002 -1.3124711802842248e-002
      4.6918477625952866e-002 -3.0469036390893805e-002
      -4.0989035353702921e-002 -9.5270944074034595e-004
      -9.6360287631287924e-003 -1.4348909118827293e-002
      4.6474285630546126e-002 -2.6517076471330413e-002
      -5.1290210799876140e-002 6.6383018906830270e-004
      -1.2975533557600375e-002 -2.4149139762727624e-002
      5.6256857313515388e-002 -3.3980408734762935e-002
      -5.6019856117822626e-002 -2.9729510277897702e-003
      -7.7978886926793507e-003 -2.1946218360185090e-002
      5.4824285729303160e-002 -3.4647950738493215e-002
      -4.8199040460881713e-002 -7.8267106178287089e-003
      -1.1664293617876804e-002 -2.5712418366755120e-002
      6.1697218989149871e-002 -3.2781072926826693e-002
      -5.6032280686172289e-002 -2.3637415874709520e-003
      -1.3493390106827367e-002 -2.9130418337437194e-002
      6.5326592442454048e-002 -3.6675766127772284e-002
      -5.4416596790504694e-002 -5.7198562460682358e-003
      -1.6845809876114448e-002 -2.3462622224524065e-002
      6.3958886137534726e-002 -3.9952573781127154e-002
      -5.7516309012670484e-002 -1.4528809838435365e-002
      -1.9744740012003013e-002 -2.5763389510864335e-002
      6.5326618289324595e-002 -3.0451963205290710e-002
      -5.2438548656750711e-002 -1.3500472397451247e-002
      -2.4786993558335361e-002 -1.9415778581466796e-002
      2.7538279755801382e-002 -1.5449281658989102e-002
      -2.8977858168861705e-002 -1.8167138655960926e-003
      -1.1267261949032636e-002 -1.2172891780210041e-002
      3.1290161799300817e-002 -1.8028266611106649e-002
      -2.7187277340754934e-002 3.2031818783158834e-003
      -1.7394836472204508e-002 -1.6700901992113642e-002
      3.4257799656985756e-002 -2.0839883168720933e-002
      -3.9462423586347536e-002 -7.9875291648834647e-003
      -1.9928588828437538e-002 -1.4204262443555713e-002
      3.3968580968058791e-002 -2.0400164628118268e-002
      -3.0524731385278350e-002 -6.6887254524832370e-003
      -1.8698277035970060e-002 -1.9410521038032376e-002
      3.2328763829370416e-002 -2.2091253492365057e-002
      -3.2946280516776616e-002 -1.0138206185614878e-002
      -1.9132763670663040e-002 -1.9264671502458450e-002
      4.1504436622516343e-002 -2.8456669159768716e-002
      -4.4004334228635145e-002 -8.1391674673210700e-003
      -1.6802594223401468e-002 -1.7274438176404793e-002
      4.7247375331736494e-002 -2.1898152476421677e-002
      -4.8378525408599535e-002 -8.8218396923453596e-003
      -1.1191709038283672e-002 -1.8641817583136655e-002
      4.8177118026564630e-002 -3.6086436086656640e-002
      -5.3785686299049729e-002 -8.7171281236143850e-004
      -1.4223821121416938e-002 -2.5097316467744279e-002
      5.7612986929092912e-002 -3.7969095256632404e-002
      -5.4238535505719318e-002 -2.2065205579234874e-003
      -1.0137136350072148e-002 -1.7975983867224571e-002
      5.7495318638963080e-002 -2.7918345967301531e-002
      -5.1716693283888379e-002 -2.7824143325833367e-003
      -1.7914038122832997e-002 -2.7374126728175442e-002
      5.7668028932551574e-002 -2.8524860951488106e-002
      -5.2826305591862507e-002 -8.7060458938654356e-003
      -1.8552947008180755e-002 -1.8209074852874600e-002
      6.3699007311157491e-002 -3.2150241228432859e-002
      -6.1239793788294833e-002 -3.5113546314567449e-003
      -2.0777422065492521e-002 -2.4609872219713211e-002
      6.6181437874657939e-002 -4.1242889733517765e-002
      -5.6146575874487355e-002 -1.2122187279749647e-002
      -1.9697725454042195e-002 -2.0475919379272001e-002
      6.3287179667087676e-002 -3.2463801995154591e-002
      -5.3949031259320358e-002 -2.0315846120202919e-002
      -2.6464142186209405e-002 -2.0211160739988996e-002
      2.3766860123604478e-002 -1.6843359614320392e-002
      -2.1597943438306250e-002 -1.3868056467262681e-003
      -1.3121709956147164e-002 -1.5668393836386164e-002
      2.9975925551094074e-002 -1.4233978790250391e-002
      -1.7374075612428118e-002 -3.8506288672579304e-003
      -1.2486565645871618e-002 -2.0452643521581902e-002
      3.7398989469315323e-002 -2.0768988569388549e-002
      -4.3372117156713977e-002 8.6909131671320428e-004
      -1.2205417223141857e-002 -1.0974888027817712e-002
      3.9113679918102363e-002 -2.2245806685652039e-002
      -3.0915566478668971e-002 -1.0986695833572065e-002
      -1.7765336809254274e-002 -1.7365104541531722e-002
      3.0892536152748343e-002 -2.7204637490561283e-002
      -4.1332209518686554e-002 -2.7034114665407485e-003
      -1.7526914271107287e-002 -1.8211547972608717e-002
      3.9722428636348166e-002 -2.7847252076928359e-002
      -3.4969766705272208e-002 -9.4972146635903813e-004
      -1.0552552088198922e-002 -1.7864804821922736e-002
      4.6477837558030109e-002 -3.1113913283859741e-002
      -4.8190320232791919e-002 3.9295838620721660e-004
      -1.7723840394530975e-002 -2.2059021844613714e-002
      5.2799508105951812e-002 -3.6685295979395773e-002
      -5.3984175585772592e-002 -2.2744550360941527e-004
      -1.5918748810552091e-002 -2.3505609630370381e-002
      5.7863580621580729e-002 -3.4611662526235258e-002
      -4.6975523033927075e-002 -4.5792803109793861e-003
      -7.7612387743574325e-003 -2.8796115795155841e-002
      6.2452708871922682e-002 -3.7571438959246313e-002
      -5.2843627854002553e-002 2.1821660793608214e-004
      -1.6214700774466639e-002 -2.9829492738577858e-002
      5.4758547152515900e-002 -3.4694255947494944e-002
      -4.8810699478292148e-002 -8.1172427225082982e-003
      -1.0344168760792728e-002 -2.4758039131837176e-002
      5.7500043058110371e-002 -2.9827088089145089e-002
      -5.5795696579689635e-002 -2.0925064921748452e-003
      -1.1145580064337286e-002 -2.8789366252423173e-002
      6.8000647116043561e-002 -3.5499923575404164e-002
      -6.3067384355153910e-002 -1.3323397029536659e-002
      -2.3650039747706172e-002 -2.8749832878073565e-002
      6.7881082984257143e-002 -2.7565769972994373e-002
      -5.2284317584327049e-002 -1.9435140490611427e-002
      -2.3807385613962929e-002 -2.0432917479581831e-002
      1.8260047735379450e-002 -1.2519830548912488e-002
      -1.2765055837903636e-002 1.8361651503539063e-003
      -1.0878460486408399e-002 -1.0705285949916989e-002
      2.2279415335787981e-002 -1.0563142470261865e-002
      -1.4857894067070576e-002 9.7085376926766814e-003
      -9.5169476202340599e-003 -1.2383297642976484e-002
      4.4161211406859600e-002 -2.3956793899107612e-002
      -3.1477659476753801e-002 -4.4941023269066604e-003
      -1.3159008928405151e-002 -2.3302775063576059e-002
      4.1891201301664599e-002 -1.6437813770915095e-002
      -3.9691014165327124e-002 -8.2650305133481652e-004
      -1.5567259675339373e-002 -1.1165726339947030e-002
      4.3913145562759354e-002 -1.9351932739035564e-002
      -3.2479394996621017e-002 -8.2372045610248877e-003
      -1.8594118108411321e-002 -1.8056310142368148e-002
      4.3897396696197563e-002 -2.1791279306348284e-002
      -3.8315908529169600e-002 -7.0387114353805437e-003
      -9.1473395881017262e-003 -1.7931955665515607e-002
      4.3111628226342812e-002 -2.6327820709235526e-002
      -4.1083831069551185e-002 -5.7239217962442041e-003
      -1.5544367589430506e-002 -2.4500262980855472e-002
      5.9565447852810871e-002 -2.9295138138457844e-002
      -4.5444657878482633e-002 -7.8863342786578356e-004
      -9.1839403838705098e-003 -2.3958525039682554e-002
      5.9820581172994609e-002 -2.9065171823923746e-002
      -5.7004719560303792e-002 -4.1599951834756198e-003
      -7.3674603451610622e-003 -2.3301445985214886e-002
      5.2107688475059977e-002 -3.9164289829994266e-002
      -4.9795613675260086e-002 -4.2401241104692202e-003
      -7.1634071605073705e-003 -2.9603863038376393e-002
      6.2341419516793471e-002 -2.8025644845504214e-002
      -4.8737041205274653e-002 -1.3003981245750600e-003
      -1.5749260851734115e-002 -2.4288119094708557e-002
      6.1633110609298450e-002 -3.8461184049727239e-002
      -6.0527183093297417e-002 -8.9931399806631122e-003
      -1.9468063914227653e-002 -2.5562031061228049e-002
      6.5611334170423211e-002 -3.1832871392033384e-002
      -5.4428831950140123e-002 -1.4868140810639668e-002
      -2.0407677891790460e-002 -2.8226414679436922e-002
      6.5306051939284071e-002 -2.9646990654596122e-002
      -5.4128210437882664e-002 -2.2954148310058885e-002
      -3.4006515468393138e-002 -1.8393204418502986e-002
      7.1861286190820287e-002 -5.0750478280927859e-002
      -7.2871333230561997e-002 2.5626567855173733e-002
      4.2280166584595220e-002 -4.7905072454579763e-002</_>
    <_>
      -5.3072030309088170e-001 1.7684315456284108e-001
      4.2694409228935104e-001 -9.5626691721632948e-002
      -1.4374502380044440e-001 1.2030676227934463e-001
      -7.1777966527372065e-003</_></weights></opencv_ml_ann_mlp>
</opencv_storage>
