<?xml version="1.0"?>
<opencv_storage>
<opencv_ml_svm>
  <format>3</format>
  <svmType>C_SVC</svmType>
  <kernel>
    <type>LINEAR</type></kernel>
  <C>1.</C>
  <term_criteria><iterations>100</iterations></term_criteria>
  <var_count>322</var_count>
  <class_count>2</class_count>
  <class_labels type_id="opencv-matrix">
    <rows>2</rows>
    <cols>1</cols>
    <dt>i</dt>
    <data>
      -1 1</data></class_labels>
  <sv_total>1</sv_total>
  <support_vectors>
    <_>
      -4.37370436e-005 -4.37370436e-005 -4.24874124e-005
      -4.24874124e-005 -4.12377849e-005 -3.62392639e-005
      -2.87414859e-005 -1.99940769e-005 -9.99703843e-006 6.24814902e-006
      2.49925961e-005 3.87385226e-005 4.24874124e-005 4.62363023e-005
      -4.49866711e-005 -4.49866711e-005 -4.12377849e-005
      -3.99881537e-005 -3.74888950e-005 -2.99911153e-005
      -1.99940769e-005 -9.99703843e-006 4.99851922e-006 2.24933356e-005
      4.12377849e-005 5.49837096e-005 5.62333407e-005 5.74829719e-005
      -4.62363023e-005 -4.62363023e-005 -3.99881537e-005
      -3.37400052e-005 -2.99911153e-005 -1.62451870e-005 2.49925961e-006
      1.87444475e-005 3.87385226e-005 5.87325994e-005 7.99763075e-005
      9.37222358e-005 8.74740872e-005 7.99763075e-005 -4.62363023e-005
      -4.62363023e-005 -3.87385226e-005 -2.99911153e-005
      -2.12437062e-005 -2.49925961e-006 2.37429667e-005 4.74859335e-005
      6.99792654e-005 9.24726046e-005 1.14965944e-004 1.27462234e-004
      1.12466681e-004 9.74711220e-005 -4.74859335e-005 -4.74859335e-005
      -3.62392639e-005 -2.24933356e-005 -9.99703843e-006 1.37459274e-005
      4.12377849e-005 7.12288966e-005 9.49718669e-005 1.13716313e-004
      1.32460758e-004 1.41208162e-004 1.17465199e-004 9.37222358e-005
      -4.87355610e-005 -4.87355610e-005 -3.24903740e-005
      -1.62451870e-005 1.24962980e-006 2.87414859e-005 6.12318618e-005
      9.49718669e-005 1.19964461e-004 1.34960021e-004 1.48705949e-004
      1.53704459e-004 1.21214092e-004 8.99733423e-005 -4.37370436e-005
      -4.37370436e-005 -2.49925961e-005 -2.49925961e-006 1.74948163e-005
      4.62363023e-005 7.87266763e-005 1.11217050e-004 1.33710389e-004
      1.41208162e-004 1.48705949e-004 1.46206687e-004 1.06218533e-004
      6.74800103e-005 -3.87385226e-005 -3.87385226e-005 -1.62451870e-005
      9.99703843e-006 3.49896327e-005 6.37311168e-005 9.74711220e-005
      1.28711865e-004 1.46206687e-004 1.47456318e-004 1.49955580e-004
      1.38708914e-004 9.24726046e-005 4.62363023e-005 -3.37400052e-005
      -3.37400052e-005 -9.99703843e-006 1.74948163e-005 4.49866711e-005
      7.24785277e-005 1.02469647e-004 1.32460758e-004 1.47456318e-004
      1.44957055e-004 1.43707424e-004 1.29961496e-004 8.12259386e-005
      3.12407465e-005 -2.74918548e-005 -2.74918548e-005 -3.74888941e-006
      2.49925961e-005 5.24844509e-005 7.99763075e-005 1.07468164e-004
      1.34960021e-004 1.47456318e-004 1.42457793e-004 1.37459283e-004
      1.21214092e-004 6.99792654e-005 1.87444475e-005 -2.62422254e-005
      -2.62422254e-005 0. 2.74918548e-005 5.62333407e-005
      8.37251937e-005 1.11217050e-004 1.37459283e-004 1.48705949e-004
      1.42457793e-004 1.37459283e-004 1.18714830e-004 6.87296415e-005
      1.87444475e-005 -2.37429667e-005 -2.37429667e-005 1.24962980e-006
      3.12407465e-005 5.99822306e-005 8.62244560e-005 1.13716313e-004
      1.39958531e-004 1.51205211e-004 1.44957055e-004 1.38708914e-004
      1.21214092e-004 7.37281589e-005 2.37429667e-005 -2.37429667e-005
      -2.37429667e-005 1.24962980e-006 2.99911153e-005 5.87325994e-005
      8.62244560e-005 1.12466681e-004 1.39958531e-004 1.49955580e-004
      1.43707424e-004 1.38708914e-004 1.21214092e-004 7.49777901e-005
      2.87414859e-005 -2.49925961e-005 -2.49925961e-005 0.
      2.87414859e-005 5.62333407e-005 8.37251937e-005 1.09967419e-004
      1.37459283e-004 1.48705949e-004 1.42457793e-004 1.36209652e-004
      1.21214092e-004 7.62274212e-005 3.24903740e-005 -2.37429667e-005
      -2.37429667e-005 0. 2.74918548e-005 5.37340820e-005
      7.99763075e-005 1.07468164e-004 1.33710389e-004 1.44957055e-004
      1.39958531e-004 1.33710389e-004 1.18714830e-004 7.62274212e-005
      3.37400052e-005 -2.37429667e-005 -2.37429667e-005 1.24962980e-006
      2.74918548e-005 5.37340820e-005 7.99763075e-005 1.07468164e-004
      1.33710389e-004 1.44957055e-004 1.38708914e-004 1.31211127e-004
      1.16215568e-004 7.62274212e-005 3.37400052e-005 -2.12437062e-005
      -2.12437062e-005 1.24962980e-006 2.74918548e-005 5.24844509e-005
      7.99763075e-005 1.06218533e-004 1.33710389e-004 1.44957055e-004
      1.38708914e-004 1.29961496e-004 1.13716313e-004 7.49777901e-005
      3.62392639e-005 -1.99940769e-005 -1.99940769e-005 2.49925961e-006
      2.74918548e-005 5.12348233e-005 7.87266763e-005 1.06218533e-004
      1.33710389e-004 1.46206687e-004 1.38708914e-004 1.31211127e-004
      1.17465199e-004 7.87266763e-005 3.99881537e-005 -1.87444475e-005
      -1.87444475e-005 2.49925961e-006 2.62422254e-005 4.99851922e-005
      7.62274212e-005 1.06218533e-004 1.33710389e-004 1.47456318e-004
      1.39958531e-004 1.33710389e-004 1.19964461e-004 8.12259386e-005
      4.49866711e-005 -1.99940769e-005 -1.99940769e-005 2.49925961e-006
      2.62422254e-005 4.87355610e-005 7.49777901e-005 1.03719271e-004
      1.32460758e-004 1.46206687e-004 1.42457793e-004 1.38708914e-004
      1.24962986e-004 8.62244560e-005 4.74859335e-005 -1.87444475e-005
      -1.87444475e-005 1.24962980e-006 2.49925961e-005 4.87355610e-005
      7.37281589e-005 1.02469647e-004 1.31211127e-004 1.46206687e-004
      1.43707424e-004 1.41208162e-004 1.29961496e-004 9.12229734e-005
      5.12348233e-005 -2.12437062e-005 -2.12437062e-005 0.
      2.24933356e-005 4.49866711e-005 7.37281589e-005 1.02469647e-004
      1.32460758e-004 1.48705949e-004 1.46206687e-004 1.46206687e-004
      1.36209652e-004 9.49718669e-005 5.49837096e-005 -2.49925961e-005
      -2.49925961e-005 -3.74888941e-006 1.99940769e-005 4.37370436e-005
      7.37281589e-005 1.03719271e-004 1.34960021e-004 1.49955580e-004
      1.49955580e-004 1.49955580e-004 1.39958531e-004 9.87207532e-005
      5.87325994e-005</_></support_vectors>
  <uncompressed_sv_total>2</uncompressed_sv_total>
  <uncompressed_support_vectors>
    <_>
      21. 21. 23. 24. 26. 32. 40. 49. 60. 76. 93. 109. 126. 143. 20. 20.
      23. 25. 28. 36. 46. 56. 70. 86. 103. 119. 134. 149. 18. 18. 23.
      28. 32. 44. 60. 75. 92. 109. 127. 142. 152. 162. 17. 17. 23. 31.
      38. 53. 74. 94. 112. 130. 148. 162. 166. 170. 17. 17. 26. 36. 46.
      65. 87. 110. 129. 143. 158. 168. 166. 164. 17. 17. 29. 42. 55. 76.
      101. 126. 145. 156. 167. 174. 165. 157. 20. 20. 34. 51. 67. 89.
      114. 139. 156. 161. 166. 167. 152. 138. 23. 23. 40. 60. 79. 102.
      128. 153. 166. 166. 166. 160. 140. 119. 26. 26. 44. 65. 86. 108.
      132. 156. 167. 164. 161. 153. 130. 106. 29. 29. 48. 70. 91. 113.
      136. 158. 167. 162. 157. 146. 120. 94. 30. 30. 50. 72. 94. 116.
      138. 159. 168. 162. 157. 145. 119. 92. 31. 31. 51. 74. 97. 118.
      140. 161. 170. 164. 158. 147. 121. 94. 31. 31. 51. 73. 96. 118.
      139. 161. 169. 164. 159. 148. 122. 96. 29. 29. 49. 72. 94. 116.
      137. 159. 168. 163. 158. 148. 122. 96. 29. 29. 49. 71. 93. 114.
      136. 157. 166. 162. 157. 147. 121. 95. 29. 29. 49. 71. 93. 114.
      136. 157. 166. 161. 155. 145. 119. 92. 30. 30. 49. 71. 93. 114.
      135. 156. 165. 160. 154. 143. 117. 90. 29. 29. 49. 70. 91. 113.
      134. 155. 164. 159. 154. 144. 117. 89. 29. 29. 48. 69. 90. 111.
      133. 154. 164. 159. 154. 144. 116. 89. 27. 27. 46. 67. 88. 109.
      131. 153. 163. 159. 155. 145. 116. 87. 26. 26. 44. 65. 86. 107.
      129. 151. 162. 158. 155. 145. 116. 86. 25. 25. 43. 63. 83. 106.
      129. 153. 164. 160. 157. 147. 116. 85. 23. 23. 41. 61. 81. 105.
      130. 155. 166. 162. 158. 148. 116. 85.</_>
    <_>
      56. 56. 57. 58. 59. 61. 63. 65. 68. 71. 73. 78. 92. 106. 56. 56.
      56. 57. 58. 60. 62. 64. 66. 68. 70. 75. 89. 103. 55. 55. 55. 55.
      56. 57. 58. 60. 61. 62. 63. 67. 82. 98. 54. 54. 54. 55. 55. 55.
      55. 56. 56. 56. 56. 60. 76. 92. 55. 55. 55. 54. 54. 54. 54. 53.
      53. 52. 52. 55. 72. 89. 56. 56. 55. 55. 54. 53. 52. 50. 49. 48.
      48. 51. 68. 85. 55. 55. 54. 53. 53. 52. 51. 50. 49. 48. 47. 50.
      67. 84. 54. 54. 53. 52. 51. 51. 50. 50. 49. 48. 46. 49. 66. 82.
      53. 53. 52. 51. 50. 50. 50. 50. 49. 48. 46. 49. 65. 81. 51. 51.
      51. 50. 49. 49. 50. 50. 49. 48. 47. 49. 64. 79. 51. 51. 50. 50.
      49. 49. 49. 49. 49. 48. 47. 50. 64. 77. 50. 50. 50. 49. 49. 49.
      49. 49. 49. 48. 47. 50. 62. 75. 50. 50. 50. 49. 49. 49. 49. 49.
      49. 49. 48. 51. 62. 73. 49. 49. 49. 49. 49. 49. 49. 49. 49. 49.
      49. 51. 61. 70. 48. 48. 49. 49. 50. 50. 50. 50. 50. 50. 50. 52.
      60. 68. 48. 48. 48. 49. 50. 50. 50. 50. 50. 50. 50. 52. 58. 65.
      47. 47. 48. 49. 51. 50. 50. 49. 49. 49. 50. 52. 57. 61. 45. 45.
      47. 48. 50. 50. 49. 48. 47. 48. 49. 50. 54. 57. 44. 44. 46. 48.
      50. 50. 48. 47. 46. 47. 47. 48. 51. 53. 43. 43. 44. 46. 49. 49.
      48. 47. 46. 45. 44. 45. 47. 49. 41. 41. 43. 45. 47. 48. 47. 46.
      45. 43. 42. 41. 43. 45. 42. 42. 43. 45. 47. 47. 47. 47. 45. 43.
      40. 38. 40. 41. 43. 43. 44. 45. 46. 46. 47. 47. 46. 42. 38. 36.
      37. 38.</_></uncompressed_support_vectors>
  <decision_functions>
    <_>
      <sv_count>1</sv_count>
      <rho>1.9824976850608005e+000</rho>
      <alpha>
        1.</alpha></_></decision_functions></opencv_ml_svm>
</opencv_storage>
