<?xml version="1.0"?>
<opencv_storage>
<opencv_ml_svm>
  <format>3</format>
  <svmType>C_SVC</svmType>
  <kernel>
    <type>LINEAR</type></kernel>
  <C>1.</C>
  <term_criteria><iterations>1000</iterations></term_criteria>
  <var_count>21060</var_count>
  <class_count>2</class_count>
  <class_labels type_id="opencv-matrix">
    <rows>2</rows>
    <cols>1</cols>
    <dt>i</dt>
    <data>
      0 1</data></class_labels>
  <sv_total>1</sv_total>
  <support_vectors>
    <_>
      -3.86319181e-004 -4.32115281e-003 3.36066959e-003 -1.69200124e-003
      1.09309843e-003 2.58627464e-004 -8.61945387e-004 2.37557874e-003
      -7.06354971e-004 -3.86319181e-004 -4.32115281e-003 3.36066959e-003
      -1.69200124e-003 1.09309843e-003 2.58627464e-004 -8.61945387e-004
      2.37557874e-003 -7.06354971e-004 -3.86319181e-004 -4.32115281e-003
      3.36066959e-003 -1.69200124e-003 1.09309843e-003 2.58627464e-004
      -8.61945387e-004 2.37557874e-003 -7.06354971e-004 -3.86319181e-004
      -4.32115281e-003 3.36066959e-003 -1.69200124e-003 1.09309843e-003
      2.58627464e-004 -8.61945387e-004 2.37557874e-003 -7.06354971e-004
      -3.86319181e-004 -4.32115281e-003 3.36066959e-003 -1.69200124e-003
      1.09309843e-003 2.58627464e-004 -8.61945387e-004 2.37557874e-003
      -7.06354971e-004 -3.86319181e-004 -4.32115281e-003 3.36066959e-003
      -1.69200124e-003 1.09309843e-003 2.58627464e-004 -8.61945387e-004
      2.37557874e-003 -7.06354971e-004 -3.86319181e-004 -4.32115281e-003
      3.36066959e-003 -1.69200124e-003 1.09309843e-003 2.58627464e-004
      -8.61945387e-004 2.37557874e-003 -7.06354971e-004 -3.86319181e-004
      -4.32115281e-003 3.36066959e-003 -1.69200124e-003 1.09309843e-003
      2.58627464e-004 -8.61945387e-004 2.37557874e-003 -7.06354971e-004
      -3.86319181e-004 -4.32115281e-003 3.36066959e-003 -1.69200124e-003
      1.09309843e-003 2.58627464e-004 -8.61945387e-004 2.37557874e-003
      -7.06354971e-004 -3.86319181e-004 -4.32115281e-003 3.36066959e-003
      -1.69200124e-003 1.09309843e-003 2.58627464e-004 -8.61945387e-004
      2.37557874e-003 -7.06354971e-004 -3.86319181e-004 -4.32115281e-003
      3.36066959e-003 -1.69200124e-003 1.09309843e-003 2.58627464e-004
      -8.61945387e-004 2.37557874e-003 -7.06354971e-004 -3.86319181e-004
      -4.32115281e-003 3.36066959e-003 -1.69200124e-003 1.09309843e-003
      2.58627464e-004 -8.61945387e-004 2.37557874e-003 -7.06354971e-004
      -3.86319181e-004 -4.32115281e-003 3.36066959e-003 -1.69200124e-003
      1.09309843e-003 2.58627464e-004 -8.61945387e-004 2.37557874e-003
      -7.06354971e-004 -3.86319181e-004 -4.32115281e-003 3.36066959e-003
      -1.69200124e-003 1.09309843e-003 2.58627464e-004 -8.61945387e-004
      2.37557874e-003 -7.06354971e-004 -3.86319181e-004 -4.32115281e-003
      3.36066959e-003 -1.69200124e-003 1.09309843e-003 2.58627464e-004
      -8.61945387e-004 2.37557874e-003 -7.06354971e-004 -3.86319181e-004
      -4.32115281e-003 3.36066959e-003 -1.69200124e-003 1.09309843e-003
      2.58627464e-004 -8.61945387e-004 2.37557874e-003 -7.06354971e-004
      -3.86319181e-004 -4.32115281e-003 3.36066959e-003 -1.69200124e-003
      1.09309843e-003 2.58627464e-004 -8.61945387e-004 2.37557874e-003
      -7.06354971e-004 -3.86319181e-004 -4.32115281e-003 3.36066959e-003
      -1.69200124e-003 1.09309843e-003 2.58627464e-004 -8.61945387e-004
      2.37557874e-003 -7.06354971e-004 -3.86319181e-004 -4.32115281e-003
      3.36066959e-003 -1.69200124e-003 1.09309843e-003 2.58627464e-004
      -8.61945387e-004 2.37557874e-003 -7.06354971e-004 -3.86319181e-004
      -4.32115281e-003 3.36066959e-003 -1.69200124e-003 1.09309843e-003
      2.58627464e-004 -8.61945387e-004 2.37557874e-003 -7.06354971e-004
      -3.86319181e-004 -4.32115281e-003 3.36066959e-003 -1.69200124e-003
      1.09309843e-003 2.58627464e-004 -8.61945387e-004 2.37557874e-003
      -7.06354971e-004 -3.86319181e-004 -4.32115281e-003 3.36066959e-003
      -1.69200124e-003 1.09309843e-003 2.58627464e-004 -8.61945387e-004
      2.37557874e-003 -7.06354971e-004 -3.86319181e-004 -4.32115281e-003
      3.36066959e-003 -1.69200124e-003 1.09309843e-003 2.58627464e-004
      -8.61945387e-004 2.37557874e-003 -7.06354971e-004 -3.86319181e-004
      -4.32115281e-003 3.36066959e-003 -1.69200124e-003 1.09309843e-003
      2.58627464e-004 -8.61945387e-004 2.37557874e-003 -7.06354971e-004
      -3.86319181e-004 -4.32115281e-003 3.36066959e-003 -1.69200124e-003
      1.09309843e-003 2.58627464e-004 -8.61945387e-004 2.37557874e-003
      -7.06354971e-004 -3.86319181e-004 -4.32115281e-003 3.36066959e-003
      -1.69200124e-003 1.09309843e-003 2.58627464e-004 -8.61945387e-004
      2.37557874e-003 -7.06354971e-004 -3.86319181e-004 -4.32115281e-003
      3.36066959e-003 -1.69200124e-003 1.09309843e-003 2.58627464e-004
      -8.61945387e-004 2.37557874e-003 -7.06354971e-004 -3.86319181e-004
      -4.32115281e-003 3.36066959e-003 -1.69200124e-003 1.09309843e-003
      2.58627464e-004 -8.61945387e-004 2.37557874e-003 -7.06354971e-004
      -3.86319181e-004 -4.32115281e-003 3.36066959e-003 -1.69200124e-003
      1.09309843e-003 2.58627464e-004 -8.61945387e-004 2.37557874e-003
      -7.06354971e-004 -3.86319181e-004 -4.32115281e-003 3.36066959e-003
      -1.69200124e-003 1.09309843e-003 2.58627464e-004 -8.61945387e-004
      2.37557874e-003 -7.06354971e-004 -3.86319181e-004 -4.32115281e-003
      3.36066959e-003 -1.69200124e-003 1.09309843e-003 2.58627464e-004
      -8.61945387e-004 2.37557874e-003 -7.06354971e-004 -3.86319181e-004
      -4.32115281e-003 3.36066959e-003 -1.69200124e-003 1.09309843e-003
      2.58627464e-004 -8.61945387e-004 2.37557874e-003 -7.06354971e-004
      -3.86319181e-004 -4.32115281e-003 3.36066959e-003 -1.69200124e-003
      1.09309843e-003 2.58627464e-004 -8.61945387e-004 2.37557874e-003
      -7.06354971e-004 -3.86319181e-004 -4.32115281e-003 3.36066959e-003
      -1.69200124e-003 1.09309843e-003 2.58627464e-004 -8.61945387e-004
      2.37557874e-003 -7.06354971e-004 -3.86319181e-004 -4.32115281e-003
      3.36066959e-003 -1.69200124e-003 1.09309843e-003 2.58627464e-004
      -8.61945387e-004 2.37557874e-003 -7.06354971e-004 -3.86319181e-004
      -4.32115281e-003 3.36066959e-003 -1.69200124e-003 1.09309843e-003
      2.58627464e-004 -8.61945387e-004 2.37557874e-003 -7.06354971e-004
      -3.86319181e-004 -4.32115281e-003 3.36066959e-003 -1.69200124e-003
      1.09309843e-003 2.58627464e-004 -8.61945387e-004 2.37557874e-003
      -7.06354971e-004 -3.86319181e-004 -4.32115281e-003 3.36066959e-003
      -1.69200124e-003 1.09309843e-003 2.58627464e-004 -8.61945387e-004
      2.37557874e-003 -7.06354971e-004 -3.86319181e-004 -4.32115281e-003
      3.36066959e-003 -1.69200124e-003 1.09309843e-003 2.58627464e-004
      -8.61945387e-004 2.37557874e-003 -7.06354971e-004 -3.86319181e-004
      -4.32115281e-003 3.36066959e-003 -1.69200124e-003 1.09309843e-003
      2.58627464e-004 -8.61945387e-004 2.37557874e-003 -7.06354971e-004
      -3.86319181e-004 -4.32115281e-003 3.36066959e-003 -1.69200124e-003
      1.09309843e-003 2.58627464e-004 -8.61945387e-004 2.37557874e-003
      -7.06354971e-004 -3.86319181e-004 -4.32115281e-003 3.36066959e-003
      -1.69200124e-003 1.09309843e-003 2.58627464e-004 -8.61945387e-004
      2.37557874e-003 -7.06354971e-004 -3.86319181e-004 -4.32115281e-003
      3.36066959e-003 -1.69200124e-003 1.09309843e-003 2.58627464e-004
      -8.61945387e-004 2.37557874e-003 -7.06354971e-004 -3.86319181e-004
      -4.32115281e-003 3.36066959e-003 -1.69200124e-003 1.09309843e-003
      2.58627464e-004 -8.61945387e-004 2.37557874e-003 -7.06354971e-004
      -3.86319181e-004 -4.32115281e-003 3.36066959e-003 -1.69200124e-003
      1.09309843e-003 2.58627464e-004 -8.61945387e-004 2.37557874e-003
      -7.06354971e-004 -3.86319181e-004 -4.32115281e-003 3.36066959e-003
      -1.69200124e-003 1.09309843e-003 2.58627464e-004 -8.61945387e-004
      2.37557874e-003 -7.06354971e-004 -3.86319181e-004 -4.32115281e-003
      3.36066959e-003 -1.69200124e-003 1.09309843e-003 2.58627464e-004
      -8.61945387e-004 2.37557874e-003 -7.06354971e-004 -3.86319181e-004
      -4.32115281e-003 3.36066959e-003 -1.69200124e-003 1.09309843e-003
      2.58627464e-004 -8.61945387e-004 2.37557874e-003 -7.06354971e-004
      -3.86319181e-004 -4.32115281e-003 3.36066959e-003 -1.69200124e-003
      1.09309843e-003 2.58627464e-004 -8.61945387e-004 2.37557874e-003
      -7.06354971e-004 -3.86319181e-004 -4.32115281e-003 3.36066959e-003
      -1.69200124e-003 1.09309843e-003 2.58627464e-004 -8.61945387e-004
      2.37557874e-003 -7.06354971e-004 -3.86319181e-004 -4.32115281e-003
      3.36066959e-003 -1.69200124e-003 1.09309843e-003 2.58627464e-004
      -8.61945387e-004 2.37557874e-003 -7.06354971e-004 -3.86319181e-004
      -4.32115281e-003 3.36066959e-003 -1.69200124e-003 1.09309843e-003
      2.58627464e-004 -8.61945387e-004 2.37557874e-003 -7.06354971e-004
      -3.86319181e-004 -4.32115281e-003 3.36066959e-003 -1.69200124e-003
      1.09309843e-003 2.58627464e-004 -8.61945387e-004 2.37557874e-003
      -7.06354971e-004 -3.86319181e-004 -4.32115281e-003 3.36066959e-003
      -1.69200124e-003 1.09309843e-003 2.58627464e-004 -8.61945387e-004
      2.37557874e-003 -7.06354971e-004 -3.86319181e-004 -4.32115281e-003
      3.36066959e-003 -1.69200124e-003 1.09309843e-003 2.58627464e-004
      -8.61945387e-004 2.37557874e-003 -7.06354971e-004 -3.86319181e-004
      -4.32115281e-003 3.36066959e-003 -1.69200124e-003 1.09309843e-003
      2.58627464e-004 -8.61945387e-004 2.37557874e-003 -7.06354971e-004
      -3.86319181e-004 -4.32115281e-003 3.36066959e-003 -1.69200124e-003
      1.09309843e-003 2.58627464e-004 -8.61945387e-004 2.37557874e-003
      -7.06354971e-004 -3.86319181e-004 -4.32115281e-003 3.36066959e-003
      -1.69200124e-003 1.09309843e-003 2.58627464e-004 -8.61945387e-004
      2.37557874e-003 -7.06354971e-004 -3.86319181e-004 -4.32115281e-003
      3.36066959e-003 -1.69200124e-003 1.09309843e-003 2.58627464e-004
      -8.61945387e-004 2.37557874e-003 -7.06354971e-004 -3.86319181e-004
      -4.32115281e-003 3.36066959e-003 -1.69200124e-003 1.09309843e-003
      2.58627464e-004 -8.61945387e-004 2.37557874e-003 -7.06354971e-004
      -3.86319181e-004 -4.32115281e-003 3.36066959e-003 -1.69200124e-003
      1.09309843e-003 2.58627464e-004 -8.61945387e-004 2.37557874e-003
      -7.06354971e-004 -3.86319181e-004 -4.32115281e-003 3.36066959e-003
      -1.69200124e-003 1.09309843e-003 2.58627464e-004 -8.61945387e-004
      2.37557874e-003 -7.06354971e-004 -3.86319181e-004 -4.32115281e-003
      3.36066959e-003 -1.69200124e-003 1.09309843e-003 2.58627464e-004
      -8.61945387e-004 2.37557874e-003 -7.06354971e-004 -3.86319181e-004
      -4.32115281e-003 3.36066959e-003 -1.69200124e-003 1.09309843e-003
      2.58627464e-004 -8.61945387e-004 2.37557874e-003 -7.06354971e-004
      -3.86319181e-004 -4.32115281e-003 3.36066959e-003 -1.69200124e-003
      1.09309843e-003 2.58627464e-004 -8.61945387e-004 2.37557874e-003
      -7.06354971e-004 -3.86319181e-004 -4.32115281e-003 3.36066959e-003
      -1.69200124e-003 1.09309843e-003 2.58627464e-004 -8.61945387e-004
      2.37557874e-003 -7.06354971e-004 -3.86319181e-004 -4.32115281e-003
      3.36066959e-003 -1.69200124e-003 1.09309843e-003 2.58627464e-004
      -8.61945387e-004 2.37557874e-003 -7.06354971e-004 -3.86319181e-004
      -4.32115281e-003 3.36066959e-003 -1.69200124e-003 1.09309843e-003
      2.58627464e-004 -8.61945387e-004 2.37557874e-003 -7.06354971e-004
      -3.86319181e-004 -4.32115281e-003 3.36066959e-003 -1.69200124e-003
      1.09309843e-003 2.58627464e-004 -8.61945387e-004 2.37557874e-003
      -7.06354971e-004 -3.86319181e-004 -4.32115281e-003 3.36066959e-003
      -1.69200124e-003 1.09309843e-003 2.58627464e-004 -8.61945387e-004
      2.37557874e-003 -7.06354971e-004 -3.86319181e-004 -4.32115281e-003
      3.36066959e-003 -1.69200124e-003 1.09309843e-003 2.58627464e-004
      -8.61945387e-004 2.37557874e-003 -7.06354971e-004 -3.86319181e-004
      -4.32115281e-003 3.36066959e-003 -1.69200124e-003 1.09309843e-003
      2.58627464e-004 -8.61945387e-004 2.37557874e-003 -7.06354971e-004
      -3.86319181e-004 -4.32115281e-003 3.36066959e-003 -1.69200124e-003
      1.09309843e-003 2.58627464e-004 -8.61945387e-004 2.37557874e-003
      -7.06354971e-004 -3.86319181e-004 -4.32115281e-003 3.36066959e-003
      -1.69200124e-003 1.09309843e-003 2.58627464e-004 -8.61945387e-004
      2.37557874e-003 -7.06354971e-004 -3.86319181e-004 -4.32115281e-003
      3.36066959e-003 -1.69200124e-003 1.09309843e-003 2.58627464e-004
      -8.61945387e-004 2.37557874e-003 -7.06354971e-004 -3.86319181e-004
      -4.32115281e-003 3.36066959e-003 -1.69200124e-003 1.09309843e-003
      2.58627464e-004 -8.61945387e-004 2.37557874e-003 -7.06354971e-004
      -3.86319181e-004 -4.32115281e-003 3.36066959e-003 -1.69200124e-003
      1.09309843e-003 2.58627464e-004 -8.61945387e-004 2.37557874e-003
      -7.06354971e-004 -3.86319181e-004 -4.32115281e-003 3.36066959e-003
      -1.69200124e-003 1.09309843e-003 2.58627464e-004 -8.61945387e-004
      2.37557874e-003 -7.06354971e-004 -3.86319181e-004 -4.32115281e-003
      3.36066959e-003 -1.69200124e-003 1.09309843e-003 2.58627464e-004
      -8.61945387e-004 2.37557874e-003 -7.06354971e-004 -3.86319181e-004
      -4.32115281e-003 3.36066959e-003 -1.69200124e-003 1.09309843e-003
      2.58627464e-004 -8.61945387e-004 2.37557874e-003 -7.06354971e-004
      -3.86319181e-004 -4.32115281e-003 3.36066959e-003 -1.69200124e-003
      1.09309843e-003 2.58627464e-004 -8.61945387e-004 2.37557874e-003
      -7.06354971e-004 -3.86319181e-004 -4.32115281e-003 3.36066959e-003
      -1.69200124e-003 1.09309843e-003 2.58627464e-004 -8.61945387e-004
      2.37557874e-003 -7.06354971e-004 -3.86319181e-004 -4.32115281e-003
      3.36066959e-003 -1.69200124e-003 1.09309843e-003 2.58627464e-004
      -8.61945387e-004 2.37557874e-003 -7.06354971e-004 -3.86319181e-004
      -4.32115281e-003 3.36066959e-003 -1.69200124e-003 1.09309843e-003
      2.58627464e-004 -8.61945387e-004 2.37557874e-003 -7.06354971e-004
      -3.86319181e-004 -4.32115281e-003 3.36066959e-003 -1.69200124e-003
      1.09309843e-003 2.58627464e-004 -8.61945387e-004 2.37557874e-003
      -7.06354971e-004 -3.86319181e-004 -4.32115281e-003 3.36066959e-003
      -1.69200124e-003 1.09309843e-003 2.58627464e-004 -8.61945387e-004
      2.37557874e-003 -7.06354971e-004 -3.86319181e-004 -4.32115281e-003
      3.36066959e-003 -1.69200124e-003 1.09309843e-003 2.58627464e-004
      -8.61945387e-004 2.37557874e-003 -7.06354971e-004 -3.86319181e-004
      -4.32115281e-003 3.36066959e-003 -1.69200124e-003 1.09309843e-003
      2.58627464e-004 -8.61945387e-004 2.37557874e-003 -7.06354971e-004
      -3.86319181e-004 -4.32115281e-003 3.36066959e-003 -1.69200124e-003
      1.09309843e-003 2.58627464e-004 -8.61945387e-004 2.37557874e-003
      -7.06354971e-004 -3.86319181e-004 -4.32115281e-003 3.36066959e-003
      -1.69200124e-003 1.09309843e-003 2.58627464e-004 -8.61945387e-004
      2.37557874e-003 -7.06354971e-004 -3.86319181e-004 -4.32115281e-003
      3.36066959e-003 -1.69200124e-003 1.09309843e-003 2.58627464e-004
      -8.61945387e-004 2.37557874e-003 -7.06354971e-004 -3.86319181e-004
      -4.32115281e-003 3.36066959e-003 -1.69200124e-003 1.09309843e-003
      2.58627464e-004 -8.61945387e-004 2.37557874e-003 -7.06354971e-004
      -3.86319181e-004 -4.32115281e-003 3.36066959e-003 -1.69200124e-003
      1.09309843e-003 2.58627464e-004 -8.61945387e-004 2.37557874e-003
      -7.06354971e-004 -3.86319181e-004 -4.32115281e-003 3.36066959e-003
      -1.69200124e-003 1.09309843e-003 2.58627464e-004 -8.61945387e-004
      2.37557874e-003 -7.06354971e-004 -3.86319181e-004 -4.32115281e-003
      3.36066959e-003 -1.69200124e-003 1.09309843e-003 2.58627464e-004
      -8.61945387e-004 2.37557874e-003 -7.06354971e-004 -3.86319181e-004
      -4.32115281e-003 3.36066959e-003 -1.69200124e-003 1.09309843e-003
      2.58627464e-004 -8.61945387e-004 2.37557874e-003 -7.06354971e-004
      -3.86319181e-004 -4.32115281e-003 3.36066959e-003 -1.69200124e-003
      1.09309843e-003 2.58627464e-004 -8.61945387e-004 2.37557874e-003
      -7.06354971e-004 -3.86319181e-004 -4.32115281e-003 3.36066959e-003
      -1.69200124e-003 1.09309843e-003 2.58627464e-004 -8.61945387e-004
      2.37557874e-003 -7.06354971e-004 -3.86319181e-004 -4.32115281e-003
      3.36066959e-003 -1.69200124e-003 1.09309843e-003 2.58627464e-004
      -8.61945387e-004 2.37557874e-003 -7.06354971e-004 -3.86319181e-004
      -4.32115281e-003 3.36066959e-003 -1.69200124e-003 1.09309843e-003
      2.58627464e-004 -8.61945387e-004 2.37557874e-003 -7.06354971e-004
      -3.86319181e-004 -4.32115281e-003 3.36066959e-003 -1.69200124e-003
      1.09309843e-003 2.58627464e-004 -8.61945387e-004 2.37557874e-003
      -7.06354971e-004 -3.86319181e-004 -4.32115281e-003 3.36066959e-003
      -1.69200124e-003 1.09309843e-003 2.58627464e-004 -8.61945387e-004
      2.37557874e-003 -7.06354971e-004 -3.86319181e-004 -4.32115281e-003
      3.36066959e-003 -1.69200124e-003 1.09309843e-003 2.58627464e-004
      -8.61945387e-004 2.37557874e-003 -7.06354971e-004 -3.86319181e-004
      -4.32115281e-003 3.36066959e-003 -1.69200124e-003 1.09309843e-003
      2.58627464e-004 -8.61945387e-004 2.37557874e-003 -7.06354971e-004
      -3.86319181e-004 -4.32115281e-003 3.36066959e-003 -1.69200124e-003
      1.09309843e-003 2.58627464e-004 -8.61945387e-004 2.37557874e-003
      -7.06354971e-004 -3.86319181e-004 -4.32115281e-003 3.36066959e-003
      -1.69200124e-003 1.09309843e-003 2.58627464e-004 -8.61945387e-004
      2.37557874e-003 -7.06354971e-004 -3.86319181e-004 -4.32115281e-003
      3.36066959e-003 -1.69200124e-003 1.09309843e-003 2.58627464e-004
      -8.61945387e-004 2.37557874e-003 -7.06354971e-004 -3.86319181e-004
      -4.32115281e-003 3.36066959e-003 -1.69200124e-003 1.09309843e-003
      2.58627464e-004 -8.61945387e-004 2.37557874e-003 -7.06354971e-004
      -3.86319181e-004 -4.32115281e-003 3.36066959e-003 -1.69200124e-003
      1.09309843e-003 2.58627464e-004 -8.61945387e-004 2.37557874e-003
      -7.06354971e-004 -3.86319181e-004 -4.32115281e-003 3.36066959e-003
      -1.69200124e-003 1.09309843e-003 2.58627464e-004 -8.61945387e-004
      2.37557874e-003 -7.06354971e-004 -3.86319181e-004 -4.32115281e-003
      3.36066959e-003 -1.69200124e-003 1.09309843e-003 2.58627464e-004
      -8.61945387e-004 2.37557874e-003 -7.06354971e-004 -3.86319181e-004
      -4.32115281e-003 3.36066959e-003 -1.69200124e-003 1.09309843e-003
      2.58627464e-004 -8.61945387e-004 2.37557874e-003 -7.06354971e-004
      -3.86319181e-004 -4.32115281e-003 3.36066959e-003 -1.69200124e-003
      1.09309843e-003 2.58627464e-004 -8.61945387e-004 2.37557874e-003
      -7.06354971e-004 -3.86319181e-004 -4.32115281e-003 3.36066959e-003
      -1.69200124e-003 1.09309843e-003 2.58627464e-004 -8.61945387e-004
      2.37557874e-003 -7.06354971e-004 -3.86319181e-004 -4.32115281e-003
      3.36066959e-003 -1.69200124e-003 1.09309843e-003 2.58627464e-004
      -8.61945387e-004 2.37557874e-003 -7.06354971e-004 -3.86319181e-004
      -4.32115281e-003 3.36066959e-003 -1.69200124e-003 1.09309843e-003
      2.58627464e-004 -8.61945387e-004 2.37557874e-003 -7.06354971e-004
      -3.86319181e-004 -4.32115281e-003 3.36066959e-003 -1.69200124e-003
      1.09309843e-003 2.58627464e-004 -8.61945387e-004 2.37557874e-003
      -7.06354971e-004 -3.86319181e-004 -4.32115281e-003 3.36066959e-003
      -1.69200124e-003 1.09309843e-003 2.58627464e-004 -8.61945387e-004
      2.37557874e-003 -7.06354971e-004 -3.86319181e-004 -4.32115281e-003
      3.36066959e-003 -1.69200124e-003 1.09309843e-003 2.58627464e-004
      -8.61945387e-004 2.37557874e-003 -7.06354971e-004 -3.86319181e-004
      -4.32115281e-003 3.36066959e-003 -1.69200124e-003 1.09309843e-003
      2.58627464e-004 -8.61945387e-004 2.37557874e-003 -7.06354971e-004
      -3.86319181e-004 -4.32115281e-003 3.36066959e-003 -1.69200124e-003
      1.09309843e-003 2.58627464e-004 -8.61945387e-004 2.37557874e-003
      -7.06354971e-004 -3.86319181e-004 -4.32115281e-003 3.36066959e-003
      -1.69200124e-003 1.09309843e-003 2.58627464e-004 -8.61945387e-004
      2.37557874e-003 -7.06354971e-004 -3.86319181e-004 -4.32115281e-003
      3.36066959e-003 -1.69200124e-003 1.09309843e-003 2.58627464e-004
      -8.61945387e-004 2.37557874e-003 -7.06354971e-004 -3.86319181e-004
      -4.32115281e-003 3.36066959e-003 -1.69200124e-003 1.09309843e-003
      2.58627464e-004 -8.61945387e-004 2.37557874e-003 -7.06354971e-004
      -3.86319181e-004 -4.32115281e-003 3.36066959e-003 -1.69200124e-003
      1.09309843e-003 2.58627464e-004 -8.61945387e-004 2.37557874e-003
      -7.06354971e-004 -3.86319181e-004 -4.32115281e-003 3.36066959e-003
      -1.69200124e-003 1.09309843e-003 2.58627464e-004 -8.61945387e-004
      2.37557874e-003 -7.06354971e-004 -3.86319181e-004 -4.32115281e-003
      3.36066959e-003 -1.69200124e-003 1.09309843e-003 2.58627464e-004
      -8.61945387e-004 2.37557874e-003 -7.06354971e-004 -3.86319181e-004
      -4.32115281e-003 3.36066959e-003 -1.69200124e-003 1.09309843e-003
      2.58627464e-004 -8.61945387e-004 2.37557874e-003 -7.06354971e-004
      -3.86319181e-004 -4.32115281e-003 3.36066959e-003 -1.69200124e-003
      1.09309843e-003 2.58627464e-004 -8.61945387e-004 2.37557874e-003
      -7.06354971e-004 -3.86319181e-004 -4.32115281e-003 3.36066959e-003
      -1.69200124e-003 1.09309843e-003 2.58627464e-004 -8.61945387e-004
      2.37557874e-003 -7.06354971e-004 -3.86319181e-004 -4.32115281e-003
      3.36066959e-003 -1.69200124e-003 1.09309843e-003 2.58627464e-004
      -8.61945387e-004 2.37557874e-003 -7.06354971e-004 -3.86319181e-004
      -4.32115281e-003 3.36066959e-003 -1.69200124e-003 1.09309843e-003
      2.58627464e-004 -8.61945387e-004 2.37557874e-003 -7.06354971e-004
      -3.86319181e-004 -4.32115281e-003 3.36066959e-003 -1.69200124e-003
      1.09309843e-003 2.58627464e-004 -8.61945387e-004 2.37557874e-003
      -7.06354971e-004 -3.86319181e-004 -4.32115281e-003 3.36066959e-003
      -1.69200124e-003 1.09309843e-003 2.58627464e-004 -8.61945387e-004
      2.37557874e-003 -7.06354971e-004 -3.86319181e-004 -4.32115281e-003
      3.36066959e-003 -1.69200124e-003 1.09309843e-003 2.58627464e-004
      -8.61945387e-004 2.37557874e-003 -7.06354971e-004 -3.86319181e-004
      -4.32115281e-003 3.36066959e-003 -1.69200124e-003 1.09309843e-003
      2.58627464e-004 -8.61945387e-004 2.37557874e-003 -7.06354971e-004
      -3.86319181e-004 -4.32115281e-003 3.36066959e-003 -1.69200124e-003
      1.09309843e-003 2.58627464e-004 -8.61945387e-004 2.37557874e-003
      -7.06354971e-004 -3.86319181e-004 -4.32115281e-003 3.36066959e-003
      -1.69200124e-003 1.09309843e-003 2.58627464e-004 -8.61945387e-004
      2.37557874e-003 -7.06354971e-004 -3.86319181e-004 -4.32115281e-003
      3.36066959e-003 -1.69200124e-003 1.09309843e-003 2.58627464e-004
      -8.61945387e-004 2.37557874e-003 -7.06354971e-004 -3.86319181e-004
      -4.32115281e-003 3.36066959e-003 -1.69200124e-003 1.09309843e-003
      2.58627464e-004 -8.61945387e-004 2.37557874e-003 -7.06354971e-004
      -3.86319181e-004 -4.32115281e-003 3.36066959e-003 -1.69200124e-003
      1.09309843e-003 2.58627464e-004 -8.61945387e-004 2.37557874e-003
      -7.06354971e-004 -3.86319181e-004 -4.32115281e-003 3.36066959e-003
      -1.69200124e-003 1.09309843e-003 2.58627464e-004 -8.61945387e-004
      2.37557874e-003 -7.06354971e-004 -3.86319181e-004 -4.32115281e-003
      3.36066959e-003 -1.69200124e-003 1.09309843e-003 2.58627464e-004
      -8.61945387e-004 2.37557874e-003 -7.06354971e-004 -3.86319181e-004
      -4.32115281e-003 3.36066959e-003 -1.69200124e-003 1.09309843e-003
      2.58627464e-004 -8.61945387e-004 2.37557874e-003 -7.06354971e-004
      -3.86319181e-004 -4.32115281e-003 3.36066959e-003 -1.69200124e-003
      1.09309843e-003 2.58627464e-004 -8.61945387e-004 2.37557874e-003
      -7.06354971e-004 -3.86319181e-004 -4.32115281e-003 3.36066959e-003
      -1.69200124e-003 1.09309843e-003 2.58627464e-004 -8.61945387e-004
      2.37557874e-003 -7.06354971e-004 -3.86319181e-004 -4.32115281e-003
      3.36066959e-003 -1.69200124e-003 1.09309843e-003 2.58627464e-004
      -8.61945387e-004 2.37557874e-003 -7.06354971e-004 -3.86319181e-004
      -4.32115281e-003 3.36066959e-003 -1.69200124e-003 1.09309843e-003
      2.58627464e-004 -8.61945387e-004 2.37557874e-003 -7.06354971e-004
      -3.86319181e-004 -4.32115281e-003 3.36066959e-003 -1.69200124e-003
      1.09309843e-003 2.58627464e-004 -8.61945387e-004 2.37557874e-003
      -7.06354971e-004 -3.86319181e-004 -4.32115281e-003 3.36066959e-003
      -1.69200124e-003 1.09309843e-003 2.58627464e-004 -8.61945387e-004
      2.37557874e-003 -7.06354971e-004 -3.86319181e-004 -4.32115281e-003
      3.36066959e-003 -1.69200124e-003 1.09309843e-003 2.58627464e-004
      -8.61945387e-004 2.37557874e-003 -7.06354971e-004 -3.86319181e-004
      -4.32115281e-003 3.36066959e-003 -1.69200124e-003 1.09309843e-003
      2.58627464e-004 -8.61945387e-004 2.37557874e-003 -7.06354971e-004
      -3.86319181e-004 -4.32115281e-003 3.36066959e-003 -1.69200124e-003
      1.09309843e-003 2.58627464e-004 -8.61945387e-004 2.37557874e-003
      -7.06354971e-004 -3.86319181e-004 -4.32115281e-003 3.36066959e-003
      -1.69200124e-003 1.09309843e-003 2.58627464e-004 -8.61945387e-004
      2.37557874e-003 -7.06354971e-004 -3.86319181e-004 -4.32115281e-003
      3.36066959e-003 -1.69200124e-003 1.09309843e-003 2.58627464e-004
      -8.61945387e-004 2.37557874e-003 -7.06354971e-004 -3.86319181e-004
      -4.32115281e-003 3.36066959e-003 -1.69200124e-003 1.09309843e-003
      2.58627464e-004 -8.61945387e-004 2.37557874e-003 -7.06354971e-004
      -3.86319181e-004 -4.32115281e-003 3.36066959e-003 -1.69200124e-003
      1.09309843e-003 2.58627464e-004 -8.61945387e-004 2.37557874e-003
      -7.06354971e-004 -3.86319181e-004 -4.32115281e-003 3.36066959e-003
      -1.69200124e-003 1.09309843e-003 2.58627464e-004 -8.61945387e-004
      2.37557874e-003 -7.06354971e-004 -3.86319181e-004 -4.32115281e-003
      3.36066959e-003 -1.69200124e-003 1.09309843e-003 2.58627464e-004
      -8.61945387e-004 2.37557874e-003 -7.06354971e-004 -3.86319181e-004
      -4.32115281e-003 3.36066959e-003 -1.69200124e-003 1.09309843e-003
      2.58627464e-004 -8.61945387e-004 2.37557874e-003 -7.06354971e-004
      -3.86319181e-004 -4.32115281e-003 3.36066959e-003 -1.69200124e-003
      1.09309843e-003 2.58627464e-004 -8.61945387e-004 2.37557874e-003
      -7.06354971e-004 -3.86319181e-004 -4.32115281e-003 3.36066959e-003
      -1.69200124e-003 1.09309843e-003 2.58627464e-004 -8.61945387e-004
      2.37557874e-003 -7.06354971e-004 -3.86319181e-004 -4.32115281e-003
      3.36066959e-003 -1.69200124e-003 1.09309843e-003 2.58627464e-004
      -8.61945387e-004 2.37557874e-003 -7.06354971e-004 -3.86319181e-004
      -4.32115281e-003 3.36066959e-003 -1.69200124e-003 1.09309843e-003
      2.58627464e-004 -8.61945387e-004 2.37557874e-003 -7.06354971e-004
      -3.86319181e-004 -4.32115281e-003 3.36066959e-003 -1.69200124e-003
      1.09309843e-003 2.58627464e-004 -8.61945387e-004 2.37557874e-003
      -7.06354971e-004 -3.86319181e-004 -4.32115281e-003 3.36066959e-003
      -1.69200124e-003 1.09309843e-003 2.58627464e-004 -8.61945387e-004
      2.37557874e-003 -7.06354971e-004 -3.86319181e-004 -4.32115281e-003
      3.36066959e-003 -1.69200124e-003 1.09309843e-003 2.58627464e-004
      -8.61945387e-004 2.37557874e-003 -7.06354971e-004 -3.86319181e-004
      -4.32115281e-003 3.36066959e-003 -1.69200124e-003 1.09309843e-003
      2.58627464e-004 -8.61945387e-004 2.37557874e-003 -7.06354971e-004
      -3.86319181e-004 -4.32115281e-003 3.36066959e-003 -1.69200124e-003
      1.09309843e-003 2.58627464e-004 -8.61945387e-004 2.37557874e-003
      -7.06354971e-004 -3.86319181e-004 -4.32115281e-003 3.36066959e-003
      -1.69200124e-003 1.09309843e-003 2.58627464e-004 -8.61945387e-004
      2.37557874e-003 -7.06354971e-004 -3.86319181e-004 -4.32115281e-003
      3.36066959e-003 -1.69200124e-003 1.09309843e-003 2.58627464e-004
      -8.61945387e-004 2.37557874e-003 -7.06354971e-004 -3.86319181e-004
      -4.32115281e-003 3.36066959e-003 -1.69200124e-003 1.09309843e-003
      2.58627464e-004 -8.61945387e-004 2.37557874e-003 -7.06354971e-004
      -3.86319181e-004 -4.32115281e-003 3.36066959e-003 -1.69200124e-003
      1.09309843e-003 2.58627464e-004 -8.61945387e-004 2.37557874e-003
      -7.06354971e-004 -3.86319181e-004 -4.32115281e-003 3.36066959e-003
      -1.69200124e-003 1.09309843e-003 2.58627464e-004 -8.61945387e-004
      2.37557874e-003 -7.06354971e-004 -3.86319181e-004 -4.32115281e-003
      3.36066959e-003 -1.69200124e-003 1.09309843e-003 2.58627464e-004
      -8.61945387e-004 2.37557874e-003 -7.06354971e-004 -3.86319181e-004
      -4.32115281e-003 3.36066959e-003 -1.69200124e-003 1.09309843e-003
      2.58627464e-004 -8.61945387e-004 2.37557874e-003 -7.06354971e-004
      -3.86319181e-004 -4.32115281e-003 3.36066959e-003 -1.69200124e-003
      1.09309843e-003 2.58627464e-004 -8.61945387e-004 2.37557874e-003
      -7.06354971e-004 -3.86319181e-004 -4.32115281e-003 3.36066959e-003
      -1.69200124e-003 1.09309843e-003 2.58627464e-004 -8.61945387e-004
      2.37557874e-003 -7.06354971e-004 -3.86319181e-004 -4.32115281e-003
      3.36066959e-003 -1.69200124e-003 1.09309843e-003 2.58627464e-004
      -8.61945387e-004 2.37557874e-003 -7.06354971e-004 -3.86319181e-004
      -4.32115281e-003 3.36066959e-003 -1.69200124e-003 1.09309843e-003
      2.58627464e-004 -8.61945387e-004 2.37557874e-003 -7.06354971e-004
      -3.86319181e-004 -4.32115281e-003 3.36066959e-003 -1.69200124e-003
      1.09309843e-003 2.58627464e-004 -8.61945387e-004 2.37557874e-003
      -7.06354971e-004 -3.86319181e-004 -4.32115281e-003 3.36066959e-003
      -1.69200124e-003 1.09309843e-003 2.58627464e-004 -8.61945387e-004
      2.37557874e-003 -7.06354971e-004 -3.86319181e-004 -4.32115281e-003
      3.36066959e-003 -1.69200124e-003 1.09309843e-003 2.58627464e-004
      -8.61945387e-004 2.37557874e-003 -7.06354971e-004 -3.86319181e-004
      -4.32115281e-003 3.36066959e-003 -1.69200124e-003 1.09309843e-003
      2.58627464e-004 -8.61945387e-004 2.37557874e-003 -7.06354971e-004
      -3.86319181e-004 -4.32115281e-003 3.36066959e-003 -1.69200124e-003
      1.09309843e-003 2.58627464e-004 -8.61945387e-004 2.37557874e-003
      -7.06354971e-004 -3.86319181e-004 -4.32115281e-003 3.36066959e-003
      -1.69200124e-003 1.09309843e-003 2.58627464e-004 -8.61945387e-004
      2.37557874e-003 -7.06354971e-004 -3.86319181e-004 -4.32115281e-003
      3.36066959e-003 -1.69200124e-003 1.09309843e-003 2.58627464e-004
      -8.61945387e-004 2.37557874e-003 -7.06354971e-004 -3.86319181e-004
      -4.32115281e-003 3.36066959e-003 -1.69200124e-003 1.09309843e-003
      2.58627464e-004 -8.61945387e-004 2.37557874e-003 -7.06354971e-004
      -3.86319181e-004 -4.32115281e-003 3.36066959e-003 -1.69200124e-003
      1.09309843e-003 2.58627464e-004 -8.61945387e-004 2.37557874e-003
      -7.06354971e-004 -3.86319181e-004 -4.32115281e-003 3.36066959e-003
      -1.69200124e-003 1.09309843e-003 2.58627464e-004 -8.61945387e-004
      2.37557874e-003 -7.06354971e-004 -3.86319181e-004 -4.32115281e-003
      3.36066959e-003 -1.69200124e-003 1.09309843e-003 2.58627464e-004
      -8.61945387e-004 2.37557874e-003 -7.06354971e-004 -3.86319181e-004
      -4.32115281e-003 3.36066959e-003 -1.69200124e-003 1.09309843e-003
      2.58627464e-004 -8.61945387e-004 2.37557874e-003 -7.06354971e-004
      -3.86319181e-004 -4.32115281e-003 3.36066959e-003 -1.69200124e-003
      1.09309843e-003 2.58627464e-004 -8.61945387e-004 2.37557874e-003
      -7.06354971e-004 -3.86319181e-004 -4.32115281e-003 3.36066959e-003
      -1.69200124e-003 1.09309843e-003 2.58627464e-004 -8.61945387e-004
      2.37557874e-003 -7.06354971e-004 -3.86319181e-004 -4.32115281e-003
      3.36066959e-003 -1.69200124e-003 1.09309843e-003 2.58627464e-004
      -8.61945387e-004 2.37557874e-003 -7.06354971e-004 -3.86319181e-004
      -4.32115281e-003 3.36066959e-003 -1.69200124e-003 1.09309843e-003
      2.58627464e-004 -8.61945387e-004 2.37557874e-003 -7.06354971e-004
      -3.86319181e-004 -4.32115281e-003 3.36066959e-003 -1.69200124e-003
      1.09309843e-003 2.58627464e-004 -8.61945387e-004 2.37557874e-003
      -7.06354971e-004 -3.86319181e-004 -4.32115281e-003 3.36066959e-003
      -1.69200124e-003 1.09309843e-003 2.58627464e-004 -8.61945387e-004
      2.37557874e-003 -7.06354971e-004 -3.86319181e-004 -4.32115281e-003
      3.36066959e-003 -1.69200124e-003 1.09309843e-003 2.58627464e-004
      -8.61945387e-004 2.37557874e-003 -7.06354971e-004 -3.86319181e-004
      -4.32115281e-003 3.36066959e-003 -1.69200124e-003 1.09309843e-003
      2.58627464e-004 -8.61945387e-004 2.37557874e-003 -7.06354971e-004
      -3.86319181e-004 -4.32115281e-003 3.36066959e-003 -1.69200124e-003
      1.09309843e-003 2.58627464e-004 -8.61945387e-004 2.37557874e-003
      -7.06354971e-004 -3.86319181e-004 -4.32115281e-003 3.36066959e-003
      -1.69200124e-003 1.09309843e-003 2.58627464e-004 -8.61945387e-004
      2.37557874e-003 -7.06354971e-004 -3.86319181e-004 -4.32115281e-003
      3.36066959e-003 -1.69200124e-003 1.09309843e-003 2.58627464e-004
      -8.61945387e-004 2.37557874e-003 -7.06354971e-004 -3.86319181e-004
      -4.32115281e-003 3.36066959e-003 -1.69200124e-003 1.09309843e-003
      2.58627464e-004 -8.61945387e-004 2.37557874e-003 -7.06354971e-004
      -3.86319181e-004 -4.32115281e-003 3.36066959e-003 -1.69200124e-003
      1.09309843e-003 2.58627464e-004 -8.61945387e-004 2.37557874e-003
      -7.06354971e-004 -3.86319181e-004 -4.32115281e-003 3.36066959e-003
      -1.69200124e-003 1.09309843e-003 2.58627464e-004 -8.61945387e-004
      2.37557874e-003 -7.06354971e-004 -3.86319181e-004 -4.32115281e-003
      3.36066959e-003 -1.69200124e-003 1.09309843e-003 2.58627464e-004
      -8.61945387e-004 2.37557874e-003 -7.06354971e-004 -3.86319181e-004
      -4.32115281e-003 3.36066959e-003 -1.69200124e-003 1.09309843e-003
      2.58627464e-004 -8.61945387e-004 2.37557874e-003 -7.06354971e-004
      -3.86319181e-004 -4.32115281e-003 3.36066959e-003 -1.69200124e-003
      1.09309843e-003 2.58627464e-004 -8.61945387e-004 2.37557874e-003
      -7.06354971e-004 -3.86319181e-004 -4.32115281e-003 3.36066959e-003
      -1.69200124e-003 1.09309843e-003 2.58627464e-004 -8.61945387e-004
      2.37557874e-003 -7.06354971e-004 -3.86319181e-004 -4.32115281e-003
      3.36066959e-003 -1.69200124e-003 1.09309843e-003 2.58627464e-004
      -8.61945387e-004 2.37557874e-003 -7.06354971e-004 -3.86319181e-004
      -4.32115281e-003 3.36066959e-003 -1.69200124e-003 1.09309843e-003
      2.58627464e-004 -8.61945387e-004 2.37557874e-003 -7.06354971e-004
      -3.86319181e-004 -4.32115281e-003 3.36066959e-003 -1.69200124e-003
      1.09309843e-003 2.58627464e-004 -8.61945387e-004 2.37557874e-003
      -7.06354971e-004 -3.86319181e-004 -4.32115281e-003 3.36066959e-003
      -1.69200124e-003 1.09309843e-003 2.58627464e-004 -8.61945387e-004
      2.37557874e-003 -7.06354971e-004 -3.86319181e-004 -4.32115281e-003
      3.36066959e-003 -1.69200124e-003 1.09309843e-003 2.58627464e-004
      -8.61945387e-004 2.37557874e-003 -7.06354971e-004 -3.86319181e-004
      -4.32115281e-003 3.36066959e-003 -1.69200124e-003 1.09309843e-003
      2.58627464e-004 -8.61945387e-004 2.37557874e-003 -7.06354971e-004
      -3.86319181e-004 -4.32115281e-003 3.36066959e-003 -1.69200124e-003
      1.09309843e-003 2.58627464e-004 -8.61945387e-004 2.37557874e-003
      -7.06354971e-004 -3.86319181e-004 -4.32115281e-003 3.36066959e-003
      -1.69200124e-003 1.09309843e-003 2.58627464e-004 -8.61945387e-004
      2.37557874e-003 -7.06354971e-004 -3.86319181e-004 -4.32115281e-003
      3.36066959e-003 -1.69200124e-003 1.09309843e-003 2.58627464e-004
      -8.61945387e-004 2.37557874e-003 -7.06354971e-004 -3.86319181e-004
      -4.32115281e-003 3.36066959e-003 -1.69200124e-003 1.09309843e-003
      2.58627464e-004 -8.61945387e-004 2.37557874e-003 -7.06354971e-004
      -3.86319181e-004 -4.32115281e-003 3.36066959e-003 -1.69200124e-003
      1.09309843e-003 2.58627464e-004 -8.61945387e-004 2.37557874e-003
      -7.06354971e-004 -3.86319181e-004 -4.32115281e-003 3.36066959e-003
      -1.69200124e-003 1.09309843e-003 2.58627464e-004 -8.61945387e-004
      2.37557874e-003 -7.06354971e-004 -3.86319181e-004 -4.32115281e-003
      3.36066959e-003 -1.69200124e-003 1.09309843e-003 2.58627464e-004
      -8.61945387e-004 2.37557874e-003 -7.06354971e-004 -3.86319181e-004
      -4.32115281e-003 3.36066959e-003 -1.69200124e-003 1.09309843e-003
      2.58627464e-004 -8.61945387e-004 2.37557874e-003 -7.06354971e-004
      -3.86319181e-004 -4.32115281e-003 3.36066959e-003 -1.69200124e-003
      1.09309843e-003 2.58627464e-004 -8.61945387e-004 2.37557874e-003
      -7.06354971e-004 -3.86319181e-004 -4.32115281e-003 3.36066959e-003
      -1.69200124e-003 1.09309843e-003 2.58627464e-004 -8.61945387e-004
      2.37557874e-003 -7.06354971e-004 -3.86319181e-004 -4.32115281e-003
      3.36066959e-003 -1.69200124e-003 1.09309843e-003 2.58627464e-004
      -8.61945387e-004 2.37557874e-003 -7.06354971e-004 -3.86319181e-004
      -4.32115281e-003 3.36066959e-003 -1.69200124e-003 1.09309843e-003
      2.58627464e-004 -8.61945387e-004 2.37557874e-003 -7.06354971e-004
      -3.86319181e-004 -4.32115281e-003 3.36066959e-003 -1.69200124e-003
      1.09309843e-003 2.58627464e-004 -8.61945387e-004 2.37557874e-003
      -7.06354971e-004 -3.86319181e-004 -4.32115281e-003 3.36066959e-003
      -1.69200124e-003 1.09309843e-003 2.58627464e-004 -8.61945387e-004
      2.37557874e-003 -7.06354971e-004 -3.86319181e-004 -4.32115281e-003
      3.36066959e-003 -1.69200124e-003 1.09309843e-003 2.58627464e-004
      -8.61945387e-004 2.37557874e-003 -7.06354971e-004 -3.86319181e-004
      -4.32115281e-003 3.36066959e-003 -1.69200124e-003 1.09309843e-003
      2.58627464e-004 -8.61945387e-004 2.37557874e-003 -7.06354971e-004
      -3.86319181e-004 -4.32115281e-003 3.36066959e-003 -1.69200124e-003
      1.09309843e-003 2.58627464e-004 -8.61945387e-004 2.37557874e-003
      -7.06354971e-004 -3.86319181e-004 -4.32115281e-003 3.36066959e-003
      -1.69200124e-003 1.09309843e-003 2.58627464e-004 -8.61945387e-004
      2.37557874e-003 -7.06354971e-004 -3.86319181e-004 -4.32115281e-003
      3.36066959e-003 -1.69200124e-003 1.09309843e-003 2.58627464e-004
      -8.61945387e-004 2.37557874e-003 -7.06354971e-004 -3.86319181e-004
      -4.32115281e-003 3.36066959e-003 -1.69200124e-003 1.09309843e-003
      2.58627464e-004 -8.61945387e-004 2.37557874e-003 -7.06354971e-004
      -3.86319181e-004 -4.32115281e-003 3.36066959e-003 -1.69200124e-003
      1.09309843e-003 2.58627464e-004 -8.61945387e-004 2.37557874e-003
      -7.06354971e-004 -3.86319181e-004 -4.32115281e-003 3.36066959e-003
      -1.69200124e-003 1.09309843e-003 2.58627464e-004 -8.61945387e-004
      2.37557874e-003 -7.06354971e-004 -3.86319181e-004 -4.32115281e-003
      3.36066959e-003 -1.69200124e-003 1.09309843e-003 2.58627464e-004
      -8.61945387e-004 2.37557874e-003 -7.06354971e-004 -3.86319181e-004
      -4.32115281e-003 3.36066959e-003 -1.69200124e-003 1.09309843e-003
      2.58627464e-004 -8.61945387e-004 2.37557874e-003 -7.06354971e-004
      -3.86319181e-004 -4.32115281e-003 3.36066959e-003 -1.69200124e-003
      1.09309843e-003 2.58627464e-004 -8.61945387e-004 2.37557874e-003
      -7.06354971e-004 -3.86319181e-004 -4.32115281e-003 3.36066959e-003
      -1.69200124e-003 1.09309843e-003 2.58627464e-004 -8.61945387e-004
      2.37557874e-003 -7.06354971e-004 -3.86319181e-004 -4.32115281e-003
      3.36066959e-003 -1.69200124e-003 1.09309843e-003 2.58627464e-004
      -8.61945387e-004 2.37557874e-003 -7.06354971e-004 -3.86319181e-004
      -4.32115281e-003 3.36066959e-003 -1.69200124e-003 1.09309843e-003
      2.58627464e-004 -8.61945387e-004 2.37557874e-003 -7.06354971e-004
      -3.86319181e-004 -4.32115281e-003 3.36066959e-003 -1.69200124e-003
      1.09309843e-003 2.58627464e-004 -8.61945387e-004 2.37557874e-003
      -7.06354971e-004 -3.86319181e-004 -4.32115281e-003 3.36066959e-003
      -1.69200124e-003 1.09309843e-003 2.58627464e-004 -8.61945387e-004
      2.37557874e-003 -7.06354971e-004 -3.86319181e-004 -4.32115281e-003
      3.36066959e-003 -1.69200124e-003 1.09309843e-003 2.58627464e-004
      -8.61945387e-004 2.37557874e-003 -7.06354971e-004 -3.86319181e-004
      -4.32115281e-003 3.36066959e-003 -1.69200124e-003 1.09309843e-003
      2.58627464e-004 -8.61945387e-004 2.37557874e-003 -7.06354971e-004
      -3.86319181e-004 -4.32115281e-003 3.36066959e-003 -1.69200124e-003
      1.09309843e-003 2.58627464e-004 -8.61945387e-004 2.37557874e-003
      -7.06354971e-004 -3.86319181e-004 -4.32115281e-003 3.36066959e-003
      -1.69200124e-003 1.09309843e-003 2.58627464e-004 -8.61945387e-004
      2.37557874e-003 -7.06354971e-004 -3.86319181e-004 -4.32115281e-003
      3.36066959e-003 -1.69200124e-003 1.09309843e-003 2.58627464e-004
      -8.61945387e-004 2.37557874e-003 -7.06354971e-004 -3.86319181e-004
      -4.32115281e-003 3.36066959e-003 -1.69200124e-003 1.09309843e-003
      2.58627464e-004 -8.61945387e-004 2.37557874e-003 -7.06354971e-004
      -3.86319181e-004 -4.32115281e-003 3.36066959e-003 -1.69200124e-003
      1.09309843e-003 2.58627464e-004 -8.61945387e-004 2.37557874e-003
      -7.06354971e-004 -3.86319181e-004 -4.32115281e-003 3.36066959e-003
      -1.69200124e-003 1.09309843e-003 2.58627464e-004 -8.61945387e-004
      2.37557874e-003 -7.06354971e-004 -3.86319181e-004 -4.32115281e-003
      3.36066959e-003 -1.69200124e-003 1.09309843e-003 2.58627464e-004
      -8.61945387e-004 2.37557874e-003 -7.06354971e-004 -3.86319181e-004
      -4.32115281e-003 3.36066959e-003 -1.69200124e-003 1.09309843e-003
      2.58627464e-004 -8.61945387e-004 2.37557874e-003 -7.06354971e-004
      -3.86319181e-004 -4.32115281e-003 3.36066959e-003 -1.69200124e-003
      1.09309843e-003 2.58627464e-004 -8.61945387e-004 2.37557874e-003
      -7.06354971e-004 -3.86319181e-004 -4.32115281e-003 3.36066959e-003
      -1.69200124e-003 1.09309843e-003 2.58627464e-004 -8.61945387e-004
      2.37557874e-003 -7.06354971e-004 -3.86319181e-004 -4.32115281e-003
      3.36066959e-003 -1.69200124e-003 1.09309843e-003 2.58627464e-004
      -8.61945387e-004 2.37557874e-003 -7.06354971e-004 -3.86319181e-004
      -4.32115281e-003 3.36066959e-003 -1.69200124e-003 1.09309843e-003
      2.58627464e-004 -8.61945387e-004 2.37557874e-003 -7.06354971e-004
      -3.86319181e-004 -4.32115281e-003 3.36066959e-003 -1.69200124e-003
      1.09309843e-003 2.58627464e-004 -8.61945387e-004 2.37557874e-003
      -7.06354971e-004 -3.86319181e-004 -4.32115281e-003 3.36066959e-003
      -1.69200124e-003 1.09309843e-003 2.58627464e-004 -8.61945387e-004
      2.37557874e-003 -7.06354971e-004 -3.86319181e-004 -4.32115281e-003
      3.36066959e-003 -1.69200124e-003 1.09309843e-003 2.58627464e-004
      -8.61945387e-004 2.37557874e-003 -7.06354971e-004 -3.86319181e-004
      -4.32115281e-003 3.36066959e-003 -1.69200124e-003 1.09309843e-003
      2.58627464e-004 -8.61945387e-004 2.37557874e-003 -7.06354971e-004
      -3.86319181e-004 -4.32115281e-003 3.36066959e-003 -1.69200124e-003
      1.09309843e-003 2.58627464e-004 -8.61945387e-004 2.37557874e-003
      -7.06354971e-004 -3.86319181e-004 -4.32115281e-003 3.36066959e-003
      -1.69200124e-003 1.09309843e-003 2.58627464e-004 -8.61945387e-004
      2.37557874e-003 -7.06354971e-004 -3.86319181e-004 -4.32115281e-003
      3.36066959e-003 -1.69200124e-003 1.09309843e-003 2.58627464e-004
      -8.61945387e-004 2.37557874e-003 -7.06354971e-004 -3.86319181e-004
      -4.32115281e-003 3.36066959e-003 -1.69200124e-003 1.09309843e-003
      2.58627464e-004 -8.61945387e-004 2.37557874e-003 -7.06354971e-004
      -3.86319181e-004 -4.32115281e-003 3.36066959e-003 -1.69200124e-003
      1.09309843e-003 2.58627464e-004 -8.61945387e-004 2.37557874e-003
      -7.06354971e-004 -3.86319181e-004 -4.32115281e-003 3.36066959e-003
      -1.69200124e-003 1.09309843e-003 2.58627464e-004 -8.61945387e-004
      2.37557874e-003 -7.06354971e-004 -3.86319181e-004 -4.32115281e-003
      3.36066959e-003 -1.69200124e-003 1.09309843e-003 2.58627464e-004
      -8.61945387e-004 2.37557874e-003 -7.06354971e-004 -3.86319181e-004
      -4.32115281e-003 3.36066959e-003 -1.69200124e-003 1.09309843e-003
      2.58627464e-004 -8.61945387e-004 2.37557874e-003 -7.06354971e-004
      -3.86319181e-004 -4.32115281e-003 3.36066959e-003 -1.69200124e-003
      1.09309843e-003 2.58627464e-004 -8.61945387e-004 2.37557874e-003
      -7.06354971e-004 -3.86319181e-004 -4.32115281e-003 3.36066959e-003
      -1.69200124e-003 1.09309843e-003 2.58627464e-004 -8.61945387e-004
      2.37557874e-003 -7.06354971e-004 -3.86319181e-004 -4.32115281e-003
      3.36066959e-003 -1.69200124e-003 1.09309843e-003 2.58627464e-004
      -8.61945387e-004 2.37557874e-003 -7.06354971e-004 -3.86319181e-004
      -4.32115281e-003 3.36066959e-003 -1.69200124e-003 1.09309843e-003
      2.58627464e-004 -8.61945387e-004 2.37557874e-003 -7.06354971e-004
      -3.86319181e-004 -4.32115281e-003 3.36066959e-003 -1.69200124e-003
      1.09309843e-003 2.58627464e-004 -8.61945387e-004 2.37557874e-003
      -7.06354971e-004 -3.86319181e-004 -4.32115281e-003 3.36066959e-003
      -1.69200124e-003 1.09309843e-003 2.58627464e-004 -8.61945387e-004
      2.37557874e-003 -7.06354971e-004 -3.86319181e-004 -4.32115281e-003
      3.36066959e-003 -1.69200124e-003 1.09309843e-003 2.58627464e-004
      -8.61945387e-004 2.37557874e-003 -7.06354971e-004 -3.86319181e-004
      -4.32115281e-003 3.36066959e-003 -1.69200124e-003 1.09309843e-003
      2.58627464e-004 -8.61945387e-004 2.37557874e-003 -7.06354971e-004
      -3.86319181e-004 -4.32115281e-003 3.36066959e-003 -1.69200124e-003
      1.09309843e-003 2.58627464e-004 -8.61945387e-004 2.37557874e-003
      -7.06354971e-004 -3.86319181e-004 -4.32115281e-003 3.36066959e-003
      -1.69200124e-003 1.09309843e-003 2.58627464e-004 -8.61945387e-004
      2.37557874e-003 -7.06354971e-004 -3.86319181e-004 -4.32115281e-003
      3.36066959e-003 -1.69200124e-003 1.09309843e-003 2.58627464e-004
      -8.61945387e-004 2.37557874e-003 -7.06354971e-004 -3.86319181e-004
      -4.32115281e-003 3.36066959e-003 -1.69200124e-003 1.09309843e-003
      2.58627464e-004 -8.61945387e-004 2.37557874e-003 -7.06354971e-004
      -3.86319181e-004 -4.32115281e-003 3.36066959e-003 -1.69200124e-003
      1.09309843e-003 2.58627464e-004 -8.61945387e-004 2.37557874e-003
      -7.06354971e-004 -3.86319181e-004 -4.32115281e-003 3.36066959e-003
      -1.69200124e-003 1.09309843e-003 2.58627464e-004 -8.61945387e-004
      2.37557874e-003 -7.06354971e-004 -3.86319181e-004 -4.32115281e-003
      3.36066959e-003 -1.69200124e-003 1.09309843e-003 2.58627464e-004
      -8.61945387e-004 2.37557874e-003 -7.06354971e-004 -3.86319181e-004
      -4.32115281e-003 3.36066959e-003 -1.69200124e-003 1.09309843e-003
      2.58627464e-004 -8.61945387e-004 2.37557874e-003 -7.06354971e-004
      -3.86319181e-004 -4.32115281e-003 3.36066959e-003 -1.69200124e-003
      1.09309843e-003 2.58627464e-004 -8.61945387e-004 2.37557874e-003
      -7.06354971e-004 -3.86319181e-004 -4.32115281e-003 3.36066959e-003
      -1.69200124e-003 1.09309843e-003 2.58627464e-004 -8.61945387e-004
      2.37557874e-003 -7.06354971e-004 -3.86319181e-004 -4.32115281e-003
      3.36066959e-003 -1.69200124e-003 1.09309843e-003 2.58627464e-004
      -8.61945387e-004 2.37557874e-003 -7.06354971e-004 -3.86319181e-004
      -4.32115281e-003 3.36066959e-003 -1.69200124e-003 1.09309843e-003
      2.58627464e-004 -8.61945387e-004 2.37557874e-003 -7.06354971e-004
      -3.86319181e-004 -4.32115281e-003 3.36066959e-003 -1.69200124e-003
      1.09309843e-003 2.58627464e-004 -8.61945387e-004 2.37557874e-003
      -7.06354971e-004 -3.86319181e-004 -4.32115281e-003 3.36066959e-003
      -1.69200124e-003 1.09309843e-003 2.58627464e-004 -8.61945387e-004
      2.37557874e-003 -7.06354971e-004 -3.86319181e-004 -4.32115281e-003
      3.36066959e-003 -1.69200124e-003 1.09309843e-003 2.58627464e-004
      -8.61945387e-004 2.37557874e-003 -7.06354971e-004 -3.86319181e-004
      -4.32115281e-003 3.36066959e-003 -1.69200124e-003 1.09309843e-003
      2.58627464e-004 -8.61945387e-004 2.37557874e-003 -7.06354971e-004
      -3.86319181e-004 -4.32115281e-003 3.36066959e-003 -1.69200124e-003
      1.09309843e-003 2.58627464e-004 -8.61945387e-004 2.37557874e-003
      -7.06354971e-004 -3.86319181e-004 -4.32115281e-003 3.36066959e-003
      -1.69200124e-003 1.09309843e-003 2.58627464e-004 -8.61945387e-004
      2.37557874e-003 -7.06354971e-004 -3.86319181e-004 -4.32115281e-003
      3.36066959e-003 -1.69200124e-003 1.09309843e-003 2.58627464e-004
      -8.61945387e-004 2.37557874e-003 -7.06354971e-004 -3.86319181e-004
      -4.32115281e-003 3.36066959e-003 -1.69200124e-003 1.09309843e-003
      2.58627464e-004 -8.61945387e-004 2.37557874e-003 -7.06354971e-004
      -3.86319181e-004 -4.32115281e-003 3.36066959e-003 -1.69200124e-003
      1.09309843e-003 2.58627464e-004 -8.61945387e-004 2.37557874e-003
      -7.06354971e-004 -3.86319181e-004 -4.32115281e-003 3.36066959e-003
      -1.69200124e-003 1.09309843e-003 2.58627464e-004 -8.61945387e-004
      2.37557874e-003 -7.06354971e-004 -3.86319181e-004 -4.32115281e-003
      3.36066959e-003 -1.69200124e-003 1.09309843e-003 2.58627464e-004
      -8.61945387e-004 2.37557874e-003 -7.06354971e-004 -3.86319181e-004
      -4.32115281e-003 3.36066959e-003 -1.69200124e-003 1.09309843e-003
      2.58627464e-004 -8.61945387e-004 2.37557874e-003 -7.06354971e-004
      -3.86319181e-004 -4.32115281e-003 3.36066959e-003 -1.69200124e-003
      1.09309843e-003 2.58627464e-004 -8.61945387e-004 2.37557874e-003
      -7.06354971e-004 -3.86319181e-004 -4.32115281e-003 3.36066959e-003
      -1.69200124e-003 1.09309843e-003 2.58627464e-004 -8.61945387e-004
      2.37557874e-003 -7.06354971e-004 -3.86319181e-004 -4.32115281e-003
      3.36066959e-003 -1.69200124e-003 1.09309843e-003 2.58627464e-004
      -8.61945387e-004 2.37557874e-003 -7.06354971e-004 -3.86319181e-004
      -4.32115281e-003 3.36066959e-003 -1.69200124e-003 1.09309843e-003
      2.58627464e-004 -8.61945387e-004 2.37557874e-003 -7.06354971e-004
      -3.86319181e-004 -4.32115281e-003 3.36066959e-003 -1.69200124e-003
      1.09309843e-003 2.58627464e-004 -8.61945387e-004 2.37557874e-003
      -7.06354971e-004 -3.86319181e-004 -4.32115281e-003 3.36066959e-003
      -1.69200124e-003 1.09309843e-003 2.58627464e-004 -8.61945387e-004
      2.37557874e-003 -7.06354971e-004 -3.86319181e-004 -4.32115281e-003
      3.36066959e-003 -1.69200124e-003 1.09309843e-003 2.58627464e-004
      -8.61945387e-004 2.37557874e-003 -7.06354971e-004 -3.86319181e-004
      -4.32115281e-003 3.36066959e-003 -1.69200124e-003 1.09309843e-003
      2.58627464e-004 -8.61945387e-004 2.37557874e-003 -7.06354971e-004
      -3.86319181e-004 -4.32115281e-003 3.36066959e-003 -1.69200124e-003
      1.09309843e-003 2.58627464e-004 -8.61945387e-004 2.37557874e-003
      -7.06354971e-004 -3.86319181e-004 -4.32115281e-003 3.36066959e-003
      -1.69200124e-003 1.09309843e-003 2.58627464e-004 -8.61945387e-004
      2.37557874e-003 -7.06354971e-004 -3.86319181e-004 -4.32115281e-003
      3.36066959e-003 -1.69200124e-003 1.09309843e-003 2.58627464e-004
      -8.61945387e-004 2.37557874e-003 -7.06354971e-004 -3.86319181e-004
      -4.32115281e-003 3.36066959e-003 -1.69200124e-003 1.09309843e-003
      2.58627464e-004 -8.61945387e-004 2.37557874e-003 -7.06354971e-004
      -3.86319181e-004 -4.32115281e-003 3.36066959e-003 -1.69200124e-003
      1.09309843e-003 2.58627464e-004 -8.61945387e-004 2.37557874e-003
      -7.06354971e-004 -3.86319181e-004 -4.32115281e-003 3.36066959e-003
      -1.69200124e-003 1.09309843e-003 2.58627464e-004 -8.61945387e-004
      2.37557874e-003 -7.06354971e-004 -3.86319181e-004 -4.32115281e-003
      3.36066959e-003 -1.69200124e-003 1.09309843e-003 2.58627464e-004
      -8.61945387e-004 2.37557874e-003 -7.06354971e-004 -3.86319181e-004
      -4.32115281e-003 3.36066959e-003 -1.69200124e-003 1.09309843e-003
      2.58627464e-004 -8.61945387e-004 2.37557874e-003 -7.06354971e-004
      -3.86319181e-004 -4.32115281e-003 3.36066959e-003 -1.69200124e-003
      1.09309843e-003 2.58627464e-004 -8.61945387e-004 2.37557874e-003
      -7.06354971e-004 -3.86319181e-004 -4.32115281e-003 3.36066959e-003
      -1.69200124e-003 1.09309843e-003 2.58627464e-004 -8.61945387e-004
      2.37557874e-003 -7.06354971e-004 -3.86319181e-004 -4.32115281e-003
      3.36066959e-003 -1.69200124e-003 1.09309843e-003 2.58627464e-004
      -8.61945387e-004 2.37557874e-003 -7.06354971e-004 -3.86319181e-004
      -4.32115281e-003 3.36066959e-003 -1.69200124e-003 1.09309843e-003
      2.58627464e-004 -8.61945387e-004 2.37557874e-003 -7.06354971e-004
      -3.86319181e-004 -4.32115281e-003 3.36066959e-003 -1.69200124e-003
      1.09309843e-003 2.58627464e-004 -8.61945387e-004 2.37557874e-003
      -7.06354971e-004 -3.86319181e-004 -4.32115281e-003 3.36066959e-003
      -1.69200124e-003 1.09309843e-003 2.58627464e-004 -8.61945387e-004
      2.37557874e-003 -7.06354971e-004 -3.86319181e-004 -4.32115281e-003
      3.36066959e-003 -1.69200124e-003 1.09309843e-003 2.58627464e-004
      -8.61945387e-004 2.37557874e-003 -7.06354971e-004 -3.86319181e-004
      -4.32115281e-003 3.36066959e-003 -1.69200124e-003 1.09309843e-003
      2.58627464e-004 -8.61945387e-004 2.37557874e-003 -7.06354971e-004
      -3.86319181e-004 -4.32115281e-003 3.36066959e-003 -1.69200124e-003
      1.09309843e-003 2.58627464e-004 -8.61945387e-004 2.37557874e-003
      -7.06354971e-004 -3.86319181e-004 -4.32115281e-003 3.36066959e-003
      -1.69200124e-003 1.09309843e-003 2.58627464e-004 -8.61945387e-004
      2.37557874e-003 -7.06354971e-004 -3.86319181e-004 -4.32115281e-003
      3.36066959e-003 -1.69200124e-003 1.09309843e-003 2.58627464e-004
      -8.61945387e-004 2.37557874e-003 -7.06354971e-004 -3.86319181e-004
      -4.32115281e-003 3.36066959e-003 -1.69200124e-003 1.09309843e-003
      2.58627464e-004 -8.61945387e-004 2.37557874e-003 -7.06354971e-004
      -3.86319181e-004 -4.32115281e-003 3.36066959e-003 -1.69200124e-003
      1.09309843e-003 2.58627464e-004 -8.61945387e-004 2.37557874e-003
      -7.06354971e-004 -3.86319181e-004 -4.32115281e-003 3.36066959e-003
      -1.69200124e-003 1.09309843e-003 2.58627464e-004 -8.61945387e-004
      2.37557874e-003 -7.06354971e-004 -3.86319181e-004 -4.32115281e-003
      3.36066959e-003 -1.69200124e-003 1.09309843e-003 2.58627464e-004
      -8.61945387e-004 2.37557874e-003 -7.06354971e-004 -3.86319181e-004
      -4.32115281e-003 3.36066959e-003 -1.69200124e-003 1.09309843e-003
      2.58627464e-004 -8.61945387e-004 2.37557874e-003 -7.06354971e-004
      -3.86319181e-004 -4.32115281e-003 3.36066959e-003 -1.69200124e-003
      1.09309843e-003 2.58627464e-004 -8.61945387e-004 2.37557874e-003
      -7.06354971e-004 -3.86319181e-004 -4.32115281e-003 3.36066959e-003
      -1.69200124e-003 1.09309843e-003 2.58627464e-004 -8.61945387e-004
      2.37557874e-003 -7.06354971e-004 -3.86319181e-004 -4.32115281e-003
      3.36066959e-003 -1.69200124e-003 1.09309843e-003 2.58627464e-004
      -8.61945387e-004 2.37557874e-003 -7.06354971e-004 -3.86319181e-004
      -4.32115281e-003 3.36066959e-003 -1.69200124e-003 1.09309843e-003
      2.58627464e-004 -8.61945387e-004 2.37557874e-003 -7.06354971e-004
      -3.86319181e-004 -4.32115281e-003 3.36066959e-003 -1.69200124e-003
      1.09309843e-003 2.58627464e-004 -8.61945387e-004 2.37557874e-003
      -7.06354971e-004 -3.86319181e-004 -4.32115281e-003 3.36066959e-003
      -1.69200124e-003 1.09309843e-003 2.58627464e-004 -8.61945387e-004
      2.37557874e-003 -7.06354971e-004 -3.86319181e-004 -4.32115281e-003
      3.36066959e-003 -1.69200124e-003 1.09309843e-003 2.58627464e-004
      -8.61945387e-004 2.37557874e-003 -7.06354971e-004 -3.86319181e-004
      -4.32115281e-003 3.36066959e-003 -1.69200124e-003 1.09309843e-003
      2.58627464e-004 -8.61945387e-004 2.37557874e-003 -7.06354971e-004
      -3.86319181e-004 -4.32115281e-003 3.36066959e-003 -1.69200124e-003
      1.09309843e-003 2.58627464e-004 -8.61945387e-004 2.37557874e-003
      -7.06354971e-004 -3.86319181e-004 -4.32115281e-003 3.36066959e-003
      -1.69200124e-003 1.09309843e-003 2.58627464e-004 -8.61945387e-004
      2.37557874e-003 -7.06354971e-004 -3.86319181e-004 -4.32115281e-003
      3.36066959e-003 -1.69200124e-003 1.09309843e-003 2.58627464e-004
      -8.61945387e-004 2.37557874e-003 -7.06354971e-004 -3.86319181e-004
      -4.32115281e-003 3.36066959e-003 -1.69200124e-003 1.09309843e-003
      2.58627464e-004 -8.61945387e-004 2.37557874e-003 -7.06354971e-004
      -3.86319181e-004 -4.32115281e-003 3.36066959e-003 -1.69200124e-003
      1.09309843e-003 2.58627464e-004 -8.61945387e-004 2.37557874e-003
      -7.06354971e-004 -3.86319181e-004 -4.32115281e-003 3.36066959e-003
      -1.69200124e-003 1.09309843e-003 2.58627464e-004 -8.61945387e-004
      2.37557874e-003 -7.06354971e-004 -3.86319181e-004 -4.32115281e-003
      3.36066959e-003 -1.69200124e-003 1.09309843e-003 2.58627464e-004
      -8.61945387e-004 2.37557874e-003 -7.06354971e-004 -3.86319181e-004
      -4.32115281e-003 3.36066959e-003 -1.69200124e-003 1.09309843e-003
      2.58627464e-004 -8.61945387e-004 2.37557874e-003 -7.06354971e-004
      -3.86319181e-004 -4.32115281e-003 3.36066959e-003 -1.69200124e-003
      1.09309843e-003 2.58627464e-004 -8.61945387e-004 2.37557874e-003
      -7.06354971e-004 -3.86319181e-004 -4.32115281e-003 3.36066959e-003
      -1.69200124e-003 1.09309843e-003 2.58627464e-004 -8.61945387e-004
      2.37557874e-003 -7.06354971e-004 -3.86319181e-004 -4.32115281e-003
      3.36066959e-003 -1.69200124e-003 1.09309843e-003 2.58627464e-004
      -8.61945387e-004 2.37557874e-003 -7.06354971e-004 -3.86319181e-004
      -4.32115281e-003 3.36066959e-003 -1.69200124e-003 1.09309843e-003
      2.58627464e-004 -8.61945387e-004 2.37557874e-003 -7.06354971e-004
      -3.86319181e-004 -4.32115281e-003 3.36066959e-003 -1.69200124e-003
      1.09309843e-003 2.58627464e-004 -8.61945387e-004 2.37557874e-003
      -7.06354971e-004 -3.86319181e-004 -4.32115281e-003 3.36066959e-003
      -1.69200124e-003 1.09309843e-003 2.58627464e-004 -8.61945387e-004
      2.37557874e-003 -7.06354971e-004 -3.86319181e-004 -4.32115281e-003
      3.36066959e-003 -1.69200124e-003 1.09309843e-003 2.58627464e-004
      -8.61945387e-004 2.37557874e-003 -7.06354971e-004 -3.86319181e-004
      -4.32115281e-003 3.36066959e-003 -1.69200124e-003 1.09309843e-003
      2.58627464e-004 -8.61945387e-004 2.37557874e-003 -7.06354971e-004
      -3.86319181e-004 -4.32115281e-003 3.36066959e-003 -1.69200124e-003
      1.09309843e-003 2.58627464e-004 -8.61945387e-004 2.37557874e-003
      -7.06354971e-004 -3.86319181e-004 -4.32115281e-003 3.36066959e-003
      -1.69200124e-003 1.09309843e-003 2.58627464e-004 -8.61945387e-004
      2.37557874e-003 -7.06354971e-004 -3.86319181e-004 -4.32115281e-003
      3.36066959e-003 -1.69200124e-003 1.09309843e-003 2.58627464e-004
      -8.61945387e-004 2.37557874e-003 -7.06354971e-004 -3.86319181e-004
      -4.32115281e-003 3.36066959e-003 -1.69200124e-003 1.09309843e-003
      2.58627464e-004 -8.61945387e-004 2.37557874e-003 -7.06354971e-004
      -3.86319181e-004 -4.32115281e-003 3.36066959e-003 -1.69200124e-003
      1.09309843e-003 2.58627464e-004 -8.61945387e-004 2.37557874e-003
      -7.06354971e-004 -3.86319181e-004 -4.32115281e-003 3.36066959e-003
      -1.69200124e-003 1.09309843e-003 2.58627464e-004 -8.61945387e-004
      2.37557874e-003 -7.06354971e-004 -3.86319181e-004 -4.32115281e-003
      3.36066959e-003 -1.69200124e-003 1.09309843e-003 2.58627464e-004
      -8.61945387e-004 2.37557874e-003 -7.06354971e-004 -3.86319181e-004
      -4.32115281e-003 3.36066959e-003 -1.69200124e-003 1.09309843e-003
      2.58627464e-004 -8.61945387e-004 2.37557874e-003 -7.06354971e-004
      -3.86319181e-004 -4.32115281e-003 3.36066959e-003 -1.69200124e-003
      1.09309843e-003 2.58627464e-004 -8.61945387e-004 2.37557874e-003
      -7.06354971e-004 -3.86319181e-004 -4.32115281e-003 3.36066959e-003
      -1.69200124e-003 1.09309843e-003 2.58627464e-004 -8.61945387e-004
      2.37557874e-003 -7.06354971e-004 -3.86319181e-004 -4.32115281e-003
      3.36066959e-003 -1.69200124e-003 1.09309843e-003 2.58627464e-004
      -8.61945387e-004 2.37557874e-003 -7.06354971e-004 -3.86319181e-004
      -4.32115281e-003 3.36066959e-003 -1.69200124e-003 1.09309843e-003
      2.58627464e-004 -8.61945387e-004 2.37557874e-003 -7.06354971e-004
      -3.86319181e-004 -4.32115281e-003 3.36066959e-003 -1.69200124e-003
      1.09309843e-003 2.58627464e-004 -8.61945387e-004 2.37557874e-003
      -7.06354971e-004 -3.86319181e-004 -4.32115281e-003 3.36066959e-003
      -1.69200124e-003 1.09309843e-003 2.58627464e-004 -8.61945387e-004
      2.37557874e-003 -7.06354971e-004 -3.86319181e-004 -4.32115281e-003
      3.36066959e-003 -1.69200124e-003 1.09309843e-003 2.58627464e-004
      -8.61945387e-004 2.37557874e-003 -7.06354971e-004 -3.86319181e-004
      -4.32115281e-003 3.36066959e-003 -1.69200124e-003 1.09309843e-003
      2.58627464e-004 -8.61945387e-004 2.37557874e-003 -7.06354971e-004
      -3.86319181e-004 -4.32115281e-003 3.36066959e-003 -1.69200124e-003
      1.09309843e-003 2.58627464e-004 -8.61945387e-004 2.37557874e-003
      -7.06354971e-004 -3.86319181e-004 -4.32115281e-003 3.36066959e-003
      -1.69200124e-003 1.09309843e-003 2.58627464e-004 -8.61945387e-004
      2.37557874e-003 -7.06354971e-004 -3.86319181e-004 -4.32115281e-003
      3.36066959e-003 -1.69200124e-003 1.09309843e-003 2.58627464e-004
      -8.61945387e-004 2.37557874e-003 -7.06354971e-004 -3.86319181e-004
      -4.32115281e-003 3.36066959e-003 -1.69200124e-003 1.09309843e-003
      2.58627464e-004 -8.61945387e-004 2.37557874e-003 -7.06354971e-004
      -3.86319181e-004 -4.32115281e-003 3.36066959e-003 -1.69200124e-003
      1.09309843e-003 2.58627464e-004 -8.61945387e-004 2.37557874e-003
      -7.06354971e-004 -3.86319181e-004 -4.32115281e-003 3.36066959e-003
      -1.69200124e-003 1.09309843e-003 2.58627464e-004 -8.61945387e-004
      2.37557874e-003 -7.06354971e-004 -3.86319181e-004 -4.32115281e-003
      3.36066959e-003 -1.69200124e-003 1.09309843e-003 2.58627464e-004
      -8.61945387e-004 2.37557874e-003 -7.06354971e-004 -3.86319181e-004
      -4.32115281e-003 3.36066959e-003 -1.69200124e-003 1.09309843e-003
      2.58627464e-004 -8.61945387e-004 2.37557874e-003 -7.06354971e-004
      -3.86319181e-004 -4.32115281e-003 3.36066959e-003 -1.69200124e-003
      1.09309843e-003 2.58627464e-004 -8.61945387e-004 2.37557874e-003
      -7.06354971e-004 -3.86319181e-004 -4.32115281e-003 3.36066959e-003
      -1.69200124e-003 1.09309843e-003 2.58627464e-004 -8.61945387e-004
      2.37557874e-003 -7.06354971e-004 -3.86319181e-004 -4.32115281e-003
      3.36066959e-003 -1.69200124e-003 1.09309843e-003 2.58627464e-004
      -8.61945387e-004 2.37557874e-003 -7.06354971e-004 -3.86319181e-004
      -4.32115281e-003 3.36066959e-003 -1.69200124e-003 1.09309843e-003
      2.58627464e-004 -8.61945387e-004 2.37557874e-003 -7.06354971e-004
      -3.86319181e-004 -4.32115281e-003 3.36066959e-003 -1.69200124e-003
      1.09309843e-003 2.58627464e-004 -8.61945387e-004 2.37557874e-003
      -7.06354971e-004 -3.86319181e-004 -4.32115281e-003 3.36066959e-003
      -1.69200124e-003 1.09309843e-003 2.58627464e-004 -8.61945387e-004
      2.37557874e-003 -7.06354971e-004 -3.86319181e-004 -4.32115281e-003
      3.36066959e-003 -1.69200124e-003 1.09309843e-003 2.58627464e-004
      -8.61945387e-004 2.37557874e-003 -7.06354971e-004 -3.86319181e-004
      -4.32115281e-003 3.36066959e-003 -1.69200124e-003 1.09309843e-003
      2.58627464e-004 -8.61945387e-004 2.37557874e-003 -7.06354971e-004
      -3.86319181e-004 -4.32115281e-003 3.36066959e-003 -1.69200124e-003
      1.09309843e-003 2.58627464e-004 -8.61945387e-004 2.37557874e-003
      -7.06354971e-004 -3.86319181e-004 -4.32115281e-003 3.36066959e-003
      -1.69200124e-003 1.09309843e-003 2.58627464e-004 -8.61945387e-004
      2.37557874e-003 -7.06354971e-004 -3.86319181e-004 -4.32115281e-003
      3.36066959e-003 -1.69200124e-003 1.09309843e-003 2.58627464e-004
      -8.61945387e-004 2.37557874e-003 -7.06354971e-004 -3.86319181e-004
      -4.32115281e-003 3.36066959e-003 -1.69200124e-003 1.09309843e-003
      2.58627464e-004 -8.61945387e-004 2.37557874e-003 -7.06354971e-004
      -3.86319181e-004 -4.32115281e-003 3.36066959e-003 -1.69200124e-003
      1.09309843e-003 2.58627464e-004 -8.61945387e-004 2.37557874e-003
      -7.06354971e-004 -3.86319181e-004 -4.32115281e-003 3.36066959e-003
      -1.69200124e-003 1.09309843e-003 2.58627464e-004 -8.61945387e-004
      2.37557874e-003 -7.06354971e-004 -3.86319181e-004 -4.32115281e-003
      3.36066959e-003 -1.69200124e-003 1.09309843e-003 2.58627464e-004
      -8.61945387e-004 2.37557874e-003 -7.06354971e-004 -3.86319181e-004
      -4.32115281e-003 3.36066959e-003 -1.69200124e-003 1.09309843e-003
      2.58627464e-004 -8.61945387e-004 2.37557874e-003 -7.06354971e-004
      -3.86319181e-004 -4.32115281e-003 3.36066959e-003 -1.69200124e-003
      1.09309843e-003 2.58627464e-004 -8.61945387e-004 2.37557874e-003
      -7.06354971e-004 -3.86319181e-004 -4.32115281e-003 3.36066959e-003
      -1.69200124e-003 1.09309843e-003 2.58627464e-004 -8.61945387e-004
      2.37557874e-003 -7.06354971e-004 -3.86319181e-004 -4.32115281e-003
      3.36066959e-003 -1.69200124e-003 1.09309843e-003 2.58627464e-004
      -8.61945387e-004 2.37557874e-003 -7.06354971e-004 -3.86319181e-004
      -4.32115281e-003 3.36066959e-003 -1.69200124e-003 1.09309843e-003
      2.58627464e-004 -8.61945387e-004 2.37557874e-003 -7.06354971e-004
      -3.86319181e-004 -4.32115281e-003 3.36066959e-003 -1.69200124e-003
      1.09309843e-003 2.58627464e-004 -8.61945387e-004 2.37557874e-003
      -7.06354971e-004 -3.86319181e-004 -4.32115281e-003 3.36066959e-003
      -1.69200124e-003 1.09309843e-003 2.58627464e-004 -8.61945387e-004
      2.37557874e-003 -7.06354971e-004 -3.86319181e-004 -4.32115281e-003
      3.36066959e-003 -1.69200124e-003 1.09309843e-003 2.58627464e-004
      -8.61945387e-004 2.37557874e-003 -7.06354971e-004 -3.86319181e-004
      -4.32115281e-003 3.36066959e-003 -1.69200124e-003 1.09309843e-003
      2.58627464e-004 -8.61945387e-004 2.37557874e-003 -7.06354971e-004
      -3.86319181e-004 -4.32115281e-003 3.36066959e-003 -1.69200124e-003
      1.09309843e-003 2.58627464e-004 -8.61945387e-004 2.37557874e-003
      -7.06354971e-004 -3.86319181e-004 -4.32115281e-003 3.36066959e-003
      -1.69200124e-003 1.09309843e-003 2.58627464e-004 -8.61945387e-004
      2.37557874e-003 -7.06354971e-004 -3.86319181e-004 -4.32115281e-003
      3.36066959e-003 -1.69200124e-003 1.09309843e-003 2.58627464e-004
      -8.61945387e-004 2.37557874e-003 -7.06354971e-004 -3.86319181e-004
      -4.32115281e-003 3.36066959e-003 -1.69200124e-003 1.09309843e-003
      2.58627464e-004 -8.61945387e-004 2.37557874e-003 -7.06354971e-004
      -3.86319181e-004 -4.32115281e-003 3.36066959e-003 -1.69200124e-003
      1.09309843e-003 2.58627464e-004 -8.61945387e-004 2.37557874e-003
      -7.06354971e-004 -3.86319181e-004 -4.32115281e-003 3.36066959e-003
      -1.69200124e-003 1.09309843e-003 2.58627464e-004 -8.61945387e-004
      2.37557874e-003 -7.06354971e-004 -3.86319181e-004 -4.32115281e-003
      3.36066959e-003 -1.69200124e-003 1.09309843e-003 2.58627464e-004
      -8.61945387e-004 2.37557874e-003 -7.06354971e-004 -3.86319181e-004
      -4.32115281e-003 3.36066959e-003 -1.69200124e-003 1.09309843e-003
      2.58627464e-004 -8.61945387e-004 2.37557874e-003 -7.06354971e-004
      -3.86319181e-004 -4.32115281e-003 3.36066959e-003 -1.69200124e-003
      1.09309843e-003 2.58627464e-004 -8.61945387e-004 2.37557874e-003
      -7.06354971e-004 -3.86319181e-004 -4.32115281e-003 3.36066959e-003
      -1.69200124e-003 1.09309843e-003 2.58627464e-004 -8.61945387e-004
      2.37557874e-003 -7.06354971e-004 -3.86319181e-004 -4.32115281e-003
      3.36066959e-003 -1.69200124e-003 1.09309843e-003 2.58627464e-004
      -8.61945387e-004 2.37557874e-003 -7.06354971e-004 -3.86319181e-004
      -4.32115281e-003 3.36066959e-003 -1.69200124e-003 1.09309843e-003
      2.58627464e-004 -8.61945387e-004 2.37557874e-003 -7.06354971e-004
      -3.86319181e-004 -4.32115281e-003 3.36066959e-003 -1.69200124e-003
      1.09309843e-003 2.58627464e-004 -8.61945387e-004 2.37557874e-003
      -7.06354971e-004 -3.86319181e-004 -4.32115281e-003 3.36066959e-003
      -1.69200124e-003 1.09309843e-003 2.58627464e-004 -8.61945387e-004
      2.37557874e-003 -7.06354971e-004 -3.86319181e-004 -4.32115281e-003
      3.36066959e-003 -1.69200124e-003 1.09309843e-003 2.58627464e-004
      -8.61945387e-004 2.37557874e-003 -7.06354971e-004 -3.86319181e-004
      -4.32115281e-003 3.36066959e-003 -1.69200124e-003 1.09309843e-003
      2.58627464e-004 -8.61945387e-004 2.37557874e-003 -7.06354971e-004
      -3.86319181e-004 -4.32115281e-003 3.36066959e-003 -1.69200124e-003
      1.09309843e-003 2.58627464e-004 -8.61945387e-004 2.37557874e-003
      -7.06354971e-004 -3.86319181e-004 -4.32115281e-003 3.36066959e-003
      -1.69200124e-003 1.09309843e-003 2.58627464e-004 -8.61945387e-004
      2.37557874e-003 -7.06354971e-004 -3.86319181e-004 -4.32115281e-003
      3.36066959e-003 -1.69200124e-003 1.09309843e-003 2.58627464e-004
      -8.61945387e-004 2.37557874e-003 -7.06354971e-004 -3.86319181e-004
      -4.32115281e-003 3.36066959e-003 -1.69200124e-003 1.09309843e-003
      2.58627464e-004 -8.61945387e-004 2.37557874e-003 -7.06354971e-004
      -3.86319181e-004 -4.32115281e-003 3.36066959e-003 -1.69200124e-003
      1.09309843e-003 2.58627464e-004 -8.61945387e-004 2.37557874e-003
      -7.06354971e-004 -3.86319181e-004 -4.32115281e-003 3.36066959e-003
      -1.69200124e-003 1.09309843e-003 2.58627464e-004 -8.61945387e-004
      2.37557874e-003 -7.06354971e-004 -3.86319181e-004 -4.32115281e-003
      3.36066959e-003 -1.69200124e-003 1.09309843e-003 2.58627464e-004
      -8.61945387e-004 2.37557874e-003 -7.06354971e-004 -3.86319181e-004
      -4.32115281e-003 3.36066959e-003 -1.69200124e-003 1.09309843e-003
      2.58627464e-004 -8.61945387e-004 2.37557874e-003 -7.06354971e-004
      -3.86319181e-004 -4.32115281e-003 3.36066959e-003 -1.69200124e-003
      1.09309843e-003 2.58627464e-004 -8.61945387e-004 2.37557874e-003
      -7.06354971e-004 -3.86319181e-004 -4.32115281e-003 3.36066959e-003
      -1.69200124e-003 1.09309843e-003 2.58627464e-004 -8.61945387e-004
      2.37557874e-003 -7.06354971e-004 -3.86319181e-004 -4.32115281e-003
      3.36066959e-003 -1.69200124e-003 1.09309843e-003 2.58627464e-004
      -8.61945387e-004 2.37557874e-003 -7.06354971e-004 -3.86319181e-004
      -4.32115281e-003 3.36066959e-003 -1.69200124e-003 1.09309843e-003
      2.58627464e-004 -8.61945387e-004 2.37557874e-003 -7.06354971e-004
      -3.86319181e-004 -4.32115281e-003 3.36066959e-003 -1.69200124e-003
      1.09309843e-003 2.58627464e-004 -8.61945387e-004 2.37557874e-003
      -7.06354971e-004 -3.86319181e-004 -4.32115281e-003 3.36066959e-003
      -1.69200124e-003 1.09309843e-003 2.58627464e-004 -8.61945387e-004
      2.37557874e-003 -7.06354971e-004 -3.86319181e-004 -4.32115281e-003
      3.36066959e-003 -1.69200124e-003 1.09309843e-003 2.58627464e-004
      -8.61945387e-004 2.37557874e-003 -7.06354971e-004 -3.86319181e-004
      -4.32115281e-003 3.36066959e-003 -1.69200124e-003 1.09309843e-003
      2.58627464e-004 -8.61945387e-004 2.37557874e-003 -7.06354971e-004
      -3.86319181e-004 -4.32115281e-003 3.36066959e-003 -1.69200124e-003
      1.09309843e-003 2.58627464e-004 -8.61945387e-004 2.37557874e-003
      -7.06354971e-004 -3.86319181e-004 -4.32115281e-003 3.36066959e-003
      -1.69200124e-003 1.09309843e-003 2.58627464e-004 -8.61945387e-004
      2.37557874e-003 -7.06354971e-004 -3.86319181e-004 -4.32115281e-003
      3.36066959e-003 -1.69200124e-003 1.09309843e-003 2.58627464e-004
      -8.61945387e-004 2.37557874e-003 -7.06354971e-004 -3.86319181e-004
      -4.32115281e-003 3.36066959e-003 -1.69200124e-003 1.09309843e-003
      2.58627464e-004 -8.61945387e-004 2.37557874e-003 -7.06354971e-004
      -3.86319181e-004 -4.32115281e-003 3.36066959e-003 -1.69200124e-003
      1.09309843e-003 2.58627464e-004 -8.61945387e-004 2.37557874e-003
      -7.06354971e-004 -3.86319181e-004 -4.32115281e-003 3.36066959e-003
      -1.69200124e-003 1.09309843e-003 2.58627464e-004 -8.61945387e-004
      2.37557874e-003 -7.06354971e-004 -3.86319181e-004 -4.32115281e-003
      3.36066959e-003 -1.69200124e-003 1.09309843e-003 2.58627464e-004
      -8.61945387e-004 2.37557874e-003 -7.06354971e-004 -3.86319181e-004
      -4.32115281e-003 3.36066959e-003 -1.69200124e-003 1.09309843e-003
      2.58627464e-004 -8.61945387e-004 2.37557874e-003 -7.06354971e-004
      -3.86319181e-004 -4.32115281e-003 3.36066959e-003 -1.69200124e-003
      1.09309843e-003 2.58627464e-004 -8.61945387e-004 2.37557874e-003
      -7.06354971e-004 -3.86319181e-004 -4.32115281e-003 3.36066959e-003
      -1.69200124e-003 1.09309843e-003 2.58627464e-004 -8.61945387e-004
      2.37557874e-003 -7.06354971e-004 -3.86319181e-004 -4.32115281e-003
      3.36066959e-003 -1.69200124e-003 1.09309843e-003 2.58627464e-004
      -8.61945387e-004 2.37557874e-003 -7.06354971e-004 -3.86319181e-004
      -4.32115281e-003 3.36066959e-003 -1.69200124e-003 1.09309843e-003
      2.58627464e-004 -8.61945387e-004 2.37557874e-003 -7.06354971e-004
      -3.86319181e-004 -4.32115281e-003 3.36066959e-003 -1.69200124e-003
      1.09309843e-003 2.58627464e-004 -8.61945387e-004 2.37557874e-003
      -7.06354971e-004 -3.86319181e-004 -4.32115281e-003 3.36066959e-003
      -1.69200124e-003 1.09309843e-003 2.58627464e-004 -8.61945387e-004
      2.37557874e-003 -7.06354971e-004 -3.86319181e-004 -4.32115281e-003
      3.36066959e-003 -1.69200124e-003 1.09309843e-003 2.58627464e-004
      -8.61945387e-004 2.37557874e-003 -7.06354971e-004 -3.86319181e-004
      -4.32115281e-003 3.36066959e-003 -1.69200124e-003 1.09309843e-003
      2.58627464e-004 -8.61945387e-004 2.37557874e-003 -7.06354971e-004
      -3.86319181e-004 -4.32115281e-003 3.36066959e-003 -1.69200124e-003
      1.09309843e-003 2.58627464e-004 -8.61945387e-004 2.37557874e-003
      -7.06354971e-004 -3.86319181e-004 -4.32115281e-003 3.36066959e-003
      -1.69200124e-003 1.09309843e-003 2.58627464e-004 -8.61945387e-004
      2.37557874e-003 -7.06354971e-004 -3.86319181e-004 -4.32115281e-003
      3.36066959e-003 -1.69200124e-003 1.09309843e-003 2.58627464e-004
      -8.61945387e-004 2.37557874e-003 -7.06354971e-004 -3.86319181e-004
      -4.32115281e-003 3.36066959e-003 -1.69200124e-003 1.09309843e-003
      2.58627464e-004 -8.61945387e-004 2.37557874e-003 -7.06354971e-004
      -3.86319181e-004 -4.32115281e-003 3.36066959e-003 -1.69200124e-003
      1.09309843e-003 2.58627464e-004 -8.61945387e-004 2.37557874e-003
      -7.06354971e-004 -3.86319181e-004 -4.32115281e-003 3.36066959e-003
      -1.69200124e-003 1.09309843e-003 2.58627464e-004 -8.61945387e-004
      2.37557874e-003 -7.06354971e-004 -3.86319181e-004 -4.32115281e-003
      3.36066959e-003 -1.69200124e-003 1.09309843e-003 2.58627464e-004
      -8.61945387e-004 2.37557874e-003 -7.06354971e-004 -3.86319181e-004
      -4.32115281e-003 3.36066959e-003 -1.69200124e-003 1.09309843e-003
      2.58627464e-004 -8.61945387e-004 2.37557874e-003 -7.06354971e-004
      -3.86319181e-004 -4.32115281e-003 3.36066959e-003 -1.69200124e-003
      1.09309843e-003 2.58627464e-004 -8.61945387e-004 2.37557874e-003
      -7.06354971e-004 -3.86319181e-004 -4.32115281e-003 3.36066959e-003
      -1.69200124e-003 1.09309843e-003 2.58627464e-004 -8.61945387e-004
      2.37557874e-003 -7.06354971e-004 -3.86319181e-004 -4.32115281e-003
      3.36066959e-003 -1.69200124e-003 1.09309843e-003 2.58627464e-004
      -8.61945387e-004 2.37557874e-003 -7.06354971e-004 -3.86319181e-004
      -4.32115281e-003 3.36066959e-003 -1.69200124e-003 1.09309843e-003
      2.58627464e-004 -8.61945387e-004 2.37557874e-003 -7.06354971e-004
      -3.86319181e-004 -4.32115281e-003 3.36066959e-003 -1.69200124e-003
      1.09309843e-003 2.58627464e-004 -8.61945387e-004 2.37557874e-003
      -7.06354971e-004 -3.86319181e-004 -4.32115281e-003 3.36066959e-003
      -1.69200124e-003 1.09309843e-003 2.58627464e-004 -8.61945387e-004
      2.37557874e-003 -7.06354971e-004 -3.86319181e-004 -4.32115281e-003
      3.36066959e-003 -1.69200124e-003 1.09309843e-003 2.58627464e-004
      -8.61945387e-004 2.37557874e-003 -7.06354971e-004 -3.86319181e-004
      -4.32115281e-003 3.36066959e-003 -1.69200124e-003 1.09309843e-003
      2.58627464e-004 -8.61945387e-004 2.37557874e-003 -7.06354971e-004
      -3.86319181e-004 -4.32115281e-003 3.36066959e-003 -1.69200124e-003
      1.09309843e-003 2.58627464e-004 -8.61945387e-004 2.37557874e-003
      -7.06354971e-004 -3.86319181e-004 -4.32115281e-003 3.36066959e-003
      -1.69200124e-003 1.09309843e-003 2.58627464e-004 -8.61945387e-004
      2.37557874e-003 -7.06354971e-004 -3.86319181e-004 -4.32115281e-003
      3.36066959e-003 -1.69200124e-003 1.09309843e-003 2.58627464e-004
      -8.61945387e-004 2.37557874e-003 -7.06354971e-004 -3.86319181e-004
      -4.32115281e-003 3.36066959e-003 -1.69200124e-003 1.09309843e-003
      2.58627464e-004 -8.61945387e-004 2.37557874e-003 -7.06354971e-004
      -3.86319181e-004 -4.32115281e-003 3.36066959e-003 -1.69200124e-003
      1.09309843e-003 2.58627464e-004 -8.61945387e-004 2.37557874e-003
      -7.06354971e-004 -3.86319181e-004 -4.32115281e-003 3.36066959e-003
      -1.69200124e-003 1.09309843e-003 2.58627464e-004 -8.61945387e-004
      2.37557874e-003 -7.06354971e-004 -3.86319181e-004 -4.32115281e-003
      3.36066959e-003 -1.69200124e-003 1.09309843e-003 2.58627464e-004
      -8.61945387e-004 2.37557874e-003 -7.06354971e-004 -3.86319181e-004
      -4.32115281e-003 3.36066959e-003 -1.69200124e-003 1.09309843e-003
      2.58627464e-004 -8.61945387e-004 2.37557874e-003 -7.06354971e-004
      -3.86319181e-004 -4.32115281e-003 3.36066959e-003 -1.69200124e-003
      1.09309843e-003 2.58627464e-004 -8.61945387e-004 2.37557874e-003
      -7.06354971e-004 -3.86319181e-004 -4.32115281e-003 3.36066959e-003
      -1.69200124e-003 1.09309843e-003 2.58627464e-004 -8.61945387e-004
      2.37557874e-003 -7.06354971e-004 -3.86319181e-004 -4.32115281e-003
      3.36066959e-003 -1.69200124e-003 1.09309843e-003 2.58627464e-004
      -8.61945387e-004 2.37557874e-003 -7.06354971e-004 -3.86319181e-004
      -4.32115281e-003 3.36066959e-003 -1.69200124e-003 1.09309843e-003
      2.58627464e-004 -8.61945387e-004 2.37557874e-003 -7.06354971e-004
      -3.86319181e-004 -4.32115281e-003 3.36066959e-003 -1.69200124e-003
      1.09309843e-003 2.58627464e-004 -8.61945387e-004 2.37557874e-003
      -7.06354971e-004 -3.86319181e-004 -4.32115281e-003 3.36066959e-003
      -1.69200124e-003 1.09309843e-003 2.58627464e-004 -8.61945387e-004
      2.37557874e-003 -7.06354971e-004 -3.86319181e-004 -4.32115281e-003
      3.36066959e-003 -1.69200124e-003 1.09309843e-003 2.58627464e-004
      -8.61945387e-004 2.37557874e-003 -7.06354971e-004 -3.86319181e-004
      -4.32115281e-003 3.36066959e-003 -1.69200124e-003 1.09309843e-003
      2.58627464e-004 -8.61945387e-004 2.37557874e-003 -7.06354971e-004
      -3.86319181e-004 -4.32115281e-003 3.36066959e-003 -1.69200124e-003
      1.09309843e-003 2.58627464e-004 -8.61945387e-004 2.37557874e-003
      -7.06354971e-004 -3.86319181e-004 -4.32115281e-003 3.36066959e-003
      -1.69200124e-003 1.09309843e-003 2.58627464e-004 -8.61945387e-004
      2.37557874e-003 -7.06354971e-004 -3.86319181e-004 -4.32115281e-003
      3.36066959e-003 -1.69200124e-003 1.09309843e-003 2.58627464e-004
      -8.61945387e-004 2.37557874e-003 -7.06354971e-004 -3.86319181e-004
      -4.32115281e-003 3.36066959e-003 -1.69200124e-003 1.09309843e-003
      2.58627464e-004 -8.61945387e-004 2.37557874e-003 -7.06354971e-004
      -3.86319181e-004 -4.32115281e-003 3.36066959e-003 -1.69200124e-003
      1.09309843e-003 2.58627464e-004 -8.61945387e-004 2.37557874e-003
      -7.06354971e-004 -3.86319181e-004 -4.32115281e-003 3.36066959e-003
      -1.69200124e-003 1.09309843e-003 2.58627464e-004 -8.61945387e-004
      2.37557874e-003 -7.06354971e-004 -3.86319181e-004 -4.32115281e-003
      3.36066959e-003 -1.69200124e-003 1.09309843e-003 2.58627464e-004
      -8.61945387e-004 2.37557874e-003 -7.06354971e-004 -3.86319181e-004
      -4.32115281e-003 3.36066959e-003 -1.69200124e-003 1.09309843e-003
      2.58627464e-004 -8.61945387e-004 2.37557874e-003 -7.06354971e-004
      -3.86319181e-004 -4.32115281e-003 3.36066959e-003 -1.69200124e-003
      1.09309843e-003 2.58627464e-004 -8.61945387e-004 2.37557874e-003
      -7.06354971e-004 -3.86319181e-004 -4.32115281e-003 3.36066959e-003
      -1.69200124e-003 1.09309843e-003 2.58627464e-004 -8.61945387e-004
      2.37557874e-003 -7.06354971e-004 -3.86319181e-004 -4.32115281e-003
      3.36066959e-003 -1.69200124e-003 1.09309843e-003 2.58627464e-004
      -8.61945387e-004 2.37557874e-003 -7.06354971e-004 -3.86319181e-004
      -4.32115281e-003 3.36066959e-003 -1.69200124e-003 1.09309843e-003
      2.58627464e-004 -8.61945387e-004 2.37557874e-003 -7.06354971e-004
      -3.86319181e-004 -4.32115281e-003 3.36066959e-003 -1.69200124e-003
      1.09309843e-003 2.58627464e-004 -8.61945387e-004 2.37557874e-003
      -7.06354971e-004 -3.86319181e-004 -4.32115281e-003 3.36066959e-003
      -1.69200124e-003 1.09309843e-003 2.58627464e-004 -8.61945387e-004
      2.37557874e-003 -7.06354971e-004 -3.86319181e-004 -4.32115281e-003
      3.36066959e-003 -1.69200124e-003 1.09309843e-003 2.58627464e-004
      -8.61945387e-004 2.37557874e-003 -7.06354971e-004 -3.86319181e-004
      -4.32115281e-003 3.36066959e-003 -1.69200124e-003 1.09309843e-003
      2.58627464e-004 -8.61945387e-004 2.37557874e-003 -7.06354971e-004
      -3.86319181e-004 -4.32115281e-003 3.36066959e-003 -1.69200124e-003
      1.09309843e-003 2.58627464e-004 -8.61945387e-004 2.37557874e-003
      -7.06354971e-004 -3.86319181e-004 -4.32115281e-003 3.36066959e-003
      -1.69200124e-003 1.09309843e-003 2.58627464e-004 -8.61945387e-004
      2.37557874e-003 -7.06354971e-004 -3.86319181e-004 -4.32115281e-003
      3.36066959e-003 -1.69200124e-003 1.09309843e-003 2.58627464e-004
      -8.61945387e-004 2.37557874e-003 -7.06354971e-004 -3.86319181e-004
      -4.32115281e-003 3.36066959e-003 -1.69200124e-003 1.09309843e-003
      2.58627464e-004 -8.61945387e-004 2.37557874e-003 -7.06354971e-004
      -3.86319181e-004 -4.32115281e-003 3.36066959e-003 -1.69200124e-003
      1.09309843e-003 2.58627464e-004 -8.61945387e-004 2.37557874e-003
      -7.06354971e-004 -3.86319181e-004 -4.32115281e-003 3.36066959e-003
      -1.69200124e-003 1.09309843e-003 2.58627464e-004 -8.61945387e-004
      2.37557874e-003 -7.06354971e-004 -3.86319181e-004 -4.32115281e-003
      3.36066959e-003 -1.69200124e-003 1.09309843e-003 2.58627464e-004
      -8.61945387e-004 2.37557874e-003 -7.06354971e-004 -3.86319181e-004
      -4.32115281e-003 3.36066959e-003 -1.69200124e-003 1.09309843e-003
      2.58627464e-004 -8.61945387e-004 2.37557874e-003 -7.06354971e-004
      -3.86319181e-004 -4.32115281e-003 3.36066959e-003 -1.69200124e-003
      1.09309843e-003 2.58627464e-004 -8.61945387e-004 2.37557874e-003
      -7.06354971e-004 -3.86319181e-004 -4.32115281e-003 3.36066959e-003
      -1.69200124e-003 1.09309843e-003 2.58627464e-004 -8.61945387e-004
      2.37557874e-003 -7.06354971e-004 -3.86319181e-004 -4.32115281e-003
      3.36066959e-003 -1.69200124e-003 1.09309843e-003 2.58627464e-004
      -8.61945387e-004 2.37557874e-003 -7.06354971e-004 -3.86319181e-004
      -4.32115281e-003 3.36066959e-003 -1.69200124e-003 1.09309843e-003
      2.58627464e-004 -8.61945387e-004 2.37557874e-003 -7.06354971e-004
      -3.86319181e-004 -4.32115281e-003 3.36066959e-003 -1.69200124e-003
      1.09309843e-003 2.58627464e-004 -8.61945387e-004 2.37557874e-003
      -7.06354971e-004 -3.86319181e-004 -4.32115281e-003 3.36066959e-003
      -1.69200124e-003 1.09309843e-003 2.58627464e-004 -8.61945387e-004
      2.37557874e-003 -7.06354971e-004 -3.86319181e-004 -4.32115281e-003
      3.36066959e-003 -1.69200124e-003 1.09309843e-003 2.58627464e-004
      -8.61945387e-004 2.37557874e-003 -7.06354971e-004 -3.86319181e-004
      -4.32115281e-003 3.36066959e-003 -1.69200124e-003 1.09309843e-003
      2.58627464e-004 -8.61945387e-004 2.37557874e-003 -7.06354971e-004
      -3.86319181e-004 -4.32115281e-003 3.36066959e-003 -1.69200124e-003
      1.09309843e-003 2.58627464e-004 -8.61945387e-004 2.37557874e-003
      -7.06354971e-004 -3.86319181e-004 -4.32115281e-003 3.36066959e-003
      -1.69200124e-003 1.09309843e-003 2.58627464e-004 -8.61945387e-004
      2.37557874e-003 -7.06354971e-004 -3.86319181e-004 -4.32115281e-003
      3.36066959e-003 -1.69200124e-003 1.09309843e-003 2.58627464e-004
      -8.61945387e-004 2.37557874e-003 -7.06354971e-004 -3.86319181e-004
      -4.32115281e-003 3.36066959e-003 -1.69200124e-003 1.09309843e-003
      2.58627464e-004 -8.61945387e-004 2.37557874e-003 -7.06354971e-004
      -3.86319181e-004 -4.32115281e-003 3.36066959e-003 -1.69200124e-003
      1.09309843e-003 2.58627464e-004 -8.61945387e-004 2.37557874e-003
      -7.06354971e-004 -3.86319181e-004 -4.32115281e-003 3.36066959e-003
      -1.69200124e-003 1.09309843e-003 2.58627464e-004 -8.61945387e-004
      2.37557874e-003 -7.06354971e-004 -3.86319181e-004 -4.32115281e-003
      3.36066959e-003 -1.69200124e-003 1.09309843e-003 2.58627464e-004
      -8.61945387e-004 2.37557874e-003 -7.06354971e-004 -3.86319181e-004
      -4.32115281e-003 3.36066959e-003 -1.69200124e-003 1.09309843e-003
      2.58627464e-004 -8.61945387e-004 2.37557874e-003 -7.06354971e-004
      -3.86319181e-004 -4.32115281e-003 3.36066959e-003 -1.69200124e-003
      1.09309843e-003 2.58627464e-004 -8.61945387e-004 2.37557874e-003
      -7.06354971e-004 -3.86319181e-004 -4.32115281e-003 3.36066959e-003
      -1.69200124e-003 1.09309843e-003 2.58627464e-004 -8.61945387e-004
      2.37557874e-003 -7.06354971e-004 -3.86319181e-004 -4.32115281e-003
      3.36066959e-003 -1.69200124e-003 1.09309843e-003 2.58627464e-004
      -8.61945387e-004 2.37557874e-003 -7.06354971e-004 -3.86319181e-004
      -4.32115281e-003 3.36066959e-003 -1.69200124e-003 1.09309843e-003
      2.58627464e-004 -8.61945387e-004 2.37557874e-003 -7.06354971e-004
      -3.86319181e-004 -4.32115281e-003 3.36066959e-003 -1.69200124e-003
      1.09309843e-003 2.58627464e-004 -8.61945387e-004 2.37557874e-003
      -7.06354971e-004 -3.86319181e-004 -4.32115281e-003 3.36066959e-003
      -1.69200124e-003 1.09309843e-003 2.58627464e-004 -8.61945387e-004
      2.37557874e-003 -7.06354971e-004 -3.86319181e-004 -4.32115281e-003
      3.36066959e-003 -1.69200124e-003 1.09309843e-003 2.58627464e-004
      -8.61945387e-004 2.37557874e-003 -7.06354971e-004 -3.86319181e-004
      -4.32115281e-003 3.36066959e-003 -1.69200124e-003 1.09309843e-003
      2.58627464e-004 -8.61945387e-004 2.37557874e-003 -7.06354971e-004
      -3.86319181e-004 -4.32115281e-003 3.36066959e-003 -1.69200124e-003
      1.09309843e-003 2.58627464e-004 -8.61945387e-004 2.37557874e-003
      -7.06354971e-004 -3.86319181e-004 -4.32115281e-003 3.36066959e-003
      -1.69200124e-003 1.09309843e-003 2.58627464e-004 -8.61945387e-004
      2.37557874e-003 -7.06354971e-004 -3.86319181e-004 -4.32115281e-003
      3.36066959e-003 -1.69200124e-003 1.09309843e-003 2.58627464e-004
      -8.61945387e-004 2.37557874e-003 -7.06354971e-004 -3.86319181e-004
      -4.32115281e-003 3.36066959e-003 -1.69200124e-003 1.09309843e-003
      2.58627464e-004 -8.61945387e-004 2.37557874e-003 -7.06354971e-004
      -3.86319181e-004 -4.32115281e-003 3.36066959e-003 -1.69200124e-003
      1.09309843e-003 2.58627464e-004 -8.61945387e-004 2.37557874e-003
      -7.06354971e-004 -3.86319181e-004 -4.32115281e-003 3.36066959e-003
      -1.69200124e-003 1.09309843e-003 2.58627464e-004 -8.61945387e-004
      2.37557874e-003 -7.06354971e-004 -3.86319181e-004 -4.32115281e-003
      3.36066959e-003 -1.69200124e-003 1.09309843e-003 2.58627464e-004
      -8.61945387e-004 2.37557874e-003 -7.06354971e-004 -3.86319181e-004
      -4.32115281e-003 3.36066959e-003 -1.69200124e-003 1.09309843e-003
      2.58627464e-004 -8.61945387e-004 2.37557874e-003 -7.06354971e-004
      -3.86319181e-004 -4.32115281e-003 3.36066959e-003 -1.69200124e-003
      1.09309843e-003 2.58627464e-004 -8.61945387e-004 2.37557874e-003
      -7.06354971e-004 -3.86319181e-004 -4.32115281e-003 3.36066959e-003
      -1.69200124e-003 1.09309843e-003 2.58627464e-004 -8.61945387e-004
      2.37557874e-003 -7.06354971e-004 -3.86319181e-004 -4.32115281e-003
      3.36066959e-003 -1.69200124e-003 1.09309843e-003 2.58627464e-004
      -8.61945387e-004 2.37557874e-003 -7.06354971e-004 -3.86319181e-004
      -4.32115281e-003 3.36066959e-003 -1.69200124e-003 1.09309843e-003
      2.58627464e-004 -8.61945387e-004 2.37557874e-003 -7.06354971e-004
      -3.86319181e-004 -4.32115281e-003 3.36066959e-003 -1.69200124e-003
      1.09309843e-003 2.58627464e-004 -8.61945387e-004 2.37557874e-003
      -7.06354971e-004 -3.86319181e-004 -4.32115281e-003 3.36066959e-003
      -1.69200124e-003 1.09309843e-003 2.58627464e-004 -8.61945387e-004
      2.37557874e-003 -7.06354971e-004 -3.86319181e-004 -4.32115281e-003
      3.36066959e-003 -1.69200124e-003 1.09309843e-003 2.58627464e-004
      -8.61945387e-004 2.37557874e-003 -7.06354971e-004 -3.86319181e-004
      -4.32115281e-003 3.36066959e-003 -1.69200124e-003 1.09309843e-003
      2.58627464e-004 -8.61945387e-004 2.37557874e-003 -7.06354971e-004
      -3.86319181e-004 -4.32115281e-003 3.36066959e-003 -1.69200124e-003
      1.09309843e-003 2.58627464e-004 -8.61945387e-004 2.37557874e-003
      -7.06354971e-004 -3.86319181e-004 -4.32115281e-003 3.36066959e-003
      -1.69200124e-003 1.09309843e-003 2.58627464e-004 -8.61945387e-004
      2.37557874e-003 -7.06354971e-004 -3.86319181e-004 -4.32115281e-003
      3.36066959e-003 -1.69200124e-003 1.09309843e-003 2.58627464e-004
      -8.61945387e-004 2.37557874e-003 -7.06354971e-004 -3.86319181e-004
      -4.32115281e-003 3.36066959e-003 -1.69200124e-003 1.09309843e-003
      2.58627464e-004 -8.61945387e-004 2.37557874e-003 -7.06354971e-004
      -3.86319181e-004 -4.32115281e-003 3.36066959e-003 -1.69200124e-003
      1.09309843e-003 2.58627464e-004 -8.61945387e-004 2.37557874e-003
      -7.06354971e-004 -3.86319181e-004 -4.32115281e-003 3.36066959e-003
      -1.69200124e-003 1.09309843e-003 2.58627464e-004 -8.61945387e-004
      2.37557874e-003 -7.06354971e-004 -3.86319181e-004 -4.32115281e-003
      3.36066959e-003 -1.69200124e-003 1.09309843e-003 2.58627464e-004
      -8.61945387e-004 2.37557874e-003 -7.06354971e-004 -3.86319181e-004
      -4.32115281e-003 3.36066959e-003 -1.69200124e-003 1.09309843e-003
      2.58627464e-004 -8.61945387e-004 2.37557874e-003 -7.06354971e-004
      -3.86319181e-004 -4.32115281e-003 3.36066959e-003 -1.69200124e-003
      1.09309843e-003 2.58627464e-004 -8.61945387e-004 2.37557874e-003
      -7.06354971e-004 -3.86319181e-004 -4.32115281e-003 3.36066959e-003
      -1.69200124e-003 1.09309843e-003 2.58627464e-004 -8.61945387e-004
      2.37557874e-003 -7.06354971e-004 -3.86319181e-004 -4.32115281e-003
      3.36066959e-003 -1.69200124e-003 1.09309843e-003 2.58627464e-004
      -8.61945387e-004 2.37557874e-003 -7.06354971e-004 -3.86319181e-004
      -4.32115281e-003 3.36066959e-003 -1.69200124e-003 1.09309843e-003
      2.58627464e-004 -8.61945387e-004 2.37557874e-003 -7.06354971e-004
      -3.86319181e-004 -4.32115281e-003 3.36066959e-003 -1.69200124e-003
      1.09309843e-003 2.58627464e-004 -8.61945387e-004 2.37557874e-003
      -7.06354971e-004 -3.86319181e-004 -4.32115281e-003 3.36066959e-003
      -1.69200124e-003 1.09309843e-003 2.58627464e-004 -8.61945387e-004
      2.37557874e-003 -7.06354971e-004 -3.86319181e-004 -4.32115281e-003
      3.36066959e-003 -1.69200124e-003 1.09309843e-003 2.58627464e-004
      -8.61945387e-004 2.37557874e-003 -7.06354971e-004 -3.86319181e-004
      -4.32115281e-003 3.36066959e-003 -1.69200124e-003 1.09309843e-003
      2.58627464e-004 -8.61945387e-004 2.37557874e-003 -7.06354971e-004
      -3.86319181e-004 -4.32115281e-003 3.36066959e-003 -1.69200124e-003
      1.09309843e-003 2.58627464e-004 -8.61945387e-004 2.37557874e-003
      -7.06354971e-004 -3.86319181e-004 -4.32115281e-003 3.36066959e-003
      -1.69200124e-003 1.09309843e-003 2.58627464e-004 -8.61945387e-004
      2.37557874e-003 -7.06354971e-004 -3.86319181e-004 -4.32115281e-003
      3.36066959e-003 -1.69200124e-003 1.09309843e-003 2.58627464e-004
      -8.61945387e-004 2.37557874e-003 -7.06354971e-004 -3.86319181e-004
      -4.32115281e-003 3.36066959e-003 -1.69200124e-003 1.09309843e-003
      2.58627464e-004 -8.61945387e-004 2.37557874e-003 -7.06354971e-004
      -3.86319181e-004 -4.32115281e-003 3.36066959e-003 -1.69200124e-003
      1.09309843e-003 2.58627464e-004 -8.61945387e-004 2.37557874e-003
      -7.06354971e-004 -3.86319181e-004 -4.32115281e-003 3.36066959e-003
      -1.69200124e-003 1.09309843e-003 2.58627464e-004 -8.61945387e-004
      2.37557874e-003 -7.06354971e-004 -3.86319181e-004 -4.32115281e-003
      3.36066959e-003 -1.69200124e-003 1.09309843e-003 2.58627464e-004
      -8.61945387e-004 2.37557874e-003 -7.06354971e-004 -3.86319181e-004
      -4.32115281e-003 3.36066959e-003 -1.69200124e-003 1.09309843e-003
      2.58627464e-004 -8.61945387e-004 2.37557874e-003 -7.06354971e-004
      -3.86319181e-004 -4.32115281e-003 3.36066959e-003 -1.69200124e-003
      1.09309843e-003 2.58627464e-004 -8.61945387e-004 2.37557874e-003
      -7.06354971e-004 -3.86319181e-004 -4.32115281e-003 3.36066959e-003
      -1.69200124e-003 1.09309843e-003 2.58627464e-004 -8.61945387e-004
      2.37557874e-003 -7.06354971e-004 -3.86319181e-004 -4.32115281e-003
      3.36066959e-003 -1.69200124e-003 1.09309843e-003 2.58627464e-004
      -8.61945387e-004 2.37557874e-003 -7.06354971e-004 -3.86319181e-004
      -4.32115281e-003 3.36066959e-003 -1.69200124e-003 1.09309843e-003
      2.58627464e-004 -8.61945387e-004 2.37557874e-003 -7.06354971e-004
      -3.86319181e-004 -4.32115281e-003 3.36066959e-003 -1.69200124e-003
      1.09309843e-003 2.58627464e-004 -8.61945387e-004 2.37557874e-003
      -7.06354971e-004 -3.86319181e-004 -4.32115281e-003 3.36066959e-003
      -1.69200124e-003 1.09309843e-003 2.58627464e-004 -8.61945387e-004
      2.37557874e-003 -7.06354971e-004 -3.86319181e-004 -4.32115281e-003
      3.36066959e-003 -1.69200124e-003 1.09309843e-003 2.58627464e-004
      -8.61945387e-004 2.37557874e-003 -7.06354971e-004 -3.86319181e-004
      -4.32115281e-003 3.36066959e-003 -1.69200124e-003 1.09309843e-003
      2.58627464e-004 -8.61945387e-004 2.37557874e-003 -7.06354971e-004
      -3.86319181e-004 -4.32115281e-003 3.36066959e-003 -1.69200124e-003
      1.09309843e-003 2.58627464e-004 -8.61945387e-004 2.37557874e-003
      -7.06354971e-004 -3.86319181e-004 -4.32115281e-003 3.36066959e-003
      -1.69200124e-003 1.09309843e-003 2.58627464e-004 -8.61945387e-004
      2.37557874e-003 -7.06354971e-004 -3.86319181e-004 -4.32115281e-003
      3.36066959e-003 -1.69200124e-003 1.09309843e-003 2.58627464e-004
      -8.61945387e-004 2.37557874e-003 -7.06354971e-004 -3.86319181e-004
      -4.32115281e-003 3.36066959e-003 -1.69200124e-003 1.09309843e-003
      2.58627464e-004 -8.61945387e-004 2.37557874e-003 -7.06354971e-004
      -3.86319181e-004 -4.32115281e-003 3.36066959e-003 -1.69200124e-003
      1.09309843e-003 2.58627464e-004 -8.61945387e-004 2.37557874e-003
      -7.06354971e-004 -3.86319181e-004 -4.32115281e-003 3.36066959e-003
      -1.69200124e-003 1.09309843e-003 2.58627464e-004 -8.61945387e-004
      2.37557874e-003 -7.06354971e-004 -3.86319181e-004 -4.32115281e-003
      3.36066959e-003 -1.69200124e-003 1.09309843e-003 2.58627464e-004
      -8.61945387e-004 2.37557874e-003 -7.06354971e-004 -3.86319181e-004
      -4.32115281e-003 3.36066959e-003 -1.69200124e-003 1.09309843e-003
      2.58627464e-004 -8.61945387e-004 2.37557874e-003 -7.06354971e-004
      -3.86319181e-004 -4.32115281e-003 3.36066959e-003 -1.69200124e-003
      1.09309843e-003 2.58627464e-004 -8.61945387e-004 2.37557874e-003
      -7.06354971e-004 -3.86319181e-004 -4.32115281e-003 3.36066959e-003
      -1.69200124e-003 1.09309843e-003 2.58627464e-004 -8.61945387e-004
      2.37557874e-003 -7.06354971e-004 -3.86319181e-004 -4.32115281e-003
      3.36066959e-003 -1.69200124e-003 1.09309843e-003 2.58627464e-004
      -8.61945387e-004 2.37557874e-003 -7.06354971e-004 -3.86319181e-004
      -4.32115281e-003 3.36066959e-003 -1.69200124e-003 1.09309843e-003
      2.58627464e-004 -8.61945387e-004 2.37557874e-003 -7.06354971e-004
      -3.86319181e-004 -4.32115281e-003 3.36066959e-003 -1.69200124e-003
      1.09309843e-003 2.58627464e-004 -8.61945387e-004 2.37557874e-003
      -7.06354971e-004 -3.86319181e-004 -4.32115281e-003 3.36066959e-003
      -1.69200124e-003 1.09309843e-003 2.58627464e-004 -8.61945387e-004
      2.37557874e-003 -7.06354971e-004 -3.86319181e-004 -4.32115281e-003
      3.36066959e-003 -1.69200124e-003 1.09309843e-003 2.58627464e-004
      -8.61945387e-004 2.37557874e-003 -7.06354971e-004 -3.86319181e-004
      -4.32115281e-003 3.36066959e-003 -1.69200124e-003 1.09309843e-003
      2.58627464e-004 -8.61945387e-004 2.37557874e-003 -7.06354971e-004
      -3.86319181e-004 -4.32115281e-003 3.36066959e-003 -1.69200124e-003
      1.09309843e-003 2.58627464e-004 -8.61945387e-004 2.37557874e-003
      -7.06354971e-004 -3.86319181e-004 -4.32115281e-003 3.36066959e-003
      -1.69200124e-003 1.09309843e-003 2.58627464e-004 -8.61945387e-004
      2.37557874e-003 -7.06354971e-004 -3.86319181e-004 -4.32115281e-003
      3.36066959e-003 -1.69200124e-003 1.09309843e-003 2.58627464e-004
      -8.61945387e-004 2.37557874e-003 -7.06354971e-004 -3.86319181e-004
      -4.32115281e-003 3.36066959e-003 -1.69200124e-003 1.09309843e-003
      2.58627464e-004 -8.61945387e-004 2.37557874e-003 -7.06354971e-004
      -3.86319181e-004 -4.32115281e-003 3.36066959e-003 -1.69200124e-003
      1.09309843e-003 2.58627464e-004 -8.61945387e-004 2.37557874e-003
      -7.06354971e-004 -3.86319181e-004 -4.32115281e-003 3.36066959e-003
      -1.69200124e-003 1.09309843e-003 2.58627464e-004 -8.61945387e-004
      2.37557874e-003 -7.06354971e-004 -3.86319181e-004 -4.32115281e-003
      3.36066959e-003 -1.69200124e-003 1.09309843e-003 2.58627464e-004
      -8.61945387e-004 2.37557874e-003 -7.06354971e-004 -3.86319181e-004
      -4.32115281e-003 3.36066959e-003 -1.69200124e-003 1.09309843e-003
      2.58627464e-004 -8.61945387e-004 2.37557874e-003 -7.06354971e-004
      -3.86319181e-004 -4.32115281e-003 3.36066959e-003 -1.69200124e-003
      1.09309843e-003 2.58627464e-004 -8.61945387e-004 2.37557874e-003
      -7.06354971e-004 -3.86319181e-004 -4.32115281e-003 3.36066959e-003
      -1.69200124e-003 1.09309843e-003 2.58627464e-004 -8.61945387e-004
      2.37557874e-003 -7.06354971e-004 -3.86319181e-004 -4.32115281e-003
      3.36066959e-003 -1.69200124e-003 1.09309843e-003 2.58627464e-004
      -8.61945387e-004 2.37557874e-003 -7.06354971e-004 -3.86319181e-004
      -4.32115281e-003 3.36066959e-003 -1.69200124e-003 1.09309843e-003
      2.58627464e-004 -8.61945387e-004 2.37557874e-003 -7.06354971e-004
      -3.86319181e-004 -4.32115281e-003 3.36066959e-003 -1.69200124e-003
