<?xml version="1.0"?>
<opencv_storage>
<opencv_ml_svm>
  <format>3</format>
  <svmType>C_SVC</svmType>
  <kernel>
    <type>LINEAR</type></kernel>
  <C>1.</C>
  <term_criteria><iterations>1000</iterations></term_criteria>
  <var_count>21060</var_count>
  <class_count>2</class_count>
  <class_labels type_id="opencv-matrix">
    <rows>2</rows>
    <cols>1</cols>
    <dt>i</dt>
    <data>
      0 1</data></class_labels>
  <sv_total>1</sv_total>
  <support_vectors>
    <_>
      -4.05711448e-003 2.94202683e-003 -5.64371422e-003 -4.73188097e-003
      1.43246877e-003 -9.97363590e-004 1.78383430e-003 -2.64439033e-003
      -9.97541356e-004 -4.05711448e-003 2.94202683e-003 -5.64371422e-003
      -4.73188097e-003 1.43246877e-003 -9.97363590e-004 1.78383430e-003
      -2.64439033e-003 -9.97541356e-004 -4.05711448e-003 2.94202683e-003
      -5.64371422e-003 -4.73188097e-003 1.43246877e-003 -9.97363590e-004
      1.78383430e-003 -2.64439033e-003 -9.97541356e-004 -4.05711448e-003
      2.94202683e-003 -5.64371422e-003 -4.73188097e-003 1.43246877e-003
      -9.97363590e-004 1.78383430e-003 -2.64439033e-003 -9.97541356e-004
      -4.05711448e-003 2.94202683e-003 -5.64371422e-003 -4.73188097e-003
      1.43246877e-003 -9.97363590e-004 1.78383430e-003 -2.64439033e-003
      -9.97541356e-004 -4.05711448e-003 2.94202683e-003 -5.64371422e-003
      -4.73188097e-003 1.43246877e-003 -9.97363590e-004 1.78383430e-003
      -2.64439033e-003 -9.97541356e-004 -4.05711448e-003 2.94202683e-003
      -5.64371422e-003 -4.73188097e-003 1.43246877e-003 -9.97363590e-004
      1.78383430e-003 -2.64439033e-003 -9.97541356e-004 -4.05711448e-003
      2.94202683e-003 -5.64371422e-003 -4.73188097e-003 1.43246877e-003
      -9.97363590e-004 1.78383430e-003 -2.64439033e-003 -9.97541356e-004
      -4.05711448e-003 2.94202683e-003 -5.64371422e-003 -4.73188097e-003
      1.43246877e-003 -9.97363590e-004 1.78383430e-003 -2.64439033e-003
      -9.97541356e-004 -4.05711448e-003 2.94202683e-003 -5.64371422e-003
      -4.73188097e-003 1.43246877e-003 -9.97363590e-004 1.78383430e-003
      -2.64439033e-003 -9.97541356e-004 -4.05711448e-003 2.94202683e-003
      -5.64371422e-003 -4.73188097e-003 1.43246877e-003 -9.97363590e-004
      1.78383430e-003 -2.64439033e-003 -9.97541356e-004 -4.05711448e-003
      2.94202683e-003 -5.64371422e-003 -4.73188097e-003 1.43246877e-003
      -9.97363590e-004 1.78383430e-003 -2.64439033e-003 -9.97541356e-004
      -4.05711448e-003 2.94202683e-003 -5.64371422e-003 -4.73188097e-003
      1.43246877e-003 -9.97363590e-004 1.78383430e-003 -2.64439033e-003
      -9.97541356e-004 -4.05711448e-003 2.94202683e-003 -5.64371422e-003
      -4.73188097e-003 1.43246877e-003 -9.97363590e-004 1.78383430e-003
      -2.64439033e-003 -9.97541356e-004 -4.05711448e-003 2.94202683e-003
      -5.64371422e-003 -4.73188097e-003 1.43246877e-003 -9.97363590e-004
      1.78383430e-003 -2.64439033e-003 -9.97541356e-004 -4.05711448e-003
      2.94202683e-003 -5.64371422e-003 -4.73188097e-003 1.43246877e-003
      -9.97363590e-004 1.78383430e-003 -2.64439033e-003 -9.97541356e-004
      -4.05711448e-003 2.94202683e-003 -5.64371422e-003 -4.73188097e-003
      1.43246877e-003 -9.97363590e-004 1.78383430e-003 -2.64439033e-003
      -9.97541356e-004 -4.05711448e-003 2.94202683e-003 -5.64371422e-003
      -4.73188097e-003 1.43246877e-003 -9.97363590e-004 1.78383430e-003
      -2.64439033e-003 -9.97541356e-004 -4.05711448e-003 2.94202683e-003
      -5.64371422e-003 -4.73188097e-003 1.43246877e-003 -9.97363590e-004
      1.78383430e-003 -2.64439033e-003 -9.97541356e-004 -4.05711448e-003
      2.94202683e-003 -5.64371422e-003 -4.73188097e-003 1.43246877e-003
      -9.97363590e-004 1.78383430e-003 -2.64439033e-003 -9.97541356e-004
      -4.05711448e-003 2.94202683e-003 -5.64371422e-003 -4.73188097e-003
      1.43246877e-003 -9.97363590e-004 1.78383430e-003 -2.64439033e-003
      -9.97541356e-004 -4.05711448e-003 2.94202683e-003 -5.64371422e-003
      -4.73188097e-003 1.43246877e-003 -9.97363590e-004 1.78383430e-003
      -2.64439033e-003 -9.97541356e-004 -4.05711448e-003 2.94202683e-003
      -5.64371422e-003 -4.73188097e-003 1.43246877e-003 -9.97363590e-004
      1.78383430e-003 -2.64439033e-003 -9.97541356e-004 -4.05711448e-003
      2.94202683e-003 -5.64371422e-003 -4.73188097e-003 1.43246877e-003
      -9.97363590e-004 1.78383430e-003 -2.64439033e-003 -9.97541356e-004
      -4.05711448e-003 2.94202683e-003 -5.64371422e-003 -4.73188097e-003
      1.43246877e-003 -9.97363590e-004 1.78383430e-003 -2.64439033e-003
      -9.97541356e-004 -4.05711448e-003 2.94202683e-003 -5.64371422e-003
      -4.73188097e-003 1.43246877e-003 -9.97363590e-004 1.78383430e-003
      -2.64439033e-003 -9.97541356e-004 -4.05711448e-003 2.94202683e-003
      -5.64371422e-003 -4.73188097e-003 1.43246877e-003 -9.97363590e-004
      1.78383430e-003 -2.64439033e-003 -9.97541356e-004 -4.05711448e-003
      2.94202683e-003 -5.64371422e-003 -4.73188097e-003 1.43246877e-003
      -9.97363590e-004 1.78383430e-003 -2.64439033e-003 -9.97541356e-004
      -4.05711448e-003 2.94202683e-003 -5.64371422e-003 -4.73188097e-003
      1.43246877e-003 -9.97363590e-004 1.78383430e-003 -2.64439033e-003
      -9.97541356e-004 -4.05711448e-003 2.94202683e-003 -5.64371422e-003
      -4.73188097e-003 1.43246877e-003 -9.97363590e-004 1.78383430e-003
      -2.64439033e-003 -9.97541356e-004 -4.05711448e-003 2.94202683e-003
      -5.64371422e-003 -4.73188097e-003 1.43246877e-003 -9.97363590e-004
      1.78383430e-003 -2.64439033e-003 -9.97541356e-004 -4.05711448e-003
      2.94202683e-003 -5.64371422e-003 -4.73188097e-003 1.43246877e-003
      -9.97363590e-004 1.78383430e-003 -2.64439033e-003 -9.97541356e-004
      -4.05711448e-003 2.94202683e-003 -5.64371422e-003 -4.73188097e-003
      1.43246877e-003 -9.97363590e-004 1.78383430e-003 -2.64439033e-003
      -9.97541356e-004 -4.05711448e-003 2.94202683e-003 -5.64371422e-003
      -4.73188097e-003 1.43246877e-003 -9.97363590e-004 1.78383430e-003
      -2.64439033e-003 -9.97541356e-004 -4.05711448e-003 2.94202683e-003
      -5.64371422e-003 -4.73188097e-003 1.43246877e-003 -9.97363590e-004
      1.78383430e-003 -2.64439033e-003 -9.97541356e-004 -4.05711448e-003
      2.94202683e-003 -5.64371422e-003 -4.73188097e-003 1.43246877e-003
      -9.97363590e-004 1.78383430e-003 -2.64439033e-003 -9.97541356e-004
      -4.05711448e-003 2.94202683e-003 -5.64371422e-003 -4.73188097e-003
      1.43246877e-003 -9.97363590e-004 1.78383430e-003 -2.64439033e-003
      -9.97541356e-004 -4.05711448e-003 2.94202683e-003 -5.64371422e-003
      -4.73188097e-003 1.43246877e-003 -9.97363590e-004 1.78383430e-003
      -2.64439033e-003 -9.97541356e-004 -4.05711448e-003 2.94202683e-003
      -5.64371422e-003 -4.73188097e-003 1.43246877e-003 -9.97363590e-004
      1.78383430e-003 -2.64439033e-003 -9.97541356e-004 -4.05711448e-003
      2.94202683e-003 -5.64371422e-003 -4.73188097e-003 1.43246877e-003
      -9.97363590e-004 1.78383430e-003 -2.64439033e-003 -9.97541356e-004
      -4.05711448e-003 2.94202683e-003 -5.64371422e-003 -4.73188097e-003
      1.43246877e-003 -9.97363590e-004 1.78383430e-003 -2.64439033e-003
      -9.97541356e-004 -4.05711448e-003 2.94202683e-003 -5.64371422e-003
      -4.73188097e-003 1.43246877e-003 -9.97363590e-004 1.78383430e-003
      -2.64439033e-003 -9.97541356e-004 -4.05711448e-003 2.94202683e-003
      -5.64371422e-003 -4.73188097e-003 1.43246877e-003 -9.97363590e-004
      1.78383430e-003 -2.64439033e-003 -9.97541356e-004 -4.05711448e-003
      2.94202683e-003 -5.64371422e-003 -4.73188097e-003 1.43246877e-003
      -9.97363590e-004 1.78383430e-003 -2.64439033e-003 -9.97541356e-004
      -4.05711448e-003 2.94202683e-003 -5.64371422e-003 -4.73188097e-003
      1.43246877e-003 -9.97363590e-004 1.78383430e-003 -2.64439033e-003
      -9.97541356e-004 -4.05711448e-003 2.94202683e-003 -5.64371422e-003
      -4.73188097e-003 1.43246877e-003 -9.97363590e-004 1.78383430e-003
      -2.64439033e-003 -9.97541356e-004 -4.05711448e-003 2.94202683e-003
      -5.64371422e-003 -4.73188097e-003 1.43246877e-003 -9.97363590e-004
      1.78383430e-003 -2.64439033e-003 -9.97541356e-004 -4.05711448e-003
      2.94202683e-003 -5.64371422e-003 -4.73188097e-003 1.43246877e-003
      -9.97363590e-004 1.78383430e-003 -2.64439033e-003 -9.97541356e-004
      -4.05711448e-003 2.94202683e-003 -5.64371422e-003 -4.73188097e-003
      1.43246877e-003 -9.97363590e-004 1.78383430e-003 -2.64439033e-003
      -9.97541356e-004 -4.05711448e-003 2.94202683e-003 -5.64371422e-003
      -4.73188097e-003 1.43246877e-003 -9.97363590e-004 1.78383430e-003
      -2.64439033e-003 -9.97541356e-004 -4.05711448e-003 2.94202683e-003
      -5.64371422e-003 -4.73188097e-003 1.43246877e-003 -9.97363590e-004
      1.78383430e-003 -2.64439033e-003 -9.97541356e-004 -4.05711448e-003
      2.94202683e-003 -5.64371422e-003 -4.73188097e-003 1.43246877e-003
      -9.97363590e-004 1.78383430e-003 -2.64439033e-003 -9.97541356e-004
      -4.05711448e-003 2.94202683e-003 -5.64371422e-003 -4.73188097e-003
      1.43246877e-003 -9.97363590e-004 1.78383430e-003 -2.64439033e-003
      -9.97541356e-004 -4.05711448e-003 2.94202683e-003 -5.64371422e-003
      -4.73188097e-003 1.43246877e-003 -9.97363590e-004 1.78383430e-003
      -2.64439033e-003 -9.97541356e-004 -4.05711448e-003 2.94202683e-003
      -5.64371422e-003 -4.73188097e-003 1.43246877e-003 -9.97363590e-004
      1.78383430e-003 -2.64439033e-003 -9.97541356e-004 -4.05711448e-003
      2.94202683e-003 -5.64371422e-003 -4.73188097e-003 1.43246877e-003
      -9.97363590e-004 1.78383430e-003 -2.64439033e-003 -9.97541356e-004
      -4.05711448e-003 2.94202683e-003 -5.64371422e-003 -4.73188097e-003
      1.43246877e-003 -9.97363590e-004 1.78383430e-003 -2.64439033e-003
      -9.97541356e-004 -4.05711448e-003 2.94202683e-003 -5.64371422e-003
      -4.73188097e-003 1.43246877e-003 -9.97363590e-004 1.78383430e-003
      -2.64439033e-003 -9.97541356e-004 -4.05711448e-003 2.94202683e-003
      -5.64371422e-003 -4.73188097e-003 1.43246877e-003 -9.97363590e-004
      1.78383430e-003 -2.64439033e-003 -9.97541356e-004 -4.05711448e-003
      2.94202683e-003 -5.64371422e-003 -4.73188097e-003 1.43246877e-003
      -9.97363590e-004 1.78383430e-003 -2.64439033e-003 -9.97541356e-004
      -4.05711448e-003 2.94202683e-003 -5.64371422e-003 -4.73188097e-003
      1.43246877e-003 -9.97363590e-004 1.78383430e-003 -2.64439033e-003
      -9.97541356e-004 -4.05711448e-003 2.94202683e-003 -5.64371422e-003
      -4.73188097e-003 1.43246877e-003 -9.97363590e-004 1.78383430e-003
      -2.64439033e-003 -9.97541356e-004 -4.05711448e-003 2.94202683e-003
      -5.64371422e-003 -4.73188097e-003 1.43246877e-003 -9.97363590e-004
      1.78383430e-003 -2.64439033e-003 -9.97541356e-004 -4.05711448e-003
      2.94202683e-003 -5.64371422e-003 -4.73188097e-003 1.43246877e-003
      -9.97363590e-004 1.78383430e-003 -2.64439033e-003 -9.97541356e-004
      -4.05711448e-003 2.94202683e-003 -5.64371422e-003 -4.73188097e-003
      1.43246877e-003 -9.97363590e-004 1.78383430e-003 -2.64439033e-003
      -9.97541356e-004 -4.05711448e-003 2.94202683e-003 -5.64371422e-003
      -4.73188097e-003 1.43246877e-003 -9.97363590e-004 1.78383430e-003
      -2.64439033e-003 -9.97541356e-004 -4.05711448e-003 2.94202683e-003
      -5.64371422e-003 -4.73188097e-003 1.43246877e-003 -9.97363590e-004
      1.78383430e-003 -2.64439033e-003 -9.97541356e-004 -4.05711448e-003
      2.94202683e-003 -5.64371422e-003 -4.73188097e-003 1.43246877e-003
      -9.97363590e-004 1.78383430e-003 -2.64439033e-003 -9.97541356e-004
      -4.05711448e-003 2.94202683e-003 -5.64371422e-003 -4.73188097e-003
      1.43246877e-003 -9.97363590e-004 1.78383430e-003 -2.64439033e-003
      -9.97541356e-004 -4.05711448e-003 2.94202683e-003 -5.64371422e-003
      -4.73188097e-003 1.43246877e-003 -9.97363590e-004 1.78383430e-003
      -2.64439033e-003 -9.97541356e-004 -4.05711448e-003 2.94202683e-003
      -5.64371422e-003 -4.73188097e-003 1.43246877e-003 -9.97363590e-004
      1.78383430e-003 -2.64439033e-003 -9.97541356e-004 -4.05711448e-003
      2.94202683e-003 -5.64371422e-003 -4.73188097e-003 1.43246877e-003
      -9.97363590e-004 1.78383430e-003 -2.64439033e-003 -9.97541356e-004
      -4.05711448e-003 2.94202683e-003 -5.64371422e-003 -4.73188097e-003
      1.43246877e-003 -9.97363590e-004 1.78383430e-003 -2.64439033e-003
      -9.97541356e-004 -4.05711448e-003 2.94202683e-003 -5.64371422e-003
      -4.73188097e-003 1.43246877e-003 -9.97363590e-004 1.78383430e-003
      -2.64439033e-003 -9.97541356e-004 -4.05711448e-003 2.94202683e-003
      -5.64371422e-003 -4.73188097e-003 1.43246877e-003 -9.97363590e-004
      1.78383430e-003 -2.64439033e-003 -9.97541356e-004 -4.05711448e-003
      2.94202683e-003 -5.64371422e-003 -4.73188097e-003 1.43246877e-003
      -9.97363590e-004 1.78383430e-003 -2.64439033e-003 -9.97541356e-004
      -4.05711448e-003 2.94202683e-003 -5.64371422e-003 -4.73188097e-003
      1.43246877e-003 -9.97363590e-004 1.78383430e-003 -2.64439033e-003
      -9.97541356e-004 -4.05711448e-003 2.94202683e-003 -5.64371422e-003
      -4.73188097e-003 1.43246877e-003 -9.97363590e-004 1.78383430e-003
      -2.64439033e-003 -9.97541356e-004 -4.05711448e-003 2.94202683e-003
      -5.64371422e-003 -4.73188097e-003 1.43246877e-003 -9.97363590e-004
      1.78383430e-003 -2.64439033e-003 -9.97541356e-004 -4.05711448e-003
      2.94202683e-003 -5.64371422e-003 -4.73188097e-003 1.43246877e-003
      -9.97363590e-004 1.78383430e-003 -2.64439033e-003 -9.97541356e-004
      -4.05711448e-003 2.94202683e-003 -5.64371422e-003 -4.73188097e-003
      1.43246877e-003 -9.97363590e-004 1.78383430e-003 -2.64439033e-003
      -9.97541356e-004 -4.05711448e-003 2.94202683e-003 -5.64371422e-003
      -4.73188097e-003 1.43246877e-003 -9.97363590e-004 1.78383430e-003
      -2.64439033e-003 -9.97541356e-004 -4.05711448e-003 2.94202683e-003
      -5.64371422e-003 -4.73188097e-003 1.43246877e-003 -9.97363590e-004
      1.78383430e-003 -2.64439033e-003 -9.97541356e-004 -4.05711448e-003
      2.94202683e-003 -5.64371422e-003 -4.73188097e-003 1.43246877e-003
      -9.97363590e-004 1.78383430e-003 -2.64439033e-003 -9.97541356e-004
      -4.05711448e-003 2.94202683e-003 -5.64371422e-003 -4.73188097e-003
      1.43246877e-003 -9.97363590e-004 1.78383430e-003 -2.64439033e-003
      -9.97541356e-004 -4.05711448e-003 2.94202683e-003 -5.64371422e-003
      -4.73188097e-003 1.43246877e-003 -9.97363590e-004 1.78383430e-003
      -2.64439033e-003 -9.97541356e-004 -4.05711448e-003 2.94202683e-003
      -5.64371422e-003 -4.73188097e-003 1.43246877e-003 -9.97363590e-004
      1.78383430e-003 -2.64439033e-003 -9.97541356e-004 -4.05711448e-003
      2.94202683e-003 -5.64371422e-003 -4.73188097e-003 1.43246877e-003
      -9.97363590e-004 1.78383430e-003 -2.64439033e-003 -9.97541356e-004
      -4.05711448e-003 2.94202683e-003 -5.64371422e-003 -4.73188097e-003
      1.43246877e-003 -9.97363590e-004 1.78383430e-003 -2.64439033e-003
      -9.97541356e-004 -4.05711448e-003 2.94202683e-003 -5.64371422e-003
      -4.73188097e-003 1.43246877e-003 -9.97363590e-004 1.78383430e-003
      -2.64439033e-003 -9.97541356e-004 -4.05711448e-003 2.94202683e-003
      -5.64371422e-003 -4.73188097e-003 1.43246877e-003 -9.97363590e-004
      1.78383430e-003 -2.64439033e-003 -9.97541356e-004 -4.05711448e-003
      2.94202683e-003 -5.64371422e-003 -4.73188097e-003 1.43246877e-003
      -9.97363590e-004 1.78383430e-003 -2.64439033e-003 -9.97541356e-004
      -4.05711448e-003 2.94202683e-003 -5.64371422e-003 -4.73188097e-003
      1.43246877e-003 -9.97363590e-004 1.78383430e-003 -2.64439033e-003
      -9.97541356e-004 -4.05711448e-003 2.94202683e-003 -5.64371422e-003
      -4.73188097e-003 1.43246877e-003 -9.97363590e-004 1.78383430e-003
      -2.64439033e-003 -9.97541356e-004 -4.05711448e-003 2.94202683e-003
      -5.64371422e-003 -4.73188097e-003 1.43246877e-003 -9.97363590e-004
      1.78383430e-003 -2.64439033e-003 -9.97541356e-004 -4.05711448e-003
      2.94202683e-003 -5.64371422e-003 -4.73188097e-003 1.43246877e-003
      -9.97363590e-004 1.78383430e-003 -2.64439033e-003 -9.97541356e-004
      -4.05711448e-003 2.94202683e-003 -5.64371422e-003 -4.73188097e-003
      1.43246877e-003 -9.97363590e-004 1.78383430e-003 -2.64439033e-003
      -9.97541356e-004 -4.05711448e-003 2.94202683e-003 -5.64371422e-003
      -4.73188097e-003 1.43246877e-003 -9.97363590e-004 1.78383430e-003
      -2.64439033e-003 -9.97541356e-004 -4.05711448e-003 2.94202683e-003
      -5.64371422e-003 -4.73188097e-003 1.43246877e-003 -9.97363590e-004
      1.78383430e-003 -2.64439033e-003 -9.97541356e-004 -4.05711448e-003
      2.94202683e-003 -5.64371422e-003 -4.73188097e-003 1.43246877e-003
      -9.97363590e-004 1.78383430e-003 -2.64439033e-003 -9.97541356e-004
      -4.05711448e-003 2.94202683e-003 -5.64371422e-003 -4.73188097e-003
      1.43246877e-003 -9.97363590e-004 1.78383430e-003 -2.64439033e-003
      -9.97541356e-004 -4.05711448e-003 2.94202683e-003 -5.64371422e-003
      -4.73188097e-003 1.43246877e-003 -9.97363590e-004 1.78383430e-003
      -2.64439033e-003 -9.97541356e-004 -4.05711448e-003 2.94202683e-003
      -5.64371422e-003 -4.73188097e-003 1.43246877e-003 -9.97363590e-004
      1.78383430e-003 -2.64439033e-003 -9.97541356e-004 -4.05711448e-003
      2.94202683e-003 -5.64371422e-003 -4.73188097e-003 1.43246877e-003
      -9.97363590e-004 1.78383430e-003 -2.64439033e-003 -9.97541356e-004
      -4.05711448e-003 2.94202683e-003 -5.64371422e-003 -4.73188097e-003
      1.43246877e-003 -9.97363590e-004 1.78383430e-003 -2.64439033e-003
      -9.97541356e-004 -4.05711448e-003 2.94202683e-003 -5.64371422e-003
      -4.73188097e-003 1.43246877e-003 -9.97363590e-004 1.78383430e-003
      -2.64439033e-003 -9.97541356e-004 -4.05711448e-003 2.94202683e-003
      -5.64371422e-003 -4.73188097e-003 1.43246877e-003 -9.97363590e-004
      1.78383430e-003 -2.64439033e-003 -9.97541356e-004 -4.05711448e-003
      2.94202683e-003 -5.64371422e-003 -4.73188097e-003 1.43246877e-003
      -9.97363590e-004 1.78383430e-003 -2.64439033e-003 -9.97541356e-004
      -4.05711448e-003 2.94202683e-003 -5.64371422e-003 -4.73188097e-003
      1.43246877e-003 -9.97363590e-004 1.78383430e-003 -2.64439033e-003
      -9.97541356e-004 -4.05711448e-003 2.94202683e-003 -5.64371422e-003
      -4.73188097e-003 1.43246877e-003 -9.97363590e-004 1.78383430e-003
      -2.64439033e-003 -9.97541356e-004 -4.05711448e-003 2.94202683e-003
      -5.64371422e-003 -4.73188097e-003 1.43246877e-003 -9.97363590e-004
      1.78383430e-003 -2.64439033e-003 -9.97541356e-004 -4.05711448e-003
      2.94202683e-003 -5.64371422e-003 -4.73188097e-003 1.43246877e-003
      -9.97363590e-004 1.78383430e-003 -2.64439033e-003 -9.97541356e-004
      -4.05711448e-003 2.94202683e-003 -5.64371422e-003 -4.73188097e-003
      1.43246877e-003 -9.97363590e-004 1.78383430e-003 -2.64439033e-003
      -9.97541356e-004 -4.05711448e-003 2.94202683e-003 -5.64371422e-003
      -4.73188097e-003 1.43246877e-003 -9.97363590e-004 1.78383430e-003
      -2.64439033e-003 -9.97541356e-004 -4.05711448e-003 2.94202683e-003
      -5.64371422e-003 -4.73188097e-003 1.43246877e-003 -9.97363590e-004
      1.78383430e-003 -2.64439033e-003 -9.97541356e-004 -4.05711448e-003
      2.94202683e-003 -5.64371422e-003 -4.73188097e-003 1.43246877e-003
      -9.97363590e-004 1.78383430e-003 -2.64439033e-003 -9.97541356e-004
      -4.05711448e-003 2.94202683e-003 -5.64371422e-003 -4.73188097e-003
      1.43246877e-003 -9.97363590e-004 1.78383430e-003 -2.64439033e-003
      -9.97541356e-004 -4.05711448e-003 2.94202683e-003 -5.64371422e-003
      -4.73188097e-003 1.43246877e-003 -9.97363590e-004 1.78383430e-003
      -2.64439033e-003 -9.97541356e-004 -4.05711448e-003 2.94202683e-003
      -5.64371422e-003 -4.73188097e-003 1.43246877e-003 -9.97363590e-004
      1.78383430e-003 -2.64439033e-003 -9.97541356e-004 -4.05711448e-003
      2.94202683e-003 -5.64371422e-003 -4.73188097e-003 1.43246877e-003
      -9.97363590e-004 1.78383430e-003 -2.64439033e-003 -9.97541356e-004
      -4.05711448e-003 2.94202683e-003 -5.64371422e-003 -4.73188097e-003
      1.43246877e-003 -9.97363590e-004 1.78383430e-003 -2.64439033e-003
      -9.97541356e-004 -4.05711448e-003 2.94202683e-003 -5.64371422e-003
      -4.73188097e-003 1.43246877e-003 -9.97363590e-004 1.78383430e-003
      -2.64439033e-003 -9.97541356e-004 -4.05711448e-003 2.94202683e-003
      -5.64371422e-003 -4.73188097e-003 1.43246877e-003 -9.97363590e-004
      1.78383430e-003 -2.64439033e-003 -9.97541356e-004 -4.05711448e-003
      2.94202683e-003 -5.64371422e-003 -4.73188097e-003 1.43246877e-003
      -9.97363590e-004 1.78383430e-003 -2.64439033e-003 -9.97541356e-004
      -4.05711448e-003 2.94202683e-003 -5.64371422e-003 -4.73188097e-003
      1.43246877e-003 -9.97363590e-004 1.78383430e-003 -2.64439033e-003
      -9.97541356e-004 -4.05711448e-003 2.94202683e-003 -5.64371422e-003
      -4.73188097e-003 1.43246877e-003 -9.97363590e-004 1.78383430e-003
      -2.64439033e-003 -9.97541356e-004 -4.05711448e-003 2.94202683e-003
      -5.64371422e-003 -4.73188097e-003 1.43246877e-003 -9.97363590e-004
      1.78383430e-003 -2.64439033e-003 -9.97541356e-004 -4.05711448e-003
      2.94202683e-003 -5.64371422e-003 -4.73188097e-003 1.43246877e-003
      -9.97363590e-004 1.78383430e-003 -2.64439033e-003 -9.97541356e-004
      -4.05711448e-003 2.94202683e-003 -5.64371422e-003 -4.73188097e-003
      1.43246877e-003 -9.97363590e-004 1.78383430e-003 -2.64439033e-003
      -9.97541356e-004 -4.05711448e-003 2.94202683e-003 -5.64371422e-003
      -4.73188097e-003 1.43246877e-003 -9.97363590e-004 1.78383430e-003
      -2.64439033e-003 -9.97541356e-004 -4.05711448e-003 2.94202683e-003
      -5.64371422e-003 -4.73188097e-003 1.43246877e-003 -9.97363590e-004
      1.78383430e-003 -2.64439033e-003 -9.97541356e-004 -4.05711448e-003
      2.94202683e-003 -5.64371422e-003 -4.73188097e-003 1.43246877e-003
      -9.97363590e-004 1.78383430e-003 -2.64439033e-003 -9.97541356e-004
      -4.05711448e-003 2.94202683e-003 -5.64371422e-003 -4.73188097e-003
      1.43246877e-003 -9.97363590e-004 1.78383430e-003 -2.64439033e-003
      -9.97541356e-004 -4.05711448e-003 2.94202683e-003 -5.64371422e-003
      -4.73188097e-003 1.43246877e-003 -9.97363590e-004 1.78383430e-003
      -2.64439033e-003 -9.97541356e-004 -4.05711448e-003 2.94202683e-003
      -5.64371422e-003 -4.73188097e-003 1.43246877e-003 -9.97363590e-004
      1.78383430e-003 -2.64439033e-003 -9.97541356e-004 -4.05711448e-003
      2.94202683e-003 -5.64371422e-003 -4.73188097e-003 1.43246877e-003
      -9.97363590e-004 1.78383430e-003 -2.64439033e-003 -9.97541356e-004
      -4.05711448e-003 2.94202683e-003 -5.64371422e-003 -4.73188097e-003
      1.43246877e-003 -9.97363590e-004 1.78383430e-003 -2.64439033e-003
      -9.97541356e-004 -4.05711448e-003 2.94202683e-003 -5.64371422e-003
      -4.73188097e-003 1.43246877e-003 -9.97363590e-004 1.78383430e-003
      -2.64439033e-003 -9.97541356e-004 -4.05711448e-003 2.94202683e-003
      -5.64371422e-003 -4.73188097e-003 1.43246877e-003 -9.97363590e-004
      1.78383430e-003 -2.64439033e-003 -9.97541356e-004 -4.05711448e-003
      2.94202683e-003 -5.64371422e-003 -4.73188097e-003 1.43246877e-003
      -9.97363590e-004 1.78383430e-003 -2.64439033e-003 -9.97541356e-004
      -4.05711448e-003 2.94202683e-003 -5.64371422e-003 -4.73188097e-003
      1.43246877e-003 -9.97363590e-004 1.78383430e-003 -2.64439033e-003
      -9.97541356e-004 -4.05711448e-003 2.94202683e-003 -5.64371422e-003
      -4.73188097e-003 1.43246877e-003 -9.97363590e-004 1.78383430e-003
      -2.64439033e-003 -9.97541356e-004 -4.05711448e-003 2.94202683e-003
      -5.64371422e-003 -4.73188097e-003 1.43246877e-003 -9.97363590e-004
      1.78383430e-003 -2.64439033e-003 -9.97541356e-004 -4.05711448e-003
      2.94202683e-003 -5.64371422e-003 -4.73188097e-003 1.43246877e-003
      -9.97363590e-004 1.78383430e-003 -2.64439033e-003 -9.97541356e-004
      -4.05711448e-003 2.94202683e-003 -5.64371422e-003 -4.73188097e-003
      1.43246877e-003 -9.97363590e-004 1.78383430e-003 -2.64439033e-003
      -9.97541356e-004 -4.05711448e-003 2.94202683e-003 -5.64371422e-003
      -4.73188097e-003 1.43246877e-003 -9.97363590e-004 1.78383430e-003
      -2.64439033e-003 -9.97541356e-004 -4.05711448e-003 2.94202683e-003
      -5.64371422e-003 -4.73188097e-003 1.43246877e-003 -9.97363590e-004
      1.78383430e-003 -2.64439033e-003 -9.97541356e-004 -4.05711448e-003
      2.94202683e-003 -5.64371422e-003 -4.73188097e-003 1.43246877e-003
      -9.97363590e-004 1.78383430e-003 -2.64439033e-003 -9.97541356e-004
      -4.05711448e-003 2.94202683e-003 -5.64371422e-003 -4.73188097e-003
      1.43246877e-003 -9.97363590e-004 1.78383430e-003 -2.64439033e-003
      -9.97541356e-004 -4.05711448e-003 2.94202683e-003 -5.64371422e-003
      -4.73188097e-003 1.43246877e-003 -9.97363590e-004 1.78383430e-003
      -2.64439033e-003 -9.97541356e-004 -4.05711448e-003 2.94202683e-003
      -5.64371422e-003 -4.73188097e-003 1.43246877e-003 -9.97363590e-004
      1.78383430e-003 -2.64439033e-003 -9.97541356e-004 -4.05711448e-003
      2.94202683e-003 -5.64371422e-003 -4.73188097e-003 1.43246877e-003
      -9.97363590e-004 1.78383430e-003 -2.64439033e-003 -9.97541356e-004
      -4.05711448e-003 2.94202683e-003 -5.64371422e-003 -4.73188097e-003
      1.43246877e-003 -9.97363590e-004 1.78383430e-003 -2.64439033e-003
      -9.97541356e-004 -4.05711448e-003 2.94202683e-003 -5.64371422e-003
      -4.73188097e-003 1.43246877e-003 -9.97363590e-004 1.78383430e-003
      -2.64439033e-003 -9.97541356e-004 -4.05711448e-003 2.94202683e-003
      -5.64371422e-003 -4.73188097e-003 1.43246877e-003 -9.97363590e-004
      1.78383430e-003 -2.64439033e-003 -9.97541356e-004 -4.05711448e-003
      2.94202683e-003 -5.64371422e-003 -4.73188097e-003 1.43246877e-003
      -9.97363590e-004 1.78383430e-003 -2.64439033e-003 -9.97541356e-004
      -4.05711448e-003 2.94202683e-003 -5.64371422e-003 -4.73188097e-003
      1.43246877e-003 -9.97363590e-004 1.78383430e-003 -2.64439033e-003
      -9.97541356e-004 -4.05711448e-003 2.94202683e-003 -5.64371422e-003
      -4.73188097e-003 1.43246877e-003 -9.97363590e-004 1.78383430e-003
      -2.64439033e-003 -9.97541356e-004 -4.05711448e-003 2.94202683e-003
      -5.64371422e-003 -4.73188097e-003 1.43246877e-003 -9.97363590e-004
      1.78383430e-003 -2.64439033e-003 -9.97541356e-004 -4.05711448e-003
      2.94202683e-003 -5.64371422e-003 -4.73188097e-003 1.43246877e-003
      -9.97363590e-004 1.78383430e-003 -2.64439033e-003 -9.97541356e-004
      -4.05711448e-003 2.94202683e-003 -5.64371422e-003 -4.73188097e-003
      1.43246877e-003 -9.97363590e-004 1.78383430e-003 -2.64439033e-003
      -9.97541356e-004 -4.05711448e-003 2.94202683e-003 -5.64371422e-003
      -4.73188097e-003 1.43246877e-003 -9.97363590e-004 1.78383430e-003
      -2.64439033e-003 -9.97541356e-004 -4.05711448e-003 2.94202683e-003
      -5.64371422e-003 -4.73188097e-003 1.43246877e-003 -9.97363590e-004
      1.78383430e-003 -2.64439033e-003 -9.97541356e-004 -4.05711448e-003
      2.94202683e-003 -5.64371422e-003 -4.73188097e-003 1.43246877e-003
      -9.97363590e-004 1.78383430e-003 -2.64439033e-003 -9.97541356e-004
      -4.05711448e-003 2.94202683e-003 -5.64371422e-003 -4.73188097e-003
      1.43246877e-003 -9.97363590e-004 1.78383430e-003 -2.64439033e-003
      -9.97541356e-004 -4.05711448e-003 2.94202683e-003 -5.64371422e-003
      -4.73188097e-003 1.43246877e-003 -9.97363590e-004 1.78383430e-003
      -2.64439033e-003 -9.97541356e-004 -4.05711448e-003 2.94202683e-003
      -5.64371422e-003 -4.73188097e-003 1.43246877e-003 -9.97363590e-004
      1.78383430e-003 -2.64439033e-003 -9.97541356e-004 -4.05711448e-003
      2.94202683e-003 -5.64371422e-003 -4.73188097e-003 1.43246877e-003
      -9.97363590e-004 1.78383430e-003 -2.64439033e-003 -9.97541356e-004
      -4.05711448e-003 2.94202683e-003 -5.64371422e-003 -4.73188097e-003
      1.43246877e-003 -9.97363590e-004 1.78383430e-003 -2.64439033e-003
      -9.97541356e-004 -4.05711448e-003 2.94202683e-003 -5.64371422e-003
      -4.73188097e-003 1.43246877e-003 -9.97363590e-004 1.78383430e-003
      -2.64439033e-003 -9.97541356e-004 -4.05711448e-003 2.94202683e-003
      -5.64371422e-003 -4.73188097e-003 1.43246877e-003 -9.97363590e-004
      1.78383430e-003 -2.64439033e-003 -9.97541356e-004 -4.05711448e-003
      2.94202683e-003 -5.64371422e-003 -4.73188097e-003 1.43246877e-003
      -9.97363590e-004 1.78383430e-003 -2.64439033e-003 -9.97541356e-004
      -4.05711448e-003 2.94202683e-003 -5.64371422e-003 -4.73188097e-003
      1.43246877e-003 -9.97363590e-004 1.78383430e-003 -2.64439033e-003
      -9.97541356e-004 -4.05711448e-003 2.94202683e-003 -5.64371422e-003
      -4.73188097e-003 1.43246877e-003 -9.97363590e-004 1.78383430e-003
      -2.64439033e-003 -9.97541356e-004 -4.05711448e-003 2.94202683e-003
      -5.64371422e-003 -4.73188097e-003 1.43246877e-003 -9.97363590e-004
      1.78383430e-003 -2.64439033e-003 -9.97541356e-004 -4.05711448e-003
      2.94202683e-003 -5.64371422e-003 -4.73188097e-003 1.43246877e-003
      -9.97363590e-004 1.78383430e-003 -2.64439033e-003 -9.97541356e-004
      -4.05711448e-003 2.94202683e-003 -5.64371422e-003 -4.73188097e-003
      1.43246877e-003 -9.97363590e-004 1.78383430e-003 -2.64439033e-003
      -9.97541356e-004 -4.05711448e-003 2.94202683e-003 -5.64371422e-003
      -4.73188097e-003 1.43246877e-003 -9.97363590e-004 1.78383430e-003
      -2.64439033e-003 -9.97541356e-004 -4.05711448e-003 2.94202683e-003
      -5.64371422e-003 -4.73188097e-003 1.43246877e-003 -9.97363590e-004
      1.78383430e-003 -2.64439033e-003 -9.97541356e-004 -4.05711448e-003
      2.94202683e-003 -5.64371422e-003 -4.73188097e-003 1.43246877e-003
      -9.97363590e-004 1.78383430e-003 -2.64439033e-003 -9.97541356e-004
      -4.05711448e-003 2.94202683e-003 -5.64371422e-003 -4.73188097e-003
      1.43246877e-003 -9.97363590e-004 1.78383430e-003 -2.64439033e-003
      -9.97541356e-004 -4.05711448e-003 2.94202683e-003 -5.64371422e-003
      -4.73188097e-003 1.43246877e-003 -9.97363590e-004 1.78383430e-003
      -2.64439033e-003 -9.97541356e-004 -4.05711448e-003 2.94202683e-003
      -5.64371422e-003 -4.73188097e-003 1.43246877e-003 -9.97363590e-004
      1.78383430e-003 -2.64439033e-003 -9.97541356e-004 -4.05711448e-003
      2.94202683e-003 -5.64371422e-003 -4.73188097e-003 1.43246877e-003
      -9.97363590e-004 1.78383430e-003 -2.64439033e-003 -9.97541356e-004
      -4.05711448e-003 2.94202683e-003 -5.64371422e-003 -4.73188097e-003
      1.43246877e-003 -9.97363590e-004 1.78383430e-003 -2.64439033e-003
      -9.97541356e-004 -4.05711448e-003 2.94202683e-003 -5.64371422e-003
      -4.73188097e-003 1.43246877e-003 -9.97363590e-004 1.78383430e-003
      -2.64439033e-003 -9.97541356e-004 -4.05711448e-003 2.94202683e-003
      -5.64371422e-003 -4.73188097e-003 1.43246877e-003 -9.97363590e-004
      1.78383430e-003 -2.64439033e-003 -9.97541356e-004 -4.05711448e-003
      2.94202683e-003 -5.64371422e-003 -4.73188097e-003 1.43246877e-003
      -9.97363590e-004 1.78383430e-003 -2.64439033e-003 -9.97541356e-004
      -4.05711448e-003 2.94202683e-003 -5.64371422e-003 -4.73188097e-003
      1.43246877e-003 -9.97363590e-004 1.78383430e-003 -2.64439033e-003
      -9.97541356e-004 -4.05711448e-003 2.94202683e-003 -5.64371422e-003
      -4.73188097e-003 1.43246877e-003 -9.97363590e-004 1.78383430e-003
      -2.64439033e-003 -9.97541356e-004 -4.05711448e-003 2.94202683e-003
      -5.64371422e-003 -4.73188097e-003 1.43246877e-003 -9.97363590e-004
      1.78383430e-003 -2.64439033e-003 -9.97541356e-004 -4.05711448e-003
      2.94202683e-003 -5.64371422e-003 -4.73188097e-003 1.43246877e-003
      -9.97363590e-004 1.78383430e-003 -2.64439033e-003 -9.97541356e-004
      -4.05711448e-003 2.94202683e-003 -5.64371422e-003 -4.73188097e-003
      1.43246877e-003 -9.97363590e-004 1.78383430e-003 -2.64439033e-003
      -9.97541356e-004 -4.05711448e-003 2.94202683e-003 -5.64371422e-003
      -4.73188097e-003 1.43246877e-003 -9.97363590e-004 1.78383430e-003
      -2.64439033e-003 -9.97541356e-004 -4.05711448e-003 2.94202683e-003
      -5.64371422e-003 -4.73188097e-003 1.43246877e-003 -9.97363590e-004
      1.78383430e-003 -2.64439033e-003 -9.97541356e-004 -4.05711448e-003
      2.94202683e-003 -5.64371422e-003 -4.73188097e-003 1.43246877e-003
      -9.97363590e-004 1.78383430e-003 -2.64439033e-003 -9.97541356e-004
      -4.05711448e-003 2.94202683e-003 -5.64371422e-003 -4.73188097e-003
      1.43246877e-003 -9.97363590e-004 1.78383430e-003 -2.64439033e-003
      -9.97541356e-004 -4.05711448e-003 2.94202683e-003 -5.64371422e-003
      -4.73188097e-003 1.43246877e-003 -9.97363590e-004 1.78383430e-003
      -2.64439033e-003 -9.97541356e-004 -4.05711448e-003 2.94202683e-003
      -5.64371422e-003 -4.73188097e-003 1.43246877e-003 -9.97363590e-004
      1.78383430e-003 -2.64439033e-003 -9.97541356e-004 -4.05711448e-003
      2.94202683e-003 -5.64371422e-003 -4.73188097e-003 1.43246877e-003
      -9.97363590e-004 1.78383430e-003 -2.64439033e-003 -9.97541356e-004
      -4.05711448e-003 2.94202683e-003 -5.64371422e-003 -4.73188097e-003
      1.43246877e-003 -9.97363590e-004 1.78383430e-003 -2.64439033e-003
      -9.97541356e-004 -4.05711448e-003 2.94202683e-003 -5.64371422e-003
      -4.73188097e-003 1.43246877e-003 -9.97363590e-004 1.78383430e-003
      -2.64439033e-003 -9.97541356e-004 -4.05711448e-003 2.94202683e-003
      -5.64371422e-003 -4.73188097e-003 1.43246877e-003 -9.97363590e-004
      1.78383430e-003 -2.64439033e-003 -9.97541356e-004 -4.05711448e-003
      2.94202683e-003 -5.64371422e-003 -4.73188097e-003 1.43246877e-003
      -9.97363590e-004 1.78383430e-003 -2.64439033e-003 -9.97541356e-004
      -4.05711448e-003 2.94202683e-003 -5.64371422e-003 -4.73188097e-003
      1.43246877e-003 -9.97363590e-004 1.78383430e-003 -2.64439033e-003
      -9.97541356e-004 -4.05711448e-003 2.94202683e-003 -5.64371422e-003
      -4.73188097e-003 1.43246877e-003 -9.97363590e-004 1.78383430e-003
      -2.64439033e-003 -9.97541356e-004 -4.05711448e-003 2.94202683e-003
      -5.64371422e-003 -4.73188097e-003 1.43246877e-003 -9.97363590e-004
      1.78383430e-003 -2.64439033e-003 -9.97541356e-004 -4.05711448e-003
      2.94202683e-003 -5.64371422e-003 -4.73188097e-003 1.43246877e-003
      -9.97363590e-004 1.78383430e-003 -2.64439033e-003 -9.97541356e-004
      -4.05711448e-003 2.94202683e-003 -5.64371422e-003 -4.73188097e-003
      1.43246877e-003 -9.97363590e-004 1.78383430e-003 -2.64439033e-003
      -9.97541356e-004 -4.05711448e-003 2.94202683e-003 -5.64371422e-003
      -4.73188097e-003 1.43246877e-003 -9.97363590e-004 1.78383430e-003
      -2.64439033e-003 -9.97541356e-004 -4.05711448e-003 2.94202683e-003
      -5.64371422e-003 -4.73188097e-003 1.43246877e-003 -9.97363590e-004
      1.78383430e-003 -2.64439033e-003 -9.97541356e-004 -4.05711448e-003
      2.94202683e-003 -5.64371422e-003 -4.73188097e-003 1.43246877e-003
      -9.97363590e-004 1.78383430e-003 -2.64439033e-003 -9.97541356e-004
      -4.05711448e-003 2.94202683e-003 -5.64371422e-003 -4.73188097e-003
      1.43246877e-003 -9.97363590e-004 1.78383430e-003 -2.64439033e-003
      -9.97541356e-004 -4.05711448e-003 2.94202683e-003 -5.64371422e-003
      -4.73188097e-003 1.43246877e-003 -9.97363590e-004 1.78383430e-003
      -2.64439033e-003 -9.97541356e-004 -4.05711448e-003 2.94202683e-003
      -5.64371422e-003 -4.73188097e-003 1.43246877e-003 -9.97363590e-004
      1.78383430e-003 -2.64439033e-003 -9.97541356e-004 -4.05711448e-003
      2.94202683e-003 -5.64371422e-003 -4.73188097e-003 1.43246877e-003
      -9.97363590e-004 1.78383430e-003 -2.64439033e-003 -9.97541356e-004
      -4.05711448e-003 2.94202683e-003 -5.64371422e-003 -4.73188097e-003
      1.43246877e-003 -9.97363590e-004 1.78383430e-003 -2.64439033e-003
      -9.97541356e-004 -4.05711448e-003 2.94202683e-003 -5.64371422e-003
      -4.73188097e-003 1.43246877e-003 -9.97363590e-004 1.78383430e-003
      -2.64439033e-003 -9.97541356e-004 -4.05711448e-003 2.94202683e-003
      -5.64371422e-003 -4.73188097e-003 1.43246877e-003 -9.97363590e-004
      1.78383430e-003 -2.64439033e-003 -9.97541356e-004 -4.05711448e-003
      2.94202683e-003 -5.64371422e-003 -4.73188097e-003 1.43246877e-003
      -9.97363590e-004 1.78383430e-003 -2.64439033e-003 -9.97541356e-004
      -4.05711448e-003 2.94202683e-003 -5.64371422e-003 -4.73188097e-003
      1.43246877e-003 -9.97363590e-004 1.78383430e-003 -2.64439033e-003
      -9.97541356e-004 -4.05711448e-003 2.94202683e-003 -5.64371422e-003
      -4.73188097e-003 1.43246877e-003 -9.97363590e-004 1.78383430e-003
      -2.64439033e-003 -9.97541356e-004 -4.05711448e-003 2.94202683e-003
      -5.64371422e-003 -4.73188097e-003 1.43246877e-003 -9.97363590e-004
      1.78383430e-003 -2.64439033e-003 -9.97541356e-004 -4.05711448e-003
      2.94202683e-003 -5.64371422e-003 -4.73188097e-003 1.43246877e-003
      -9.97363590e-004 1.78383430e-003 -2.64439033e-003 -9.97541356e-004
      -4.05711448e-003 2.94202683e-003 -5.64371422e-003 -4.73188097e-003
      1.43246877e-003 -9.97363590e-004 1.78383430e-003 -2.64439033e-003
      -9.97541356e-004 -4.05711448e-003 2.94202683e-003 -5.64371422e-003
      -4.73188097e-003 1.43246877e-003 -9.97363590e-004 1.78383430e-003
      -2.64439033e-003 -9.97541356e-004 -4.05711448e-003 2.94202683e-003
      -5.64371422e-003 -4.73188097e-003 1.43246877e-003 -9.97363590e-004
      1.78383430e-003 -2.64439033e-003 -9.97541356e-004 -4.05711448e-003
      2.94202683e-003 -5.64371422e-003 -4.73188097e-003 1.43246877e-003
      -9.97363590e-004 1.78383430e-003 -2.64439033e-003 -9.97541356e-004
      -4.05711448e-003 2.94202683e-003 -5.64371422e-003 -4.73188097e-003
      1.43246877e-003 -9.97363590e-004 1.78383430e-003 -2.64439033e-003
      -9.97541356e-004 -4.05711448e-003 2.94202683e-003 -5.64371422e-003
      -4.73188097e-003 1.43246877e-003 -9.97363590e-004 1.78383430e-003
      -2.64439033e-003 -9.97541356e-004 -4.05711448e-003 2.94202683e-003
      -5.64371422e-003 -4.73188097e-003 1.43246877e-003 -9.97363590e-004
      1.78383430e-003 -2.64439033e-003 -9.97541356e-004 -4.05711448e-003
      2.94202683e-003 -5.64371422e-003 -4.73188097e-003 1.43246877e-003
      -9.97363590e-004 1.78383430e-003 -2.64439033e-003 -9.97541356e-004
      -4.05711448e-003 2.94202683e-003 -5.64371422e-003 -4.73188097e-003
      1.43246877e-003 -9.97363590e-004 1.78383430e-003 -2.64439033e-003
      -9.97541356e-004 -4.05711448e-003 2.94202683e-003 -5.64371422e-003
      -4.73188097e-003 1.43246877e-003 -9.97363590e-004 1.78383430e-003
      -2.64439033e-003 -9.97541356e-004 -4.05711448e-003 2.94202683e-003
      -5.64371422e-003 -4.73188097e-003 1.43246877e-003 -9.97363590e-004
      1.78383430e-003 -2.64439033e-003 -9.97541356e-004 -4.05711448e-003
      2.94202683e-003 -5.64371422e-003 -4.73188097e-003 1.43246877e-003
      -9.97363590e-004 1.78383430e-003 -2.64439033e-003 -9.97541356e-004
      -4.05711448e-003 2.94202683e-003 -5.64371422e-003 -4.73188097e-003
      1.43246877e-003 -9.97363590e-004 1.78383430e-003 -2.64439033e-003
      -9.97541356e-004 -4.05711448e-003 2.94202683e-003 -5.64371422e-003
      -4.73188097e-003 1.43246877e-003 -9.97363590e-004 1.78383430e-003
      -2.64439033e-003 -9.97541356e-004 -4.05711448e-003 2.94202683e-003
      -5.64371422e-003 -4.73188097e-003 1.43246877e-003 -9.97363590e-004
      1.78383430e-003 -2.64439033e-003 -9.97541356e-004 -4.05711448e-003
      2.94202683e-003 -5.64371422e-003 -4.73188097e-003 1.43246877e-003
      -9.97363590e-004 1.78383430e-003 -2.64439033e-003 -9.97541356e-004
      -4.05711448e-003 2.94202683e-003 -5.64371422e-003 -4.73188097e-003
      1.43246877e-003 -9.97363590e-004 1.78383430e-003 -2.64439033e-003
      -9.97541356e-004 -4.05711448e-003 2.94202683e-003 -5.64371422e-003
      -4.73188097e-003 1.43246877e-003 -9.97363590e-004 1.78383430e-003
      -2.64439033e-003 -9.97541356e-004 -4.05711448e-003 2.94202683e-003
      -5.64371422e-003 -4.73188097e-003 1.43246877e-003 -9.97363590e-004
      1.78383430e-003 -2.64439033e-003 -9.97541356e-004 -4.05711448e-003
      2.94202683e-003 -5.64371422e-003 -4.73188097e-003 1.43246877e-003
      -9.97363590e-004 1.78383430e-003 -2.64439033e-003 -9.97541356e-004
      -4.05711448e-003 2.94202683e-003 -5.64371422e-003 -4.73188097e-003
      1.43246877e-003 -9.97363590e-004 1.78383430e-003 -2.64439033e-003
      -9.97541356e-004 -4.05711448e-003 2.94202683e-003 -5.64371422e-003
      -4.73188097e-003 1.43246877e-003 -9.97363590e-004 1.78383430e-003
      -2.64439033e-003 -9.97541356e-004 -4.05711448e-003 2.94202683e-003
      -5.64371422e-003 -4.73188097e-003 1.43246877e-003 -9.97363590e-004
      1.78383430e-003 -2.64439033e-003 -9.97541356e-004 -4.05711448e-003
      2.94202683e-003 -5.64371422e-003 -4.73188097e-003 1.43246877e-003
      -9.97363590e-004 1.78383430e-003 -2.64439033e-003 -9.97541356e-004
      -4.05711448e-003 2.94202683e-003 -5.64371422e-003 -4.73188097e-003
      1.43246877e-003 -9.97363590e-004 1.78383430e-003 -2.64439033e-003
      -9.97541356e-004 -4.05711448e-003 2.94202683e-003 -5.64371422e-003
      -4.73188097e-003 1.43246877e-003 -9.97363590e-004 1.78383430e-003
      -2.64439033e-003 -9.97541356e-004 -4.05711448e-003 2.94202683e-003
      -5.64371422e-003 -4.73188097e-003 1.43246877e-003 -9.97363590e-004
      1.78383430e-003 -2.64439033e-003 -9.97541356e-004 -4.05711448e-003
      2.94202683e-003 -5.64371422e-003 -4.73188097e-003 1.43246877e-003
      -9.97363590e-004 1.78383430e-003 -2.64439033e-003 -9.97541356e-004
      -4.05711448e-003 2.94202683e-003 -5.64371422e-003 -4.73188097e-003
      1.43246877e-003 -9.97363590e-004 1.78383430e-003 -2.64439033e-003
      -9.97541356e-004 -4.05711448e-003 2.94202683e-003 -5.64371422e-003
      -4.73188097e-003 1.43246877e-003 -9.97363590e-004 1.78383430e-003
      -2.64439033e-003 -9.97541356e-004 -4.05711448e-003 2.94202683e-003
      -5.64371422e-003 -4.73188097e-003 1.43246877e-003 -9.97363590e-004
      1.78383430e-003 -2.64439033e-003 -9.97541356e-004 -4.05711448e-003
      2.94202683e-003 -5.64371422e-003 -4.73188097e-003 1.43246877e-003
      -9.97363590e-004 1.78383430e-003 -2.64439033e-003 -9.97541356e-004
      -4.05711448e-003 2.94202683e-003 -5.64371422e-003 -4.73188097e-003
      1.43246877e-003 -9.97363590e-004 1.78383430e-003 -2.64439033e-003
      -9.97541356e-004 -4.05711448e-003 2.94202683e-003 -5.64371422e-003
      -4.73188097e-003 1.43246877e-003 -9.97363590e-004 1.78383430e-003
      -2.64439033e-003 -9.97541356e-004 -4.05711448e-003 2.94202683e-003
      -5.64371422e-003 -4.73188097e-003 1.43246877e-003 -9.97363590e-004
      1.78383430e-003 -2.64439033e-003 -9.97541356e-004 -4.05711448e-003
      2.94202683e-003 -5.64371422e-003 -4.73188097e-003 1.43246877e-003
      -9.97363590e-004 1.78383430e-003 -2.64439033e-003 -9.97541356e-004
      -4.05711448e-003 2.94202683e-003 -5.64371422e-003 -4.73188097e-003
      1.43246877e-003 -9.97363590e-004 1.78383430e-003 -2.64439033e-003
      -9.97541356e-004 -4.05711448e-003 2.94202683e-003 -5.64371422e-003
      -4.73188097e-003 1.43246877e-003 -9.97363590e-004 1.78383430e-003
      -2.64439033e-003 -9.97541356e-004 -4.05711448e-003 2.94202683e-003
      -5.64371422e-003 -4.73188097e-003 1.43246877e-003 -9.97363590e-004
      1.78383430e-003 -2.64439033e-003 -9.97541356e-004 -4.05711448e-003
      2.94202683e-003 -5.64371422e-003 -4.73188097e-003 1.43246877e-003
      -9.97363590e-004 1.78383430e-003 -2.64439033e-003 -9.97541356e-004
      -4.05711448e-003 2.94202683e-003 -5.64371422e-003 -4.73188097e-003
      1.43246877e-003 -9.97363590e-004 1.78383430e-003 -2.64439033e-003
      -9.97541356e-004 -4.05711448e-003 2.94202683e-003 -5.64371422e-003
      -4.73188097e-003 1.43246877e-003 -9.97363590e-004 1.78383430e-003
      -2.64439033e-003 -9.97541356e-004 -4.05711448e-003 2.94202683e-003
      -5.64371422e-003 -4.73188097e-003 1.43246877e-003 -9.97363590e-004
      1.78383430e-003 -2.64439033e-003 -9.97541356e-004 -4.05711448e-003
      2.94202683e-003 -5.64371422e-003 -4.73188097e-003 1.43246877e-003
      -9.97363590e-004 1.78383430e-003 -2.64439033e-003 -9.97541356e-004
      -4.05711448e-003 2.94202683e-003 -5.64371422e-003 -4.73188097e-003
      1.43246877e-003 -9.97363590e-004 1.78383430e-003 -2.64439033e-003
      -9.97541356e-004 -4.05711448e-003 2.94202683e-003 -5.64371422e-003
      -4.73188097e-003 1.43246877e-003 -9.97363590e-004 1.78383430e-003
      -2.64439033e-003 -9.97541356e-004 -4.05711448e-003 2.94202683e-003
      -5.64371422e-003 -4.73188097e-003 1.43246877e-003 -9.97363590e-004
      1.78383430e-003 -2.64439033e-003 -9.97541356e-004 -4.05711448e-003
      2.94202683e-003 -5.64371422e-003 -4.73188097e-003 1.43246877e-003
      -9.97363590e-004 1.78383430e-003 -2.64439033e-003 -9.97541356e-004
      -4.05711448e-003 2.94202683e-003 -5.64371422e-003 -4.73188097e-003
      1.43246877e-003 -9.97363590e-004 1.78383430e-003 -2.64439033e-003
      -9.97541356e-004 -4.05711448e-003 2.94202683e-003 -5.64371422e-003
      -4.73188097e-003 1.43246877e-003 -9.97363590e-004 1.78383430e-003
      -2.64439033e-003 -9.97541356e-004 -4.05711448e-003 2.94202683e-003
      -5.64371422e-003 -4.73188097e-003 1.43246877e-003 -9.97363590e-004
      1.78383430e-003 -2.64439033e-003 -9.97541356e-004 -4.05711448e-003
      2.94202683e-003 -5.64371422e-003 -4.73188097e-003 1.43246877e-003
      -9.97363590e-004 1.78383430e-003 -2.64439033e-003 -9.97541356e-004
      -4.05711448e-003 2.94202683e-003 -5.64371422e-003 -4.73188097e-003
      1.43246877e-003 -9.97363590e-004 1.78383430e-003 -2.64439033e-003
      -9.97541356e-004 -4.05711448e-003 2.94202683e-003 -5.64371422e-003
      -4.73188097e-003 1.43246877e-003 -9.97363590e-004 1.78383430e-003
      -2.64439033e-003 -9.97541356e-004 -4.05711448e-003 2.94202683e-003
      -5.64371422e-003 -4.73188097e-003 1.43246877e-003 -9.97363590e-004
      1.78383430e-003 -2.64439033e-003 -9.97541356e-004 -4.05711448e-003
      2.94202683e-003 -5.64371422e-003 -4.73188097e-003 1.43246877e-003
      -9.97363590e-004 1.78383430e-003 -2.64439033e-003 -9.97541356e-004
      -4.05711448e-003 2.94202683e-003 -5.64371422e-003 -4.73188097e-003
      1.43246877e-003 -9.97363590e-004 1.78383430e-003 -2.64439033e-003
      -9.97541356e-004 -4.05711448e-003 2.94202683e-003 -5.64371422e-003
      -4.73188097e-003 1.43246877e-003 -9.97363590e-004 1.78383430e-003
      -2.64439033e-003 -9.97541356e-004 -4.05711448e-003 2.94202683e-003
      -5.64371422e-003 -4.73188097e-003 1.43246877e-003 -9.97363590e-004
      1.78383430e-003 -2.64439033e-003 -9.97541356e-004 -4.05711448e-003
      2.94202683e-003 -5.64371422e-003 -4.73188097e-003 1.43246877e-003
      -9.97363590e-004 1.78383430e-003 -2.64439033e-003 -9.97541356e-004
      -4.05711448e-003 2.94202683e-003 -5.64371422e-003 -4.73188097e-003
      1.43246877e-003 -9.97363590e-004 1.78383430e-003 -2.64439033e-003
      -9.97541356e-004 -4.05711448e-003 2.94202683e-003 -5.64371422e-003
      -4.73188097e-003 1.43246877e-003 -9.97363590e-004 1.78383430e-003
      -2.64439033e-003 -9.97541356e-004 -4.05711448e-003 2.94202683e-003
      -5.64371422e-003 -4.73188097e-003 1.43246877e-003 -9.97363590e-004
      1.78383430e-003 -2.64439033e-003 -9.97541356e-004 -4.05711448e-003
      2.94202683e-003 -5.64371422e-003 -4.73188097e-003 1.43246877e-003
      -9.97363590e-004 1.78383430e-003 -2.64439033e-003 -9.97541356e-004
      -4.05711448e-003 2.94202683e-003 -5.64371422e-003 -4.73188097e-003
      1.43246877e-003 -9.97363590e-004 1.78383430e-003 -2.64439033e-003
      -9.97541356e-004 -4.05711448e-003 2.94202683e-003 -5.64371422e-003
      -4.73188097e-003 1.43246877e-003 -9.97363590e-004 1.78383430e-003
      -2.64439033e-003 -9.97541356e-004 -4.05711448e-003 2.94202683e-003
      -5.64371422e-003 -4.73188097e-003 1.43246877e-003 -9.97363590e-004
      1.78383430e-003 -2.64439033e-003 -9.97541356e-004 -4.05711448e-003
      2.94202683e-003 -5.64371422e-003 -4.73188097e-003 1.43246877e-003
      -9.97363590e-004 1.78383430e-003 -2.64439033e-003 -9.97541356e-004
      -4.05711448e-003 2.94202683e-003 -5.64371422e-003 -4.73188097e-003
      1.43246877e-003 -9.97363590e-004 1.78383430e-003 -2.64439033e-003
      -9.97541356e-004 -4.05711448e-003 2.94202683e-003 -5.64371422e-003
      -4.73188097e-003 1.43246877e-003 -9.97363590e-004 1.78383430e-003
      -2.64439033e-003 -9.97541356e-004 -4.05711448e-003 2.94202683e-003
      -5.64371422e-003 -4.73188097e-003 1.43246877e-003 -9.97363590e-004
      1.78383430e-003 -2.64439033e-003 -9.97541356e-004 -4.05711448e-003
      2.94202683e-003 -5.64371422e-003 -4.73188097e-003 1.43246877e-003
      -9.97363590e-004 1.78383430e-003 -2.64439033e-003 -9.97541356e-004
      -4.05711448e-003 2.94202683e-003 -5.64371422e-003 -4.73188097e-003
      1.43246877e-003 -9.97363590e-004 1.78383430e-003 -2.64439033e-003
      -9.97541356e-004 -4.05711448e-003 2.94202683e-003 -5.64371422e-003
      -4.73188097e-003 1.43246877e-003 -9.97363590e-004 1.78383430e-003
      -2.64439033e-003 -9.97541356e-004 -4.05711448e-003 2.94202683e-003
      -5.64371422e-003 -4.73188097e-003 1.43246877e-003 -9.97363590e-004
      1.78383430e-003 -2.64439033e-003 -9.97541356e-004 -4.05711448e-003
      2.94202683e-003 -5.64371422e-003 -4.73188097e-003 1.43246877e-003
      -9.97363590e-004 1.78383430e-003 -2.64439033e-003 -9.97541356e-004
      -4.05711448e-003 2.94202683e-003 -5.64371422e-003 -4.73188097e-003
      1.43246877e-003 -9.97363590e-004 1.78383430e-003 -2.64439033e-003
      -9.97541356e-004 -4.05711448e-003 2.94202683e-003 -5.64371422e-003
      -4.73188097e-003 1.43246877e-003 -9.97363590e-004 1.78383430e-003
      -2.64439033e-003 -9.97541356e-004 -4.05711448e-003 2.94202683e-003
      -5.64371422e-003 -4.73188097e-003 1.43246877e-003 -9.97363590e-004
      1.78383430e-003 -2.64439033e-003 -9.97541356e-004 -4.05711448e-003
      2.94202683e-003 -5.64371422e-003 -4.73188097e-003 1.43246877e-003
      -9.97363590e-004 1.78383430e-003 -2.64439033e-003 -9.97541356e-004
      -4.05711448e-003 2.94202683e-003 -5.64371422e-003 -4.73188097e-003
      1.43246877e-003 -9.97363590e-004 1.78383430e-003 -2.64439033e-003
      -9.97541356e-004 -4.05711448e-003 2.94202683e-003 -5.64371422e-003
      -4.73188097e-003 1.43246877e-003 -9.97363590e-004 1.78383430e-003
      -2.64439033e-003 -9.97541356e-004 -4.05711448e-003 2.94202683e-003
      -5.64371422e-003 -4.73188097e-003 1.43246877e-003 -9.97363590e-004
      1.78383430e-003 -2.64439033e-003 -9.97541356e-004 -4.05711448e-003
      2.94202683e-003 -5.64371422e-003 -4.73188097e-003 1.43246877e-003
      -9.97363590e-004 1.78383430e-003 -2.64439033e-003 -9.97541356e-004
      -4.05711448e-003 2.94202683e-003 -5.64371422e-003 -4.73188097e-003
      1.43246877e-003 -9.97363590e-004 1.78383430e-003 -2.64439033e-003
      -9.97541356e-004 -4.05711448e-003 2.94202683e-003 -5.64371422e-003
      -4.73188097e-003 1.43246877e-003 -9.97363590e-004 1.78383430e-003
      -2.64439033e-003 -9.97541356e-004 -4.05711448e-003 2.94202683e-003
      -5.64371422e-003 -4.73188097e-003 1.43246877e-003 -9.97363590e-004
      1.78383430e-003 -2.64439033e-003 -9.97541356e-004 -4.05711448e-003
      2.94202683e-003 -5.64371422e-003 -4.73188097e-003 1.43246877e-003
      -9.97363590e-004 1.78383430e-003 -2.64439033e-003 -9.97541356e-004
      -4.05711448e-003 2.94202683e-003 -5.64371422e-003 -4.73188097e-003
      1.43246877e-003 -9.97363590e-004 1.78383430e-003 -2.64439033e-003
      -9.97541356e-004 -4.05711448e-003 2.94202683e-003 -5.64371422e-003
      -4.73188097e-003 1.43246877e-003 -9.97363590e-004 1.78383430e-003
      -2.64439033e-003 -9.97541356e-004 -4.05711448e-003 2.94202683e-003
      -5.64371422e-003 -4.73188097e-003 1.43246877e-003 -9.97363590e-004
      1.78383430e-003 -2.64439033e-003 -9.97541356e-004 -4.05711448e-003
      2.94202683e-003 -5.64371422e-003 -4.73188097e-003 1.43246877e-003
      -9.97363590e-004 1.78383430e-003 -2.64439033e-003 -9.97541356e-004
      -4.05711448e-003 2.94202683e-003 -5.64371422e-003 -4.73188097e-003
      1.43246877e-003 -9.97363590e-004 1.78383430e-003 -2.64439033e-003
      -9.97541356e-004 -4.05711448e-003 2.94202683e-003 -5.64371422e-003
      -4.73188097e-003 1.43246877e-003 -9.97363590e-004 1.78383430e-003
      -2.64439033e-003 -9.97541356e-004 -4.05711448e-003 2.94202683e-003
      -5.64371422e-003 -4.73188097e-003 1.43246877e-003 -9.97363590e-004
      1.78383430e-003 -2.64439033e-003 -9.97541356e-004 -4.05711448e-003
      2.94202683e-003 -5.64371422e-003 -4.73188097e-003 1.43246877e-003
      -9.97363590e-004 1.78383430e-003 -2.64439033e-003 -9.97541356e-004
      -4.05711448e-003 2.94202683e-003 -5.64371422e-003 -4.73188097e-003
      1.43246877e-003 -9.97363590e-004 1.78383430e-003 -2.64439033e-003
      -9.97541356e-004 -4.05711448e-003 2.94202683e-003 -5.64371422e-003
      -4.73188097e-003 1.43246877e-003 -9.97363590e-004 1.78383430e-003
      -2.64439033e-003 -9.97541356e-004 -4.05711448e-003 2.94202683e-003
      -5.64371422e-003 -4.73188097e-003 1.43246877e-003 -9.97363590e-004
      1.78383430e-003 -2.64439033e-003 -9.97541356e-004 -4.05711448e-003
      2.94202683e-003 -5.64371422e-003 -4.73188097e-003 1.43246877e-003
      -9.97363590e-004 1.78383430e-003 -2.64439033e-003 -9.97541356e-004
      -4.05711448e-003 2.94202683e-003 -5.64371422e-003 -4.73188097e-003
      1.43246877e-003 -9.97363590e-004 1.78383430e-003 -2.64439033e-003
      -9.97541356e-004 -4.05711448e-003 2.94202683e-003 -5.64371422e-003
      -4.73188097e-003 1.43246877e-003 -9.97363590e-004 1.78383430e-003
      -2.64439033e-003 -9.97541356e-004 -4.05711448e-003 2.94202683e-003
      -5.64371422e-003 -4.73188097e-003 1.43246877e-003 -9.97363590e-004
      1.78383430e-003 -2.64439033e-003 -9.97541356e-004 -4.05711448e-003
      2.94202683e-003 -5.64371422e-003 -4.73188097e-003 1.43246877e-003
      -9.97363590e-004 1.78383430e-003 -2.64439033e-003 -9.97541356e-004
      -4.05711448e-003 2.94202683e-003 -5.64371422e-003 -4.73188097e-003
      1.43246877e-003 -9.97363590e-004 1.78383430e-003 -2.64439033e-003
      -9.97541356e-004 -4.05711448e-003 2.94202683e-003 -5.64371422e-003
      -4.73188097e-003 1.43246877e-003 -9.97363590e-004 1.78383430e-003
      -2.64439033e-003 -9.97541356e-004 -4.05711448e-003 2.94202683e-003
      -5.64371422e-003 -4.73188097e-003 1.43246877e-003 -9.97363590e-004
      1.78383430e-003 -2.64439033e-003 -9.97541356e-004 -4.05711448e-003
      2.94202683e-003 -5.64371422e-003 -4.73188097e-003 1.43246877e-003
      -9.97363590e-004 1.78383430e-003 -2.64439033e-003 -9.97541356e-004
      -4.05711448e-003 2.94202683e-003 -5.64371422e-003 -4.73188097e-003
      1.43246877e-003 -9.97363590e-004 1.78383430e-003 -2.64439033e-003
      -9.97541356e-004 -4.05711448e-003 2.94202683e-003 -5.64371422e-003
      -4.73188097e-003 1.43246877e-003 -9.97363590e-004 1.78383430e-003
      -2.64439033e-003 -9.97541356e-004 -4.05711448e-003 2.94202683e-003
      -5.64371422e-003 -4.73188097e-003 1.43246877e-003 -9.97363590e-004
      1.78383430e-003 -2.64439033e-003 -9.97541356e-004 -4.05711448e-003
      2.94202683e-003 -5.64371422e-003 -4.73188097e-003 1.43246877e-003
      -9.97363590e-004 1.78383430e-003 -2.64439033e-003 -9.97541356e-004
      -4.05711448e-003 2.94202683e-003 -5.64371422e-003 -4.73188097e-003
      1.43246877e-003 -9.97363590e-004 1.78383430e-003 -2.64439033e-003
      -9.97541356e-004 -4.05711448e-003 2.94202683e-003 -5.64371422e-003
      -4.73188097e-003 1.43246877e-003 -9.97363590e-004 1.78383430e-003
      -2.64439033e-003 -9.97541356e-004 -4.05711448e-003 2.94202683e-003
      -5.64371422e-003 -4.73188097e-003 1.43246877e-003 -9.97363590e-004
      1.78383430e-003 -2.64439033e-003 -9.97541356e-004 -4.05711448e-003
      2.94202683e-003 -5.64371422e-003 -4.73188097e-003 1.43246877e-003
      -9.97363590e-004 1.78383430e-003 -2.64439033e-003 -9.97541356e-004
      -4.05711448e-003 2.94202683e-003 -5.64371422e-003 -4.73188097e-003
      1.43246877e-003 -9.97363590e-004 1.78383430e-003 -2.64439033e-003
      -9.97541356e-004 -4.05711448e-003 2.94202683e-003 -5.64371422e-003
      -4.73188097e-003 1.43246877e-003 -9.97363590e-004 1.78383430e-003
      -2.64439033e-003 -9.97541356e-004 -4.05711448e-003 2.94202683e-003
      -5.64371422e-003 -4.73188097e-003 1.43246877e-003 -9.97363590e-004
      1.78383430e-003 -2.64439033e-003 -9.97541356e-004 -4.05711448e-003
      2.94202683e-003 -5.64371422e-003 -4.73188097e-003 1.43246877e-003
      -9.97363590e-004 1.78383430e-003 -2.64439033e-003 -9.97541356e-004
      -4.05711448e-003 2.94202683e-003 -5.64371422e-003 -4.73188097e-003
      1.43246877e-003 -9.97363590e-004 1.78383430e-003 -2.64439033e-003
      -9.97541356e-004 -4.05711448e-003 2.94202683e-003 -5.64371422e-003
      -4.73188097e-003 1.43246877e-003 -9.97363590e-004 1.78383430e-003
      -2.64439033e-003 -9.97541356e-004 -4.05711448e-003 2.94202683e-003
      -5.64371422e-003 -4.73188097e-003 1.43246877e-003 -9.97363590e-004
      1.78383430e-003 -2.64439033e-003 -9.97541356e-004 -4.05711448e-003
      2.94202683e-003 -5.64371422e-003 -4.73188097e-003 1.43246877e-003
      -9.97363590e-004 1.78383430e-003 -2.64439033e-003 -9.97541356e-004
      -4.05711448e-003 2.94202683e-003 -5.64371422e-003 -4.73188097e-003
      1.43246877e-003 -9.97363590e-004 1.78383430e-003 -2.64439033e-003
      -9.97541356e-004 -4.05711448e-003 2.94202683e-003 -5.64371422e-003
      -4.73188097e-003 1.43246877e-003 -9.97363590e-004 1.78383430e-003
      -2.64439033e-003 -9.97541356e-004 -4.05711448e-003 2.94202683e-003
      -5.64371422e-003 -4.73188097e-003 1.43246877e-003 -9.97363590e-004
      1.78383430e-003 -2.64439033e-003 -9.97541356e-004 -4.05711448e-003
      2.94202683e-003 -5.64371422e-003 -4.73188097e-003 1.43246877e-003
      -9.97363590e-004 1.78383430e-003 -2.64439033e-003 -9.97541356e-004
      -4.05711448e-003 2.94202683e-003 -5.64371422e-003 -4.73188097e-003
      1.43246877e-003 -9.97363590e-004 1.78383430e-003 -2.64439033e-003
      -9.97541356e-004 -4.05711448e-003 2.94202683e-003 -5.64371422e-003
      -4.73188097e-003 1.43246877e-003 -9.97363590e-004 1.78383430e-003
      -2.64439033e-003 -9.97541356e-004 -4.05711448e-003 2.94202683e-003
      -5.64371422e-003 -4.73188097e-003 1.43246877e-003 -9.97363590e-004
      1.78383430e-003 -2.64439033e-003 -9.97541356e-004 -4.05711448e-003
      2.94202683e-003 -5.64371422e-003 -4.73188097e-003 1.43246877e-003
      -9.97363590e-004 1.78383430e-003 -2.64439033e-003 -9.97541356e-004
      -4.05711448e-003 2.94202683e-003 -5.64371422e-003 -4.73188097e-003
      1.43246877e-003 -9.97363590e-004 1.78383430e-003 -2.64439033e-003
      -9.97541356e-004 -4.05711448e-003 2.94202683e-003 -5.64371422e-003
      -4.73188097e-003 1.43246877e-003 -9.97363590e-004 1.78383430e-003
      -2.64439033e-003 -9.97541356e-004 -4.05711448e-003 2.94202683e-003
      -5.64371422e-003 -4.73188097e-003 1.43246877e-003 -9.97363590e-004
      1.78383430e-003 -2.64439033e-003 -9.97541356e-004 -4.05711448e-003
      2.94202683e-003 -5.64371422e-003 -4.73188097e-003 1.43246877e-003
      -9.97363590e-004 1.78383430e-003 -2.64439033e-003 -9.97541356e-004
      -4.05711448e-003 2.94202683e-003 -5.64371422e-003 -4.73188097e-003
      1.43246877e-003 -9.97363590e-004 1.78383430e-003 -2.64439033e-003
      -9.97541356e-004 -4.05711448e-003 2.94202683e-003 -5.64371422e-003
      -4.73188097e-003 1.43246877e-003 -9.97363590e-004 1.78383430e-003
      -2.64439033e-003 -9.97541356e-004 -4.05711448e-003 2.94202683e-003
      -5.64371422e-003 -4.73188097e-003 1.43246877e-003 -9.97363590e-004
      1.78383430e-003 -2.64439033e-003 -9.97541356e-004 -4.05711448e-003
      2.94202683e-003 -5.64371422e-003 -4.73188097e-003 1.43246877e-003
      -9.97363590e-004 1.78383430e-003 -2.64439033e-003 -9.97541356e-004
      -4.05711448e-003 2.94202683e-003 -5.64371422e-003 -4.73188097e-003
      1.43246877e-003 -9.97363590e-004 1.78383430e-003 -2.64439033e-003
      -9.97541356e-004 -4.05711448e-003 2.94202683e-003 -5.64371422e-003
      -4.73188097e-003 1.43246877e-003 -9.97363590e-004 1.78383430e-003
      -2.64439033e-003 -9.97541356e-004 -4.05711448e-003 2.94202683e-003
      -5.64371422e-003 -4.73188097e-003 1.43246877e-003 -9.97363590e-004
      1.78383430e-003 -2.64439033e-003 -9.97541356e-004 -4.05711448e-003
      2.94202683e-003 -5.64371422e-003 -4.73188097e-003 1.43246877e-003
      -9.97363590e-004 1.78383430e-003 -2.64439033e-003 -9.97541356e-004
      -4.05711448e-003 2.94202683e-003 -5.64371422e-003 -4.73188097e-003
      1.43246877e-003 -9.97363590e-004 1.78383430e-003 -2.64439033e-003
      -9.97541356e-004 -4.05711448e-003 2.94202683e-003 -5.64371422e-003
      -4.73188097e-003 1.43246877e-003 -9.97363590e-004 1.78383430e-003
      -2.64439033e-003 -9.97541356e-004 -4.05711448e-003 2.94202683e-003
      -5.64371422e-003 -4.73188097e-003 1.43246877e-003 -9.97363590e-004
      1.78383430e-003 -2.64439033e-003 -9.97541356e-004 -4.05711448e-003
      2.94202683e-003 -5.64371422e-003 -4.73188097e-003 1.43246877e-003
      -9.97363590e-004 1.78383430e-003 -2.64439033e-003 -9.97541356e-004
      -4.05711448e-003 2.94202683e-003 -5.64371422e-003 -4.73188097e-003
      1.43246877e-003 -9.97363590e-004 1.78383430e-003 -2.64439033e-003
      -9.97541356e-004 -4.05711448e-003 2.94202683e-003 -5.64371422e-003
      -4.73188097e-003 1.43246877e-003 -9.97363590e-004 1.78383430e-003
      -2.64439033e-003 -9.97541356e-004 -4.05711448e-003 2.94202683e-003
      -5.64371422e-003 -4.73188097e-003 1.43246877e-003 -9.97363590e-004
      1.78383430e-003 -2.64439033e-003 -9.97541356e-004 -4.05711448e-003
      2.94202683e-003 -5.64371422e-003 -4.73188097e-003 1.43246877e-003
      -9.97363590e-004 1.78383430e-003 -2.64439033e-003 -9.97541356e-004
      -4.05711448e-003 2.94202683e-003 -5.64371422e-003 -4.73188097e-003
      1.43246877e-003 -9.97363590e-004 1.78383430e-003 -2.64439033e-003
      -9.97541356e-004 -4.05711448e-003 2.94202683e-003 -5.64371422e-003
      -4.73188097e-003 1.43246877e-003 -9.97363590e-004 1.78383430e-003
      -2.64439033e-003 -9.97541356e-004 -4.05711448e-003 2.94202683e-003
      -5.64371422e-003 -4.73188097e-003 1.43246877e-003 -9.97363590e-004
      1.78383430e-003 -2.64439033e-003 -9.97541356e-004 -4.05711448e-003
      2.94202683e-003 -5.64371422e-003 -4.73188097e-003 1.43246877e-003
      -9.97363590e-004 1.78383430e-003 -2.64439033e-003 -9.97541356e-004
      -4.05711448e-003 2.94202683e-003 -5.64371422e-003 -4.73188097e-003
      1.43246877e-003 -9.97363590e-004 1.78383430e-003 -2.64439033e-003
      -9.97541356e-004 -4.05711448e-003 2.94202683e-003 -5.64371422e-003
      -4.73188097e-003 1.43246877e-003 -9.97363590e-004 1.78383430e-003
      -2.64439033e-003 -9.97541356e-004 -4.05711448e-003 2.94202683e-003
      -5.64371422e-003 -4.73188097e-003 1.43246877e-003 -9.97363590e-004
      1.78383430e-003 -2.64439033e-003 -9.97541356e-004 -4.05711448e-003
      2.94202683e-003 -5.64371422e-003 -4.73188097e-003 1.43246877e-003
      -9.97363590e-004 1.78383430e-003 -2.64439033e-003 -9.97541356e-004
      -4.05711448e-003 2.94202683e-003 -5.64371422e-003 -4.73188097e-003
      1.43246877e-003 -9.97363590e-004 1.78383430e-003 -2.64439033e-003
      -9.97541356e-004 -4.05711448e-003 2.94202683e-003 -5.64371422e-003
      -4.73188097e-003 1.43246877e-003 -9.97363590e-004 1.78383430e-003
      -2.64439033e-003 -9.97541356e-004 -4.05711448e-003 2.94202683e-003
      -5.64371422e-003 -4.73188097e-003 1.43246877e-003 -9.97363590e-004
      1.78383430e-003 -2.64439033e-003 -9.97541356e-004 -4.05711448e-003
      2.94202683e-003 -5.64371422e-003 -4.73188097e-003 1.43246877e-003
      -9.97363590e-004 1.78383430e-003 -2.64439033e-003 -9.97541356e-004
      -4.05711448e-003 2.94202683e-003 -5.64371422e-003 -4.73188097e-003
      1.43246877e-003 -9.97363590e-004 1.78383430e-003 -2.64439033e-003
      -9.97541356e-004 -4.05711448e-003 2.94202683e-003 -5.64371422e-003
      -4.73188097e-003 1.43246877e-003 -9.97363590e-004 1.78383430e-003
      -2.64439033e-003 -9.97541356e-004 -4.05711448e-003 2.94202683e-003
      -5.64371422e-003 -4.73188097e-003 1.43246877e-003 -9.97363590e-004
      1.78383430e-003 -2.64439033e-003 -9.97541356e-004 -4.05711448e-003
      2.94202683e-003 -5.64371422e-003 -4.73188097e-003 1.43246877e-003
      -9.97363590e-004 1.78383430e-003 -2.64439033e-003 -9.97541356e-004
      -4.05711448e-003 2.94202683e-003 -5.64371422e-003 -4.73188097e-003
      1.43246877e-003 -9.97363590e-004 1.78383430e-003 -2.64439033e-003
      -9.97541356e-004 -4.05711448e-003 2.94202683e-003 -5.64371422e-003
      -4.73188097e-003 1.43246877e-003 -9.97363590e-004 1.78383430e-003
      -2.64439033e-003 -9.97541356e-004 -4.05711448e-003 2.94202683e-003
      -5.64371422e-003 -4.73188097e-003 1.43246877e-003 -9.97363590e-004
      1.78383430e-003 -2.64439033e-003 -9.97541356e-004 -4.05711448e-003
      2.94202683e-003 -5.64371422e-003 -4.73188097e-003 1.43246877e-003
      -9.97363590e-004 1.78383430e-003 -2.64439033e-003 -9.97541356e-004
      -4.05711448e-003 2.94202683e-003 -5.64371422e-003 -4.73188097e-003
      1.43246877e-003 -9.97363590e-004 1.78383430e-003 -2.64439033e-003
      -9.97541356e-004 -4.05711448e-003 2.94202683e-003 -5.64371422e-003
      -4.73188097e-003 1.43246877e-003 -9.97363590e-004 1.78383430e-003
      -2.64439033e-003 -9.97541356e-004 -4.05711448e-003 2.94202683e-003
      -5.64371422e-003 -4.73188097e-003 1.43246877e-003 -9.97363590e-004
      1.78383430e-003 -2.64439033e-003 -9.97541356e-004 -4.05711448e-003
      2.94202683e-003 -5.64371422e-003 -4.73188097e-003 1.43246877e-003
      -9.97363590e-004 1.78383430e-003 -2.64439033e-003 -9.97541356e-004
      -4.05711448e-003 2.94202683e-003 -5.64371422e-003 -4.73188097e-003
      1.43246877e-003 -9.97363590e-004 1.78383430e-003 -2.64439033e-003
      -9.97541356e-004 -4.05711448e-003 2.94202683e-003 -5.64371422e-003
      -4.73188097e-003 1.43246877e-003 -9.97363590e-004 1.78383430e-003
      -2.64439033e-003 -9.97541356e-004 -4.05711448e-003 2.94202683e-003
      -5.64371422e-003 -4.73188097e-003 1.43246877e-003 -9.97363590e-004
      1.78383430e-003 -2.64439033e-003 -9.97541356e-004 -4.05711448e-003
      2.94202683e-003 -5.64371422e-003 -4.73188097e-003 1.43246877e-003
      -9.97363590e-004 1.78383430e-003 -2.64439033e-003 -9.97541356e-004
      -4.05711448e-003 2.94202683e-003 -5.64371422e-003 -4.73188097e-003
      1.43246877e-003 -9.97363590e-004 1.78383430e-003 -2.64439033e-003
      -9.97541356e-004 -4.05711448e-003 2.94202683e-003 -5.64371422e-003
      -4.73188097e-003 1.43246877e-003 -9.97363590e-004 1.78383430e-003
      -2.64439033e-003 -9.97541356e-004 -4.05711448e-003 2.94202683e-003
      -5.64371422e-003 -4.73188097e-003 1.43246877e-003 -9.97363590e-004
      1.78383430e-003 -2.64439033e-003 -9.97541356e-004 -4.05711448e-003
      2.94202683e-003 -5.64371422e-003 -4.73188097e-003 1.43246877e-003
      -9.97363590e-004 1.78383430e-003 -2.64439033e-003 -9.97541356e-004
      -4.05711448e-003 2.94202683e-003 -5.64371422e-003 -4.73188097e-003
      1.43246877e-003 -9.97363590e-004 1.78383430e-003 -2.64439033e-003
      -9.97541356e-004 -4.05711448e-003 2.94202683e-003 -5.64371422e-003
      -4.73188097e-003 1.43246877e-003 -9.97363590e-004 1.78383430e-003
      -2.64439033e-003 -9.97541356e-004 -4.05711448e-003 2.94202683e-003
      -5.64371422e-003 -4.73188097e-003 1.43246877e-003 -9.97363590e-004
      1.78383430e-003 -2.64439033e-003 -9.97541356e-004 -4.05711448e-003
      2.94202683e-003 -5.64371422e-003 -4.73188097e-003 1.43246877e-003
      -9.97363590e-004 1.78383430e-003 -2.64439033e-003 -9.97541356e-004
      -4.05711448e-003 2.94202683e-003 -5.64371422e-003 -4.73188097e-003
      1.43246877e-003 -9.97363590e-004 1.78383430e-003 -2.64439033e-003
      -9.97541356e-004 -4.05711448e-003 2.94202683e-003 -5.64371422e-003
      -4.73188097e-003 1.43246877e-003 -9.97363590e-004 1.78383430e-003
      -2.64439033e-003 -9.97541356e-004 -4.05711448e-003 2.94202683e-003
      -5.64371422e-003 -4.73188097e-003 1.43246877e-003 -9.97363590e-004
      1.78383430e-003 -2.64439033e-003 -9.97541356e-004 -4.05711448e-003
      2.94202683e-003 -5.64371422e-003 -4.73188097e-003 1.43246877e-003
      -9.97363590e-004 1.78383430e-003 -2.64439033e-003 -9.97541356e-004
      -4.05711448e-003 2.94202683e-003 -5.64371422e-003 -4.73188097e-003
      1.43246877e-003 -9.97363590e-004 1.78383430e-003 -2.64439033e-003
      -9.97541356e-004 -4.05711448e-003 2.94202683e-003 -5.64371422e-003
      -4.73188097e-003 1.43246877e-003 -9.97363590e-004 1.78383430e-003
      -2.64439033e-003 -9.97541356e-004 -4.05711448e-003 2.94202683e-003
      -5.64371422e-003 -4.73188097e-003 1.43246877e-003 -9.97363590e-004
      1.78383430e-003 -2.64439033e-003 -9.97541356e-004 -4.05711448e-003
      2.94202683e-003 -5.64371422e-003 -4.73188097e-003 1.43246877e-003
      -9.97363590e-004 1.78383430e-003 -2.64439033e-003 -9.97541356e-004
      -4.05711448e-003 2.94202683e-003 -5.64371422e-003 -4.73188097e-003
      1.43246877e-003 -9.97363590e-004 1.78383430e-003 -2.64439033e-003
      -9.97541356e-004 -4.05711448e-003 2.94202683e-003 -5.64371422e-003
      -4.73188097e-003 1.43246877e-003 -9.97363590e-004 1.78383430e-003
      -2.64439033e-003 -9.97541356e-004 -4.05711448e-003 2.94202683e-003
      -5.64371422e-003 -4.73188097e-003 1.43246877e-003 -9.97363590e-004
      1.78383430e-003 -2.64439033e-003 -9.97541356e-004 -4.05711448e-003
      2.94202683e-003 -5.64371422e-003 -4.73188097e-003 1.43246877e-003
      -9.97363590e-004 1.78383430e-003 -2.64439033e-003 -9.97541356e-004
      -4.05711448e-003 2.94202683e-003 -5.64371422e-003 -4.73188097e-003
      1.43246877e-003 -9.97363590e-004 1.78383430e-003 -2.64439033e-003
      -9.97541356e-004 -4.05711448e-003 2.94202683e-003 -5.64371422e-003
      -4.73188097e-003 1.43246877e-003 -9.97363590e-004 1.78383430e-003
      -2.64439033e-003 -9.97541356e-004 -4.05711448e-003 2.94202683e-003
      -5.64371422e-003 -4.73188097e-003 1.43246877e-003 -9.97363590e-004
      1.78383430e-003 -2.64439033e-003 -9.97541356e-004 -4.05711448e-003
      2.94202683e-003 -5.64371422e-003 -4.73188097e-003 1.43246877e-003
      -9.97363590e-004 1.78383430e-003 -2.64439033e-003 -9.97541356e-004
      -4.05711448e-003 2.94202683e-003 -5.64371422e-003 -4.73188097e-003
      1.43246877e-003 -9.97363590e-004 1.78383430e-003 -2.64439033e-003
      -9.97541356e-004 -4.05711448e-003 2.94202683e-003 -5.64371422e-003
      -4.73188097e-003 1.43246877e-003 -9.97363590e-004 1.78383430e-003
      -2.64439033e-003 -9.97541356e-004 -4.05711448e-003 2.94202683e-003
      -5.64371422e-003 -4.73188097e-003 1.43246877e-003 -9.97363590e-004
      1.78383430e-003 -2.64439033e-003 -9.97541356e-004 -4.05711448e-003
      2.94202683e-003 -5.64371422e-003 -4.73188097e-003 1.43246877e-003
      -9.97363590e-004 1.78383430e-003 -2.64439033e-003 -9.97541356e-004
      -4.05711448e-003 2.94202683e-003 -5.64371422e-003 -4.73188097e-003
      1.43246877e-003 -9.97363590e-004 1.78383430e-003 -2.64439033e-003
      -9.97541356e-004 -4.05711448e-003 2.94202683e-003 -5.64371422e-003
      -4.73188097e-003 1.43246877e-003 -9.97363590e-004 1.78383430e-003
      -2.64439033e-003 -9.97541356e-004 -4.05711448e-003 2.94202683e-003
      -5.64371422e-003 -4.73188097e-003 1.43246877e-003 -9.97363590e-004
      1.78383430e-003 -2.64439033e-003 -9.97541356e-004 -4.05711448e-003
      2.94202683e-003 -5.64371422e-003 -4.73188097e-003 1.43246877e-003
      -9.97363590e-004 1.78383430e-003 -2.64439033e-003 -9.97541356e-004
      -4.05711448e-003 2.94202683e-003 -5.64371422e-003 -4.73188097e-003
      1.43246877e-003 -9.97363590e-004 1.78383430e-003 -2.64439033e-003
      -9.97541356e-004 -4.05711448e-003 2.94202683e-003 -5.64371422e-003
      -4.73188097e-003 1.43246877e-003 -9.97363590e-004 1.78383430e-003
      -2.64439033e-003 -9.97541356e-004 -4.05711448e-003 2.94202683e-003
      -5.64371422e-003 -4.73188097e-003 1.43246877e-003 -9.97363590e-004
      1.78383430e-003 -2.64439033e-003 -9.97541356e-004 -4.05711448e-003
      2.94202683e-003 -5.64371422e-003 -4.73188097e-003 1.43246877e-003
      -9.97363590e-004 1.78383430e-003 -2.64439033e-003 -9.97541356e-004
      -4.05711448e-003 2.94202683e-003 -5.64371422e-003 -4.73188097e-003
      1.43246877e-003 -9.97363590e-004 1.78383430e-003 -2.64439033e-003
      -9.97541356e-004 -4.05711448e-003 2.94202683e-003 -5.64371422e-003
      -4.73188097e-003 1.43246877e-003 -9.97363590e-004 1.78383430e-003
      -2.64439033e-003 -9.97541356e-004 -4.05711448e-003 2.94202683e-003
      -5.64371422e-003 -4.73188097e-003 1.43246877e-003 -9.97363590e-004
      1.78383430e-003 -2.64439033e-003 -9.97541356e-004 -4.05711448e-003
      2.94202683e-003 -5.64371422e-003 -4.73188097e-003 1.43246877e-003
      -9.97363590e-004 1.78383430e-003 -2.64439033e-003 -9.97541356e-004
      -4.05711448e-003 2.94202683e-003 -5.64371422e-003 -4.73188097e-003
      1.43246877e-003 -9.97363590e-004 1.78383430e-003 -2.64439033e-003
      -9.97541356e-004 -4.05711448e-003 2.94202683e-003 -5.64371422e-003
      -4.73188097e-003 1.43246877e-003 -9.97363590e-004 1.78383430e-003
      -2.64439033e-003 -9.97541356e-004 -4.05711448e-003 2.94202683e-003
      -5.64371422e-003 -4.73188097e-003 1.43246877e-003 -9.97363590e-004
      1.78383430e-003 -2.64439033e-003 -9.97541356e-004 -4.05711448e-003
      2.94202683e-003 -5.64371422e-003 -4.73188097e-003 1.43246877e-003
      -9.97363590e-004 1.78383430e-003 -2.64439033e-003 -9.97541356e-004
      -4.05711448e-003 2.94202683e-003 -5.64371422e-003 -4.73188097e-003
      1.43246877e-003 -9.97363590e-004 1.78383430e-003 -2.64439033e-003
      -9.97541356e-004 -4.05711448e-003 2.94202683e-003 -5.64371422e-003
      -4.73188097e-003 1.43246877e-003 -9.97363590e-004 1.78383430e-003
      -2.64439033e-003 -9.97541356e-004 -4.05711448e-003 2.94202683e-003
      -5.64371422e-003 -4.73188097e-003 1.43246877e-003 -9.97363590e-004
      1.78383430e-003 -2.64439033e-003 -9.97541356e-004 -4.05711448e-003
      2.94202683e-003 -5.64371422e-003 -4.73188097e-003 1.43246877e-003
      -9.97363590e-004 1.78383430e-003 -2.64439033e-003 -9.97541356e-004
      -4.05711448e-003 2.94202683e-003 -5.64371422e-003 -4.73188097e-003
      1.43246877e-003 -9.97363590e-004 1.78383430e-003 -2.64439033e-003
      -9.97541356e-004 -4.05711448e-003 2.94202683e-003 -5.64371422e-003
      -4.73188097e-003 1.43246877e-003 -9.97363590e-004 1.78383430e-003
      -2.64439033e-003 -9.97541356e-004 -4.05711448e-003 2.94202683e-003
      -5.64371422e-003 -4.73188097e-003 1.43246877e-003 -9.97363590e-004
      1.78383430e-003 -2.64439033e-003 -9.97541356e-004 -4.05711448e-003
      2.94202683e-003 -5.64371422e-003 -4.73188097e-003 1.43246877e-003
      -9.97363590e-004 1.78383430e-003 -2.64439033e-003 -9.97541356e-004
      -4.05711448e-003 2.94202683e-003 -5.64371422e-003 -4.73188097e-003
      1.43246877e-003 -9.97363590e-004 1.78383430e-003 -2.64439033e-003
      -9.97541356e-004 -4.05711448e-003 2.94202683e-003 -5.64371422e-003
      -4.73188097e-003 1.43246877e-003 -9.97363590e-004 1.78383430e-003
      -2.64439033e-003 -9.97541356e-004 -4.05711448e-003 2.94202683e-003
      -5.64371422e-003 -4.73188097e-003 1.43246877e-003 -9.97363590e-004
      1.78383430e-003 -2.64439033e-003 -9.97541356e-004 -4.05711448e-003
      2.94202683e-003 -5.64371422e-003 -4.73188097e-003 1.43246877e-003
      -9.97363590e-004 1.78383430e-003 -2.64439033e-003 -9.97541356e-004
      -4.05711448e-003 2.94202683e-003 -5.64371422e-003 -4.73188097e-003
      1.43246877e-003 -9.97363590e-004 1.78383430e-003 -2.64439033e-003
      -9.97541356e-004 -4.05711448e-003 2.94202683e-003 -5.64371422e-003
      -4.73188097e-003 1.43246877e-003 -9.97363590e-004 1.78383430e-003
      -2.64439033e-003 -9.97541356e-004 -4.05711448e-003 2.94202683e-003
      -5.64371422e-003 -4.73188097e-003 1.43246877e-003 -9.97363590e-004
      1.78383430e-003 -2.64439033e-003 -9.97541356e-004 -4.05711448e-003
      2.94202683e-003 -5.64371422e-003 -4.73188097e-003 1.43246877e-003
      -9.97363590e-004 1.78383430e-003 -2.64439033e-003 -9.97541356e-004
      -4.05711448e-003 2.94202683e-003 -5.64371422e-003 -4.73188097e-003
      1.43246877e-003 -9.97363590e-004 1.78383430e-003 -2.64439033e-003
      -9.97541356e-004 -4.05711448e-003 2.94202683e-003 -5.64371422e-003
      -4.73188097e-003 1.43246877e-003 -9.97363590e-004 1.78383430e-003
      -2.64439033e-003 -9.97541356e-004 -4.05711448e-003 2.94202683e-003
      -5.64371422e-003 -4.73188097e-003 1.43246877e-003 -9.97363590e-004
      1.78383430e-003 -2.64439033e-003 -9.97541356e-004 -4.05711448e-003
      2.94202683e-003 -5.64371422e-003 -4.73188097e-003 1.43246877e-003
      -9.97363590e-004 1.78383430e-003 -2.64439033e-003 -9.97541356e-004
      -4.05711448e-003 2.94202683e-003 -5.64371422e-003 -4.73188097e-003
      1.43246877e-003 -9.97363590e-004 1.78383430e-003 -2.64439033e-003
      -9.97541356e-004 -4.05711448e-003 2.94202683e-003 -5.64371422e-003
      -4.73188097e-003 1.43246877e-003 -9.97363590e-004 1.78383430e-003
      -2.64439033e-003 -9.97541356e-004 -4.05711448e-003 2.94202683e-003
      -5.64371422e-003 -4.73188097e-003 1.43246877e-003 -9.97363590e-004
      1.78383430e-003 -2.64439033e-003 -9.97541356e-004 -4.05711448e-003
      2.94202683e-003 -5.64371422e-003 -4.73188097e-003 1.43246877e-003
      -9.97363590e-004 1.78383430e-003 -2.64439033e-003 -9.97541356e-004
      -4.05711448e-003 2.94202683e-003 -5.64371422e-003 -4.73188097e-003
      1.43246877e-003 -9.97363590e-004 1.78383430e-003 -2.64439033e-003
      -9.97541356e-004 -4.05711448e-003 2.94202683e-003 -5.64371422e-003
      -4.73188097e-003 1.43246877e-003 -9.97363590e-004 1.78383430e-003
      -2.64439033e-003 -9.97541356e-004 -4.05711448e-003 2.94202683e-003
      -5.64371422e-003 -4.73188097e-003 1.43246877e-003 -9.97363590e-004
      1.78383430e-003 -2.64439033e-003 -9.97541356e-004 -4.05711448e-003
      2.94202683e-003 -5.64371422e-003 -4.73188097e-003 1.43246877e-003
      -9.97363590e-004 1.78383430e-003 -2.64439033e-003 -9.97541356e-004
      -4.05711448e-003 2.94202683e-003 -5.64371422e-003 -4.73188097e-003
      1.43246877e-003 -9.97363590e-004 1.78383430e-003 -2.64439033e-003
      -9.97541356e-004 -4.05711448e-003 2.94202683e-003 -5.64371422e-003
      -4.73188097e-003 1.43246877e-003 -9.97363590e-004 1.78383430e-003
      -2.64439033e-003 -9.97541356e-004 -4.05711448e-003 2.94202683e-003
      -5.64371422e-003 -4.73188097e-003 1.43246877e-003 -9.97363590e-004
      1.78383430e-003 -2.64439033e-003 -9.97541356e-004 -4.05711448e-003
      2.94202683e-003 -5.64371422e-003 -4.73188097e-003 1.43246877e-003
      -9.97363590e-004 1.78383430e-003 -2.64439033e-003 -9.97541356e-004
      -4.05711448e-003 2.94202683e-003 -5.64371422e-003 -4.73188097e-003
      1.43246877e-003 -9.97363590e-004 1.78383430e-003 -2.64439033e-003
      -9.97541356e-004 -4.05711448e-003 2.94202683e-003 -5.64371422e-003
      -4.73188097e-003 1.43246877e-003 -9.97363590e-004 1.78383430e-003
      -2.64439033e-003 -9.97541356e-004 -4.05711448e-003 2.94202683e-003
      -5.64371422e-003 -4.73188097e-003 1.43246877e-003 -9.97363590e-004
      1.78383430e-003 -2.64439033e-003 -9.97541356e-004 -4.05711448e-003
      2.94202683e-003 -5.64371422e-003 -4.73188097e-003 1.43246877e-003
      -9.97363590e-004 1.78383430e-003 -2.64439033e-003 -9.97541356e-004
      -4.05711448e-003 2.94202683e-003 -5.64371422e-003 -4.73188097e-003
      1.43246877e-003 -9.97363590e-004 1.78383430e-003 -2.64439033e-003
      -9.97541356e-004 -4.05711448e-003 2.94202683e-003 -5.64371422e-003
      -4.73188097e-003 1.43246877e-003 -9.97363590e-004 1.78383430e-003
      -2.64439033e-003 -9.97541356e-004 -4.05711448e-003 2.94202683e-003
      -5.64371422e-003 -4.73188097e-003 1.43246877e-003 -9.97363590e-004
      1.78383430e-003 -2.64439033e-003 -9.97541356e-004 -4.05711448e-003
      2.94202683e-003 -5.64371422e-003 -4.73188097e-003 1.43246877e-003
      -9.97363590e-004 1.78383430e-003 -2.64439033e-003 -9.97541356e-004
      -4.05711448e-003 2.94202683e-003 -5.64371422e-003 -4.73188097e-003
      1.43246877e-003 -9.97363590e-004 1.78383430e-003 -2.64439033e-003
      -9.97541356e-004 -4.05711448e-003 2.94202683e-003 -5.64371422e-003
      -4.73188097e-003 1.43246877e-003 -9.97363590e-004 1.78383430e-003
      -2.64439033e-003 -9.97541356e-004 -4.05711448e-003 2.94202683e-003
      -5.64371422e-003 -4.73188097e-003 1.43246877e-003 -9.97363590e-004
      1.78383430e-003 -2.64439033e-003 -9.97541356e-004 -4.05711448e-003
      2.94202683e-003 -5.64371422e-003 -4.73188097e-003 1.43246877e-003
      -9.97363590e-004 1.78383430e-003 -2.64439033e-003 -9.97541356e-004
      -4.05711448e-003 2.94202683e-003 -5.64371422e-003 -4.73188097e-003
      1.43246877e-003 -9.97363590e-004 1.78383430e-003 -2.64439033e-003
      -9.97541356e-004 -4.05711448e-003 2.94202683e-003 -5.64371422e-003
      -4.73188097e-003 1.43246877e-003 -9.97363590e-004 1.78383430e-003
      -2.64439033e-003 -9.97541356e-004 -4.05711448e-003 2.94202683e-003
      -5.64371422e-003 -4.73188097e-003 1.43246877e-003 -9.97363590e-004
      1.78383430e-003 -2.64439033e-003 -9.97541356e-004 -4.05711448e-003
      2.94202683e-003 -5.64371422e-003 -4.73188097e-003 1.43246877e-003
      -9.97363590e-004 1.78383430e-003 -2.64439033e-003 -9.97541356e-004
      -4.05711448e-003 2.94202683e-003 -5.64371422e-003 -4.73188097e-003
      1.43246877e-003 -9.97363590e-004 1.78383430e-003 -2.64439033e-003
      -9.97541356e-004 -4.05711448e-003 2.94202683e-003 -5.64371422e-003
      -4.73188097e-003 1.43246877e-003 -9.97363590e-004 1.78383430e-003
      -2.64439033e-003 -9.97541356e-004 -4.05711448e-003 2.94202683e-003
      -5.64371422e-003 -4.73188097e-003 1.43246877e-003 -9.97363590e-004
      1.78383430e-003 -2.64439033e-003 -9.97541356e-004 -4.05711448e-003
      2.94202683e-003 -5.64371422e-003 -4.73188097e-003 1.43246877e-003
      -9.97363590e-004 1.78383430e-003 -2.64439033e-003 -9.97541356e-004
      -4.05711448e-003 2.94202683e-003 -5.64371422e-003 -4.73188097e-003
      1.43246877e-003 -9.97363590e-004 1.78383430e-003 -2.64439033e-003
      -9.97541356e-004 -4.05711448e-003 2.94202683e-003 -5.64371422e-003
      -4.73188097e-003 1.43246877e-003 -9.97363590e-004 1.78383430e-003
      -2.64439033e-003 -9.97541356e-004 -4.05711448e-003 2.94202683e-003
      -5.64371422e-003 -4.73188097e-003 1.43246877e-003 -9.97363590e-004
      1.78383430e-003 -2.64439033e-003 -9.97541356e-004 -4.05711448e-003
      2.94202683e-003 -5.64371422e-003 -4.73188097e-003 1.43246877e-003
      -9.97363590e-004 1.78383430e-003 -2.64439033e-003 -9.97541356e-004
      -4.05711448e-003 2.94202683e-003 -5.64371422e-003 -4.73188097e-003
      1.43246877e-003 -9.97363590e-004 1.78383430e-003 -2.64439033e-003
      -9.97541356e-004 -4.05711448e-003 2.94202683e-003 -5.64371422e-003
      -4.73188097e-003 1.43246877e-003 -9.97363590e-004 1.78383430e-003
      -2.64439033e-003 -9.97541356e-004 -4.05711448e-003 2.94202683e-003
      -5.64371422e-003 -4.73188097e-003 1.43246877e-003 -9.97363590e-004
      1.78383430e-003 -2.64439033e-003 -9.97541356e-004 -4.05711448e-003
      2.94202683e-003 -5.64371422e-003 -4.73188097e-003 1.43246877e-003
      -9.97363590e-004 1.78383430e-003 -2.64439033e-003 -9.97541356e-004
      -4.05711448e-003 2.94202683e-003 -5.64371422e-003 -4.73188097e-003
      1.43246877e-003 -9.97363590e-004 1.78383430e-003 -2.64439033e-003
      -9.97541356e-004 -4.05711448e-003 2.94202683e-003 -5.64371422e-003
      -4.73188097e-003 1.43246877e-003 -9.97363590e-004 1.78383430e-003
      -2.64439033e-003 -9.97541356e-004 -4.05711448e-003 2.94202683e-003
      -5.64371422e-003 -4.73188097e-003 1.43246877e-003 -9.97363590e-004
      1.78383430e-003 -2.64439033e-003 -9.97541356e-004 -4.05711448e-003
      2.94202683e-003 -5.64371422e-003 -4.73188097e-003 1.43246877e-003
      -9.97363590e-004 1.78383430e-003 -2.64439033e-003 -9.97541356e-004
      -4.05711448e-003 2.94202683e-003 -5.64371422e-003 -4.73188097e-003
      1.43246877e-003 -9.97363590e-004 1.78383430e-003 -2.64439033e-003
      -9.97541356e-004 -4.05711448e-003 2.94202683e-003 -5.64371422e-003
      -4.73188097e-003 1.43246877e-003 -9.97363590e-004 1.78383430e-003
      -2.64439033e-003 -9.97541356e-004 -4.05711448e-003 2.94202683e-003
      -5.64371422e-003 -4.73188097e-003 1.43246877e-003 -9.97363590e-004
      1.78383430e-003 -2.64439033e-003 -9.97541356e-004 -4.05711448e-003
      2.94202683e-003 -5.64371422e-003 -4.73188097e-003 1.43246877e-003
      -9.97363590e-004 1.78383430e-003 -2.64439033e-003 -9.97541356e-004
      -4.05711448e-003 2.94202683e-003 -5.64371422e-003 -4.73188097e-003
      1.43246877e-003 -9.97363590e-004 1.78383430e-003 -2.64439033e-003
      -9.97541356e-004 -4.05711448e-003 2.94202683e-003 -5.64371422e-003
      -4.73188097e-003 1.43246877e-003 -9.97363590e-004 1.78383430e-003
      -2.64439033e-003 -9.97541356e-004 -4.05711448e-003 2.94202683e-003
      -5.64371422e-003 -4.73188097e-003 1.43246877e-003 -9.97363590e-004
      1.78383430e-003 -2.64439033e-003 -9.97541356e-004 -4.05711448e-003
      2.94202683e-003 -5.64371422e-003 -4.73188097e-003 1.43246877e-003
      -9.97363590e-004 1.78383430e-003 -2.64439033e-003 -9.97541356e-004
      -4.05711448e-003 2.94202683e-003 -5.64371422e-003 -4.73188097e-003
      1.43246877e-003 -9.97363590e-004 1.78383430e-003 -2.64439033e-003
      -9.97541356e-004 -4.05711448e-003 2.94202683e-003 -5.64371422e-003
      -4.73188097e-003 1.43246877e-003 -9.97363590e-004 1.78383430e-003
      -2.64439033e-003 -9.97541356e-004 -4.05711448e-003 2.94202683e-003
      -5.64371422e-003 -4.73188097e-003 1.43246877e-003 -9.97363590e-004
      1.78383430e-003 -2.64439033e-003 -9.97541356e-004 -4.05711448e-003
      2.94202683e-003 -5.64371422e-003 -4.73188097e-003 1.43246877e-003
      -9.97363590e-004 1.78383430e-003 -2.64439033e-003 -9.97541356e-004
      -4.05711448e-003 2.94202683e-003 -5.64371422e-003 -4.73188097e-003
      1.43246877e-003 -9.97363590e-004 1.78383430e-003 -2.64439033e-003
      -9.97541356e-004 -4.05711448e-003 2.94202683e-003 -5.64371422e-003
      -4.73188097e-003 1.43246877e-003 -9.97363590e-004 1.78383430e-003
      -2.64439033e-003 -9.97541356e-004 -4.05711448e-003 2.94202683e-003
      -5.64371422e-003 -4.73188097e-003 1.43246877e-003 -9.97363590e-004
      1.78383430e-003 -2.64439033e-003 -9.97541356e-004 -4.05711448e-003
      2.94202683e-003 -5.64371422e-003 -4.73188097e-003 1.43246877e-003
      -9.97363590e-004 1.78383430e-003 -2.64439033e-003 -9.97541356e-004
      -4.05711448e-003 2.94202683e-003 -5.64371422e-003 -4.73188097e-003
      1.43246877e-003 -9.97363590e-004 1.78383430e-003 -2.64439033e-003
      -9.97541356e-004 -4.05711448e-003 2.94202683e-003 -5.64371422e-003
      -4.73188097e-003 1.43246877e-003 -9.97363590e-004 1.78383430e-003
      -2.64439033e-003 -9.97541356e-004 -4.05711448e-003 2.94202683e-003
      -5.64371422e-003 -4.73188097e-003 1.43246877e-003 -9.97363590e-004
      1.78383430e-003 -2.64439033e-003 -9.97541356e-004 -4.05711448e-003
      2.94202683e-003 -5.64371422e-003 -4.73188097e-003 1.43246877e-003
      -9.97363590e-004 1.78383430e-003 -2.64439033e-003 -9.97541356e-004
      -4.05711448e-003 2.94202683e-003 -5.64371422e-003 -4.73188097e-003
      1.43246877e-003 -9.97363590e-004 1.78383430e-003 -2.64439033e-003
      -9.97541356e-004 -4.05711448e-003 2.94202683e-003 -5.64371422e-003
      -4.73188097e-003 1.43246877e-003 -9.97363590e-004 1.78383430e-003
      -2.64439033e-003 -9.97541356e-004 -4.05711448e-003 2.94202683e-003
      -5.64371422e-003 -4.73188097e-003 1.43246877e-003 -9.97363590e-004
      1.78383430e-003 -2.64439033e-003 -9.97541356e-004 -4.05711448e-003
      2.94202683e-003 -5.64371422e-003 -4.73188097e-003 1.43246877e-003
      -9.97363590e-004 1.78383430e-003 -2.64439033e-003 -9.97541356e-004
      -4.05711448e-003 2.94202683e-003 -5.64371422e-003 -4.73188097e-003
      1.43246877e-003 -9.97363590e-004 1.78383430e-003 -2.64439033e-003
      -9.97541356e-004 -4.05711448e-003 2.94202683e-003 -5.64371422e-003
      -4.73188097e-003 1.43246877e-003 -9.97363590e-004 1.78383430e-003
      -2.64439033e-003 -9.97541356e-004 -4.05711448e-003 2.94202683e-003
      -5.64371422e-003 -4.73188097e-003 1.43246877e-003 -9.97363590e-004
      1.78383430e-003 -2.64439033e-003 -9.97541356e-004 -4.05711448e-003
      2.94202683e-003 -5.64371422e-003 -4.73188097e-003 1.43246877e-003
      -9.97363590e-004 1.78383430e-003 -2.64439033e-003 -9.97541356e-004
      -4.05711448e-003 2.94202683e-003 -5.64371422e-003 -4.73188097e-003
      1.43246877e-003 -9.97363590e-004 1.78383430e-003 -2.64439033e-003
      -9.97541356e-004 -4.05711448e-003 2.94202683e-003 -5.64371422e-003
      -4.73188097e-003 1.43246877e-003 -9.97363590e-004 1.78383430e-003
      -2.64439033e-003 -9.97541356e-004 -4.05711448e-003 2.94202683e-003
      -5.64371422e-003 -4.73188097e-003 1.43246877e-003 -9.97363590e-004
      1.78383430e-003 -2.64439033e-003 -9.97541356e-004 -4.05711448e-003
      2.94202683e-003 -5.64371422e-003 -4.73188097e-003 1.43246877e-003
      -9.97363590e-004 1.78383430e-003 -2.64439033e-003 -9.97541356e-004
      -4.05711448e-003 2.94202683e-003 -5.64371422e-003 -4.73188097e-003
      1.43246877e-003 -9.97363590e-004 1.78383430e-003 -2.64439033e-003
      -9.97541356e-004 -4.05711448e-003 2.94202683e-003 -5.64371422e-003
      -4.73188097e-003 1.43246877e-003 -9.97363590e-004 1.78383430e-003
      -2.64439033e-003 -9.97541356e-004 -4.05711448e-003 2.94202683e-003
      -5.64371422e-003 -4.73188097e-003 1.43246877e-003 -9.97363590e-004
      1.78383430e-003 -2.64439033e-003 -9.97541356e-004 -4.05711448e-003
      2.94202683e-003 -5.64371422e-003 -4.73188097e-003 1.43246877e-003
      -9.97363590e-004 1.78383430e-003 -2.64439033e-003 -9.97541356e-004
      -4.05711448e-003 2.94202683e-003 -5.64371422e-003 -4.73188097e-003
      1.43246877e-003 -9.97363590e-004 1.78383430e-003 -2.64439033e-003
      -9.97541356e-004 -4.05711448e-003 2.94202683e-003 -5.64371422e-003
      -4.73188097e-003 1.43246877e-003 -9.97363590e-004 1.78383430e-003
      -2.64439033e-003 -9.97541356e-004 -4.05711448e-003 2.94202683e-003
      -5.64371422e-003 -4.73188097e-003 1.43246877e-003 -9.97363590e-004
      1.78383430e-003 -2.64439033e-003 -9.97541356e-004 -4.05711448e-003
      2.94202683e-003 -5.64371422e-003 -4.73188097e-003 1.43246877e-003
      -9.97363590e-004 1.78383430e-003 -2.64439033e-003 -9.97541356e-004
      -4.05711448e-003 2.94202683e-003 -5.64371422e-003 -4.73188097e-003
      1.43246877e-003 -9.97363590e-004 1.78383430e-003 -2.64439033e-003
      -9.97541356e-004 -4.05711448e-003 2.94202683e-003 -5.64371422e-003
      -4.73188097e-003 1.43246877e-003 -9.97363590e-004 1.78383430e-003
      -2.64439033e-003 -9.97541356e-004 -4.05711448e-003 2.94202683e-003
      -5.64371422e-003 -4.73188097e-003 1.43246877e-003 -9.97363590e-004
      1.78383430e-003 -2.64439033e-003 -9.97541356e-004 -4.05711448e-003
      2.94202683e-003 -5.64371422e-003 -4.73188097e-003 1.43246877e-003
      -9.97363590e-004 1.78383430e-003 -2.64439033e-003 -9.97541356e-004
      -4.05711448e-003 2.94202683e-003 -5.64371422e-003 -4.73188097e-003
      1.43246877e-003 -9.97363590e-004 1.78383430e-003 -2.64439033e-003
      -9.97541356e-004 -4.05711448e-003 2.94202683e-003 -5.64371422e-003
      -4.73188097e-003 1.43246877e-003 -9.97363590e-004 1.78383430e-003
      -2.64439033e-003 -9.97541356e-004 -4.05711448e-003 2.94202683e-003
      -5.64371422e-003 -4.73188097e-003 1.43246877e-003 -9.97363590e-004
      1.78383430e-003 -2.64439033e-003 -9.97541356e-004 -4.05711448e-003
      2.94202683e-003 -5.64371422e-003 -4.73188097e-003 1.43246877e-003
      -9.97363590e-004 1.78383430e-003 -2.64439033e-003 -9.97541356e-004
      -4.05711448e-003 2.94202683e-003 -5.64371422e-003 -4.73188097e-003
      1.43246877e-003 -9.97363590e-004 1.78383430e-003 -2.64439033e-003
      -9.97541356e-004 -4.05711448e-003 2.94202683e-003 -5.64371422e-003
      -4.73188097e-003 1.43246877e-003 -9.97363590e-004 1.78383430e-003
      -2.64439033e-003 -9.97541356e-004 -4.05711448e-003 2.94202683e-003
      -5.64371422e-003 -4.73188097e-003 1.43246877e-003 -9.97363590e-004
      1.78383430e-003 -2.64439033e-003 -9.97541356e-004 -4.05711448e-003
      2.94202683e-003 -5.64371422e-003 -4.73188097e-003 1.43246877e-003
      -9.97363590e-004 1.78383430e-003 -2.64439033e-003 -9.97541356e-004
      -4.05711448e-003 2.94202683e-003 -5.64371422e-003 -4.73188097e-003
      1.43246877e-003 -9.97363590e-004 1.78383430e-003 -2.64439033e-003
      -9.97541356e-004 -4.05711448e-003 2.94202683e-003 -5.64371422e-003
      -4.73188097e-003 1.43246877e-003 -9.97363590e-004 1.78383430e-003
      -2.64439033e-003 -9.97541356e-004 -4.05711448e-003 2.94202683e-003
      -5.64371422e-003 -4.73188097e-003 1.43246877e-003 -9.97363590e-004
      1.78383430e-003 -2.64439033e-003 -9.97541356e-004 -4.05711448e-003
      2.94202683e-003 -5.64371422e-003 -4.73188097e-003 1.43246877e-003
      -9.97363590e-004 1.78383430e-003 -2.64439033e-003 -9.97541356e-004
      -4.05711448e-003 2.94202683e-003 -5.64371422e-003 -4.73188097e-003
      1.43246877e-003 -9.97363590e-004 1.78383430e-003 -2.64439033e-003
      -9.97541356e-004 -4.05711448e-003 2.94202683e-003 -5.64371422e-003
      -4.73188097e-003 1.43246877e-003 -9.97363590e-004 1.78383430e-003
      -2.64439033e-003 -9.97541356e-004 -4.05711448e-003 2.94202683e-003
      -5.64371422e-003 -4.73188097e-003 1.43246877e-003 -9.97363590e-004
      1.78383430e-003 -2.64439033e-003 -9.97541356e-004 -4.05711448e-003
      2.94202683e-003 -5.64371422e-003 -4.73188097e-003 1.43246877e-003
      -9.97363590e-004 1.78383430e-003 -2.64439033e-003 -9.97541356e-004
      -4.05711448e-003 2.94202683e-003 -5.64371422e-003 -4.73188097e-003
      1.43246877e-003 -9.97363590e-004 1.78383430e-003 -2.64439033e-003
      -9.97541356e-004 -4.05711448e-003 2.94202683e-003 -5.64371422e-003
      -4.73188097e-003 1.43246877e-003 -9.97363590e-004 1.78383430e-003
      -2.64439033e-003 -9.97541356e-004 -4.05711448e-003 2.94202683e-003
      -5.64371422e-003 -4.73188097e-003 1.43246877e-003 -9.97363590e-004
      1.78383430e-003 -2.64439033e-003 -9.97541356e-004 -4.05711448e-003
      2.94202683e-003 -5.64371422e-003 -4.73188097e-003 1.43246877e-003
      -9.97363590e-004 1.78383430e-003 -2.64439033e-003 -9.97541356e-004
      -4.05711448e-003 2.94202683e-003 -5.64371422e-003 -4.73188097e-003
      1.43246877e-003 -9.97363590e-004 1.78383430e-003 -2.64439033e-003
      -9.97541356e-004 -4.05711448e-003 2.94202683e-003 -5.64371422e-003
      -4.73188097e-003 1.43246877e-003 -9.97363590e-004 1.78383430e-003
      -2.64439033e-003 -9.97541356e-004 -4.05711448e-003 2.94202683e-003
      -5.64371422e-003 -4.73188097e-003 1.43246877e-003 -9.97363590e-004
      1.78383430e-003 -2.64439033e-003 -9.97541356e-004 -4.05711448e-003
      2.94202683e-003 -5.64371422e-003 -4.73188097e-003 1.43246877e-003
      -9.97363590e-004 1.78383430e-003 -2.64439033e-003 -9.97541356e-004
      -4.05711448e-003 2.94202683e-003 -5.64371422e-003 -4.73188097e-003
      1.43246877e-003 -9.97363590e-004 1.78383430e-003 -2.64439033e-003
      -9.97541356e-004 -4.05711448e-003 2.94202683e-003 -5.64371422e-003
      -4.73188097e-003 1.43246877e-003 -9.97363590e-004 1.78383430e-003
      -2.64439033e-003 -9.97541356e-004 -4.05711448e-003 2.94202683e-003
      -5.64371422e-003 -4.73188097e-003 1.43246877e-003 -9.97363590e-004
      1.78383430e-003 -2.64439033e-003 -9.97541356e-004 -4.05711448e-003
      2.94202683e-003 -5.64371422e-003 -4.73188097e-003 1.43246877e-003
      -9.97363590e-004 1.78383430e-003 -2.64439033e-003 -9.97541356e-004
      -4.05711448e-003 2.94202683e-003 -5.64371422e-003 -4.73188097e-003
      1.43246877e-003 -9.97363590e-004 1.78383430e-003 -2.64439033e-003
      -9.97541356e-004 -4.05711448e-003 2.94202683e-003 -5.64371422e-003
      -4.73188097e-003 1.43246877e-003 -9.97363590e-004 1.78383430e-003
      -2.64439033e-003 -9.97541356e-004 -4.05711448e-003 2.94202683e-003
      -5.64371422e-003 -4.73188097e-003 1.43246877e-003 -9.97363590e-004
      1.78383430e-003 -2.64439033e-003 -9.97541356e-004 -4.05711448e-003
      2.94202683e-003 -5.64371422e-003 -4.73188097e-003 1.43246877e-003
      -9.97363590e-004 1.78383430e-003 -2.64439033e-003 -9.97541356e-004
      -4.05711448e-003 2.94202683e-003 -5.64371422e-003 -4.73188097e-003
      1.43246877e-003 -9.97363590e-004 1.78383430e-003 -2.64439033e-003
      -9.97541356e-004 -4.05711448e-003 2.94202683e-003 -5.64371422e-003
      -4.73188097e-003 1.43246877e-003 -9.97363590e-004 1.78383430e-003
      -2.64439033e-003 -9.97541356e-004 -4.05711448e-003 2.94202683e-003
      -5.64371422e-003 -4.73188097e-003 1.43246877e-003 -9.97363590e-004
      1.78383430e-003 -2.64439033e-003 -9.97541356e-004 -4.05711448e-003
      2.94202683e-003 -5.64371422e-003 -4.73188097e-003 1.43246877e-003
      -9.97363590e-004 1.78383430e-003 -2.64439033e-003 -9.97541356e-004
      -4.05711448e-003 2.94202683e-003 -5.64371422e-003 -4.73188097e-003
      1.43246877e-003 -9.97363590e-004 1.78383430e-003 -2.64439033e-003
      -9.97541356e-004 -4.05711448e-003 2.94202683e-003 -5.64371422e-003
      -4.73188097e-003 1.43246877e-003 -9.97363590e-004 1.78383430e-003
      -2.64439033e-003 -9.97541356e-004 -4.05711448e-003 2.94202683e-003
      -5.64371422e-003 -4.73188097e-003 1.43246877e-003 -9.97363590e-004
      1.78383430e-003 -2.64439033e-003 -9.97541356e-004 -4.05711448e-003
      2.94202683e-003 -5.64371422e-003 -4.73188097e-003 1.43246877e-003
      -9.97363590e-004 1.78383430e-003 -2.64439033e-003 -9.97541356e-004
      -4.05711448e-003 2.94202683e-003 -5.64371422e-003 -4.73188097e-003
      1.43246877e-003 -9.97363590e-004 1.78383430e-003 -2.64439033e-003
      -9.97541356e-004 -4.05711448e-003 2.94202683e-003 -5.64371422e-003
      -4.73188097e-003 1.43246877e-003 -9.97363590e-004 1.78383430e-003
      -2.64439033e-003 -9.97541356e-004 -4.05711448e-003 2.94202683e-003
      -5.64371422e-003 -4.73188097e-003 1.43246877e-003 -9.97363590e-004
      1.78383430e-003 -2.64439033e-003 -9.97541356e-004 -4.05711448e-003
      2.94202683e-003 -5.64371422e-003 -4.73188097e-003 1.43246877e-003
      -9.97363590e-004 1.78383430e-003 -2.64439033e-003 -9.97541356e-004
      -4.05711448e-003 2.94202683e-003 -5.64371422e-003 -4.73188097e-003
      1.43246877e-003 -9.97363590e-004 1.78383430e-003 -2.64439033e-003
      -9.97541356e-004 -4.05711448e-003 2.94202683e-003 -5.64371422e-003
      -4.73188097e-003 1.43246877e-003 -9.97363590e-004 1.78383430e-003
      -2.64439033e-003 -9.97541356e-004 -4.05711448e-003 2.94202683e-003
      -5.64371422e-003 -4.73188097e-003 1.43246877e-003 -9.97363590e-004
      1.78383430e-003 -2.64439033e-003 -9.97541356e-004 -4.05711448e-003
      2.94202683e-003 -5.64371422e-003 -4.73188097e-003 1.43246877e-003
      -9.97363590e-004 1.78383430e-003 -2.64439033e-003 -9.97541356e-004
      -4.05711448e-003 2.94202683e-003 -5.64371422e-003 -4.73188097e-003
      1.43246877e-003 -9.97363590e-004 1.78383430e-003 -2.64439033e-003
      -9.97541356e-004 -4.05711448e-003 2.94202683e-003 -5.64371422e-003
      -4.73188097e-003 1.43246877e-003 -9.97363590e-004 1.78383430e-003
      -2.64439033e-003 -9.97541356e-004 -4.05711448e-003 2.94202683e-003
      -5.64371422e-003 -4.73188097e-003 1.43246877e-003 -9.97363590e-004
      1.78383430e-003 -2.64439033e-003 -9.97541356e-004 -4.05711448e-003
      2.94202683e-003 -5.64371422e-003 -4.73188097e-003 1.43246877e-003
      -9.97363590e-004 1.78383430e-003 -2.64439033e-003 -9.97541356e-004
      -4.05711448e-003 2.94202683e-003 -5.64371422e-003 -4.73188097e-003
