<?xml version="1.0"?>
<opencv_storage>
<opencv_ml_svm>
  <format>3</format>
  <svmType>C_SVC</svmType>
  <kernel>
    <type>LINEAR</type></kernel>
  <C>1.</C>
  <term_criteria><iterations>1000</iterations></term_criteria>
  <var_count>21060</var_count>
  <class_count>2</class_count>
  <class_labels type_id="opencv-matrix">
    <rows>2</rows>
    <cols>1</cols>
    <dt>i</dt>
    <data>
      0 1</data></class_labels>
  <sv_total>1</sv_total>
  <support_vectors>
    <_>
      -2.14112410e-003 2.93724705e-003 -5.03695058e-003 -4.93955193e-003
      1.70855958e-003 -9.40905767e-004 2.05489388e-003 -2.17863580e-005
      7.00252480e-004 -2.14112410e-003 2.93724705e-003 -5.03695058e-003
      -4.93955193e-003 1.70855958e-003 -9.40905767e-004 2.05489388e-003
      -2.17863580e-005 7.00252480e-004 -2.14112410e-003 2.93724705e-003
      -5.03695058e-003 -4.93955193e-003 1.70855958e-003 -9.40905767e-004
      2.05489388e-003 -2.17863580e-005 7.00252480e-004 -2.14112410e-003
      2.93724705e-003 -5.03695058e-003 -4.93955193e-003 1.70855958e-003
      -9.40905767e-004 2.05489388e-003 -2.17863580e-005 7.00252480e-004
      -2.14112410e-003 2.93724705e-003 -5.03695058e-003 -4.93955193e-003
      1.70855958e-003 -9.40905767e-004 2.05489388e-003 -2.17863580e-005
      7.00252480e-004 -2.14112410e-003 2.93724705e-003 -5.03695058e-003
      -4.93955193e-003 1.70855958e-003 -9.40905767e-004 2.05489388e-003
      -2.17863580e-005 7.00252480e-004 -2.14112410e-003 2.93724705e-003
      -5.03695058e-003 -4.93955193e-003 1.70855958e-003 -9.40905767e-004
      2.05489388e-003 -2.17863580e-005 7.00252480e-004 -2.14112410e-003
      2.93724705e-003 -5.03695058e-003 -4.93955193e-003 1.70855958e-003
      -9.40905767e-004 2.05489388e-003 -2.17863580e-005 7.00252480e-004
      -2.14112410e-003 2.93724705e-003 -5.03695058e-003 -4.93955193e-003
      1.70855958e-003 -9.40905767e-004 2.05489388e-003 -2.17863580e-005
      7.00252480e-004 -2.14112410e-003 2.93724705e-003 -5.03695058e-003
      -4.93955193e-003 1.70855958e-003 -9.40905767e-004 2.05489388e-003
      -2.17863580e-005 7.00252480e-004 -2.14112410e-003 2.93724705e-003
      -5.03695058e-003 -4.93955193e-003 1.70855958e-003 -9.40905767e-004
      2.05489388e-003 -2.17863580e-005 7.00252480e-004 -2.14112410e-003
      2.93724705e-003 -5.03695058e-003 -4.93955193e-003 1.70855958e-003
      -9.40905767e-004 2.05489388e-003 -2.17863580e-005 7.00252480e-004
      -2.14112410e-003 2.93724705e-003 -5.03695058e-003 -4.93955193e-003
      1.70855958e-003 -9.40905767e-004 2.05489388e-003 -2.17863580e-005
      7.00252480e-004 -2.14112410e-003 2.93724705e-003 -5.03695058e-003
      -4.93955193e-003 1.70855958e-003 -9.40905767e-004 2.05489388e-003
      -2.17863580e-005 7.00252480e-004 -2.14112410e-003 2.93724705e-003
      -5.03695058e-003 -4.93955193e-003 1.70855958e-003 -9.40905767e-004
      2.05489388e-003 -2.17863580e-005 7.00252480e-004 -2.14112410e-003
      2.93724705e-003 -5.03695058e-003 -4.93955193e-003 1.70855958e-003
      -9.40905767e-004 2.05489388e-003 -2.17863580e-005 7.00252480e-004
      -2.14112410e-003 2.93724705e-003 -5.03695058e-003 -4.93955193e-003
      1.70855958e-003 -9.40905767e-004 2.05489388e-003 -2.17863580e-005
      7.00252480e-004 -2.14112410e-003 2.93724705e-003 -5.03695058e-003
      -4.93955193e-003 1.70855958e-003 -9.40905767e-004 2.05489388e-003
      -2.17863580e-005 7.00252480e-004 -2.14112410e-003 2.93724705e-003
      -5.03695058e-003 -4.93955193e-003 1.70855958e-003 -9.40905767e-004
      2.05489388e-003 -2.17863580e-005 7.00252480e-004 -2.14112410e-003
      2.93724705e-003 -5.03695058e-003 -4.93955193e-003 1.70855958e-003
      -9.40905767e-004 2.05489388e-003 -2.17863580e-005 7.00252480e-004
      -2.14112410e-003 2.93724705e-003 -5.03695058e-003 -4.93955193e-003
      1.70855958e-003 -9.40905767e-004 2.05489388e-003 -2.17863580e-005
      7.00252480e-004 -2.14112410e-003 2.93724705e-003 -5.03695058e-003
      -4.93955193e-003 1.70855958e-003 -9.40905767e-004 2.05489388e-003
      -2.17863580e-005 7.00252480e-004 -2.14112410e-003 2.93724705e-003
      -5.03695058e-003 -4.93955193e-003 1.70855958e-003 -9.40905767e-004
      2.05489388e-003 -2.17863580e-005 7.00252480e-004 -2.14112410e-003
      2.93724705e-003 -5.03695058e-003 -4.93955193e-003 1.70855958e-003
      -9.40905767e-004 2.05489388e-003 -2.17863580e-005 7.00252480e-004
      -2.14112410e-003 2.93724705e-003 -5.03695058e-003 -4.93955193e-003
      1.70855958e-003 -9.40905767e-004 2.05489388e-003 -2.17863580e-005
      7.00252480e-004 -2.14112410e-003 2.93724705e-003 -5.03695058e-003
      -4.93955193e-003 1.70855958e-003 -9.40905767e-004 2.05489388e-003
      -2.17863580e-005 7.00252480e-004 -2.14112410e-003 2.93724705e-003
      -5.03695058e-003 -4.93955193e-003 1.70855958e-003 -9.40905767e-004
      2.05489388e-003 -2.17863580e-005 7.00252480e-004 -2.14112410e-003
      2.93724705e-003 -5.03695058e-003 -4.93955193e-003 1.70855958e-003
      -9.40905767e-004 2.05489388e-003 -2.17863580e-005 7.00252480e-004
      -2.14112410e-003 2.93724705e-003 -5.03695058e-003 -4.93955193e-003
      1.70855958e-003 -9.40905767e-004 2.05489388e-003 -2.17863580e-005
      7.00252480e-004 -2.14112410e-003 2.93724705e-003 -5.03695058e-003
      -4.93955193e-003 1.70855958e-003 -9.40905767e-004 2.05489388e-003
      -2.17863580e-005 7.00252480e-004 -2.14112410e-003 2.93724705e-003
      -5.03695058e-003 -4.93955193e-003 1.70855958e-003 -9.40905767e-004
      2.05489388e-003 -2.17863580e-005 7.00252480e-004 -2.14112410e-003
      2.93724705e-003 -5.03695058e-003 -4.93955193e-003 1.70855958e-003
      -9.40905767e-004 2.05489388e-003 -2.17863580e-005 7.00252480e-004
      -2.14112410e-003 2.93724705e-003 -5.03695058e-003 -4.93955193e-003
      1.70855958e-003 -9.40905767e-004 2.05489388e-003 -2.17863580e-005
      7.00252480e-004 -2.14112410e-003 2.93724705e-003 -5.03695058e-003
      -4.93955193e-003 1.70855958e-003 -9.40905767e-004 2.05489388e-003
      -2.17863580e-005 7.00252480e-004 -2.14112410e-003 2.93724705e-003
      -5.03695058e-003 -4.93955193e-003 1.70855958e-003 -9.40905767e-004
      2.05489388e-003 -2.17863580e-005 7.00252480e-004 -2.14112410e-003
      2.93724705e-003 -5.03695058e-003 -4.93955193e-003 1.70855958e-003
      -9.40905767e-004 2.05489388e-003 -2.17863580e-005 7.00252480e-004
      -2.14112410e-003 2.93724705e-003 -5.03695058e-003 -4.93955193e-003
      1.70855958e-003 -9.40905767e-004 2.05489388e-003 -2.17863580e-005
      7.00252480e-004 -2.14112410e-003 2.93724705e-003 -5.03695058e-003
      -4.93955193e-003 1.70855958e-003 -9.40905767e-004 2.05489388e-003
      -2.17863580e-005 7.00252480e-004 -2.14112410e-003 2.93724705e-003
      -5.03695058e-003 -4.93955193e-003 1.70855958e-003 -9.40905767e-004
      2.05489388e-003 -2.17863580e-005 7.00252480e-004 -2.14112410e-003
      2.93724705e-003 -5.03695058e-003 -4.93955193e-003 1.70855958e-003
      -9.40905767e-004 2.05489388e-003 -2.17863580e-005 7.00252480e-004
      -2.14112410e-003 2.93724705e-003 -5.03695058e-003 -4.93955193e-003
      1.70855958e-003 -9.40905767e-004 2.05489388e-003 -2.17863580e-005
      7.00252480e-004 -2.14112410e-003 2.93724705e-003 -5.03695058e-003
      -4.93955193e-003 1.70855958e-003 -9.40905767e-004 2.05489388e-003
      -2.17863580e-005 7.00252480e-004 -2.14112410e-003 2.93724705e-003
      -5.03695058e-003 -4.93955193e-003 1.70855958e-003 -9.40905767e-004
      2.05489388e-003 -2.17863580e-005 7.00252480e-004 -2.14112410e-003
      2.93724705e-003 -5.03695058e-003 -4.93955193e-003 1.70855958e-003
      -9.40905767e-004 2.05489388e-003 -2.17863580e-005 7.00252480e-004
      -2.14112410e-003 2.93724705e-003 -5.03695058e-003 -4.93955193e-003
      1.70855958e-003 -9.40905767e-004 2.05489388e-003 -2.17863580e-005
      7.00252480e-004 -2.14112410e-003 2.93724705e-003 -5.03695058e-003
      -4.93955193e-003 1.70855958e-003 -9.40905767e-004 2.05489388e-003
      -2.17863580e-005 7.00252480e-004 -2.14112410e-003 2.93724705e-003
      -5.03695058e-003 -4.93955193e-003 1.70855958e-003 -9.40905767e-004
      2.05489388e-003 -2.17863580e-005 7.00252480e-004 -2.14112410e-003
      2.93724705e-003 -5.03695058e-003 -4.93955193e-003 1.70855958e-003
      -9.40905767e-004 2.05489388e-003 -2.17863580e-005 7.00252480e-004
      -2.14112410e-003 2.93724705e-003 -5.03695058e-003 -4.93955193e-003
      1.70855958e-003 -9.40905767e-004 2.05489388e-003 -2.17863580e-005
      7.00252480e-004 -2.14112410e-003 2.93724705e-003 -5.03695058e-003
      -4.93955193e-003 1.70855958e-003 -9.40905767e-004 2.05489388e-003
      -2.17863580e-005 7.00252480e-004 -2.14112410e-003 2.93724705e-003
      -5.03695058e-003 -4.93955193e-003 1.70855958e-003 -9.40905767e-004
      2.05489388e-003 -2.17863580e-005 7.00252480e-004 -2.14112410e-003
      2.93724705e-003 -5.03695058e-003 -4.93955193e-003 1.70855958e-003
      -9.40905767e-004 2.05489388e-003 -2.17863580e-005 7.00252480e-004
      -2.14112410e-003 2.93724705e-003 -5.03695058e-003 -4.93955193e-003
      1.70855958e-003 -9.40905767e-004 2.05489388e-003 -2.17863580e-005
      7.00252480e-004 -2.14112410e-003 2.93724705e-003 -5.03695058e-003
      -4.93955193e-003 1.70855958e-003 -9.40905767e-004 2.05489388e-003
      -2.17863580e-005 7.00252480e-004 -2.14112410e-003 2.93724705e-003
      -5.03695058e-003 -4.93955193e-003 1.70855958e-003 -9.40905767e-004
      2.05489388e-003 -2.17863580e-005 7.00252480e-004 -2.14112410e-003
      2.93724705e-003 -5.03695058e-003 -4.93955193e-003 1.70855958e-003
      -9.40905767e-004 2.05489388e-003 -2.17863580e-005 7.00252480e-004
      -2.14112410e-003 2.93724705e-003 -5.03695058e-003 -4.93955193e-003
      1.70855958e-003 -9.40905767e-004 2.05489388e-003 -2.17863580e-005
      7.00252480e-004 -2.14112410e-003 2.93724705e-003 -5.03695058e-003
      -4.93955193e-003 1.70855958e-003 -9.40905767e-004 2.05489388e-003
      -2.17863580e-005 7.00252480e-004 -2.14112410e-003 2.93724705e-003
      -5.03695058e-003 -4.93955193e-003 1.70855958e-003 -9.40905767e-004
      2.05489388e-003 -2.17863580e-005 7.00252480e-004 -2.14112410e-003
      2.93724705e-003 -5.03695058e-003 -4.93955193e-003 1.70855958e-003
      -9.40905767e-004 2.05489388e-003 -2.17863580e-005 7.00252480e-004
      -2.14112410e-003 2.93724705e-003 -5.03695058e-003 -4.93955193e-003
      1.70855958e-003 -9.40905767e-004 2.05489388e-003 -2.17863580e-005
      7.00252480e-004 -2.14112410e-003 2.93724705e-003 -5.03695058e-003
      -4.93955193e-003 1.70855958e-003 -9.40905767e-004 2.05489388e-003
      -2.17863580e-005 7.00252480e-004 -2.14112410e-003 2.93724705e-003
      -5.03695058e-003 -4.93955193e-003 1.70855958e-003 -9.40905767e-004
      2.05489388e-003 -2.17863580e-005 7.00252480e-004 -2.14112410e-003
      2.93724705e-003 -5.03695058e-003 -4.93955193e-003 1.70855958e-003
      -9.40905767e-004 2.05489388e-003 -2.17863580e-005 7.00252480e-004
      -2.14112410e-003 2.93724705e-003 -5.03695058e-003 -4.93955193e-003
      1.70855958e-003 -9.40905767e-004 2.05489388e-003 -2.17863580e-005
      7.00252480e-004 -2.14112410e-003 2.93724705e-003 -5.03695058e-003
      -4.93955193e-003 1.70855958e-003 -9.40905767e-004 2.05489388e-003
      -2.17863580e-005 7.00252480e-004 -2.14112410e-003 2.93724705e-003
      -5.03695058e-003 -4.93955193e-003 1.70855958e-003 -9.40905767e-004
      2.05489388e-003 -2.17863580e-005 7.00252480e-004 -2.14112410e-003
      2.93724705e-003 -5.03695058e-003 -4.93955193e-003 1.70855958e-003
      -9.40905767e-004 2.05489388e-003 -2.17863580e-005 7.00252480e-004
      -2.14112410e-003 2.93724705e-003 -5.03695058e-003 -4.93955193e-003
      1.70855958e-003 -9.40905767e-004 2.05489388e-003 -2.17863580e-005
      7.00252480e-004 -2.14112410e-003 2.93724705e-003 -5.03695058e-003
      -4.93955193e-003 1.70855958e-003 -9.40905767e-004 2.05489388e-003
      -2.17863580e-005 7.00252480e-004 -2.14112410e-003 2.93724705e-003
      -5.03695058e-003 -4.93955193e-003 1.70855958e-003 -9.40905767e-004
      2.05489388e-003 -2.17863580e-005 7.00252480e-004 -2.14112410e-003
      2.93724705e-003 -5.03695058e-003 -4.93955193e-003 1.70855958e-003
      -9.40905767e-004 2.05489388e-003 -2.17863580e-005 7.00252480e-004
      -2.14112410e-003 2.93724705e-003 -5.03695058e-003 -4.93955193e-003
      1.70855958e-003 -9.40905767e-004 2.05489388e-003 -2.17863580e-005
      7.00252480e-004 -2.14112410e-003 2.93724705e-003 -5.03695058e-003
      -4.93955193e-003 1.70855958e-003 -9.40905767e-004 2.05489388e-003
      -2.17863580e-005 7.00252480e-004 -2.14112410e-003 2.93724705e-003
      -5.03695058e-003 -4.93955193e-003 1.70855958e-003 -9.40905767e-004
      2.05489388e-003 -2.17863580e-005 7.00252480e-004 -2.14112410e-003
      2.93724705e-003 -5.03695058e-003 -4.93955193e-003 1.70855958e-003
      -9.40905767e-004 2.05489388e-003 -2.17863580e-005 7.00252480e-004
      -2.14112410e-003 2.93724705e-003 -5.03695058e-003 -4.93955193e-003
      1.70855958e-003 -9.40905767e-004 2.05489388e-003 -2.17863580e-005
      7.00252480e-004 -2.14112410e-003 2.93724705e-003 -5.03695058e-003
      -4.93955193e-003 1.70855958e-003 -9.40905767e-004 2.05489388e-003
      -2.17863580e-005 7.00252480e-004 -2.14112410e-003 2.93724705e-003
      -5.03695058e-003 -4.93955193e-003 1.70855958e-003 -9.40905767e-004
      2.05489388e-003 -2.17863580e-005 7.00252480e-004 -2.14112410e-003
      2.93724705e-003 -5.03695058e-003 -4.93955193e-003 1.70855958e-003
      -9.40905767e-004 2.05489388e-003 -2.17863580e-005 7.00252480e-004
      -2.14112410e-003 2.93724705e-003 -5.03695058e-003 -4.93955193e-003
      1.70855958e-003 -9.40905767e-004 2.05489388e-003 -2.17863580e-005
      7.00252480e-004 -2.14112410e-003 2.93724705e-003 -5.03695058e-003
      -4.93955193e-003 1.70855958e-003 -9.40905767e-004 2.05489388e-003
      -2.17863580e-005 7.00252480e-004 -2.14112410e-003 2.93724705e-003
      -5.03695058e-003 -4.93955193e-003 1.70855958e-003 -9.40905767e-004
      2.05489388e-003 -2.17863580e-005 7.00252480e-004 -2.14112410e-003
      2.93724705e-003 -5.03695058e-003 -4.93955193e-003 1.70855958e-003
      -9.40905767e-004 2.05489388e-003 -2.17863580e-005 7.00252480e-004
      -2.14112410e-003 2.93724705e-003 -5.03695058e-003 -4.93955193e-003
      1.70855958e-003 -9.40905767e-004 2.05489388e-003 -2.17863580e-005
      7.00252480e-004 -2.14112410e-003 2.93724705e-003 -5.03695058e-003
      -4.93955193e-003 1.70855958e-003 -9.40905767e-004 2.05489388e-003
      -2.17863580e-005 7.00252480e-004 -2.14112410e-003 2.93724705e-003
      -5.03695058e-003 -4.93955193e-003 1.70855958e-003 -9.40905767e-004
      2.05489388e-003 -2.17863580e-005 7.00252480e-004 -2.14112410e-003
      2.93724705e-003 -5.03695058e-003 -4.93955193e-003 1.70855958e-003
      -9.40905767e-004 2.05489388e-003 -2.17863580e-005 7.00252480e-004
      -2.14112410e-003 2.93724705e-003 -5.03695058e-003 -4.93955193e-003
      1.70855958e-003 -9.40905767e-004 2.05489388e-003 -2.17863580e-005
      7.00252480e-004 -2.14112410e-003 2.93724705e-003 -5.03695058e-003
      -4.93955193e-003 1.70855958e-003 -9.40905767e-004 2.05489388e-003
      -2.17863580e-005 7.00252480e-004 -2.14112410e-003 2.93724705e-003
      -5.03695058e-003 -4.93955193e-003 1.70855958e-003 -9.40905767e-004
      2.05489388e-003 -2.17863580e-005 7.00252480e-004 -2.14112410e-003
      2.93724705e-003 -5.03695058e-003 -4.93955193e-003 1.70855958e-003
      -9.40905767e-004 2.05489388e-003 -2.17863580e-005 7.00252480e-004
      -2.14112410e-003 2.93724705e-003 -5.03695058e-003 -4.93955193e-003
      1.70855958e-003 -9.40905767e-004 2.05489388e-003 -2.17863580e-005
      7.00252480e-004 -2.14112410e-003 2.93724705e-003 -5.03695058e-003
      -4.93955193e-003 1.70855958e-003 -9.40905767e-004 2.05489388e-003
      -2.17863580e-005 7.00252480e-004 -2.14112410e-003 2.93724705e-003
      -5.03695058e-003 -4.93955193e-003 1.70855958e-003 -9.40905767e-004
      2.05489388e-003 -2.17863580e-005 7.00252480e-004 -2.14112410e-003
      2.93724705e-003 -5.03695058e-003 -4.93955193e-003 1.70855958e-003
      -9.40905767e-004 2.05489388e-003 -2.17863580e-005 7.00252480e-004
      -2.14112410e-003 2.93724705e-003 -5.03695058e-003 -4.93955193e-003
      1.70855958e-003 -9.40905767e-004 2.05489388e-003 -2.17863580e-005
      7.00252480e-004 -2.14112410e-003 2.93724705e-003 -5.03695058e-003
      -4.93955193e-003 1.70855958e-003 -9.40905767e-004 2.05489388e-003
      -2.17863580e-005 7.00252480e-004 -2.14112410e-003 2.93724705e-003
      -5.03695058e-003 -4.93955193e-003 1.70855958e-003 -9.40905767e-004
      2.05489388e-003 -2.17863580e-005 7.00252480e-004 -2.14112410e-003
      2.93724705e-003 -5.03695058e-003 -4.93955193e-003 1.70855958e-003
      -9.40905767e-004 2.05489388e-003 -2.17863580e-005 7.00252480e-004
      -2.14112410e-003 2.93724705e-003 -5.03695058e-003 -4.93955193e-003
      1.70855958e-003 -9.40905767e-004 2.05489388e-003 -2.17863580e-005
      7.00252480e-004 -2.14112410e-003 2.93724705e-003 -5.03695058e-003
      -4.93955193e-003 1.70855958e-003 -9.40905767e-004 2.05489388e-003
      -2.17863580e-005 7.00252480e-004 -2.14112410e-003 2.93724705e-003
      -5.03695058e-003 -4.93955193e-003 1.70855958e-003 -9.40905767e-004
      2.05489388e-003 -2.17863580e-005 7.00252480e-004 -2.14112410e-003
      2.93724705e-003 -5.03695058e-003 -4.93955193e-003 1.70855958e-003
      -9.40905767e-004 2.05489388e-003 -2.17863580e-005 7.00252480e-004
      -2.14112410e-003 2.93724705e-003 -5.03695058e-003 -4.93955193e-003
      1.70855958e-003 -9.40905767e-004 2.05489388e-003 -2.17863580e-005
      7.00252480e-004 -2.14112410e-003 2.93724705e-003 -5.03695058e-003
      -4.93955193e-003 1.70855958e-003 -9.40905767e-004 2.05489388e-003
      -2.17863580e-005 7.00252480e-004 -2.14112410e-003 2.93724705e-003
      -5.03695058e-003 -4.93955193e-003 1.70855958e-003 -9.40905767e-004
      2.05489388e-003 -2.17863580e-005 7.00252480e-004 -2.14112410e-003
      2.93724705e-003 -5.03695058e-003 -4.93955193e-003 1.70855958e-003
      -9.40905767e-004 2.05489388e-003 -2.17863580e-005 7.00252480e-004
      -2.14112410e-003 2.93724705e-003 -5.03695058e-003 -4.93955193e-003
      1.70855958e-003 -9.40905767e-004 2.05489388e-003 -2.17863580e-005
      7.00252480e-004 -2.14112410e-003 2.93724705e-003 -5.03695058e-003
      -4.93955193e-003 1.70855958e-003 -9.40905767e-004 2.05489388e-003
      -2.17863580e-005 7.00252480e-004 -2.14112410e-003 2.93724705e-003
      -5.03695058e-003 -4.93955193e-003 1.70855958e-003 -9.40905767e-004
      2.05489388e-003 -2.17863580e-005 7.00252480e-004 -2.14112410e-003
      2.93724705e-003 -5.03695058e-003 -4.93955193e-003 1.70855958e-003
      -9.40905767e-004 2.05489388e-003 -2.17863580e-005 7.00252480e-004
      -2.14112410e-003 2.93724705e-003 -5.03695058e-003 -4.93955193e-003
      1.70855958e-003 -9.40905767e-004 2.05489388e-003 -2.17863580e-005
      7.00252480e-004 -2.14112410e-003 2.93724705e-003 -5.03695058e-003
      -4.93955193e-003 1.70855958e-003 -9.40905767e-004 2.05489388e-003
      -2.17863580e-005 7.00252480e-004 -2.14112410e-003 2.93724705e-003
      -5.03695058e-003 -4.93955193e-003 1.70855958e-003 -9.40905767e-004
      2.05489388e-003 -2.17863580e-005 7.00252480e-004 -2.14112410e-003
      2.93724705e-003 -5.03695058e-003 -4.93955193e-003 1.70855958e-003
      -9.40905767e-004 2.05489388e-003 -2.17863580e-005 7.00252480e-004
      -2.14112410e-003 2.93724705e-003 -5.03695058e-003 -4.93955193e-003
      1.70855958e-003 -9.40905767e-004 2.05489388e-003 -2.17863580e-005
      7.00252480e-004 -2.14112410e-003 2.93724705e-003 -5.03695058e-003
      -4.93955193e-003 1.70855958e-003 -9.40905767e-004 2.05489388e-003
      -2.17863580e-005 7.00252480e-004 -2.14112410e-003 2.93724705e-003
      -5.03695058e-003 -4.93955193e-003 1.70855958e-003 -9.40905767e-004
      2.05489388e-003 -2.17863580e-005 7.00252480e-004 -2.14112410e-003
      2.93724705e-003 -5.03695058e-003 -4.93955193e-003 1.70855958e-003
      -9.40905767e-004 2.05489388e-003 -2.17863580e-005 7.00252480e-004
      -2.14112410e-003 2.93724705e-003 -5.03695058e-003 -4.93955193e-003
      1.70855958e-003 -9.40905767e-004 2.05489388e-003 -2.17863580e-005
      7.00252480e-004 -2.14112410e-003 2.93724705e-003 -5.03695058e-003
      -4.93955193e-003 1.70855958e-003 -9.40905767e-004 2.05489388e-003
      -2.17863580e-005 7.00252480e-004 -2.14112410e-003 2.93724705e-003
      -5.03695058e-003 -4.93955193e-003 1.70855958e-003 -9.40905767e-004
      2.05489388e-003 -2.17863580e-005 7.00252480e-004 -2.14112410e-003
      2.93724705e-003 -5.03695058e-003 -4.93955193e-003 1.70855958e-003
      -9.40905767e-004 2.05489388e-003 -2.17863580e-005 7.00252480e-004
      -2.14112410e-003 2.93724705e-003 -5.03695058e-003 -4.93955193e-003
      1.70855958e-003 -9.40905767e-004 2.05489388e-003 -2.17863580e-005
      7.00252480e-004 -2.14112410e-003 2.93724705e-003 -5.03695058e-003
      -4.93955193e-003 1.70855958e-003 -9.40905767e-004 2.05489388e-003
      -2.17863580e-005 7.00252480e-004 -2.14112410e-003 2.93724705e-003
      -5.03695058e-003 -4.93955193e-003 1.70855958e-003 -9.40905767e-004
      2.05489388e-003 -2.17863580e-005 7.00252480e-004 -2.14112410e-003
      2.93724705e-003 -5.03695058e-003 -4.93955193e-003 1.70855958e-003
      -9.40905767e-004 2.05489388e-003 -2.17863580e-005 7.00252480e-004
      -2.14112410e-003 2.93724705e-003 -5.03695058e-003 -4.93955193e-003
      1.70855958e-003 -9.40905767e-004 2.05489388e-003 -2.17863580e-005
      7.00252480e-004 -2.14112410e-003 2.93724705e-003 -5.03695058e-003
      -4.93955193e-003 1.70855958e-003 -9.40905767e-004 2.05489388e-003
      -2.17863580e-005 7.00252480e-004 -2.14112410e-003 2.93724705e-003
      -5.03695058e-003 -4.93955193e-003 1.70855958e-003 -9.40905767e-004
      2.05489388e-003 -2.17863580e-005 7.00252480e-004 -2.14112410e-003
      2.93724705e-003 -5.03695058e-003 -4.93955193e-003 1.70855958e-003
      -9.40905767e-004 2.05489388e-003 -2.17863580e-005 7.00252480e-004
      -2.14112410e-003 2.93724705e-003 -5.03695058e-003 -4.93955193e-003
      1.70855958e-003 -9.40905767e-004 2.05489388e-003 -2.17863580e-005
      7.00252480e-004 -2.14112410e-003 2.93724705e-003 -5.03695058e-003
      -4.93955193e-003 1.70855958e-003 -9.40905767e-004 2.05489388e-003
      -2.17863580e-005 7.00252480e-004 -2.14112410e-003 2.93724705e-003
      -5.03695058e-003 -4.93955193e-003 1.70855958e-003 -9.40905767e-004
      2.05489388e-003 -2.17863580e-005 7.00252480e-004 -2.14112410e-003
      2.93724705e-003 -5.03695058e-003 -4.93955193e-003 1.70855958e-003
      -9.40905767e-004 2.05489388e-003 -2.17863580e-005 7.00252480e-004
      -2.14112410e-003 2.93724705e-003 -5.03695058e-003 -4.93955193e-003
      1.70855958e-003 -9.40905767e-004 2.05489388e-003 -2.17863580e-005
      7.00252480e-004 -2.14112410e-003 2.93724705e-003 -5.03695058e-003
      -4.93955193e-003 1.70855958e-003 -9.40905767e-004 2.05489388e-003
      -2.17863580e-005 7.00252480e-004 -2.14112410e-003 2.93724705e-003
      -5.03695058e-003 -4.93955193e-003 1.70855958e-003 -9.40905767e-004
      2.05489388e-003 -2.17863580e-005 7.00252480e-004 -2.14112410e-003
      2.93724705e-003 -5.03695058e-003 -4.93955193e-003 1.70855958e-003
      -9.40905767e-004 2.05489388e-003 -2.17863580e-005 7.00252480e-004
      -2.14112410e-003 2.93724705e-003 -5.03695058e-003 -4.93955193e-003
      1.70855958e-003 -9.40905767e-004 2.05489388e-003 -2.17863580e-005
      7.00252480e-004 -2.14112410e-003 2.93724705e-003 -5.03695058e-003
      -4.93955193e-003 1.70855958e-003 -9.40905767e-004 2.05489388e-003
      -2.17863580e-005 7.00252480e-004 -2.14112410e-003 2.93724705e-003
      -5.03695058e-003 -4.93955193e-003 1.70855958e-003 -9.40905767e-004
      2.05489388e-003 -2.17863580e-005 7.00252480e-004 -2.14112410e-003
      2.93724705e-003 -5.03695058e-003 -4.93955193e-003 1.70855958e-003
      -9.40905767e-004 2.05489388e-003 -2.17863580e-005 7.00252480e-004
      -2.14112410e-003 2.93724705e-003 -5.03695058e-003 -4.93955193e-003
      1.70855958e-003 -9.40905767e-004 2.05489388e-003 -2.17863580e-005
      7.00252480e-004 -2.14112410e-003 2.93724705e-003 -5.03695058e-003
      -4.93955193e-003 1.70855958e-003 -9.40905767e-004 2.05489388e-003
      -2.17863580e-005 7.00252480e-004 -2.14112410e-003 2.93724705e-003
      -5.03695058e-003 -4.93955193e-003 1.70855958e-003 -9.40905767e-004
      2.05489388e-003 -2.17863580e-005 7.00252480e-004 -2.14112410e-003
      2.93724705e-003 -5.03695058e-003 -4.93955193e-003 1.70855958e-003
      -9.40905767e-004 2.05489388e-003 -2.17863580e-005 7.00252480e-004
      -2.14112410e-003 2.93724705e-003 -5.03695058e-003 -4.93955193e-003
      1.70855958e-003 -9.40905767e-004 2.05489388e-003 -2.17863580e-005
      7.00252480e-004 -2.14112410e-003 2.93724705e-003 -5.03695058e-003
      -4.93955193e-003 1.70855958e-003 -9.40905767e-004 2.05489388e-003
      -2.17863580e-005 7.00252480e-004 -2.14112410e-003 2.93724705e-003
      -5.03695058e-003 -4.93955193e-003 1.70855958e-003 -9.40905767e-004
      2.05489388e-003 -2.17863580e-005 7.00252480e-004 -2.14112410e-003
      2.93724705e-003 -5.03695058e-003 -4.93955193e-003 1.70855958e-003
      -9.40905767e-004 2.05489388e-003 -2.17863580e-005 7.00252480e-004
      -2.14112410e-003 2.93724705e-003 -5.03695058e-003 -4.93955193e-003
      1.70855958e-003 -9.40905767e-004 2.05489388e-003 -2.17863580e-005
      7.00252480e-004 -2.14112410e-003 2.93724705e-003 -5.03695058e-003
      -4.93955193e-003 1.70855958e-003 -9.40905767e-004 2.05489388e-003
      -2.17863580e-005 7.00252480e-004 -2.14112410e-003 2.93724705e-003
      -5.03695058e-003 -4.93955193e-003 1.70855958e-003 -9.40905767e-004
      2.05489388e-003 -2.17863580e-005 7.00252480e-004 -2.14112410e-003
      2.93724705e-003 -5.03695058e-003 -4.93955193e-003 1.70855958e-003
      -9.40905767e-004 2.05489388e-003 -2.17863580e-005 7.00252480e-004
      -2.14112410e-003 2.93724705e-003 -5.03695058e-003 -4.93955193e-003
      1.70855958e-003 -9.40905767e-004 2.05489388e-003 -2.17863580e-005
      7.00252480e-004 -2.14112410e-003 2.93724705e-003 -5.03695058e-003
      -4.93955193e-003 1.70855958e-003 -9.40905767e-004 2.05489388e-003
      -2.17863580e-005 7.00252480e-004 -2.14112410e-003 2.93724705e-003
      -5.03695058e-003 -4.93955193e-003 1.70855958e-003 -9.40905767e-004
      2.05489388e-003 -2.17863580e-005 7.00252480e-004 -2.14112410e-003
      2.93724705e-003 -5.03695058e-003 -4.93955193e-003 1.70855958e-003
      -9.40905767e-004 2.05489388e-003 -2.17863580e-005 7.00252480e-004
      -2.14112410e-003 2.93724705e-003 -5.03695058e-003 -4.93955193e-003
      1.70855958e-003 -9.40905767e-004 2.05489388e-003 -2.17863580e-005
      7.00252480e-004 -2.14112410e-003 2.93724705e-003 -5.03695058e-003
      -4.93955193e-003 1.70855958e-003 -9.40905767e-004 2.05489388e-003
      -2.17863580e-005 7.00252480e-004 -2.14112410e-003 2.93724705e-003
      -5.03695058e-003 -4.93955193e-003 1.70855958e-003 -9.40905767e-004
      2.05489388e-003 -2.17863580e-005 7.00252480e-004 -2.14112410e-003
      2.93724705e-003 -5.03695058e-003 -4.93955193e-003 1.70855958e-003
      -9.40905767e-004 2.05489388e-003 -2.17863580e-005 7.00252480e-004
      -2.14112410e-003 2.93724705e-003 -5.03695058e-003 -4.93955193e-003
      1.70855958e-003 -9.40905767e-004 2.05489388e-003 -2.17863580e-005
      7.00252480e-004 -2.14112410e-003 2.93724705e-003 -5.03695058e-003
      -4.93955193e-003 1.70855958e-003 -9.40905767e-004 2.05489388e-003
      -2.17863580e-005 7.00252480e-004 -2.14112410e-003 2.93724705e-003
      -5.03695058e-003 -4.93955193e-003 1.70855958e-003 -9.40905767e-004
      2.05489388e-003 -2.17863580e-005 7.00252480e-004 -2.14112410e-003
      2.93724705e-003 -5.03695058e-003 -4.93955193e-003 1.70855958e-003
      -9.40905767e-004 2.05489388e-003 -2.17863580e-005 7.00252480e-004
      -2.14112410e-003 2.93724705e-003 -5.03695058e-003 -4.93955193e-003
      1.70855958e-003 -9.40905767e-004 2.05489388e-003 -2.17863580e-005
      7.00252480e-004 -2.14112410e-003 2.93724705e-003 -5.03695058e-003
      -4.93955193e-003 1.70855958e-003 -9.40905767e-004 2.05489388e-003
      -2.17863580e-005 7.00252480e-004 -2.14112410e-003 2.93724705e-003
      -5.03695058e-003 -4.93955193e-003 1.70855958e-003 -9.40905767e-004
      2.05489388e-003 -2.17863580e-005 7.00252480e-004 -2.14112410e-003
      2.93724705e-003 -5.03695058e-003 -4.93955193e-003 1.70855958e-003
      -9.40905767e-004 2.05489388e-003 -2.17863580e-005 7.00252480e-004
      -2.14112410e-003 2.93724705e-003 -5.03695058e-003 -4.93955193e-003
      1.70855958e-003 -9.40905767e-004 2.05489388e-003 -2.17863580e-005
      7.00252480e-004 -2.14112410e-003 2.93724705e-003 -5.03695058e-003
      -4.93955193e-003 1.70855958e-003 -9.40905767e-004 2.05489388e-003
      -2.17863580e-005 7.00252480e-004 -2.14112410e-003 2.93724705e-003
      -5.03695058e-003 -4.93955193e-003 1.70855958e-003 -9.40905767e-004
      2.05489388e-003 -2.17863580e-005 7.00252480e-004 -2.14112410e-003
      2.93724705e-003 -5.03695058e-003 -4.93955193e-003 1.70855958e-003
      -9.40905767e-004 2.05489388e-003 -2.17863580e-005 7.00252480e-004
      -2.14112410e-003 2.93724705e-003 -5.03695058e-003 -4.93955193e-003
      1.70855958e-003 -9.40905767e-004 2.05489388e-003 -2.17863580e-005
      7.00252480e-004 -2.14112410e-003 2.93724705e-003 -5.03695058e-003
      -4.93955193e-003 1.70855958e-003 -9.40905767e-004 2.05489388e-003
      -2.17863580e-005 7.00252480e-004 -2.14112410e-003 2.93724705e-003
      -5.03695058e-003 -4.93955193e-003 1.70855958e-003 -9.40905767e-004
      2.05489388e-003 -2.17863580e-005 7.00252480e-004 -2.14112410e-003
      2.93724705e-003 -5.03695058e-003 -4.93955193e-003 1.70855958e-003
      -9.40905767e-004 2.05489388e-003 -2.17863580e-005 7.00252480e-004
      -2.14112410e-003 2.93724705e-003 -5.03695058e-003 -4.93955193e-003
      1.70855958e-003 -9.40905767e-004 2.05489388e-003 -2.17863580e-005
      7.00252480e-004 -2.14112410e-003 2.93724705e-003 -5.03695058e-003
      -4.93955193e-003 1.70855958e-003 -9.40905767e-004 2.05489388e-003
      -2.17863580e-005 7.00252480e-004 -2.14112410e-003 2.93724705e-003
      -5.03695058e-003 -4.93955193e-003 1.70855958e-003 -9.40905767e-004
      2.05489388e-003 -2.17863580e-005 7.00252480e-004 -2.14112410e-003
      2.93724705e-003 -5.03695058e-003 -4.93955193e-003 1.70855958e-003
      -9.40905767e-004 2.05489388e-003 -2.17863580e-005 7.00252480e-004
      -2.14112410e-003 2.93724705e-003 -5.03695058e-003 -4.93955193e-003
      1.70855958e-003 -9.40905767e-004 2.05489388e-003 -2.17863580e-005
      7.00252480e-004 -2.14112410e-003 2.93724705e-003 -5.03695058e-003
      -4.93955193e-003 1.70855958e-003 -9.40905767e-004 2.05489388e-003
      -2.17863580e-005 7.00252480e-004 -2.14112410e-003 2.93724705e-003
      -5.03695058e-003 -4.93955193e-003 1.70855958e-003 -9.40905767e-004
      2.05489388e-003 -2.17863580e-005 7.00252480e-004 -2.14112410e-003
      2.93724705e-003 -5.03695058e-003 -4.93955193e-003 1.70855958e-003
      -9.40905767e-004 2.05489388e-003 -2.17863580e-005 7.00252480e-004
      -2.14112410e-003 2.93724705e-003 -5.03695058e-003 -4.93955193e-003
      1.70855958e-003 -9.40905767e-004 2.05489388e-003 -2.17863580e-005
      7.00252480e-004 -2.14112410e-003 2.93724705e-003 -5.03695058e-003
      -4.93955193e-003 1.70855958e-003 -9.40905767e-004 2.05489388e-003
      -2.17863580e-005 7.00252480e-004 -2.14112410e-003 2.93724705e-003
      -5.03695058e-003 -4.93955193e-003 1.70855958e-003 -9.40905767e-004
      2.05489388e-003 -2.17863580e-005 7.00252480e-004 -2.14112410e-003
      2.93724705e-003 -5.03695058e-003 -4.93955193e-003 1.70855958e-003
      -9.40905767e-004 2.05489388e-003 -2.17863580e-005 7.00252480e-004
      -2.14112410e-003 2.93724705e-003 -5.03695058e-003 -4.93955193e-003
      1.70855958e-003 -9.40905767e-004 2.05489388e-003 -2.17863580e-005
      7.00252480e-004 -2.14112410e-003 2.93724705e-003 -5.03695058e-003
      -4.93955193e-003 1.70855958e-003 -9.40905767e-004 2.05489388e-003
      -2.17863580e-005 7.00252480e-004 -2.14112410e-003 2.93724705e-003
      -5.03695058e-003 -4.93955193e-003 1.70855958e-003 -9.40905767e-004
      2.05489388e-003 -2.17863580e-005 7.00252480e-004 -2.14112410e-003
      2.93724705e-003 -5.03695058e-003 -4.93955193e-003 1.70855958e-003
      -9.40905767e-004 2.05489388e-003 -2.17863580e-005 7.00252480e-004
      -2.14112410e-003 2.93724705e-003 -5.03695058e-003 -4.93955193e-003
      1.70855958e-003 -9.40905767e-004 2.05489388e-003 -2.17863580e-005
      7.00252480e-004 -2.14112410e-003 2.93724705e-003 -5.03695058e-003
      -4.93955193e-003 1.70855958e-003 -9.40905767e-004 2.05489388e-003
      -2.17863580e-005 7.00252480e-004 -2.14112410e-003 2.93724705e-003
      -5.03695058e-003 -4.93955193e-003 1.70855958e-003 -9.40905767e-004
      2.05489388e-003 -2.17863580e-005 7.00252480e-004 -2.14112410e-003
      2.93724705e-003 -5.03695058e-003 -4.93955193e-003 1.70855958e-003
      -9.40905767e-004 2.05489388e-003 -2.17863580e-005 7.00252480e-004
      -2.14112410e-003 2.93724705e-003 -5.03695058e-003 -4.93955193e-003
      1.70855958e-003 -9.40905767e-004 2.05489388e-003 -2.17863580e-005
      7.00252480e-004 -2.14112410e-003 2.93724705e-003 -5.03695058e-003
      -4.93955193e-003 1.70855958e-003 -9.40905767e-004 2.05489388e-003
      -2.17863580e-005 7.00252480e-004 -2.14112410e-003 2.93724705e-003
      -5.03695058e-003 -4.93955193e-003 1.70855958e-003 -9.40905767e-004
      2.05489388e-003 -2.17863580e-005 7.00252480e-004 -2.14112410e-003
      2.93724705e-003 -5.03695058e-003 -4.93955193e-003 1.70855958e-003
      -9.40905767e-004 2.05489388e-003 -2.17863580e-005 7.00252480e-004
      -2.14112410e-003 2.93724705e-003 -5.03695058e-003 -4.93955193e-003
      1.70855958e-003 -9.40905767e-004 2.05489388e-003 -2.17863580e-005
      7.00252480e-004 -2.14112410e-003 2.93724705e-003 -5.03695058e-003
      -4.93955193e-003 1.70855958e-003 -9.40905767e-004 2.05489388e-003
      -2.17863580e-005 7.00252480e-004 -2.14112410e-003 2.93724705e-003
      -5.03695058e-003 -4.93955193e-003 1.70855958e-003 -9.40905767e-004
      2.05489388e-003 -2.17863580e-005 7.00252480e-004 -2.14112410e-003
      2.93724705e-003 -5.03695058e-003 -4.93955193e-003 1.70855958e-003
      -9.40905767e-004 2.05489388e-003 -2.17863580e-005 7.00252480e-004
      -2.14112410e-003 2.93724705e-003 -5.03695058e-003 -4.93955193e-003
      1.70855958e-003 -9.40905767e-004 2.05489388e-003 -2.17863580e-005
      7.00252480e-004 -2.14112410e-003 2.93724705e-003 -5.03695058e-003
      -4.93955193e-003 1.70855958e-003 -9.40905767e-004 2.05489388e-003
      -2.17863580e-005 7.00252480e-004 -2.14112410e-003 2.93724705e-003
      -5.03695058e-003 -4.93955193e-003 1.70855958e-003 -9.40905767e-004
      2.05489388e-003 -2.17863580e-005 7.00252480e-004 -2.14112410e-003
      2.93724705e-003 -5.03695058e-003 -4.93955193e-003 1.70855958e-003
      -9.40905767e-004 2.05489388e-003 -2.17863580e-005 7.00252480e-004
      -2.14112410e-003 2.93724705e-003 -5.03695058e-003 -4.93955193e-003
      1.70855958e-003 -9.40905767e-004 2.05489388e-003 -2.17863580e-005
      7.00252480e-004 -2.14112410e-003 2.93724705e-003 -5.03695058e-003
      -4.93955193e-003 1.70855958e-003 -9.40905767e-004 2.05489388e-003
      -2.17863580e-005 7.00252480e-004 -2.14112410e-003 2.93724705e-003
      -5.03695058e-003 -4.93955193e-003 1.70855958e-003 -9.40905767e-004
      2.05489388e-003 -2.17863580e-005 7.00252480e-004 -2.14112410e-003
      2.93724705e-003 -5.03695058e-003 -4.93955193e-003 1.70855958e-003
      -9.40905767e-004 2.05489388e-003 -2.17863580e-005 7.00252480e-004
      -2.14112410e-003 2.93724705e-003 -5.03695058e-003 -4.93955193e-003
      1.70855958e-003 -9.40905767e-004 2.05489388e-003 -2.17863580e-005
      7.00252480e-004 -2.14112410e-003 2.93724705e-003 -5.03695058e-003
      -4.93955193e-003 1.70855958e-003 -9.40905767e-004 2.05489388e-003
      -2.17863580e-005 7.00252480e-004 -2.14112410e-003 2.93724705e-003
      -5.03695058e-003 -4.93955193e-003 1.70855958e-003 -9.40905767e-004
      2.05489388e-003 -2.17863580e-005 7.00252480e-004 -2.14112410e-003
      2.93724705e-003 -5.03695058e-003 -4.93955193e-003 1.70855958e-003
      -9.40905767e-004 2.05489388e-003 -2.17863580e-005 7.00252480e-004
      -2.14112410e-003 2.93724705e-003 -5.03695058e-003 -4.93955193e-003
      1.70855958e-003 -9.40905767e-004 2.05489388e-003 -2.17863580e-005
      7.00252480e-004 -2.14112410e-003 2.93724705e-003 -5.03695058e-003
      -4.93955193e-003 1.70855958e-003 -9.40905767e-004 2.05489388e-003
      -2.17863580e-005 7.00252480e-004 -2.14112410e-003 2.93724705e-003
      -5.03695058e-003 -4.93955193e-003 1.70855958e-003 -9.40905767e-004
      2.05489388e-003 -2.17863580e-005 7.00252480e-004 -2.14112410e-003
      2.93724705e-003 -5.03695058e-003 -4.93955193e-003 1.70855958e-003
      -9.40905767e-004 2.05489388e-003 -2.17863580e-005 7.00252480e-004
      -2.14112410e-003 2.93724705e-003 -5.03695058e-003 -4.93955193e-003
      1.70855958e-003 -9.40905767e-004 2.05489388e-003 -2.17863580e-005
      7.00252480e-004 -2.14112410e-003 2.93724705e-003 -5.03695058e-003
      -4.93955193e-003 1.70855958e-003 -9.40905767e-004 2.05489388e-003
      -2.17863580e-005 7.00252480e-004 -2.14112410e-003 2.93724705e-003
      -5.03695058e-003 -4.93955193e-003 1.70855958e-003 -9.40905767e-004
      2.05489388e-003 -2.17863580e-005 7.00252480e-004 -2.14112410e-003
      2.93724705e-003 -5.03695058e-003 -4.93955193e-003 1.70855958e-003
      -9.40905767e-004 2.05489388e-003 -2.17863580e-005 7.00252480e-004
      -2.14112410e-003 2.93724705e-003 -5.03695058e-003 -4.93955193e-003
      1.70855958e-003 -9.40905767e-004 2.05489388e-003 -2.17863580e-005
      7.00252480e-004 -2.14112410e-003 2.93724705e-003 -5.03695058e-003
      -4.93955193e-003 1.70855958e-003 -9.40905767e-004 2.05489388e-003
      -2.17863580e-005 7.00252480e-004 -2.14112410e-003 2.93724705e-003
      -5.03695058e-003 -4.93955193e-003 1.70855958e-003 -9.40905767e-004
      2.05489388e-003 -2.17863580e-005 7.00252480e-004 -2.14112410e-003
      2.93724705e-003 -5.03695058e-003 -4.93955193e-003 1.70855958e-003
      -9.40905767e-004 2.05489388e-003 -2.17863580e-005 7.00252480e-004
      -2.14112410e-003 2.93724705e-003 -5.03695058e-003 -4.93955193e-003
      1.70855958e-003 -9.40905767e-004 2.05489388e-003 -2.17863580e-005
      7.00252480e-004 -2.14112410e-003 2.93724705e-003 -5.03695058e-003
      -4.93955193e-003 1.70855958e-003 -9.40905767e-004 2.05489388e-003
      -2.17863580e-005 7.00252480e-004 -2.14112410e-003 2.93724705e-003
      -5.03695058e-003 -4.93955193e-003 1.70855958e-003 -9.40905767e-004
      2.05489388e-003 -2.17863580e-005 7.00252480e-004 -2.14112410e-003
      2.93724705e-003 -5.03695058e-003 -4.93955193e-003 1.70855958e-003
      -9.40905767e-004 2.05489388e-003 -2.17863580e-005 7.00252480e-004
      -2.14112410e-003 2.93724705e-003 -5.03695058e-003 -4.93955193e-003
      1.70855958e-003 -9.40905767e-004 2.05489388e-003 -2.17863580e-005
      7.00252480e-004 -2.14112410e-003 2.93724705e-003 -5.03695058e-003
      -4.93955193e-003 1.70855958e-003 -9.40905767e-004 2.05489388e-003
      -2.17863580e-005 7.00252480e-004 -2.14112410e-003 2.93724705e-003
      -5.03695058e-003 -4.93955193e-003 1.70855958e-003 -9.40905767e-004
      2.05489388e-003 -2.17863580e-005 7.00252480e-004 -2.14112410e-003
      2.93724705e-003 -5.03695058e-003 -4.93955193e-003 1.70855958e-003
      -9.40905767e-004 2.05489388e-003 -2.17863580e-005 7.00252480e-004
      -2.14112410e-003 2.93724705e-003 -5.03695058e-003 -4.93955193e-003
      1.70855958e-003 -9.40905767e-004 2.05489388e-003 -2.17863580e-005
      7.00252480e-004 -2.14112410e-003 2.93724705e-003 -5.03695058e-003
      -4.93955193e-003 1.70855958e-003 -9.40905767e-004 2.05489388e-003
      -2.17863580e-005 7.00252480e-004 -2.14112410e-003 2.93724705e-003
      -5.03695058e-003 -4.93955193e-003 1.70855958e-003 -9.40905767e-004
      2.05489388e-003 -2.17863580e-005 7.00252480e-004 -2.14112410e-003
      2.93724705e-003 -5.03695058e-003 -4.93955193e-003 1.70855958e-003
      -9.40905767e-004 2.05489388e-003 -2.17863580e-005 7.00252480e-004
      -2.14112410e-003 2.93724705e-003 -5.03695058e-003 -4.93955193e-003
      1.70855958e-003 -9.40905767e-004 2.05489388e-003 -2.17863580e-005
      7.00252480e-004 -2.14112410e-003 2.93724705e-003 -5.03695058e-003
      -4.93955193e-003 1.70855958e-003 -9.40905767e-004 2.05489388e-003
      -2.17863580e-005 7.00252480e-004 -2.14112410e-003 2.93724705e-003
      -5.03695058e-003 -4.93955193e-003 1.70855958e-003 -9.40905767e-004
      2.05489388e-003 -2.17863580e-005 7.00252480e-004 -2.14112410e-003
      2.93724705e-003 -5.03695058e-003 -4.93955193e-003 1.70855958e-003
      -9.40905767e-004 2.05489388e-003 -2.17863580e-005 7.00252480e-004
      -2.14112410e-003 2.93724705e-003 -5.03695058e-003 -4.93955193e-003
      1.70855958e-003 -9.40905767e-004 2.05489388e-003 -2.17863580e-005
      7.00252480e-004 -2.14112410e-003 2.93724705e-003 -5.03695058e-003
      -4.93955193e-003 1.70855958e-003 -9.40905767e-004 2.05489388e-003
      -2.17863580e-005 7.00252480e-004 -2.14112410e-003 2.93724705e-003
      -5.03695058e-003 -4.93955193e-003 1.70855958e-003 -9.40905767e-004
      2.05489388e-003 -2.17863580e-005 7.00252480e-004 -2.14112410e-003
      2.93724705e-003 -5.03695058e-003 -4.93955193e-003 1.70855958e-003
      -9.40905767e-004 2.05489388e-003 -2.17863580e-005 7.00252480e-004
      -2.14112410e-003 2.93724705e-003 -5.03695058e-003 -4.93955193e-003
      1.70855958e-003 -9.40905767e-004 2.05489388e-003 -2.17863580e-005
      7.00252480e-004 -2.14112410e-003 2.93724705e-003 -5.03695058e-003
      -4.93955193e-003 1.70855958e-003 -9.40905767e-004 2.05489388e-003
      -2.17863580e-005 7.00252480e-004 -2.14112410e-003 2.93724705e-003
      -5.03695058e-003 -4.93955193e-003 1.70855958e-003 -9.40905767e-004
      2.05489388e-003 -2.17863580e-005 7.00252480e-004 -2.14112410e-003
      2.93724705e-003 -5.03695058e-003 -4.93955193e-003 1.70855958e-003
      -9.40905767e-004 2.05489388e-003 -2.17863580e-005 7.00252480e-004
      -2.14112410e-003 2.93724705e-003 -5.03695058e-003 -4.93955193e-003
      1.70855958e-003 -9.40905767e-004 2.05489388e-003 -2.17863580e-005
      7.00252480e-004 -2.14112410e-003 2.93724705e-003 -5.03695058e-003
      -4.93955193e-003 1.70855958e-003 -9.40905767e-004 2.05489388e-003
      -2.17863580e-005 7.00252480e-004 -2.14112410e-003 2.93724705e-003
      -5.03695058e-003 -4.93955193e-003 1.70855958e-003 -9.40905767e-004
      2.05489388e-003 -2.17863580e-005 7.00252480e-004 -2.14112410e-003
      2.93724705e-003 -5.03695058e-003 -4.93955193e-003 1.70855958e-003
      -9.40905767e-004 2.05489388e-003 -2.17863580e-005 7.00252480e-004
      -2.14112410e-003 2.93724705e-003 -5.03695058e-003 -4.93955193e-003
      1.70855958e-003 -9.40905767e-004 2.05489388e-003 -2.17863580e-005
      7.00252480e-004 -2.14112410e-003 2.93724705e-003 -5.03695058e-003
      -4.93955193e-003 1.70855958e-003 -9.40905767e-004 2.05489388e-003
      -2.17863580e-005 7.00252480e-004 -2.14112410e-003 2.93724705e-003
      -5.03695058e-003 -4.93955193e-003 1.70855958e-003 -9.40905767e-004
      2.05489388e-003 -2.17863580e-005 7.00252480e-004 -2.14112410e-003
      2.93724705e-003 -5.03695058e-003 -4.93955193e-003 1.70855958e-003
      -9.40905767e-004 2.05489388e-003 -2.17863580e-005 7.00252480e-004
      -2.14112410e-003 2.93724705e-003 -5.03695058e-003 -4.93955193e-003
      1.70855958e-003 -9.40905767e-004 2.05489388e-003 -2.17863580e-005
      7.00252480e-004 -2.14112410e-003 2.93724705e-003 -5.03695058e-003
      -4.93955193e-003 1.70855958e-003 -9.40905767e-004 2.05489388e-003
      -2.17863580e-005 7.00252480e-004 -2.14112410e-003 2.93724705e-003
      -5.03695058e-003 -4.93955193e-003 1.70855958e-003 -9.40905767e-004
      2.05489388e-003 -2.17863580e-005 7.00252480e-004 -2.14112410e-003
      2.93724705e-003 -5.03695058e-003 -4.93955193e-003 1.70855958e-003
      -9.40905767e-004 2.05489388e-003 -2.17863580e-005 7.00252480e-004
      -2.14112410e-003 2.93724705e-003 -5.03695058e-003 -4.93955193e-003
      1.70855958e-003 -9.40905767e-004 2.05489388e-003 -2.17863580e-005
      7.00252480e-004 -2.14112410e-003 2.93724705e-003 -5.03695058e-003
      -4.93955193e-003 1.70855958e-003 -9.40905767e-004 2.05489388e-003
      -2.17863580e-005 7.00252480e-004 -2.14112410e-003 2.93724705e-003
      -5.03695058e-003 -4.93955193e-003 1.70855958e-003 -9.40905767e-004
      2.05489388e-003 -2.17863580e-005 7.00252480e-004 -2.14112410e-003
      2.93724705e-003 -5.03695058e-003 -4.93955193e-003 1.70855958e-003
      -9.40905767e-004 2.05489388e-003 -2.17863580e-005 7.00252480e-004
      -2.14112410e-003 2.93724705e-003 -5.03695058e-003 -4.93955193e-003
      1.70855958e-003 -9.40905767e-004 2.05489388e-003 -2.17863580e-005
      7.00252480e-004 -2.14112410e-003 2.93724705e-003 -5.03695058e-003
      -4.93955193e-003 1.70855958e-003 -9.40905767e-004 2.05489388e-003
      -2.17863580e-005 7.00252480e-004 -2.14112410e-003 2.93724705e-003
      -5.03695058e-003 -4.93955193e-003 1.70855958e-003 -9.40905767e-004
      2.05489388e-003 -2.17863580e-005 7.00252480e-004 -2.14112410e-003
      2.93724705e-003 -5.03695058e-003 -4.93955193e-003 1.70855958e-003
      -9.40905767e-004 2.05489388e-003 -2.17863580e-005 7.00252480e-004
      -2.14112410e-003 2.93724705e-003 -5.03695058e-003 -4.93955193e-003
      1.70855958e-003 -9.40905767e-004 2.05489388e-003 -2.17863580e-005
      7.00252480e-004 -2.14112410e-003 2.93724705e-003 -5.03695058e-003
      -4.93955193e-003 1.70855958e-003 -9.40905767e-004 2.05489388e-003
      -2.17863580e-005 7.00252480e-004 -2.14112410e-003 2.93724705e-003
      -5.03695058e-003 -4.93955193e-003 1.70855958e-003 -9.40905767e-004
      2.05489388e-003 -2.17863580e-005 7.00252480e-004 -2.14112410e-003
      2.93724705e-003 -5.03695058e-003 -4.93955193e-003 1.70855958e-003
      -9.40905767e-004 2.05489388e-003 -2.17863580e-005 7.00252480e-004
      -2.14112410e-003 2.93724705e-003 -5.03695058e-003 -4.93955193e-003
      1.70855958e-003 -9.40905767e-004 2.05489388e-003 -2.17863580e-005
      7.00252480e-004 -2.14112410e-003 2.93724705e-003 -5.03695058e-003
      -4.93955193e-003 1.70855958e-003 -9.40905767e-004 2.05489388e-003
      -2.17863580e-005 7.00252480e-004 -2.14112410e-003 2.93724705e-003
      -5.03695058e-003 -4.93955193e-003 1.70855958e-003 -9.40905767e-004
      2.05489388e-003 -2.17863580e-005 7.00252480e-004 -2.14112410e-003
      2.93724705e-003 -5.03695058e-003 -4.93955193e-003 1.70855958e-003
      -9.40905767e-004 2.05489388e-003 -2.17863580e-005 7.00252480e-004
      -2.14112410e-003 2.93724705e-003 -5.03695058e-003 -4.93955193e-003
      1.70855958e-003 -9.40905767e-004 2.05489388e-003 -2.17863580e-005
      7.00252480e-004 -2.14112410e-003 2.93724705e-003 -5.03695058e-003
      -4.93955193e-003 1.70855958e-003 -9.40905767e-004 2.05489388e-003
      -2.17863580e-005 7.00252480e-004 -2.14112410e-003 2.93724705e-003
      -5.03695058e-003 -4.93955193e-003 1.70855958e-003 -9.40905767e-004
      2.05489388e-003 -2.17863580e-005 7.00252480e-004 -2.14112410e-003
      2.93724705e-003 -5.03695058e-003 -4.93955193e-003 1.70855958e-003
      -9.40905767e-004 2.05489388e-003 -2.17863580e-005 7.00252480e-004
      -2.14112410e-003 2.93724705e-003 -5.03695058e-003 -4.93955193e-003
      1.70855958e-003 -9.40905767e-004 2.05489388e-003 -2.17863580e-005
      7.00252480e-004 -2.14112410e-003 2.93724705e-003 -5.03695058e-003
      -4.93955193e-003 1.70855958e-003 -9.40905767e-004 2.05489388e-003
      -2.17863580e-005 7.00252480e-004 -2.14112410e-003 2.93724705e-003
      -5.03695058e-003 -4.93955193e-003 1.70855958e-003 -9.40905767e-004
      2.05489388e-003 -2.17863580e-005 7.00252480e-004 -2.14112410e-003
      2.93724705e-003 -5.03695058e-003 -4.93955193e-003 1.70855958e-003
      -9.40905767e-004 2.05489388e-003 -2.17863580e-005 7.00252480e-004
      -2.14112410e-003 2.93724705e-003 -5.03695058e-003 -4.93955193e-003
      1.70855958e-003 -9.40905767e-004 2.05489388e-003 -2.17863580e-005
      7.00252480e-004 -2.14112410e-003 2.93724705e-003 -5.03695058e-003
      -4.93955193e-003 1.70855958e-003 -9.40905767e-004 2.05489388e-003
      -2.17863580e-005 7.00252480e-004 -2.14112410e-003 2.93724705e-003
      -5.03695058e-003 -4.93955193e-003 1.70855958e-003 -9.40905767e-004
      2.05489388e-003 -2.17863580e-005 7.00252480e-004 -2.14112410e-003
      2.93724705e-003 -5.03695058e-003 -4.93955193e-003 1.70855958e-003
      -9.40905767e-004 2.05489388e-003 -2.17863580e-005 7.00252480e-004
      -2.14112410e-003 2.93724705e-003 -5.03695058e-003 -4.93955193e-003
      1.70855958e-003 -9.40905767e-004 2.05489388e-003 -2.17863580e-005
      7.00252480e-004 -2.14112410e-003 2.93724705e-003 -5.03695058e-003
      -4.93955193e-003 1.70855958e-003 -9.40905767e-004 2.05489388e-003
      -2.17863580e-005 7.00252480e-004 -2.14112410e-003 2.93724705e-003
      -5.03695058e-003 -4.93955193e-003 1.70855958e-003 -9.40905767e-004
      2.05489388e-003 -2.17863580e-005 7.00252480e-004 -2.14112410e-003
      2.93724705e-003 -5.03695058e-003 -4.93955193e-003 1.70855958e-003
      -9.40905767e-004 2.05489388e-003 -2.17863580e-005 7.00252480e-004
      -2.14112410e-003 2.93724705e-003 -5.03695058e-003 -4.93955193e-003
      1.70855958e-003 -9.40905767e-004 2.05489388e-003 -2.17863580e-005
      7.00252480e-004 -2.14112410e-003 2.93724705e-003 -5.03695058e-003
      -4.93955193e-003 1.70855958e-003 -9.40905767e-004 2.05489388e-003
      -2.17863580e-005 7.00252480e-004 -2.14112410e-003 2.93724705e-003
      -5.03695058e-003 -4.93955193e-003 1.70855958e-003 -9.40905767e-004
      2.05489388e-003 -2.17863580e-005 7.00252480e-004 -2.14112410e-003
      2.93724705e-003 -5.03695058e-003 -4.93955193e-003 1.70855958e-003
      -9.40905767e-004 2.05489388e-003 -2.17863580e-005 7.00252480e-004
      -2.14112410e-003 2.93724705e-003 -5.03695058e-003 -4.93955193e-003
      1.70855958e-003 -9.40905767e-004 2.05489388e-003 -2.17863580e-005
      7.00252480e-004 -2.14112410e-003 2.93724705e-003 -5.03695058e-003
      -4.93955193e-003 1.70855958e-003 -9.40905767e-004 2.05489388e-003
      -2.17863580e-005 7.00252480e-004 -2.14112410e-003 2.93724705e-003
      -5.03695058e-003 -4.93955193e-003 1.70855958e-003 -9.40905767e-004
      2.05489388e-003 -2.17863580e-005 7.00252480e-004 -2.14112410e-003
      2.93724705e-003 -5.03695058e-003 -4.93955193e-003 1.70855958e-003
      -9.40905767e-004 2.05489388e-003 -2.17863580e-005 7.00252480e-004
      -2.14112410e-003 2.93724705e-003 -5.03695058e-003 -4.93955193e-003
      1.70855958e-003 -9.40905767e-004 2.05489388e-003 -2.17863580e-005
      7.00252480e-004 -2.14112410e-003 2.93724705e-003 -5.03695058e-003
      -4.93955193e-003 1.70855958e-003 -9.40905767e-004 2.05489388e-003
      -2.17863580e-005 7.00252480e-004 -2.14112410e-003 2.93724705e-003
      -5.03695058e-003 -4.93955193e-003 1.70855958e-003 -9.40905767e-004
      2.05489388e-003 -2.17863580e-005 7.00252480e-004 -2.14112410e-003
      2.93724705e-003 -5.03695058e-003 -4.93955193e-003 1.70855958e-003
      -9.40905767e-004 2.05489388e-003 -2.17863580e-005 7.00252480e-004
      -2.14112410e-003 2.93724705e-003 -5.03695058e-003 -4.93955193e-003
      1.70855958e-003 -9.40905767e-004 2.05489388e-003 -2.17863580e-005
      7.00252480e-004 -2.14112410e-003 2.93724705e-003 -5.03695058e-003
      -4.93955193e-003 1.70855958e-003 -9.40905767e-004 2.05489388e-003
      -2.17863580e-005 7.00252480e-004 -2.14112410e-003 2.93724705e-003
      -5.03695058e-003 -4.93955193e-003 1.70855958e-003 -9.40905767e-004
      2.05489388e-003 -2.17863580e-005 7.00252480e-004 -2.14112410e-003
      2.93724705e-003 -5.03695058e-003 -4.93955193e-003 1.70855958e-003
      -9.40905767e-004 2.05489388e-003 -2.17863580e-005 7.00252480e-004
      -2.14112410e-003 2.93724705e-003 -5.03695058e-003 -4.93955193e-003
      1.70855958e-003 -9.40905767e-004 2.05489388e-003 -2.17863580e-005
      7.00252480e-004 -2.14112410e-003 2.93724705e-003 -5.03695058e-003
      -4.93955193e-003 1.70855958e-003 -9.40905767e-004 2.05489388e-003
      -2.17863580e-005 7.00252480e-004 -2.14112410e-003 2.93724705e-003
      -5.03695058e-003 -4.93955193e-003 1.70855958e-003 -9.40905767e-004
      2.05489388e-003 -2.17863580e-005 7.00252480e-004 -2.14112410e-003
      2.93724705e-003 -5.03695058e-003 -4.93955193e-003 1.70855958e-003
      -9.40905767e-004 2.05489388e-003 -2.17863580e-005 7.00252480e-004
      -2.14112410e-003 2.93724705e-003 -5.03695058e-003 -4.93955193e-003
      1.70855958e-003 -9.40905767e-004 2.05489388e-003 -2.17863580e-005
      7.00252480e-004 -2.14112410e-003 2.93724705e-003 -5.03695058e-003
      -4.93955193e-003 1.70855958e-003 -9.40905767e-004 2.05489388e-003
      -2.17863580e-005 7.00252480e-004 -2.14112410e-003 2.93724705e-003
      -5.03695058e-003 -4.93955193e-003 1.70855958e-003 -9.40905767e-004
      2.05489388e-003 -2.17863580e-005 7.00252480e-004 -2.14112410e-003
      2.93724705e-003 -5.03695058e-003 -4.93955193e-003 1.70855958e-003
      -9.40905767e-004 2.05489388e-003 -2.17863580e-005 7.00252480e-004
      -2.14112410e-003 2.93724705e-003 -5.03695058e-003 -4.93955193e-003
      1.70855958e-003 -9.40905767e-004 2.05489388e-003 -2.17863580e-005
      7.00252480e-004 -2.14112410e-003 2.93724705e-003 -5.03695058e-003
      -4.93955193e-003 1.70855958e-003 -9.40905767e-004 2.05489388e-003
      -2.17863580e-005 7.00252480e-004 -2.14112410e-003 2.93724705e-003
      -5.03695058e-003 -4.93955193e-003 1.70855958e-003 -9.40905767e-004
      2.05489388e-003 -2.17863580e-005 7.00252480e-004 -2.14112410e-003
      2.93724705e-003 -5.03695058e-003 -4.93955193e-003 1.70855958e-003
      -9.40905767e-004 2.05489388e-003 -2.17863580e-005 7.00252480e-004
      -2.14112410e-003 2.93724705e-003 -5.03695058e-003 -4.93955193e-003
      1.70855958e-003 -9.40905767e-004 2.05489388e-003 -2.17863580e-005
      7.00252480e-004 -2.14112410e-003 2.93724705e-003 -5.03695058e-003
      -4.93955193e-003 1.70855958e-003 -9.40905767e-004 2.05489388e-003
      -2.17863580e-005 7.00252480e-004 -2.14112410e-003 2.93724705e-003
      -5.03695058e-003 -4.93955193e-003 1.70855958e-003 -9.40905767e-004
      2.05489388e-003 -2.17863580e-005 7.00252480e-004 -2.14112410e-003
      2.93724705e-003 -5.03695058e-003 -4.93955193e-003 1.70855958e-003
      -9.40905767e-004 2.05489388e-003 -2.17863580e-005 7.00252480e-004
      -2.14112410e-003 2.93724705e-003 -5.03695058e-003 -4.93955193e-003
      1.70855958e-003 -9.40905767e-004 2.05489388e-003 -2.17863580e-005
      7.00252480e-004 -2.14112410e-003 2.93724705e-003 -5.03695058e-003
      -4.93955193e-003 1.70855958e-003 -9.40905767e-004 2.05489388e-003
      -2.17863580e-005 7.00252480e-004 -2.14112410e-003 2.93724705e-003
      -5.03695058e-003 -4.93955193e-003 1.70855958e-003 -9.40905767e-004
      2.05489388e-003 -2.17863580e-005 7.00252480e-004 -2.14112410e-003
      2.93724705e-003 -5.03695058e-003 -4.93955193e-003 1.70855958e-003
      -9.40905767e-004 2.05489388e-003 -2.17863580e-005 7.00252480e-004
      -2.14112410e-003 2.93724705e-003 -5.03695058e-003 -4.93955193e-003
      1.70855958e-003 -9.40905767e-004 2.05489388e-003 -2.17863580e-005
      7.00252480e-004 -2.14112410e-003 2.93724705e-003 -5.03695058e-003
      -4.93955193e-003 1.70855958e-003 -9.40905767e-004 2.05489388e-003
      -2.17863580e-005 7.00252480e-004 -2.14112410e-003 2.93724705e-003
      -5.03695058e-003 -4.93955193e-003 1.70855958e-003 -9.40905767e-004
      2.05489388e-003 -2.17863580e-005 7.00252480e-004 -2.14112410e-003
      2.93724705e-003 -5.03695058e-003 -4.93955193e-003 1.70855958e-003
      -9.40905767e-004 2.05489388e-003 -2.17863580e-005 7.00252480e-004
      -2.14112410e-003 2.93724705e-003 -5.03695058e-003 -4.93955193e-003
      1.70855958e-003 -9.40905767e-004 2.05489388e-003 -2.17863580e-005
      7.00252480e-004 -2.14112410e-003 2.93724705e-003 -5.03695058e-003
      -4.93955193e-003 1.70855958e-003 -9.40905767e-004 2.05489388e-003
      -2.17863580e-005 7.00252480e-004 -2.14112410e-003 2.93724705e-003
      -5.03695058e-003 -4.93955193e-003 1.70855958e-003 -9.40905767e-004
      2.05489388e-003 -2.17863580e-005 7.00252480e-004 -2.14112410e-003
      2.93724705e-003 -5.03695058e-003 -4.93955193e-003 1.70855958e-003
      -9.40905767e-004 2.05489388e-003 -2.17863580e-005 7.00252480e-004
      -2.14112410e-003 2.93724705e-003 -5.03695058e-003 -4.93955193e-003
      1.70855958e-003 -9.40905767e-004 2.05489388e-003 -2.17863580e-005
      7.00252480e-004 -2.14112410e-003 2.93724705e-003 -5.03695058e-003
      -4.93955193e-003 1.70855958e-003 -9.40905767e-004 2.05489388e-003
      -2.17863580e-005 7.00252480e-004 -2.14112410e-003 2.93724705e-003
      -5.03695058e-003 -4.93955193e-003 1.70855958e-003 -9.40905767e-004
      2.05489388e-003 -2.17863580e-005 7.00252480e-004 -2.14112410e-003
      2.93724705e-003 -5.03695058e-003 -4.93955193e-003 1.70855958e-003
      -9.40905767e-004 2.05489388e-003 -2.17863580e-005 7.00252480e-004
      -2.14112410e-003 2.93724705e-003 -5.03695058e-003 -4.93955193e-003
      1.70855958e-003 -9.40905767e-004 2.05489388e-003 -2.17863580e-005
      7.00252480e-004 -2.14112410e-003 2.93724705e-003 -5.03695058e-003
      -4.93955193e-003 1.70855958e-003 -9.40905767e-004 2.05489388e-003
      -2.17863580e-005 7.00252480e-004 -2.14112410e-003 2.93724705e-003
      -5.03695058e-003 -4.93955193e-003 1.70855958e-003 -9.40905767e-004
      2.05489388e-003 -2.17863580e-005 7.00252480e-004 -2.14112410e-003
      2.93724705e-003 -5.03695058e-003 -4.93955193e-003 1.70855958e-003
      -9.40905767e-004 2.05489388e-003 -2.17863580e-005 7.00252480e-004
      -2.14112410e-003 2.93724705e-003 -5.03695058e-003 -4.93955193e-003
      1.70855958e-003 -9.40905767e-004 2.05489388e-003 -2.17863580e-005
      7.00252480e-004 -2.14112410e-003 2.93724705e-003 -5.03695058e-003
      -4.93955193e-003 1.70855958e-003 -9.40905767e-004 2.05489388e-003
      -2.17863580e-005 7.00252480e-004 -2.14112410e-003 2.93724705e-003
      -5.03695058e-003 -4.93955193e-003 1.70855958e-003 -9.40905767e-004
      2.05489388e-003 -2.17863580e-005 7.00252480e-004 -2.14112410e-003
      2.93724705e-003 -5.03695058e-003 -4.93955193e-003 1.70855958e-003
      -9.40905767e-004 2.05489388e-003 -2.17863580e-005 7.00252480e-004
      -2.14112410e-003 2.93724705e-003 -5.03695058e-003 -4.93955193e-003
      1.70855958e-003 -9.40905767e-004 2.05489388e-003 -2.17863580e-005
      7.00252480e-004 -2.14112410e-003 2.93724705e-003 -5.03695058e-003
      -4.93955193e-003 1.70855958e-003 -9.40905767e-004 2.05489388e-003
      -2.17863580e-005 7.00252480e-004 -2.14112410e-003 2.93724705e-003
      -5.03695058e-003 -4.93955193e-003 1.70855958e-003 -9.40905767e-004
      2.05489388e-003 -2.17863580e-005 7.00252480e-004 -2.14112410e-003
      2.93724705e-003 -5.03695058e-003 -4.93955193e-003 1.70855958e-003
      -9.40905767e-004 2.05489388e-003 -2.17863580e-005 7.00252480e-004
      -2.14112410e-003 2.93724705e-003 -5.03695058e-003 -4.93955193e-003
      1.70855958e-003 -9.40905767e-004 2.05489388e-003 -2.17863580e-005
      7.00252480e-004 -2.14112410e-003 2.93724705e-003 -5.03695058e-003
      -4.93955193e-003 1.70855958e-003 -9.40905767e-004 2.05489388e-003
      -2.17863580e-005 7.00252480e-004 -2.14112410e-003 2.93724705e-003
      -5.03695058e-003 -4.93955193e-003 1.70855958e-003 -9.40905767e-004
      2.05489388e-003 -2.17863580e-005 7.00252480e-004 -2.14112410e-003
      2.93724705e-003 -5.03695058e-003 -4.93955193e-003 1.70855958e-003
      -9.40905767e-004 2.05489388e-003 -2.17863580e-005 7.00252480e-004
      -2.14112410e-003 2.93724705e-003 -5.03695058e-003 -4.93955193e-003
      1.70855958e-003 -9.40905767e-004 2.05489388e-003 -2.17863580e-005
      7.00252480e-004 -2.14112410e-003 2.93724705e-003 -5.03695058e-003
      -4.93955193e-003 1.70855958e-003 -9.40905767e-004 2.05489388e-003
      -2.17863580e-005 7.00252480e-004 -2.14112410e-003 2.93724705e-003
      -5.03695058e-003 -4.93955193e-003 1.70855958e-003 -9.40905767e-004
      2.05489388e-003 -2.17863580e-005 7.00252480e-004 -2.14112410e-003
      2.93724705e-003 -5.03695058e-003 -4.93955193e-003 1.70855958e-003
      -9.40905767e-004 2.05489388e-003 -2.17863580e-005 7.00252480e-004
      -2.14112410e-003 2.93724705e-003 -5.03695058e-003 -4.93955193e-003
      1.70855958e-003 -9.40905767e-004 2.05489388e-003 -2.17863580e-005
      7.00252480e-004 -2.14112410e-003 2.93724705e-003 -5.03695058e-003
      -4.93955193e-003 1.70855958e-003 -9.40905767e-004 2.05489388e-003
      -2.17863580e-005 7.00252480e-004 -2.14112410e-003 2.93724705e-003
      -5.03695058e-003 -4.93955193e-003 1.70855958e-003 -9.40905767e-004
      2.05489388e-003 -2.17863580e-005 7.00252480e-004 -2.14112410e-003
      2.93724705e-003 -5.03695058e-003 -4.93955193e-003 1.70855958e-003
      -9.40905767e-004 2.05489388e-003 -2.17863580e-005 7.00252480e-004
      -2.14112410e-003 2.93724705e-003 -5.03695058e-003 -4.93955193e-003
      1.70855958e-003 -9.40905767e-004 2.05489388e-003 -2.17863580e-005
      7.00252480e-004 -2.14112410e-003 2.93724705e-003 -5.03695058e-003
      -4.93955193e-003 1.70855958e-003 -9.40905767e-004 2.05489388e-003
      -2.17863580e-005 7.00252480e-004 -2.14112410e-003 2.93724705e-003
      -5.03695058e-003 -4.93955193e-003 1.70855958e-003 -9.40905767e-004
      2.05489388e-003 -2.17863580e-005 7.00252480e-004 -2.14112410e-003
      2.93724705e-003 -5.03695058e-003 -4.93955193e-003 1.70855958e-003
      -9.40905767e-004 2.05489388e-003 -2.17863580e-005 7.00252480e-004
      -2.14112410e-003 2.93724705e-003 -5.03695058e-003 -4.93955193e-003
      1.70855958e-003 -9.40905767e-004 2.05489388e-003 -2.17863580e-005
      7.00252480e-004 -2.14112410e-003 2.93724705e-003 -5.03695058e-003
      -4.93955193e-003 1.70855958e-003 -9.40905767e-004 2.05489388e-003
      -2.17863580e-005 7.00252480e-004 -2.14112410e-003 2.93724705e-003
      -5.03695058e-003 -4.93955193e-003 1.70855958e-003 -9.40905767e-004
      2.05489388e-003 -2.17863580e-005 7.00252480e-004 -2.14112410e-003
      2.93724705e-003 -5.03695058e-003 -4.93955193e-003 1.70855958e-003
      -9.40905767e-004 2.05489388e-003 -2.17863580e-005 7.00252480e-004
      -2.14112410e-003 2.93724705e-003 -5.03695058e-003 -4.93955193e-003
      1.70855958e-003 -9.40905767e-004 2.05489388e-003 -2.17863580e-005
      7.00252480e-004 -2.14112410e-003 2.93724705e-003 -5.03695058e-003
      -4.93955193e-003 1.70855958e-003 -9.40905767e-004 2.05489388e-003
      -2.17863580e-005 7.00252480e-004 -2.14112410e-003 2.93724705e-003
      -5.03695058e-003 -4.93955193e-003 1.70855958e-003 -9.40905767e-004
      2.05489388e-003 -2.17863580e-005 7.00252480e-004 -2.14112410e-003
      2.93724705e-003 -5.03695058e-003 -4.93955193e-003 1.70855958e-003
      -9.40905767e-004 2.05489388e-003 -2.17863580e-005 7.00252480e-004
      -2.14112410e-003 2.93724705e-003 -5.03695058e-003 -4.93955193e-003
      1.70855958e-003 -9.40905767e-004 2.05489388e-003 -2.17863580e-005
      7.00252480e-004 -2.14112410e-003 2.93724705e-003 -5.03695058e-003
      -4.93955193e-003 1.70855958e-003 -9.40905767e-004 2.05489388e-003
      -2.17863580e-005 7.00252480e-004 -2.14112410e-003 2.93724705e-003
      -5.03695058e-003 -4.93955193e-003 1.70855958e-003 -9.40905767e-004
      2.05489388e-003 -2.17863580e-005 7.00252480e-004 -2.14112410e-003
      2.93724705e-003 -5.03695058e-003 -4.93955193e-003 1.70855958e-003
      -9.40905767e-004 2.05489388e-003 -2.17863580e-005 7.00252480e-004
      -2.14112410e-003 2.93724705e-003 -5.03695058e-003 -4.93955193e-003
      1.70855958e-003 -9.40905767e-004 2.05489388e-003 -2.17863580e-005
      7.00252480e-004 -2.14112410e-003 2.93724705e-003 -5.03695058e-003
      -4.93955193e-003 1.70855958e-003 -9.40905767e-004 2.05489388e-003
      -2.17863580e-005 7.00252480e-004 -2.14112410e-003 2.93724705e-003
      -5.03695058e-003 -4.93955193e-003 1.70855958e-003 -9.40905767e-004
      2.05489388e-003 -2.17863580e-005 7.00252480e-004 -2.14112410e-003
      2.93724705e-003 -5.03695058e-003 -4.93955193e-003 1.70855958e-003
      -9.40905767e-004 2.05489388e-003 -2.17863580e-005 7.00252480e-004
      -2.14112410e-003 2.93724705e-003 -5.03695058e-003 -4.93955193e-003
      1.70855958e-003 -9.40905767e-004 2.05489388e-003 -2.17863580e-005
      7.00252480e-004 -2.14112410e-003 2.93724705e-003 -5.03695058e-003
      -4.93955193e-003 1.70855958e-003 -9.40905767e-004 2.05489388e-003
      -2.17863580e-005 7.00252480e-004 -2.14112410e-003 2.93724705e-003
      -5.03695058e-003 -4.93955193e-003 1.70855958e-003 -9.40905767e-004
      2.05489388e-003 -2.17863580e-005 7.00252480e-004 -2.14112410e-003
      2.93724705e-003 -5.03695058e-003 -4.93955193e-003 1.70855958e-003
      -9.40905767e-004 2.05489388e-003 -2.17863580e-005 7.00252480e-004
      -2.14112410e-003 2.93724705e-003 -5.03695058e-003 -4.93955193e-003
      1.70855958e-003 -9.40905767e-004 2.05489388e-003 -2.17863580e-005
      7.00252480e-004 -2.14112410e-003 2.93724705e-003 -5.03695058e-003
      -4.93955193e-003 1.70855958e-003 -9.40905767e-004 2.05489388e-003
      -2.17863580e-005 7.00252480e-004 -2.14112410e-003 2.93724705e-003
      -5.03695058e-003 -4.93955193e-003 1.70855958e-003 -9.40905767e-004
      2.05489388e-003 -2.17863580e-005 7.00252480e-004 -2.14112410e-003
      2.93724705e-003 -5.03695058e-003 -4.93955193e-003 1.70855958e-003
      -9.40905767e-004 2.05489388e-003 -2.17863580e-005 7.00252480e-004
      -2.14112410e-003 2.93724705e-003 -5.03695058e-003 -4.93955193e-003
      1.70855958e-003 -9.40905767e-004 2.05489388e-003 -2.17863580e-005
      7.00252480e-004 -2.14112410e-003 2.93724705e-003 -5.03695058e-003
      -4.93955193e-003 1.70855958e-003 -9.40905767e-004 2.05489388e-003
      -2.17863580e-005 7.00252480e-004 -2.14112410e-003 2.93724705e-003
      -5.03695058e-003 -4.93955193e-003 1.70855958e-003 -9.40905767e-004
      2.05489388e-003 -2.17863580e-005 7.00252480e-004 -2.14112410e-003
      2.93724705e-003 -5.03695058e-003 -4.93955193e-003 1.70855958e-003
      -9.40905767e-004 2.05489388e-003 -2.17863580e-005 7.00252480e-004
      -2.14112410e-003 2.93724705e-003 -5.03695058e-003 -4.93955193e-003
      1.70855958e-003 -9.40905767e-004 2.05489388e-003 -2.17863580e-005
      7.00252480e-004 -2.14112410e-003 2.93724705e-003 -5.03695058e-003
      -4.93955193e-003 1.70855958e-003 -9.40905767e-004 2.05489388e-003
      -2.17863580e-005 7.00252480e-004 -2.14112410e-003 2.93724705e-003
      -5.03695058e-003 -4.93955193e-003 1.70855958e-003 -9.40905767e-004
      2.05489388e-003 -2.17863580e-005 7.00252480e-004 -2.14112410e-003
      2.93724705e-003 -5.03695058e-003 -4.93955193e-003 1.70855958e-003
      -9.40905767e-004 2.05489388e-003 -2.17863580e-005 7.00252480e-004
      -2.14112410e-003 2.93724705e-003 -5.03695058e-003 -4.93955193e-003
      1.70855958e-003 -9.40905767e-004 2.05489388e-003 -2.17863580e-005
      7.00252480e-004 -2.14112410e-003 2.93724705e-003 -5.03695058e-003
      -4.93955193e-003 1.70855958e-003 -9.40905767e-004 2.05489388e-003
      -2.17863580e-005 7.00252480e-004 -2.14112410e-003 2.93724705e-003
      -5.03695058e-003 -4.93955193e-003 1.70855958e-003 -9.40905767e-004
      2.05489388e-003 -2.17863580e-005 7.00252480e-004 -2.14112410e-003
      2.93724705e-003 -5.03695058e-003 -4.93955193e-003 1.70855958e-003
      -9.40905767e-004 2.05489388e-003 -2.17863580e-005 7.00252480e-004
      -2.14112410e-003 2.93724705e-003 -5.03695058e-003 -4.93955193e-003
      1.70855958e-003 -9.40905767e-004 2.05489388e-003 -2.17863580e-005
      7.00252480e-004 -2.14112410e-003 2.93724705e-003 -5.03695058e-003
      -4.93955193e-003 1.70855958e-003 -9.40905767e-004 2.05489388e-003
      -2.17863580e-005 7.00252480e-004 -2.14112410e-003 2.93724705e-003
      -5.03695058e-003 -4.93955193e-003 1.70855958e-003 -9.40905767e-004
      2.05489388e-003 -2.17863580e-005 7.00252480e-004 -2.14112410e-003
      2.93724705e-003 -5.03695058e-003 -4.93955193e-003 1.70855958e-003
      -9.40905767e-004 2.05489388e-003 -2.17863580e-005 7.00252480e-004
      -2.14112410e-003 2.93724705e-003 -5.03695058e-003 -4.93955193e-003
      1.70855958e-003 -9.40905767e-004 2.05489388e-003 -2.17863580e-005
      7.00252480e-004 -2.14112410e-003 2.93724705e-003 -5.03695058e-003
      -4.93955193e-003 1.70855958e-003 -9.40905767e-004 2.05489388e-003
      -2.17863580e-005 7.00252480e-004 -2.14112410e-003 2.93724705e-003
      -5.03695058e-003 -4.93955193e-003 1.70855958e-003 -9.40905767e-004
      2.05489388e-003 -2.17863580e-005 7.00252480e-004 -2.14112410e-003
      2.93724705e-003 -5.03695058e-003 -4.93955193e-003 1.70855958e-003
      -9.40905767e-004 2.05489388e-003 -2.17863580e-005 7.00252480e-004
      -2.14112410e-003 2.93724705e-003 -5.03695058e-003 -4.93955193e-003
      1.70855958e-003 -9.40905767e-004 2.05489388e-003 -2.17863580e-005
      7.00252480e-004 -2.14112410e-003 2.93724705e-003 -5.03695058e-003
      -4.93955193e-003 1.70855958e-003 -9.40905767e-004 2.05489388e-003
      -2.17863580e-005 7.00252480e-004 -2.14112410e-003 2.93724705e-003
      -5.03695058e-003 -4.93955193e-003 1.70855958e-003 -9.40905767e-004
      2.05489388e-003 -2.17863580e-005 7.00252480e-004 -2.14112410e-003
      2.93724705e-003 -5.03695058e-003 -4.93955193e-003 1.70855958e-003
      -9.40905767e-004 2.05489388e-003 -2.17863580e-005 7.00252480e-004
      -2.14112410e-003 2.93724705e-003 -5.03695058e-003 -4.93955193e-003
      1.70855958e-003 -9.40905767e-004 2.05489388e-003 -2.17863580e-005
      7.00252480e-004 -2.14112410e-003 2.93724705e-003 -5.03695058e-003
      -4.93955193e-003 1.70855958e-003 -9.40905767e-004 2.05489388e-003
      -2.17863580e-005 7.00252480e-004 -2.14112410e-003 2.93724705e-003
      -5.03695058e-003 -4.93955193e-003 1.70855958e-003 -9.40905767e-004
      2.05489388e-003 -2.17863580e-005 7.00252480e-004 -2.14112410e-003
      2.93724705e-003 -5.03695058e-003 -4.93955193e-003 1.70855958e-003
      -9.40905767e-004 2.05489388e-003 -2.17863580e-005 7.00252480e-004
      -2.14112410e-003 2.93724705e-003 -5.03695058e-003 -4.93955193e-003
      1.70855958e-003 -9.40905767e-004 2.05489388e-003 -2.17863580e-005
      7.00252480e-004 -2.14112410e-003 2.93724705e-003 -5.03695058e-003
      -4.93955193e-003 1.70855958e-003 -9.40905767e-004 2.05489388e-003
      -2.17863580e-005 7.00252480e-004 -2.14112410e-003 2.93724705e-003
      -5.03695058e-003 -4.93955193e-003 1.70855958e-003 -9.40905767e-004
      2.05489388e-003 -2.17863580e-005 7.00252480e-004 -2.14112410e-003
      2.93724705e-003 -5.03695058e-003 -4.93955193e-003 1.70855958e-003
      -9.40905767e-004 2.05489388e-003 -2.17863580e-005 7.00252480e-004
      -2.14112410e-003 2.93724705e-003 -5.03695058e-003 -4.93955193e-003
      1.70855958e-003 -9.40905767e-004 2.05489388e-003 -2.17863580e-005
      7.00252480e-004 -2.14112410e-003 2.93724705e-003 -5.03695058e-003
      -4.93955193e-003 1.70855958e-003 -9.40905767e-004 2.05489388e-003
      -2.17863580e-005 7.00252480e-004 -2.14112410e-003 2.93724705e-003
      -5.03695058e-003 -4.93955193e-003 1.70855958e-003 -9.40905767e-004
      2.05489388e-003 -2.17863580e-005 7.00252480e-004 -2.14112410e-003
      2.93724705e-003 -5.03695058e-003 -4.93955193e-003 1.70855958e-003
      -9.40905767e-004 2.05489388e-003 -2.17863580e-005 7.00252480e-004
      -2.14112410e-003 2.93724705e-003 -5.03695058e-003 -4.93955193e-003
      1.70855958e-003 -9.40905767e-004 2.05489388e-003 -2.17863580e-005
      7.00252480e-004 -2.14112410e-003 2.93724705e-003 -5.03695058e-003
      -4.93955193e-003 1.70855958e-003 -9.40905767e-004 2.05489388e-003
      -2.17863580e-005 7.00252480e-004 -2.14112410e-003 2.93724705e-003
      -5.03695058e-003 -4.93955193e-003 1.70855958e-003 -9.40905767e-004
      2.05489388e-003 -2.17863580e-005 7.00252480e-004 -2.14112410e-003
      2.93724705e-003 -5.03695058e-003 -4.93955193e-003 1.70855958e-003
      -9.40905767e-004 2.05489388e-003 -2.17863580e-005 7.00252480e-004
      -2.14112410e-003 2.93724705e-003 -5.03695058e-003 -4.93955193e-003
      1.70855958e-003 -9.40905767e-004 2.05489388e-003 -2.17863580e-005
      7.00252480e-004 -2.14112410e-003 2.93724705e-003 -5.03695058e-003
      -4.93955193e-003 1.70855958e-003 -9.40905767e-004 2.05489388e-003
      -2.17863580e-005 7.00252480e-004 -2.14112410e-003 2.93724705e-003
      -5.03695058e-003 -4.93955193e-003 1.70855958e-003 -9.40905767e-004
      2.05489388e-003 -2.17863580e-005 7.00252480e-004 -2.14112410e-003
      2.93724705e-003 -5.03695058e-003 -4.93955193e-003 1.70855958e-003
      -9.40905767e-004 2.05489388e-003 -2.17863580e-005 7.00252480e-004
      -2.14112410e-003 2.93724705e-003 -5.03695058e-003 -4.93955193e-003
      1.70855958e-003 -9.40905767e-004 2.05489388e-003 -2.17863580e-005
      7.00252480e-004 -2.14112410e-003 2.93724705e-003 -5.03695058e-003
      -4.93955193e-003 1.70855958e-003 -9.40905767e-004 2.05489388e-003
      -2.17863580e-005 7.00252480e-004 -2.14112410e-003 2.93724705e-003
      -5.03695058e-003 -4.93955193e-003 1.70855958e-003 -9.40905767e-004
      2.05489388e-003 -2.17863580e-005 7.00252480e-004 -2.14112410e-003
      2.93724705e-003 -5.03695058e-003 -4.93955193e-003 1.70855958e-003
      -9.40905767e-004 2.05489388e-003 -2.17863580e-005 7.00252480e-004
      -2.14112410e-003 2.93724705e-003 -5.03695058e-003 -4.93955193e-003
      1.70855958e-003 -9.40905767e-004 2.05489388e-003 -2.17863580e-005
      7.00252480e-004 -2.14112410e-003 2.93724705e-003 -5.03695058e-003
      -4.93955193e-003 1.70855958e-003 -9.40905767e-004 2.05489388e-003
      -2.17863580e-005 7.00252480e-004 -2.14112410e-003 2.93724705e-003
      -5.03695058e-003 -4.93955193e-003 1.70855958e-003 -9.40905767e-004
      2.05489388e-003 -2.17863580e-005 7.00252480e-004 -2.14112410e-003
      2.93724705e-003 -5.03695058e-003 -4.93955193e-003 1.70855958e-003
      -9.40905767e-004 2.05489388e-003 -2.17863580e-005 7.00252480e-004
      -2.14112410e-003 2.93724705e-003 -5.03695058e-003 -4.93955193e-003
      1.70855958e-003 -9.40905767e-004 2.05489388e-003 -2.17863580e-005
      7.00252480e-004 -2.14112410e-003 2.93724705e-003 -5.03695058e-003
      -4.93955193e-003 1.70855958e-003 -9.40905767e-004 2.05489388e-003
      -2.17863580e-005 7.00252480e-004 -2.14112410e-003 2.93724705e-003
      -5.03695058e-003 -4.93955193e-003 1.70855958e-003 -9.40905767e-004
      2.05489388e-003 -2.17863580e-005 7.00252480e-004 -2.14112410e-003
      2.93724705e-003 -5.03695058e-003 -4.93955193e-003 1.70855958e-003
      -9.40905767e-004 2.05489388e-003 -2.17863580e-005 7.00252480e-004
      -2.14112410e-003 2.93724705e-003 -5.03695058e-003 -4.93955193e-003
      1.70855958e-003 -9.40905767e-004 2.05489388e-003 -2.17863580e-005
      7.00252480e-004 -2.14112410e-003 2.93724705e-003 -5.03695058e-003
      -4.93955193e-003 1.70855958e-003 -9.40905767e-004 2.05489388e-003
      -2.17863580e-005 7.00252480e-004 -2.14112410e-003 2.93724705e-003
      -5.03695058e-003 -4.93955193e-003 1.70855958e-003 -9.40905767e-004
      2.05489388e-003 -2.17863580e-005 7.00252480e-004 -2.14112410e-003
      2.93724705e-003 -5.03695058e-003 -4.93955193e-003 1.70855958e-003
      -9.40905767e-004 2.05489388e-003 -2.17863580e-005 7.00252480e-004
      -2.14112410e-003 2.93724705e-003 -5.03695058e-003 -4.93955193e-003
      1.70855958e-003 -9.40905767e-004 2.05489388e-003 -2.17863580e-005
      7.00252480e-004 -2.14112410e-003 2.93724705e-003 -5.03695058e-003
      -4.93955193e-003 1.70855958e-003 -9.40905767e-004 2.05489388e-003
      -2.17863580e-005 7.00252480e-004 -2.14112410e-003 2.93724705e-003
      -5.03695058e-003 -4.93955193e-003 1.70855958e-003 -9.40905767e-004
      2.05489388e-003 -2.17863580e-005 7.00252480e-004 -2.14112410e-003
      2.93724705e-003 -5.03695058e-003 -4.93955193e-003 1.70855958e-003
      -9.40905767e-004 2.05489388e-003 -2.17863580e-005 7.00252480e-004
      -2.14112410e-003 2.93724705e-003 -5.03695058e-003 -4.93955193e-003
      1.70855958e-003 -9.40905767e-004 2.05489388e-003 -2.17863580e-005
      7.00252480e-004 -2.14112410e-003 2.93724705e-003 -5.03695058e-003
      -4.93955193e-003 1.70855958e-003 -9.40905767e-004 2.05489388e-003
      -2.17863580e-005 7.00252480e-004 -2.14112410e-003 2.93724705e-003
      -5.03695058e-003 -4.93955193e-003 1.70855958e-003 -9.40905767e-004
      2.05489388e-003 -2.17863580e-005 7.00252480e-004 -2.14112410e-003
      2.93724705e-003 -5.03695058e-003 -4.93955193e-003 1.70855958e-003
      -9.40905767e-004 2.05489388e-003 -2.17863580e-005 7.00252480e-004
      -2.14112410e-003 2.93724705e-003 -5.03695058e-003 -4.93955193e-003
      1.70855958e-003 -9.40905767e-004 2.05489388e-003 -2.17863580e-005
      7.00252480e-004 -2.14112410e-003 2.93724705e-003 -5.03695058e-003
      -4.93955193e-003 1.70855958e-003 -9.40905767e-004 2.05489388e-003
      -2.17863580e-005 7.00252480e-004 -2.14112410e-003 2.93724705e-003
      -5.03695058e-003 -4.93955193e-003 1.70855958e-003 -9.40905767e-004
      2.05489388e-003 -2.17863580e-005 7.00252480e-004 -2.14112410e-003
      2.93724705e-003 -5.03695058e-003 -4.93955193e-003 1.70855958e-003
      -9.40905767e-004 2.05489388e-003 -2.17863580e-005 7.00252480e-004
      -2.14112410e-003 2.93724705e-003 -5.03695058e-003 -4.93955193e-003
      1.70855958e-003 -9.40905767e-004 2.05489388e-003 -2.17863580e-005
      7.00252480e-004 -2.14112410e-003 2.93724705e-003 -5.03695058e-003
      -4.93955193e-003 1.70855958e-003 -9.40905767e-004 2.05489388e-003
      -2.17863580e-005 7.00252480e-004 -2.14112410e-003 2.93724705e-003
      -5.03695058e-003 -4.93955193e-003 1.70855958e-003 -9.40905767e-004
      2.05489388e-003 -2.17863580e-005 7.00252480e-004 -2.14112410e-003
      2.93724705e-003 -5.03695058e-003 -4.93955193e-003 1.70855958e-003
      -9.40905767e-004 2.05489388e-003 -2.17863580e-005 7.00252480e-004
      -2.14112410e-003 2.93724705e-003 -5.03695058e-003 -4.93955193e-003
      1.70855958e-003 -9.40905767e-004 2.05489388e-003 -2.17863580e-005
      7.00252480e-004 -2.14112410e-003 2.93724705e-003 -5.03695058e-003
      -4.93955193e-003 1.70855958e-003 -9.40905767e-004 2.05489388e-003
      -2.17863580e-005 7.00252480e-004 -2.14112410e-003 2.93724705e-003
      -5.03695058e-003 -4.93955193e-003 1.70855958e-003 -9.40905767e-004
      2.05489388e-003 -2.17863580e-005 7.00252480e-004 -2.14112410e-003
      2.93724705e-003 -5.03695058e-003 -4.93955193e-003 1.70855958e-003
      -9.40905767e-004 2.05489388e-003 -2.17863580e-005 7.00252480e-004
      -2.14112410e-003 2.93724705e-003 -5.03695058e-003 -4.93955193e-003
      1.70855958e-003 -9.40905767e-004 2.05489388e-003 -2.17863580e-005
      7.00252480e-004 -2.14112410e-003 2.93724705e-003 -5.03695058e-003
      -4.93955193e-003 1.70855958e-003 -9.40905767e-004 2.05489388e-003
      -2.17863580e-005 7.00252480e-004 -2.14112410e-003 2.93724705e-003
      -5.03695058e-003 -4.93955193e-003 1.70855958e-003 -9.40905767e-004
      2.05489388e-003 -2.17863580e-005 7.00252480e-004 -2.14112410e-003
      2.93724705e-003 -5.03695058e-003 -4.93955193e-003 1.70855958e-003
      -9.40905767e-004 2.05489388e-003 -2.17863580e-005 7.00252480e-004
      -2.14112410e-003 2.93724705e-003 -5.03695058e-003 -4.93955193e-003
      1.70855958e-003 -9.40905767e-004 2.05489388e-003 -2.17863580e-005
      7.00252480e-004 -2.14112410e-003 2.93724705e-003 -5.03695058e-003
      -4.93955193e-003 1.70855958e-003 -9.40905767e-004 2.05489388e-003
      -2.17863580e-005 7.00252480e-004 -2.14112410e-003 2.93724705e-003
      -5.03695058e-003 -4.93955193e-003 1.70855958e-003 -9.40905767e-004
      2.05489388e-003 -2.17863580e-005 7.00252480e-004 -2.14112410e-003
      2.93724705e-003 -5.03695058e-003 -4.93955193e-003 1.70855958e-003
      -9.40905767e-004 2.05489388e-003 -2.17863580e-005 7.00252480e-004
      -2.14112410e-003 2.93724705e-003 -5.03695058e-003 -4.93955193e-003
      1.70855958e-003 -9.40905767e-004 2.05489388e-003 -2.17863580e-005
      7.00252480e-004 -2.14112410e-003 2.93724705e-003 -5.03695058e-003
      -4.93955193e-003 1.70855958e-003 -9.40905767e-004 2.05489388e-003
      -2.17863580e-005 7.00252480e-004 -2.14112410e-003 2.93724705e-003
      -5.03695058e-003 -4.93955193e-003 1.70855958e-003 -9.40905767e-004
      2.05489388e-003 -2.17863580e-005 7.00252480e-004 -2.14112410e-003
      2.93724705e-003 -5.03695058e-003 -4.93955193e-003 1.70855958e-003
      -9.40905767e-004 2.05489388e-003 -2.17863580e-005 7.00252480e-004
      -2.14112410e-003 2.93724705e-003 -5.03695058e-003 -4.93955193e-003
      1.70855958e-003 -9.40905767e-004 2.05489388e-003 -2.17863580e-005
      7.00252480e-004 -2.14112410e-003 2.93724705e-003 -5.03695058e-003
      -4.93955193e-003 1.70855958e-003 -9.40905767e-004 2.05489388e-003
      -2.17863580e-005 7.00252480e-004 -2.14112410e-003 2.93724705e-003
      -5.03695058e-003 -4.93955193e-003 1.70855958e-003 -9.40905767e-004
      2.05489388e-003 -2.17863580e-005 7.00252480e-004 -2.14112410e-003
      2.93724705e-003 -5.03695058e-003 -4.93955193e-003 1.70855958e-003
      -9.40905767e-004 2.05489388e-003 -2.17863580e-005 7.00252480e-004
      -2.14112410e-003 2.93724705e-003 -5.03695058e-003 -4.93955193e-003
      1.70855958e-003 -9.40905767e-004 2.05489388e-003 -2.17863580e-005
      7.00252480e-004 -2.14112410e-003 2.93724705e-003 -5.03695058e-003
      -4.93955193e-003 1.70855958e-003 -9.40905767e-004 2.05489388e-003
      -2.17863580e-005 7.00252480e-004 -2.14112410e-003 2.93724705e-003
      -5.03695058e-003 -4.93955193e-003 1.70855958e-003 -9.40905767e-004
      2.05489388e-003 -2.17863580e-005 7.00252480e-004 -2.14112410e-003
      2.93724705e-003 -5.03695058e-003 -4.93955193e-003 1.70855958e-003
      -9.40905767e-004 2.05489388e-003 -2.17863580e-005 7.00252480e-004
      -2.14112410e-003 2.93724705e-003 -5.03695058e-003 -4.93955193e-003
      1.70855958e-003 -9.40905767e-004 2.05489388e-003 -2.17863580e-005
      7.00252480e-004 -2.14112410e-003 2.93724705e-003 -5.03695058e-003
      -4.93955193e-003 1.70855958e-003 -9.40905767e-004 2.05489388e-003
      -2.17863580e-005 7.00252480e-004 -2.14112410e-003 2.93724705e-003
      -5.03695058e-003 -4.93955193e-003 1.70855958e-003 -9.40905767e-004
      2.05489388e-003 -2.17863580e-005 7.00252480e-004 -2.14112410e-003
      2.93724705e-003 -5.03695058e-003 -4.93955193e-003 1.70855958e-003
      -9.40905767e-004 2.05489388e-003 -2.17863580e-005 7.00252480e-004
      -2.14112410e-003 2.93724705e-003 -5.03695058e-003 -4.93955193e-003
      1.70855958e-003 -9.40905767e-004 2.05489388e-003 -2.17863580e-005
      7.00252480e-004 -2.14112410e-003 2.93724705e-003 -5.03695058e-003
      -4.93955193e-003 1.70855958e-003 -9.40905767e-004 2.05489388e-003
      -2.17863580e-005 7.00252480e-004 -2.14112410e-003 2.93724705e-003
      -5.03695058e-003 -4.93955193e-003 1.70855958e-003 -9.40905767e-004
      2.05489388e-003 -2.17863580e-005 7.00252480e-004 -2.14112410e-003
      2.93724705e-003 -5.03695058e-003 -4.93955193e-003 1.70855958e-003
      -9.40905767e-004 2.05489388e-003 -2.17863580e-005 7.00252480e-004
      -2.14112410e-003 2.93724705e-003 -5.03695058e-003 -4.93955193e-003
      1.70855958e-003 -9.40905767e-004 2.05489388e-003 -2.17863580e-005
      7.00252480e-004 -2.14112410e-003 2.93724705e-003 -5.03695058e-003
      -4.93955193e-003 1.70855958e-003 -9.40905767e-004 2.05489388e-003
      -2.17863580e-005 7.00252480e-004 -2.14112410e-003 2.93724705e-003
      -5.03695058e-003 -4.93955193e-003 1.70855958e-003 -9.40905767e-004
      2.05489388e-003 -2.17863580e-005 7.00252480e-004 -2.14112410e-003
      2.93724705e-003 -5.03695058e-003 -4.93955193e-003 1.70855958e-003
      -9.40905767e-004 2.05489388e-003 -2.17863580e-005 7.00252480e-004
      -2.14112410e-003 2.93724705e-003 -5.03695058e-003 -4.93955193e-003
      1.70855958e-003 -9.40905767e-004 2.05489388e-003 -2.17863580e-005
      7.00252480e-004 -2.14112410e-003 2.93724705e-003 -5.03695058e-003
      -4.93955193e-003 1.70855958e-003 -9.40905767e-004 2.05489388e-003
      -2.17863580e-005 7.00252480e-004 -2.14112410e-003 2.93724705e-003
      -5.03695058e-003 -4.93955193e-003 1.70855958e-003 -9.40905767e-004
      2.05489388e-003 -2.17863580e-005 7.00252480e-004 -2.14112410e-003
      2.93724705e-003 -5.03695058e-003 -4.93955193e-003 1.70855958e-003
      -9.40905767e-004 2.05489388e-003 -2.17863580e-005 7.00252480e-004
      -2.14112410e-003 2.93724705e-003 -5.03695058e-003 -4.93955193e-003
      1.70855958e-003 -9.40905767e-004 2.05489388e-003 -2.17863580e-005
      7.00252480e-004 -2.14112410e-003 2.93724705e-003 -5.03695058e-003
      -4.93955193e-003 1.70855958e-003 -9.40905767e-004 2.05489388e-003
      -2.17863580e-005 7.00252480e-004 -2.14112410e-003 2.93724705e-003
      -5.03695058e-003 -4.93955193e-003 1.70855958e-003 -9.40905767e-004
      2.05489388e-003 -2.17863580e-005 7.00252480e-004 -2.14112410e-003
      2.93724705e-003 -5.03695058e-003 -4.93955193e-003 1.70855958e-003
      -9.40905767e-004 2.05489388e-003 -2.17863580e-005 7.00252480e-004
      -2.14112410e-003 2.93724705e-003 -5.03695058e-003 -4.93955193e-003
      1.70855958e-003 -9.40905767e-004 2.05489388e-003 -2.17863580e-005
      7.00252480e-004 -2.14112410e-003 2.93724705e-003 -5.03695058e-003
      -4.93955193e-003 1.70855958e-003 -9.40905767e-004 2.05489388e-003
      -2.17863580e-005 7.00252480e-004 -2.14112410e-003 2.93724705e-003
      -5.03695058e-003 -4.93955193e-003 1.70855958e-003 -9.40905767e-004
      2.05489388e-003 -2.17863580e-005 7.00252480e-004 -2.14112410e-003
      2.93724705e-003 -5.03695058e-003 -4.93955193e-003 1.70855958e-003
      -9.40905767e-004 2.05489388e-003 -2.17863580e-005 7.00252480e-004
      -2.14112410e-003 2.93724705e-003 -5.03695058e-003 -4.93955193e-003
      1.70855958e-003 -9.40905767e-004 2.05489388e-003 -2.17863580e-005
      7.00252480e-004 -2.14112410e-003 2.93724705e-003 -5.03695058e-003
      -4.93955193e-003 1.70855958e-003 -9.40905767e-004 2.05489388e-003
      -2.17863580e-005 7.00252480e-004 -2.14112410e-003 2.93724705e-003
      -5.03695058e-003 -4.93955193e-003 1.70855958e-003 -9.40905767e-004
      2.05489388e-003 -2.17863580e-005 7.00252480e-004 -2.14112410e-003
      2.93724705e-003 -5.03695058e-003 -4.93955193e-003 1.70855958e-003
      -9.40905767e-004 2.05489388e-003 -2.17863580e-005 7.00252480e-004
      -2.14112410e-003 2.93724705e-003 -5.03695058e-003 -4.93955193e-003
      1.70855958e-003 -9.40905767e-004 2.05489388e-003 -2.17863580e-005
      7.00252480e-004 -2.14112410e-003 2.93724705e-003 -5.03695058e-003
      -4.93955193e-003 1.70855958e-003 -9.40905767e-004 2.05489388e-003
      -2.17863580e-005 7.00252480e-004 -2.14112410e-003 2.93724705e-003
      -5.03695058e-003 -4.93955193e-003 1.70855958e-003 -9.40905767e-004
      2.05489388e-003 -2.17863580e-005 7.00252480e-004 -2.14112410e-003
      2.93724705e-003 -5.03695058e-003 -4.93955193e-003 1.70855958e-003
      -9.40905767e-004 2.05489388e-003 -2.17863580e-005 7.00252480e-004
      -2.14112410e-003 2.93724705e-003 -5.03695058e-003 -4.93955193e-003
      1.70855958e-003 -9.40905767e-004 2.05489388e-003 -2.17863580e-005
      7.00252480e-004 -2.14112410e-003 2.93724705e-003 -5.03695058e-003
      -4.93955193e-003 1.70855958e-003 -9.40905767e-004 2.05489388e-003
      -2.17863580e-005 7.00252480e-004 -2.14112410e-003 2.93724705e-003
      -5.03695058e-003 -4.93955193e-003 1.70855958e-003 -9.40905767e-004
      2.05489388e-003 -2.17863580e-005 7.00252480e-004 -2.14112410e-003
      2.93724705e-003 -5.03695058e-003 -4.93955193e-003 1.70855958e-003
      -9.40905767e-004 2.05489388e-003 -2.17863580e-005 7.00252480e-004
      -2.14112410e-003 2.93724705e-003 -5.03695058e-003 -4.93955193e-003
      1.70855958e-003 -9.40905767e-004 2.05489388e-003 -2.17863580e-005
      7.00252480e-004 -2.14112410e-003 2.93724705e-003 -5.03695058e-003
      -4.93955193e-003 1.70855958e-003 -9.40905767e-004 2.05489388e-003
      -2.17863580e-005 7.00252480e-004 -2.14112410e-003 2.93724705e-003
      -5.03695058e-003 -4.93955193e-003 1.70855958e-003 -9.40905767e-004
      2.05489388e-003 -2.17863580e-005 7.00252480e-004 -2.14112410e-003
      2.93724705e-003 -5.03695058e-003 -4.93955193e-003 1.70855958e-003
      -9.40905767e-004 2.05489388e-003 -2.17863580e-005 7.00252480e-004
      -2.14112410e-003 2.93724705e-003 -5.03695058e-003 -4.93955193e-003
      1.70855958e-003 -9.40905767e-004 2.05489388e-003 -2.17863580e-005
      7.00252480e-004 -2.14112410e-003 2.93724705e-003 -5.03695058e-003
      -4.93955193e-003 1.70855958e-003 -9.40905767e-004 2.05489388e-003
      -2.17863580e-005 7.00252480e-004 -2.14112410e-003 2.93724705e-003
      -5.03695058e-003 -4.93955193e-003 1.70855958e-003 -9.40905767e-004
      2.05489388e-003 -2.17863580e-005 7.00252480e-004 -2.14112410e-003
      2.93724705e-003 -5.03695058e-003 -4.93955193e-003 1.70855958e-003
      -9.40905767e-004 2.05489388e-003 -2.17863580e-005 7.00252480e-004
      -2.14112410e-003 2.93724705e-003 -5.03695058e-003 -4.93955193e-003
      1.70855958e-003 -9.40905767e-004 2.05489388e-003 -2.17863580e-005
      7.00252480e-004 -2.14112410e-003 2.93724705e-003 -5.03695058e-003
      -4.93955193e-003 1.70855958e-003 -9.40905767e-004 2.05489388e-003
      -2.17863580e-005 7.00252480e-004 -2.14112410e-003 2.93724705e-003
      -5.03695058e-003 -4.93955193e-003 1.70855958e-003 -9.40905767e-004
      2.05489388e-003 -2.17863580e-005 7.00252480e-004 -2.14112410e-003
      2.93724705e-003 -5.03695058e-003 -4.93955193e-003 1.70855958e-003
      -9.40905767e-004 2.05489388e-003 -2.17863580e-005 7.00252480e-004
      -2.14112410e-003 2.93724705e-003 -5.03695058e-003 -4.93955193e-003
      1.70855958e-003 -9.40905767e-004 2.05489388e-003 -2.17863580e-005
      7.00252480e-004 -2.14112410e-003 2.93724705e-003 -5.03695058e-003
      -4.93955193e-003 1.70855958e-003 -9.40905767e-004 2.05489388e-003
      -2.17863580e-005 7.00252480e-004 -2.14112410e-003 2.93724705e-003
      -5.03695058e-003 -4.93955193e-003 1.70855958e-003 -9.40905767e-004
      2.05489388e-003 -2.17863580e-005 7.00252480e-004 -2.14112410e-003
      2.93724705e-003 -5.03695058e-003 -4.93955193e-003 1.70855958e-003
      -9.40905767e-004 2.05489388e-003 -2.17863580e-005 7.00252480e-004
      -2.14112410e-003 2.93724705e-003 -5.03695058e-003 -4.93955193e-003
      1.70855958e-003 -9.40905767e-004 2.05489388e-003 -2.17863580e-005
      7.00252480e-004 -2.14112410e-003 2.93724705e-003 -5.03695058e-003
      -4.93955193e-003 1.70855958e-003 -9.40905767e-004 2.05489388e-003
      -2.17863580e-005 7.00252480e-004 -2.14112410e-003 2.93724705e-003
      -5.03695058e-003 -4.93955193e-003 1.70855958e-003 -9.40905767e-004
      2.05489388e-003 -2.17863580e-005 7.00252480e-004 -2.14112410e-003
      2.93724705e-003 -5.03695058e-003 -4.93955193e-003 1.70855958e-003
      -9.40905767e-004 2.05489388e-003 -2.17863580e-005 7.00252480e-004
      -2.14112410e-003 2.93724705e-003 -5.03695058e-003 -4.93955193e-003
      1.70855958e-003 -9.40905767e-004 2.05489388e-003 -2.17863580e-005
      7.00252480e-004 -2.14112410e-003 2.93724705e-003 -5.03695058e-003
      -4.93955193e-003 1.70855958e-003 -9.40905767e-004 2.05489388e-003
      -2.17863580e-005 7.00252480e-004 -2.14112410e-003 2.93724705e-003
      -5.03695058e-003 -4.93955193e-003 1.70855958e-003 -9.40905767e-004
      2.05489388e-003 -2.17863580e-005 7.00252480e-004 -2.14112410e-003
      2.93724705e-003 -5.03695058e-003 -4.93955193e-003 1.70855958e-003
      -9.40905767e-004 2.05489388e-003 -2.17863580e-005 7.00252480e-004
      -2.14112410e-003 2.93724705e-003 -5.03695058e-003 -4.93955193e-003
      1.70855958e-003 -9.40905767e-004 2.05489388e-003 -2.17863580e-005
      7.00252480e-004 -2.14112410e-003 2.93724705e-003 -5.03695058e-003
      -4.93955193e-003 1.70855958e-003 -9.40905767e-004 2.05489388e-003
      -2.17863580e-005 7.00252480e-004 -2.14112410e-003 2.93724705e-003
      -5.03695058e-003 -4.93955193e-003 1.70855958e-003 -9.40905767e-004
      2.05489388e-003 -2.17863580e-005 7.00252480e-004 -2.14112410e-003
      2.93724705e-003 -5.03695058e-003 -4.93955193e-003 1.70855958e-003
      -9.40905767e-004 2.05489388e-003 -2.17863580e-005 7.00252480e-004
      -2.14112410e-003 2.93724705e-003 -5.03695058e-003 -4.93955193e-003
      1.70855958e-003 -9.40905767e-004 2.05489388e-003 -2.17863580e-005
      7.00252480e-004 -2.14112410e-003 2.93724705e-003 -5.03695058e-003
      -4.93955193e-003 1.70855958e-003 -9.40905767e-004 2.05489388e-003
      -2.17863580e-005 7.00252480e-004 -2.14112410e-003 2.93724705e-003
      -5.03695058e-003 -4.93955193e-003 1.70855958e-003 -9.40905767e-004
      2.05489388e-003 -2.17863580e-005 7.00252480e-004 -2.14112410e-003
      2.93724705e-003 -5.03695058e-003 -4.93955193e-003 1.70855958e-003
      -9.40905767e-004 2.05489388e-003 -2.17863580e-005 7.00252480e-004
      -2.14112410e-003 2.93724705e-003 -5.03695058e-003 -4.93955193e-003
      1.70855958e-003 -9.40905767e-004 2.05489388e-003 -2.17863580e-005
      7.00252480e-004 -2.14112410e-003 2.93724705e-003 -5.03695058e-003
      -4.93955193e-003 1.70855958e-003 -9.40905767e-004 2.05489388e-003
      -2.17863580e-005 7.00252480e-004 -2.14112410e-003 2.93724705e-003
      -5.03695058e-003 -4.93955193e-003 1.70855958e-003 -9.40905767e-004
      2.05489388e-003 -2.17863580e-005 7.00252480e-004 -2.14112410e-003
      2.93724705e-003 -5.03695058e-003 -4.93955193e-003 1.70855958e-003
      -9.40905767e-004 2.05489388e-003 -2.17863580e-005 7.00252480e-004
      -2.14112410e-003 2.93724705e-003 -5.03695058e-003 -4.93955193e-003
      1.70855958e-003 -9.40905767e-004 2.05489388e-003 -2.17863580e-005
      7.00252480e-004 -2.14112410e-003 2.93724705e-003 -5.03695058e-003
      -4.93955193e-003 1.70855958e-003 -9.40905767e-004 2.05489388e-003
      -2.17863580e-005 7.00252480e-004 -2.14112410e-003 2.93724705e-003
      -5.03695058e-003 -4.93955193e-003 1.70855958e-003 -9.40905767e-004
      2.05489388e-003 -2.17863580e-005 7.00252480e-004 -2.14112410e-003
      2.93724705e-003 -5.03695058e-003 -4.93955193e-003 1.70855958e-003
      -9.40905767e-004 2.05489388e-003 -2.17863580e-005 7.00252480e-004
      -2.14112410e-003 2.93724705e-003 -5.03695058e-003 -4.93955193e-003
      1.70855958e-003 -9.40905767e-004 2.05489388e-003 -2.17863580e-005
      7.00252480e-004 -2.14112410e-003 2.93724705e-003 -5.03695058e-003
      -4.93955193e-003 1.70855958e-003 -9.40905767e-004 2.05489388e-003
      -2.17863580e-005 7.00252480e-004 -2.14112410e-003 2.93724705e-003
      -5.03695058e-003 -4.93955193e-003 1.70855958e-003 -9.40905767e-004
      2.05489388e-003 -2.17863580e-005 7.00252480e-004 -2.14112410e-003
      2.93724705e-003 -5.03695058e-003 -4.93955193e-003 1.70855958e-003
      -9.40905767e-004 2.05489388e-003 -2.17863580e-005 7.00252480e-004
      -2.14112410e-003 2.93724705e-003 -5.03695058e-003 -4.93955193e-003
      1.70855958e-003 -9.40905767e-004 2.05489388e-003 -2.17863580e-005
      7.00252480e-004 -2.14112410e-003 2.93724705e-003 -5.03695058e-003
      -4.93955193e-003 1.70855958e-003 -9.40905767e-004 2.05489388e-003
      -2.17863580e-005 7.00252480e-004 -2.14112410e-003 2.93724705e-003
      -5.03695058e-003 -4.93955193e-003 1.70855958e-003 -9.40905767e-004
      2.05489388e-003 -2.17863580e-005 7.00252480e-004 -2.14112410e-003
      2.93724705e-003 -5.03695058e-003 -4.93955193e-003 1.70855958e-003
      -9.40905767e-004 2.05489388e-003 -2.17863580e-005 7.00252480e-004
      -2.14112410e-003 2.93724705e-003 -5.03695058e-003 -4.93955193e-003
      1.70855958e-003 -9.40905767e-004 2.05489388e-003 -2.17863580e-005
      7.00252480e-004 -2.14112410e-003 2.93724705e-003 -5.03695058e-003
      -4.93955193e-003 1.70855958e-003 -9.40905767e-004 2.05489388e-003
      -2.17863580e-005 7.00252480e-004 -2.14112410e-003 2.93724705e-003
      -5.03695058e-003 -4.93955193e-003 1.70855958e-003 -9.40905767e-004
      2.05489388e-003 -2.17863580e-005 7.00252480e-004 -2.14112410e-003
      2.93724705e-003 -5.03695058e-003 -4.93955193e-003 1.70855958e-003
      -9.40905767e-004 2.05489388e-003 -2.17863580e-005 7.00252480e-004
      -2.14112410e-003 2.93724705e-003 -5.03695058e-003 -4.93955193e-003
      1.70855958e-003 -9.40905767e-004 2.05489388e-003 -2.17863580e-005
      7.00252480e-004 -2.14112410e-003 2.93724705e-003 -5.03695058e-003
      -4.93955193e-003 1.70855958e-003 -9.40905767e-004 2.05489388e-003
      -2.17863580e-005 7.00252480e-004 -2.14112410e-003 2.93724705e-003
      -5.03695058e-003 -4.93955193e-003 1.70855958e-003 -9.40905767e-004
      2.05489388e-003 -2.17863580e-005 7.00252480e-004 -2.14112410e-003
      2.93724705e-003 -5.03695058e-003 -4.93955193e-003 1.70855958e-003
      -9.40905767e-004 2.05489388e-003 -2.17863580e-005 7.00252480e-004
      -2.14112410e-003 2.93724705e-003 -5.03695058e-003 -4.93955193e-003
      1.70855958e-003 -9.40905767e-004 2.05489388e-003 -2.17863580e-005
      7.00252480e-004 -2.14112410e-003 2.93724705e-003 -5.03695058e-003
      -4.93955193e-003 1.70855958e-003 -9.40905767e-004 2.05489388e-003
      -2.17863580e-005 7.00252480e-004 -2.14112410e-003 2.93724705e-003
      -5.03695058e-003 -4.93955193e-003 1.70855958e-003 -9.40905767e-004
      2.05489388e-003 -2.17863580e-005 7.00252480e-004 -2.14112410e-003
      2.93724705e-003 -5.03695058e-003 -4.93955193e-003 1.70855958e-003
      -9.40905767e-004 2.05489388e-003 -2.17863580e-005 7.00252480e-004
      -2.14112410e-003 2.93724705e-003 -5.03695058e-003 -4.93955193e-003
      1.70855958e-003 -9.40905767e-004 2.05489388e-003 -2.17863580e-005
      7.00252480e-004 -2.14112410e-003 2.93724705e-003 -5.03695058e-003
      -4.93955193e-003 1.70855958e-003 -9.40905767e-004 2.05489388e-003
      -2.17863580e-005 7.00252480e-004 -2.14112410e-003 2.93724705e-003
      -5.03695058e-003 -4.93955193e-003 1.70855958e-003 -9.40905767e-004
      2.05489388e-003 -2.17863580e-005 7.00252480e-004 -2.14112410e-003
      2.93724705e-003 -5.03695058e-003 -4.93955193e-003 1.70855958e-003
      -9.40905767e-004 2.05489388e-003 -2.17863580e-005 7.00252480e-004
      -2.14112410e-003 2.93724705e-003 -5.03695058e-003 -4.93955193e-003
      1.70855958e-003 -9.40905767e-004 2.05489388e-003 -2.17863580e-005
      7.00252480e-004 -2.14112410e-003 2.93724705e-003 -5.03695058e-003
      -4.93955193e-003 1.70855958e-003 -9.40905767e-004 2.05489388e-003
      -2.17863580e-005 7.00252480e-004 -2.14112410e-003 2.93724705e-003
      -5.03695058e-003 -4.93955193e-003 1.70855958e-003 -9.40905767e-004
      2.05489388e-003 -2.17863580e-005 7.00252480e-004 -2.14112410e-003
      2.93724705e-003 -5.03695058e-003 -4.93955193e-003 1.70855958e-003
      -9.40905767e-004 2.05489388e-003 -2.17863580e-005 7.00252480e-004
      -2.14112410e-003 2.93724705e-003 -5.03695058e-003 -4.93955193e-003
      1.70855958e-003 -9.40905767e-004 2.05489388e-003 -2.17863580e-005
      7.00252480e-004 -2.14112410e-003 2.93724705e-003 -5.03695058e-003
      -4.93955193e-003 1.70855958e-003 -9.40905767e-004 2.05489388e-003
      -2.17863580e-005 7.00252480e-004 -2.14112410e-003 2.93724705e-003
      -5.03695058e-003 -4.93955193e-003 1.70855958e-003 -9.40905767e-004
      2.05489388e-003 -2.17863580e-005 7.00252480e-004 -2.14112410e-003
      2.93724705e-003 -5.03695058e-003 -4.93955193e-003 1.70855958e-003
      -9.40905767e-004 2.05489388e-003 -2.17863580e-005 7.00252480e-004
      -2.14112410e-003 2.93724705e-003 -5.03695058e-003 -4.93955193e-003
      1.70855958e-003 -9.40905767e-004 2.05489388e-003 -2.17863580e-005
      7.00252480e-004 -2.14112410e-003 2.93724705e-003 -5.03695058e-003
      -4.93955193e-003 1.70855958e-003 -9.40905767e-004 2.05489388e-003
      -2.17863580e-005 7.00252480e-004 -2.14112410e-003 2.93724705e-003
      -5.03695058e-003 -4.93955193e-003 1.70855958e-003 -9.40905767e-004
      2.05489388e-003 -2.17863580e-005 7.00252480e-004 -2.14112410e-003
      2.93724705e-003 -5.03695058e-003 -4.93955193e-003 1.70855958e-003
      -9.40905767e-004 2.05489388e-003 -2.17863580e-005 7.00252480e-004
      -2.14112410e-003 2.93724705e-003 -5.03695058e-003 -4.93955193e-003
