<?xml version="1.0"?>
<opencv_storage>
<opencv_ml_svm>
  <format>3</format>
  <svmType>C_SVC</svmType>
  <kernel>
    <type>LINEAR</type></kernel>
  <C>1.</C>
  <term_criteria><iterations>1000</iterations></term_criteria>
  <var_count>21060</var_count>
  <class_count>2</class_count>
  <class_labels type_id="opencv-matrix">
    <rows>2</rows>
    <cols>1</cols>
    <dt>i</dt>
    <data>
      0 1</data></class_labels>
  <sv_total>1</sv_total>
  <support_vectors>
    <_>
      -1.90640427e-003 9.34841635e-004 -9.35352687e-003 8.57541710e-003
      6.72071520e-003 -4.72076843e-003 -4.10823675e-004 1.50091955e-002
      1.09490231e-002 -1.90640427e-003 9.34841635e-004 -9.35352687e-003
      8.57541710e-003 6.72071520e-003 -4.72076843e-003 -4.10823675e-004
      1.50091955e-002 1.09490231e-002 -1.90640427e-003 9.34841635e-004
      -9.35352687e-003 8.57541710e-003 6.72071520e-003 -4.72076843e-003
      -4.10823675e-004 1.50091955e-002 1.09490231e-002 -1.90640427e-003
      9.34841635e-004 -9.35352687e-003 8.57541710e-003 6.72071520e-003
      -4.72076843e-003 -4.10823675e-004 1.50091955e-002 1.09490231e-002
      -1.90640427e-003 9.34841635e-004 -9.35352687e-003 8.57541710e-003
      6.72071520e-003 -4.72076843e-003 -4.10823675e-004 1.50091955e-002
      1.09490231e-002 -1.90640427e-003 9.34841635e-004 -9.35352687e-003
      8.57541710e-003 6.72071520e-003 -4.72076843e-003 -4.10823675e-004
      1.50091955e-002 1.09490231e-002 -1.90640427e-003 9.34841635e-004
      -9.35352687e-003 8.57541710e-003 6.72071520e-003 -4.72076843e-003
      -4.10823675e-004 1.50091955e-002 1.09490231e-002 -1.90640427e-003
      9.34841635e-004 -9.35352687e-003 8.57541710e-003 6.72071520e-003
      -4.72076843e-003 -4.10823675e-004 1.50091955e-002 1.09490231e-002
      -1.90640427e-003 9.34841635e-004 -9.35352687e-003 8.57541710e-003
      6.72071520e-003 -4.72076843e-003 -4.10823675e-004 1.50091955e-002
      1.09490231e-002 -1.90640427e-003 9.34841635e-004 -9.35352687e-003
      8.57541710e-003 6.72071520e-003 -4.72076843e-003 -4.10823675e-004
      1.50091955e-002 1.09490231e-002 -1.90640427e-003 9.34841635e-004
      -9.35352687e-003 8.57541710e-003 6.72071520e-003 -4.72076843e-003
      -4.10823675e-004 1.50091955e-002 1.09490231e-002 -1.90640427e-003
      9.34841635e-004 -9.35352687e-003 8.57541710e-003 6.72071520e-003
      -4.72076843e-003 -4.10823675e-004 1.50091955e-002 1.09490231e-002
      -1.90640427e-003 9.34841635e-004 -9.35352687e-003 8.57541710e-003
      6.72071520e-003 -4.72076843e-003 -4.10823675e-004 1.50091955e-002
      1.09490231e-002 -1.90640427e-003 9.34841635e-004 -9.35352687e-003
      8.57541710e-003 6.72071520e-003 -4.72076843e-003 -4.10823675e-004
      1.50091955e-002 1.09490231e-002 -1.90640427e-003 9.34841635e-004
      -9.35352687e-003 8.57541710e-003 6.72071520e-003 -4.72076843e-003
      -4.10823675e-004 1.50091955e-002 1.09490231e-002 -1.90640427e-003
      9.34841635e-004 -9.35352687e-003 8.57541710e-003 6.72071520e-003
      -4.72076843e-003 -4.10823675e-004 1.50091955e-002 1.09490231e-002
      -1.90640427e-003 9.34841635e-004 -9.35352687e-003 8.57541710e-003
      6.72071520e-003 -4.72076843e-003 -4.10823675e-004 1.50091955e-002
      1.09490231e-002 -1.90640427e-003 9.34841635e-004 -9.35352687e-003
      8.57541710e-003 6.72071520e-003 -4.72076843e-003 -4.10823675e-004
      1.50091955e-002 1.09490231e-002 -1.90640427e-003 9.34841635e-004
      -9.35352687e-003 8.57541710e-003 6.72071520e-003 -4.72076843e-003
      -4.10823675e-004 1.50091955e-002 1.09490231e-002 -1.90640427e-003
      9.34841635e-004 -9.35352687e-003 8.57541710e-003 6.72071520e-003
      -4.72076843e-003 -4.10823675e-004 1.50091955e-002 1.09490231e-002
      -1.90640427e-003 9.34841635e-004 -9.35352687e-003 8.57541710e-003
      6.72071520e-003 -4.72076843e-003 -4.10823675e-004 1.50091955e-002
      1.09490231e-002 -1.90640427e-003 9.34841635e-004 -9.35352687e-003
      8.57541710e-003 6.72071520e-003 -4.72076843e-003 -4.10823675e-004
      1.50091955e-002 1.09490231e-002 -1.90640427e-003 9.34841635e-004
      -9.35352687e-003 8.57541710e-003 6.72071520e-003 -4.72076843e-003
      -4.10823675e-004 1.50091955e-002 1.09490231e-002 -1.90640427e-003
      9.34841635e-004 -9.35352687e-003 8.57541710e-003 6.72071520e-003
      -4.72076843e-003 -4.10823675e-004 1.50091955e-002 1.09490231e-002
      -1.90640427e-003 9.34841635e-004 -9.35352687e-003 8.57541710e-003
      6.72071520e-003 -4.72076843e-003 -4.10823675e-004 1.50091955e-002
      1.09490231e-002 -1.90640427e-003 9.34841635e-004 -9.35352687e-003
      8.57541710e-003 6.72071520e-003 -4.72076843e-003 -4.10823675e-004
      1.50091955e-002 1.09490231e-002 -1.90640427e-003 9.34841635e-004
      -9.35352687e-003 8.57541710e-003 6.72071520e-003 -4.72076843e-003
      -4.10823675e-004 1.50091955e-002 1.09490231e-002 -1.90640427e-003
      9.34841635e-004 -9.35352687e-003 8.57541710e-003 6.72071520e-003
      -4.72076843e-003 -4.10823675e-004 1.50091955e-002 1.09490231e-002
      -1.90640427e-003 9.34841635e-004 -9.35352687e-003 8.57541710e-003
      6.72071520e-003 -4.72076843e-003 -4.10823675e-004 1.50091955e-002
      1.09490231e-002 -1.90640427e-003 9.34841635e-004 -9.35352687e-003
      8.57541710e-003 6.72071520e-003 -4.72076843e-003 -4.10823675e-004
      1.50091955e-002 1.09490231e-002 -1.90640427e-003 9.34841635e-004
      -9.35352687e-003 8.57541710e-003 6.72071520e-003 -4.72076843e-003
      -4.10823675e-004 1.50091955e-002 1.09490231e-002 -1.90640427e-003
      9.34841635e-004 -9.35352687e-003 8.57541710e-003 6.72071520e-003
      -4.72076843e-003 -4.10823675e-004 1.50091955e-002 1.09490231e-002
      -1.90640427e-003 9.34841635e-004 -9.35352687e-003 8.57541710e-003
      6.72071520e-003 -4.72076843e-003 -4.10823675e-004 1.50091955e-002
      1.09490231e-002 -1.90640427e-003 9.34841635e-004 -9.35352687e-003
      8.57541710e-003 6.72071520e-003 -4.72076843e-003 -4.10823675e-004
      1.50091955e-002 1.09490231e-002 -1.90640427e-003 9.34841635e-004
      -9.35352687e-003 8.57541710e-003 6.72071520e-003 -4.72076843e-003
      -4.10823675e-004 1.50091955e-002 1.09490231e-002 -1.90640427e-003
      9.34841635e-004 -9.35352687e-003 8.57541710e-003 6.72071520e-003
      -4.72076843e-003 -4.10823675e-004 1.50091955e-002 1.09490231e-002
      -1.90640427e-003 9.34841635e-004 -9.35352687e-003 8.57541710e-003
      6.72071520e-003 -4.72076843e-003 -4.10823675e-004 1.50091955e-002
      1.09490231e-002 -1.90640427e-003 9.34841635e-004 -9.35352687e-003
      8.57541710e-003 6.72071520e-003 -4.72076843e-003 -4.10823675e-004
      1.50091955e-002 1.09490231e-002 -1.90640427e-003 9.34841635e-004
      -9.35352687e-003 8.57541710e-003 6.72071520e-003 -4.72076843e-003
      -4.10823675e-004 1.50091955e-002 1.09490231e-002 -1.90640427e-003
      9.34841635e-004 -9.35352687e-003 8.57541710e-003 6.72071520e-003
      -4.72076843e-003 -4.10823675e-004 1.50091955e-002 1.09490231e-002
      -1.90640427e-003 9.34841635e-004 -9.35352687e-003 8.57541710e-003
      6.72071520e-003 -4.72076843e-003 -4.10823675e-004 1.50091955e-002
      1.09490231e-002 -1.90640427e-003 9.34841635e-004 -9.35352687e-003
      8.57541710e-003 6.72071520e-003 -4.72076843e-003 -4.10823675e-004
      1.50091955e-002 1.09490231e-002 -1.90640427e-003 9.34841635e-004
      -9.35352687e-003 8.57541710e-003 6.72071520e-003 -4.72076843e-003
      -4.10823675e-004 1.50091955e-002 1.09490231e-002 -1.90640427e-003
      9.34841635e-004 -9.35352687e-003 8.57541710e-003 6.72071520e-003
      -4.72076843e-003 -4.10823675e-004 1.50091955e-002 1.09490231e-002
      -1.90640427e-003 9.34841635e-004 -9.35352687e-003 8.57541710e-003
      6.72071520e-003 -4.72076843e-003 -4.10823675e-004 1.50091955e-002
      1.09490231e-002 -1.90640427e-003 9.34841635e-004 -9.35352687e-003
      8.57541710e-003 6.72071520e-003 -4.72076843e-003 -4.10823675e-004
      1.50091955e-002 1.09490231e-002 -1.90640427e-003 9.34841635e-004
      -9.35352687e-003 8.57541710e-003 6.72071520e-003 -4.72076843e-003
      -4.10823675e-004 1.50091955e-002 1.09490231e-002 -1.90640427e-003
      9.34841635e-004 -9.35352687e-003 8.57541710e-003 6.72071520e-003
      -4.72076843e-003 -4.10823675e-004 1.50091955e-002 1.09490231e-002
      -1.90640427e-003 9.34841635e-004 -9.35352687e-003 8.57541710e-003
      6.72071520e-003 -4.72076843e-003 -4.10823675e-004 1.50091955e-002
      1.09490231e-002 -1.90640427e-003 9.34841635e-004 -9.35352687e-003
      8.57541710e-003 6.72071520e-003 -4.72076843e-003 -4.10823675e-004
      1.50091955e-002 1.09490231e-002 -1.90640427e-003 9.34841635e-004
      -9.35352687e-003 8.57541710e-003 6.72071520e-003 -4.72076843e-003
      -4.10823675e-004 1.50091955e-002 1.09490231e-002 -1.90640427e-003
      9.34841635e-004 -9.35352687e-003 8.57541710e-003 6.72071520e-003
      -4.72076843e-003 -4.10823675e-004 1.50091955e-002 1.09490231e-002
      -1.90640427e-003 9.34841635e-004 -9.35352687e-003 8.57541710e-003
      6.72071520e-003 -4.72076843e-003 -4.10823675e-004 1.50091955e-002
      1.09490231e-002 -1.90640427e-003 9.34841635e-004 -9.35352687e-003
      8.57541710e-003 6.72071520e-003 -4.72076843e-003 -4.10823675e-004
      1.50091955e-002 1.09490231e-002 -1.90640427e-003 9.34841635e-004
      -9.35352687e-003 8.57541710e-003 6.72071520e-003 -4.72076843e-003
      -4.10823675e-004 1.50091955e-002 1.09490231e-002 -1.90640427e-003
      9.34841635e-004 -9.35352687e-003 8.57541710e-003 6.72071520e-003
      -4.72076843e-003 -4.10823675e-004 1.50091955e-002 1.09490231e-002
      -1.90640427e-003 9.34841635e-004 -9.35352687e-003 8.57541710e-003
      6.72071520e-003 -4.72076843e-003 -4.10823675e-004 1.50091955e-002
      1.09490231e-002 -1.90640427e-003 9.34841635e-004 -9.35352687e-003
      8.57541710e-003 6.72071520e-003 -4.72076843e-003 -4.10823675e-004
      1.50091955e-002 1.09490231e-002 -1.90640427e-003 9.34841635e-004
      -9.35352687e-003 8.57541710e-003 6.72071520e-003 -4.72076843e-003
      -4.10823675e-004 1.50091955e-002 1.09490231e-002 -1.90640427e-003
      9.34841635e-004 -9.35352687e-003 8.57541710e-003 6.72071520e-003
      -4.72076843e-003 -4.10823675e-004 1.50091955e-002 1.09490231e-002
      -1.90640427e-003 9.34841635e-004 -9.35352687e-003 8.57541710e-003
      6.72071520e-003 -4.72076843e-003 -4.10823675e-004 1.50091955e-002
      1.09490231e-002 -1.90640427e-003 9.34841635e-004 -9.35352687e-003
      8.57541710e-003 6.72071520e-003 -4.72076843e-003 -4.10823675e-004
      1.50091955e-002 1.09490231e-002 -1.90640427e-003 9.34841635e-004
      -9.35352687e-003 8.57541710e-003 6.72071520e-003 -4.72076843e-003
      -4.10823675e-004 1.50091955e-002 1.09490231e-002 -1.90640427e-003
      9.34841635e-004 -9.35352687e-003 8.57541710e-003 6.72071520e-003
      -4.72076843e-003 -4.10823675e-004 1.50091955e-002 1.09490231e-002
      -1.90640427e-003 9.34841635e-004 -9.35352687e-003 8.57541710e-003
      6.72071520e-003 -4.72076843e-003 -4.10823675e-004 1.50091955e-002
      1.09490231e-002 -1.90640427e-003 9.34841635e-004 -9.35352687e-003
      8.57541710e-003 6.72071520e-003 -4.72076843e-003 -4.10823675e-004
      1.50091955e-002 1.09490231e-002 -1.90640427e-003 9.34841635e-004
      -9.35352687e-003 8.57541710e-003 6.72071520e-003 -4.72076843e-003
      -4.10823675e-004 1.50091955e-002 1.09490231e-002 -1.90640427e-003
      9.34841635e-004 -9.35352687e-003 8.57541710e-003 6.72071520e-003
      -4.72076843e-003 -4.10823675e-004 1.50091955e-002 1.09490231e-002
      -1.90640427e-003 9.34841635e-004 -9.35352687e-003 8.57541710e-003
      6.72071520e-003 -4.72076843e-003 -4.10823675e-004 1.50091955e-002
      1.09490231e-002 -1.90640427e-003 9.34841635e-004 -9.35352687e-003
      8.57541710e-003 6.72071520e-003 -4.72076843e-003 -4.10823675e-004
      1.50091955e-002 1.09490231e-002 -1.90640427e-003 9.34841635e-004
      -9.35352687e-003 8.57541710e-003 6.72071520e-003 -4.72076843e-003
      -4.10823675e-004 1.50091955e-002 1.09490231e-002 -1.90640427e-003
      9.34841635e-004 -9.35352687e-003 8.57541710e-003 6.72071520e-003
      -4.72076843e-003 -4.10823675e-004 1.50091955e-002 1.09490231e-002
      -1.90640427e-003 9.34841635e-004 -9.35352687e-003 8.57541710e-003
      6.72071520e-003 -4.72076843e-003 -4.10823675e-004 1.50091955e-002
      1.09490231e-002 -1.90640427e-003 9.34841635e-004 -9.35352687e-003
      8.57541710e-003 6.72071520e-003 -4.72076843e-003 -4.10823675e-004
      1.50091955e-002 1.09490231e-002 -1.90640427e-003 9.34841635e-004
      -9.35352687e-003 8.57541710e-003 6.72071520e-003 -4.72076843e-003
      -4.10823675e-004 1.50091955e-002 1.09490231e-002 -1.90640427e-003
      9.34841635e-004 -9.35352687e-003 8.57541710e-003 6.72071520e-003
      -4.72076843e-003 -4.10823675e-004 1.50091955e-002 1.09490231e-002
      -1.90640427e-003 9.34841635e-004 -9.35352687e-003 8.57541710e-003
      6.72071520e-003 -4.72076843e-003 -4.10823675e-004 1.50091955e-002
      1.09490231e-002 -1.90640427e-003 9.34841635e-004 -9.35352687e-003
      8.57541710e-003 6.72071520e-003 -4.72076843e-003 -4.10823675e-004
      1.50091955e-002 1.09490231e-002 -1.90640427e-003 9.34841635e-004
      -9.35352687e-003 8.57541710e-003 6.72071520e-003 -4.72076843e-003
      -4.10823675e-004 1.50091955e-002 1.09490231e-002 -1.90640427e-003
      9.34841635e-004 -9.35352687e-003 8.57541710e-003 6.72071520e-003
      -4.72076843e-003 -4.10823675e-004 1.50091955e-002 1.09490231e-002
      -1.90640427e-003 9.34841635e-004 -9.35352687e-003 8.57541710e-003
      6.72071520e-003 -4.72076843e-003 -4.10823675e-004 1.50091955e-002
      1.09490231e-002 -1.90640427e-003 9.34841635e-004 -9.35352687e-003
      8.57541710e-003 6.72071520e-003 -4.72076843e-003 -4.10823675e-004
      1.50091955e-002 1.09490231e-002 -1.90640427e-003 9.34841635e-004
      -9.35352687e-003 8.57541710e-003 6.72071520e-003 -4.72076843e-003
      -4.10823675e-004 1.50091955e-002 1.09490231e-002 -1.90640427e-003
      9.34841635e-004 -9.35352687e-003 8.57541710e-003 6.72071520e-003
      -4.72076843e-003 -4.10823675e-004 1.50091955e-002 1.09490231e-002
      -1.90640427e-003 9.34841635e-004 -9.35352687e-003 8.57541710e-003
      6.72071520e-003 -4.72076843e-003 -4.10823675e-004 1.50091955e-002
      1.09490231e-002 -1.90640427e-003 9.34841635e-004 -9.35352687e-003
      8.57541710e-003 6.72071520e-003 -4.72076843e-003 -4.10823675e-004
      1.50091955e-002 1.09490231e-002 -1.90640427e-003 9.34841635e-004
      -9.35352687e-003 8.57541710e-003 6.72071520e-003 -4.72076843e-003
      -4.10823675e-004 1.50091955e-002 1.09490231e-002 -1.90640427e-003
      9.34841635e-004 -9.35352687e-003 8.57541710e-003 6.72071520e-003
      -4.72076843e-003 -4.10823675e-004 1.50091955e-002 1.09490231e-002
      -1.90640427e-003 9.34841635e-004 -9.35352687e-003 8.57541710e-003
      6.72071520e-003 -4.72076843e-003 -4.10823675e-004 1.50091955e-002
      1.09490231e-002 -1.90640427e-003 9.34841635e-004 -9.35352687e-003
      8.57541710e-003 6.72071520e-003 -4.72076843e-003 -4.10823675e-004
      1.50091955e-002 1.09490231e-002 -1.90640427e-003 9.34841635e-004
      -9.35352687e-003 8.57541710e-003 6.72071520e-003 -4.72076843e-003
      -4.10823675e-004 1.50091955e-002 1.09490231e-002 -1.90640427e-003
      9.34841635e-004 -9.35352687e-003 8.57541710e-003 6.72071520e-003
      -4.72076843e-003 -4.10823675e-004 1.50091955e-002 1.09490231e-002
      -1.90640427e-003 9.34841635e-004 -9.35352687e-003 8.57541710e-003
      6.72071520e-003 -4.72076843e-003 -4.10823675e-004 1.50091955e-002
      1.09490231e-002 -1.90640427e-003 9.34841635e-004 -9.35352687e-003
      8.57541710e-003 6.72071520e-003 -4.72076843e-003 -4.10823675e-004
      1.50091955e-002 1.09490231e-002 -1.90640427e-003 9.34841635e-004
      -9.35352687e-003 8.57541710e-003 6.72071520e-003 -4.72076843e-003
      -4.10823675e-004 1.50091955e-002 1.09490231e-002 -1.90640427e-003
      9.34841635e-004 -9.35352687e-003 8.57541710e-003 6.72071520e-003
      -4.72076843e-003 -4.10823675e-004 1.50091955e-002 1.09490231e-002
      -1.90640427e-003 9.34841635e-004 -9.35352687e-003 8.57541710e-003
      6.72071520e-003 -4.72076843e-003 -4.10823675e-004 1.50091955e-002
      1.09490231e-002 -1.90640427e-003 9.34841635e-004 -9.35352687e-003
      8.57541710e-003 6.72071520e-003 -4.72076843e-003 -4.10823675e-004
      1.50091955e-002 1.09490231e-002 -1.90640427e-003 9.34841635e-004
      -9.35352687e-003 8.57541710e-003 6.72071520e-003 -4.72076843e-003
      -4.10823675e-004 1.50091955e-002 1.09490231e-002 -1.90640427e-003
      9.34841635e-004 -9.35352687e-003 8.57541710e-003 6.72071520e-003
      -4.72076843e-003 -4.10823675e-004 1.50091955e-002 1.09490231e-002
      -1.90640427e-003 9.34841635e-004 -9.35352687e-003 8.57541710e-003
      6.72071520e-003 -4.72076843e-003 -4.10823675e-004 1.50091955e-002
      1.09490231e-002 -1.90640427e-003 9.34841635e-004 -9.35352687e-003
      8.57541710e-003 6.72071520e-003 -4.72076843e-003 -4.10823675e-004
      1.50091955e-002 1.09490231e-002 -1.90640427e-003 9.34841635e-004
      -9.35352687e-003 8.57541710e-003 6.72071520e-003 -4.72076843e-003
      -4.10823675e-004 1.50091955e-002 1.09490231e-002 -1.90640427e-003
      9.34841635e-004 -9.35352687e-003 8.57541710e-003 6.72071520e-003
      -4.72076843e-003 -4.10823675e-004 1.50091955e-002 1.09490231e-002
      -1.90640427e-003 9.34841635e-004 -9.35352687e-003 8.57541710e-003
      6.72071520e-003 -4.72076843e-003 -4.10823675e-004 1.50091955e-002
      1.09490231e-002 -1.90640427e-003 9.34841635e-004 -9.35352687e-003
      8.57541710e-003 6.72071520e-003 -4.72076843e-003 -4.10823675e-004
      1.50091955e-002 1.09490231e-002 -1.90640427e-003 9.34841635e-004
      -9.35352687e-003 8.57541710e-003 6.72071520e-003 -4.72076843e-003
      -4.10823675e-004 1.50091955e-002 1.09490231e-002 -1.90640427e-003
      9.34841635e-004 -9.35352687e-003 8.57541710e-003 6.72071520e-003
      -4.72076843e-003 -4.10823675e-004 1.50091955e-002 1.09490231e-002
      -1.90640427e-003 9.34841635e-004 -9.35352687e-003 8.57541710e-003
      6.72071520e-003 -4.72076843e-003 -4.10823675e-004 1.50091955e-002
      1.09490231e-002 -1.90640427e-003 9.34841635e-004 -9.35352687e-003
      8.57541710e-003 6.72071520e-003 -4.72076843e-003 -4.10823675e-004
      1.50091955e-002 1.09490231e-002 -1.90640427e-003 9.34841635e-004
      -9.35352687e-003 8.57541710e-003 6.72071520e-003 -4.72076843e-003
      -4.10823675e-004 1.50091955e-002 1.09490231e-002 -1.90640427e-003
      9.34841635e-004 -9.35352687e-003 8.57541710e-003 6.72071520e-003
      -4.72076843e-003 -4.10823675e-004 1.50091955e-002 1.09490231e-002
      -1.90640427e-003 9.34841635e-004 -9.35352687e-003 8.57541710e-003
      6.72071520e-003 -4.72076843e-003 -4.10823675e-004 1.50091955e-002
      1.09490231e-002 -1.90640427e-003 9.34841635e-004 -9.35352687e-003
      8.57541710e-003 6.72071520e-003 -4.72076843e-003 -4.10823675e-004
      1.50091955e-002 1.09490231e-002 -1.90640427e-003 9.34841635e-004
      -9.35352687e-003 8.57541710e-003 6.72071520e-003 -4.72076843e-003
      -4.10823675e-004 1.50091955e-002 1.09490231e-002 -1.90640427e-003
      9.34841635e-004 -9.35352687e-003 8.57541710e-003 6.72071520e-003
      -4.72076843e-003 -4.10823675e-004 1.50091955e-002 1.09490231e-002
      -1.90640427e-003 9.34841635e-004 -9.35352687e-003 8.57541710e-003
      6.72071520e-003 -4.72076843e-003 -4.10823675e-004 1.50091955e-002
      1.09490231e-002 -1.90640427e-003 9.34841635e-004 -9.35352687e-003
      8.57541710e-003 6.72071520e-003 -4.72076843e-003 -4.10823675e-004
      1.50091955e-002 1.09490231e-002 -1.90640427e-003 9.34841635e-004
      -9.35352687e-003 8.57541710e-003 6.72071520e-003 -4.72076843e-003
      -4.10823675e-004 1.50091955e-002 1.09490231e-002 -1.90640427e-003
      9.34841635e-004 -9.35352687e-003 8.57541710e-003 6.72071520e-003
      -4.72076843e-003 -4.10823675e-004 1.50091955e-002 1.09490231e-002
      -1.90640427e-003 9.34841635e-004 -9.35352687e-003 8.57541710e-003
      6.72071520e-003 -4.72076843e-003 -4.10823675e-004 1.50091955e-002
      1.09490231e-002 -1.90640427e-003 9.34841635e-004 -9.35352687e-003
      8.57541710e-003 6.72071520e-003 -4.72076843e-003 -4.10823675e-004
      1.50091955e-002 1.09490231e-002 -1.90640427e-003 9.34841635e-004
      -9.35352687e-003 8.57541710e-003 6.72071520e-003 -4.72076843e-003
      -4.10823675e-004 1.50091955e-002 1.09490231e-002 -1.90640427e-003
      9.34841635e-004 -9.35352687e-003 8.57541710e-003 6.72071520e-003
      -4.72076843e-003 -4.10823675e-004 1.50091955e-002 1.09490231e-002
      -1.90640427e-003 9.34841635e-004 -9.35352687e-003 8.57541710e-003
      6.72071520e-003 -4.72076843e-003 -4.10823675e-004 1.50091955e-002
      1.09490231e-002 -1.90640427e-003 9.34841635e-004 -9.35352687e-003
      8.57541710e-003 6.72071520e-003 -4.72076843e-003 -4.10823675e-004
      1.50091955e-002 1.09490231e-002 -1.90640427e-003 9.34841635e-004
      -9.35352687e-003 8.57541710e-003 6.72071520e-003 -4.72076843e-003
      -4.10823675e-004 1.50091955e-002 1.09490231e-002 -1.90640427e-003
      9.34841635e-004 -9.35352687e-003 8.57541710e-003 6.72071520e-003
      -4.72076843e-003 -4.10823675e-004 1.50091955e-002 1.09490231e-002
      -1.90640427e-003 9.34841635e-004 -9.35352687e-003 8.57541710e-003
      6.72071520e-003 -4.72076843e-003 -4.10823675e-004 1.50091955e-002
      1.09490231e-002 -1.90640427e-003 9.34841635e-004 -9.35352687e-003
      8.57541710e-003 6.72071520e-003 -4.72076843e-003 -4.10823675e-004
      1.50091955e-002 1.09490231e-002 -1.90640427e-003 9.34841635e-004
      -9.35352687e-003 8.57541710e-003 6.72071520e-003 -4.72076843e-003
      -4.10823675e-004 1.50091955e-002 1.09490231e-002 -1.90640427e-003
      9.34841635e-004 -9.35352687e-003 8.57541710e-003 6.72071520e-003
      -4.72076843e-003 -4.10823675e-004 1.50091955e-002 1.09490231e-002
      -1.90640427e-003 9.34841635e-004 -9.35352687e-003 8.57541710e-003
      6.72071520e-003 -4.72076843e-003 -4.10823675e-004 1.50091955e-002
      1.09490231e-002 -1.90640427e-003 9.34841635e-004 -9.35352687e-003
      8.57541710e-003 6.72071520e-003 -4.72076843e-003 -4.10823675e-004
      1.50091955e-002 1.09490231e-002 -1.90640427e-003 9.34841635e-004
      -9.35352687e-003 8.57541710e-003 6.72071520e-003 -4.72076843e-003
      -4.10823675e-004 1.50091955e-002 1.09490231e-002 -1.90640427e-003
      9.34841635e-004 -9.35352687e-003 8.57541710e-003 6.72071520e-003
      -4.72076843e-003 -4.10823675e-004 1.50091955e-002 1.09490231e-002
      -1.90640427e-003 9.34841635e-004 -9.35352687e-003 8.57541710e-003
      6.72071520e-003 -4.72076843e-003 -4.10823675e-004 1.50091955e-002
      1.09490231e-002 -1.90640427e-003 9.34841635e-004 -9.35352687e-003
      8.57541710e-003 6.72071520e-003 -4.72076843e-003 -4.10823675e-004
      1.50091955e-002 1.09490231e-002 -1.90640427e-003 9.34841635e-004
      -9.35352687e-003 8.57541710e-003 6.72071520e-003 -4.72076843e-003
      -4.10823675e-004 1.50091955e-002 1.09490231e-002 -1.90640427e-003
      9.34841635e-004 -9.35352687e-003 8.57541710e-003 6.72071520e-003
      -4.72076843e-003 -4.10823675e-004 1.50091955e-002 1.09490231e-002
      -1.90640427e-003 9.34841635e-004 -9.35352687e-003 8.57541710e-003
      6.72071520e-003 -4.72076843e-003 -4.10823675e-004 1.50091955e-002
      1.09490231e-002 -1.90640427e-003 9.34841635e-004 -9.35352687e-003
      8.57541710e-003 6.72071520e-003 -4.72076843e-003 -4.10823675e-004
      1.50091955e-002 1.09490231e-002 -1.90640427e-003 9.34841635e-004
      -9.35352687e-003 8.57541710e-003 6.72071520e-003 -4.72076843e-003
      -4.10823675e-004 1.50091955e-002 1.09490231e-002 -1.90640427e-003
      9.34841635e-004 -9.35352687e-003 8.57541710e-003 6.72071520e-003
      -4.72076843e-003 -4.10823675e-004 1.50091955e-002 1.09490231e-002
      -1.90640427e-003 9.34841635e-004 -9.35352687e-003 8.57541710e-003
      6.72071520e-003 -4.72076843e-003 -4.10823675e-004 1.50091955e-002
      1.09490231e-002 -1.90640427e-003 9.34841635e-004 -9.35352687e-003
      8.57541710e-003 6.72071520e-003 -4.72076843e-003 -4.10823675e-004
      1.50091955e-002 1.09490231e-002 -1.90640427e-003 9.34841635e-004
      -9.35352687e-003 8.57541710e-003 6.72071520e-003 -4.72076843e-003
      -4.10823675e-004 1.50091955e-002 1.09490231e-002 -1.90640427e-003
      9.34841635e-004 -9.35352687e-003 8.57541710e-003 6.72071520e-003
      -4.72076843e-003 -4.10823675e-004 1.50091955e-002 1.09490231e-002
      -1.90640427e-003 9.34841635e-004 -9.35352687e-003 8.57541710e-003
      6.72071520e-003 -4.72076843e-003 -4.10823675e-004 1.50091955e-002
      1.09490231e-002 -1.90640427e-003 9.34841635e-004 -9.35352687e-003
      8.57541710e-003 6.72071520e-003 -4.72076843e-003 -4.10823675e-004
      1.50091955e-002 1.09490231e-002 -1.90640427e-003 9.34841635e-004
      -9.35352687e-003 8.57541710e-003 6.72071520e-003 -4.72076843e-003
      -4.10823675e-004 1.50091955e-002 1.09490231e-002 -1.90640427e-003
      9.34841635e-004 -9.35352687e-003 8.57541710e-003 6.72071520e-003
      -4.72076843e-003 -4.10823675e-004 1.50091955e-002 1.09490231e-002
      -1.90640427e-003 9.34841635e-004 -9.35352687e-003 8.57541710e-003
      6.72071520e-003 -4.72076843e-003 -4.10823675e-004 1.50091955e-002
      1.09490231e-002 -1.90640427e-003 9.34841635e-004 -9.35352687e-003
      8.57541710e-003 6.72071520e-003 -4.72076843e-003 -4.10823675e-004
      1.50091955e-002 1.09490231e-002 -1.90640427e-003 9.34841635e-004
      -9.35352687e-003 8.57541710e-003 6.72071520e-003 -4.72076843e-003
      -4.10823675e-004 1.50091955e-002 1.09490231e-002 -1.90640427e-003
      9.34841635e-004 -9.35352687e-003 8.57541710e-003 6.72071520e-003
      -4.72076843e-003 -4.10823675e-004 1.50091955e-002 1.09490231e-002
      -1.90640427e-003 9.34841635e-004 -9.35352687e-003 8.57541710e-003
      6.72071520e-003 -4.72076843e-003 -4.10823675e-004 1.50091955e-002
      1.09490231e-002 -1.90640427e-003 9.34841635e-004 -9.35352687e-003
      8.57541710e-003 6.72071520e-003 -4.72076843e-003 -4.10823675e-004
      1.50091955e-002 1.09490231e-002 -1.90640427e-003 9.34841635e-004
      -9.35352687e-003 8.57541710e-003 6.72071520e-003 -4.72076843e-003
      -4.10823675e-004 1.50091955e-002 1.09490231e-002 -1.90640427e-003
      9.34841635e-004 -9.35352687e-003 8.57541710e-003 6.72071520e-003
      -4.72076843e-003 -4.10823675e-004 1.50091955e-002 1.09490231e-002
      -1.90640427e-003 9.34841635e-004 -9.35352687e-003 8.57541710e-003
      6.72071520e-003 -4.72076843e-003 -4.10823675e-004 1.50091955e-002
      1.09490231e-002 -1.90640427e-003 9.34841635e-004 -9.35352687e-003
      8.57541710e-003 6.72071520e-003 -4.72076843e-003 -4.10823675e-004
      1.50091955e-002 1.09490231e-002 -1.90640427e-003 9.34841635e-004
      -9.35352687e-003 8.57541710e-003 6.72071520e-003 -4.72076843e-003
      -4.10823675e-004 1.50091955e-002 1.09490231e-002 -1.90640427e-003
      9.34841635e-004 -9.35352687e-003 8.57541710e-003 6.72071520e-003
      -4.72076843e-003 -4.10823675e-004 1.50091955e-002 1.09490231e-002
      -1.90640427e-003 9.34841635e-004 -9.35352687e-003 8.57541710e-003
      6.72071520e-003 -4.72076843e-003 -4.10823675e-004 1.50091955e-002
      1.09490231e-002 -1.90640427e-003 9.34841635e-004 -9.35352687e-003
      8.57541710e-003 6.72071520e-003 -4.72076843e-003 -4.10823675e-004
      1.50091955e-002 1.09490231e-002 -1.90640427e-003 9.34841635e-004
      -9.35352687e-003 8.57541710e-003 6.72071520e-003 -4.72076843e-003
      -4.10823675e-004 1.50091955e-002 1.09490231e-002 -1.90640427e-003
      9.34841635e-004 -9.35352687e-003 8.57541710e-003 6.72071520e-003
      -4.72076843e-003 -4.10823675e-004 1.50091955e-002 1.09490231e-002
      -1.90640427e-003 9.34841635e-004 -9.35352687e-003 8.57541710e-003
      6.72071520e-003 -4.72076843e-003 -4.10823675e-004 1.50091955e-002
      1.09490231e-002 -1.90640427e-003 9.34841635e-004 -9.35352687e-003
      8.57541710e-003 6.72071520e-003 -4.72076843e-003 -4.10823675e-004
      1.50091955e-002 1.09490231e-002 -1.90640427e-003 9.34841635e-004
      -9.35352687e-003 8.57541710e-003 6.72071520e-003 -4.72076843e-003
      -4.10823675e-004 1.50091955e-002 1.09490231e-002 -1.90640427e-003
      9.34841635e-004 -9.35352687e-003 8.57541710e-003 6.72071520e-003
      -4.72076843e-003 -4.10823675e-004 1.50091955e-002 1.09490231e-002
      -1.90640427e-003 9.34841635e-004 -9.35352687e-003 8.57541710e-003
      6.72071520e-003 -4.72076843e-003 -4.10823675e-004 1.50091955e-002
      1.09490231e-002 -1.90640427e-003 9.34841635e-004 -9.35352687e-003
      8.57541710e-003 6.72071520e-003 -4.72076843e-003 -4.10823675e-004
      1.50091955e-002 1.09490231e-002 -1.90640427e-003 9.34841635e-004
      -9.35352687e-003 8.57541710e-003 6.72071520e-003 -4.72076843e-003
      -4.10823675e-004 1.50091955e-002 1.09490231e-002 -1.90640427e-003
      9.34841635e-004 -9.35352687e-003 8.57541710e-003 6.72071520e-003
      -4.72076843e-003 -4.10823675e-004 1.50091955e-002 1.09490231e-002
      -1.90640427e-003 9.34841635e-004 -9.35352687e-003 8.57541710e-003
      6.72071520e-003 -4.72076843e-003 -4.10823675e-004 1.50091955e-002
      1.09490231e-002 -1.90640427e-003 9.34841635e-004 -9.35352687e-003
      8.57541710e-003 6.72071520e-003 -4.72076843e-003 -4.10823675e-004
      1.50091955e-002 1.09490231e-002 -1.90640427e-003 9.34841635e-004
      -9.35352687e-003 8.57541710e-003 6.72071520e-003 -4.72076843e-003
      -4.10823675e-004 1.50091955e-002 1.09490231e-002 -1.90640427e-003
      9.34841635e-004 -9.35352687e-003 8.57541710e-003 6.72071520e-003
      -4.72076843e-003 -4.10823675e-004 1.50091955e-002 1.09490231e-002
      -1.90640427e-003 9.34841635e-004 -9.35352687e-003 8.57541710e-003
      6.72071520e-003 -4.72076843e-003 -4.10823675e-004 1.50091955e-002
      1.09490231e-002 -1.90640427e-003 9.34841635e-004 -9.35352687e-003
      8.57541710e-003 6.72071520e-003 -4.72076843e-003 -4.10823675e-004
      1.50091955e-002 1.09490231e-002 -1.90640427e-003 9.34841635e-004
      -9.35352687e-003 8.57541710e-003 6.72071520e-003 -4.72076843e-003
      -4.10823675e-004 1.50091955e-002 1.09490231e-002 -1.90640427e-003
      9.34841635e-004 -9.35352687e-003 8.57541710e-003 6.72071520e-003
      -4.72076843e-003 -4.10823675e-004 1.50091955e-002 1.09490231e-002
      -1.90640427e-003 9.34841635e-004 -9.35352687e-003 8.57541710e-003
      6.72071520e-003 -4.72076843e-003 -4.10823675e-004 1.50091955e-002
      1.09490231e-002 -1.90640427e-003 9.34841635e-004 -9.35352687e-003
      8.57541710e-003 6.72071520e-003 -4.72076843e-003 -4.10823675e-004
      1.50091955e-002 1.09490231e-002 -1.90640427e-003 9.34841635e-004
      -9.35352687e-003 8.57541710e-003 6.72071520e-003 -4.72076843e-003
      -4.10823675e-004 1.50091955e-002 1.09490231e-002 -1.90640427e-003
      9.34841635e-004 -9.35352687e-003 8.57541710e-003 6.72071520e-003
      -4.72076843e-003 -4.10823675e-004 1.50091955e-002 1.09490231e-002
      -1.90640427e-003 9.34841635e-004 -9.35352687e-003 8.57541710e-003
      6.72071520e-003 -4.72076843e-003 -4.10823675e-004 1.50091955e-002
      1.09490231e-002 -1.90640427e-003 9.34841635e-004 -9.35352687e-003
      8.57541710e-003 6.72071520e-003 -4.72076843e-003 -4.10823675e-004
      1.50091955e-002 1.09490231e-002 -1.90640427e-003 9.34841635e-004
      -9.35352687e-003 8.57541710e-003 6.72071520e-003 -4.72076843e-003
      -4.10823675e-004 1.50091955e-002 1.09490231e-002 -1.90640427e-003
      9.34841635e-004 -9.35352687e-003 8.57541710e-003 6.72071520e-003
      -4.72076843e-003 -4.10823675e-004 1.50091955e-002 1.09490231e-002
      -1.90640427e-003 9.34841635e-004 -9.35352687e-003 8.57541710e-003
      6.72071520e-003 -4.72076843e-003 -4.10823675e-004 1.50091955e-002
      1.09490231e-002 -1.90640427e-003 9.34841635e-004 -9.35352687e-003
      8.57541710e-003 6.72071520e-003 -4.72076843e-003 -4.10823675e-004
      1.50091955e-002 1.09490231e-002 -1.90640427e-003 9.34841635e-004
      -9.35352687e-003 8.57541710e-003 6.72071520e-003 -4.72076843e-003
      -4.10823675e-004 1.50091955e-002 1.09490231e-002 -1.90640427e-003
      9.34841635e-004 -9.35352687e-003 8.57541710e-003 6.72071520e-003
      -4.72076843e-003 -4.10823675e-004 1.50091955e-002 1.09490231e-002
      -1.90640427e-003 9.34841635e-004 -9.35352687e-003 8.57541710e-003
      6.72071520e-003 -4.72076843e-003 -4.10823675e-004 1.50091955e-002
      1.09490231e-002 -1.90640427e-003 9.34841635e-004 -9.35352687e-003
      8.57541710e-003 6.72071520e-003 -4.72076843e-003 -4.10823675e-004
      1.50091955e-002 1.09490231e-002 -1.90640427e-003 9.34841635e-004
      -9.35352687e-003 8.57541710e-003 6.72071520e-003 -4.72076843e-003
      -4.10823675e-004 1.50091955e-002 1.09490231e-002 -1.90640427e-003
      9.34841635e-004 -9.35352687e-003 8.57541710e-003 6.72071520e-003
      -4.72076843e-003 -4.10823675e-004 1.50091955e-002 1.09490231e-002
      -1.90640427e-003 9.34841635e-004 -9.35352687e-003 8.57541710e-003
      6.72071520e-003 -4.72076843e-003 -4.10823675e-004 1.50091955e-002
      1.09490231e-002 -1.90640427e-003 9.34841635e-004 -9.35352687e-003
      8.57541710e-003 6.72071520e-003 -4.72076843e-003 -4.10823675e-004
      1.50091955e-002 1.09490231e-002 -1.90640427e-003 9.34841635e-004
      -9.35352687e-003 8.57541710e-003 6.72071520e-003 -4.72076843e-003
      -4.10823675e-004 1.50091955e-002 1.09490231e-002 -1.90640427e-003
      9.34841635e-004 -9.35352687e-003 8.57541710e-003 6.72071520e-003
      -4.72076843e-003 -4.10823675e-004 1.50091955e-002 1.09490231e-002
      -1.90640427e-003 9.34841635e-004 -9.35352687e-003 8.57541710e-003
      6.72071520e-003 -4.72076843e-003 -4.10823675e-004 1.50091955e-002
      1.09490231e-002 -1.90640427e-003 9.34841635e-004 -9.35352687e-003
      8.57541710e-003 6.72071520e-003 -4.72076843e-003 -4.10823675e-004
      1.50091955e-002 1.09490231e-002 -1.90640427e-003 9.34841635e-004
      -9.35352687e-003 8.57541710e-003 6.72071520e-003 -4.72076843e-003
      -4.10823675e-004 1.50091955e-002 1.09490231e-002 -1.90640427e-003
      9.34841635e-004 -9.35352687e-003 8.57541710e-003 6.72071520e-003
      -4.72076843e-003 -4.10823675e-004 1.50091955e-002 1.09490231e-002
      -1.90640427e-003 9.34841635e-004 -9.35352687e-003 8.57541710e-003
      6.72071520e-003 -4.72076843e-003 -4.10823675e-004 1.50091955e-002
      1.09490231e-002 -1.90640427e-003 9.34841635e-004 -9.35352687e-003
      8.57541710e-003 6.72071520e-003 -4.72076843e-003 -4.10823675e-004
      1.50091955e-002 1.09490231e-002 -1.90640427e-003 9.34841635e-004
      -9.35352687e-003 8.57541710e-003 6.72071520e-003 -4.72076843e-003
      -4.10823675e-004 1.50091955e-002 1.09490231e-002 -1.90640427e-003
      9.34841635e-004 -9.35352687e-003 8.57541710e-003 6.72071520e-003
      -4.72076843e-003 -4.10823675e-004 1.50091955e-002 1.09490231e-002
      -1.90640427e-003 9.34841635e-004 -9.35352687e-003 8.57541710e-003
      6.72071520e-003 -4.72076843e-003 -4.10823675e-004 1.50091955e-002
      1.09490231e-002 -1.90640427e-003 9.34841635e-004 -9.35352687e-003
      8.57541710e-003 6.72071520e-003 -4.72076843e-003 -4.10823675e-004
      1.50091955e-002 1.09490231e-002 -1.90640427e-003 9.34841635e-004
      -9.35352687e-003 8.57541710e-003 6.72071520e-003 -4.72076843e-003
      -4.10823675e-004 1.50091955e-002 1.09490231e-002 -1.90640427e-003
      9.34841635e-004 -9.35352687e-003 8.57541710e-003 6.72071520e-003
      -4.72076843e-003 -4.10823675e-004 1.50091955e-002 1.09490231e-002
      -1.90640427e-003 9.34841635e-004 -9.35352687e-003 8.57541710e-003
      6.72071520e-003 -4.72076843e-003 -4.10823675e-004 1.50091955e-002
      1.09490231e-002 -1.90640427e-003 9.34841635e-004 -9.35352687e-003
      8.57541710e-003 6.72071520e-003 -4.72076843e-003 -4.10823675e-004
      1.50091955e-002 1.09490231e-002 -1.90640427e-003 9.34841635e-004
      -9.35352687e-003 8.57541710e-003 6.72071520e-003 -4.72076843e-003
      -4.10823675e-004 1.50091955e-002 1.09490231e-002 -1.90640427e-003
      9.34841635e-004 -9.35352687e-003 8.57541710e-003 6.72071520e-003
      -4.72076843e-003 -4.10823675e-004 1.50091955e-002 1.09490231e-002
      -1.90640427e-003 9.34841635e-004 -9.35352687e-003 8.57541710e-003
      6.72071520e-003 -4.72076843e-003 -4.10823675e-004 1.50091955e-002
      1.09490231e-002 -1.90640427e-003 9.34841635e-004 -9.35352687e-003
      8.57541710e-003 6.72071520e-003 -4.72076843e-003 -4.10823675e-004
      1.50091955e-002 1.09490231e-002 -1.90640427e-003 9.34841635e-004
      -9.35352687e-003 8.57541710e-003 6.72071520e-003 -4.72076843e-003
      -4.10823675e-004 1.50091955e-002 1.09490231e-002 -1.90640427e-003
      9.34841635e-004 -9.35352687e-003 8.57541710e-003 6.72071520e-003
      -4.72076843e-003 -4.10823675e-004 1.50091955e-002 1.09490231e-002
      -1.90640427e-003 9.34841635e-004 -9.35352687e-003 8.57541710e-003
      6.72071520e-003 -4.72076843e-003 -4.10823675e-004 1.50091955e-002
      1.09490231e-002 -1.90640427e-003 9.34841635e-004 -9.35352687e-003
      8.57541710e-003 6.72071520e-003 -4.72076843e-003 -4.10823675e-004
      1.50091955e-002 1.09490231e-002 -1.90640427e-003 9.34841635e-004
      -9.35352687e-003 8.57541710e-003 6.72071520e-003 -4.72076843e-003
      -4.10823675e-004 1.50091955e-002 1.09490231e-002 -1.90640427e-003
      9.34841635e-004 -9.35352687e-003 8.57541710e-003 6.72071520e-003
      -4.72076843e-003 -4.10823675e-004 1.50091955e-002 1.09490231e-002
      -1.90640427e-003 9.34841635e-004 -9.35352687e-003 8.57541710e-003
      6.72071520e-003 -4.72076843e-003 -4.10823675e-004 1.50091955e-002
      1.09490231e-002 -1.90640427e-003 9.34841635e-004 -9.35352687e-003
      8.57541710e-003 6.72071520e-003 -4.72076843e-003 -4.10823675e-004
      1.50091955e-002 1.09490231e-002 -1.90640427e-003 9.34841635e-004
      -9.35352687e-003 8.57541710e-003 6.72071520e-003 -4.72076843e-003
      -4.10823675e-004 1.50091955e-002 1.09490231e-002 -1.90640427e-003
      9.34841635e-004 -9.35352687e-003 8.57541710e-003 6.72071520e-003
      -4.72076843e-003 -4.10823675e-004 1.50091955e-002 1.09490231e-002
      -1.90640427e-003 9.34841635e-004 -9.35352687e-003 8.57541710e-003
      6.72071520e-003 -4.72076843e-003 -4.10823675e-004 1.50091955e-002
      1.09490231e-002 -1.90640427e-003 9.34841635e-004 -9.35352687e-003
      8.57541710e-003 6.72071520e-003 -4.72076843e-003 -4.10823675e-004
      1.50091955e-002 1.09490231e-002 -1.90640427e-003 9.34841635e-004
      -9.35352687e-003 8.57541710e-003 6.72071520e-003 -4.72076843e-003
      -4.10823675e-004 1.50091955e-002 1.09490231e-002 -1.90640427e-003
      9.34841635e-004 -9.35352687e-003 8.57541710e-003 6.72071520e-003
      -4.72076843e-003 -4.10823675e-004 1.50091955e-002 1.09490231e-002
      -1.90640427e-003 9.34841635e-004 -9.35352687e-003 8.57541710e-003
      6.72071520e-003 -4.72076843e-003 -4.10823675e-004 1.50091955e-002
      1.09490231e-002 -1.90640427e-003 9.34841635e-004 -9.35352687e-003
      8.57541710e-003 6.72071520e-003 -4.72076843e-003 -4.10823675e-004
      1.50091955e-002 1.09490231e-002 -1.90640427e-003 9.34841635e-004
      -9.35352687e-003 8.57541710e-003 6.72071520e-003 -4.72076843e-003
      -4.10823675e-004 1.50091955e-002 1.09490231e-002 -1.90640427e-003
      9.34841635e-004 -9.35352687e-003 8.57541710e-003 6.72071520e-003
      -4.72076843e-003 -4.10823675e-004 1.50091955e-002 1.09490231e-002
      -1.90640427e-003 9.34841635e-004 -9.35352687e-003 8.57541710e-003
      6.72071520e-003 -4.72076843e-003 -4.10823675e-004 1.50091955e-002
      1.09490231e-002 -1.90640427e-003 9.34841635e-004 -9.35352687e-003
      8.57541710e-003 6.72071520e-003 -4.72076843e-003 -4.10823675e-004
      1.50091955e-002 1.09490231e-002 -1.90640427e-003 9.34841635e-004
      -9.35352687e-003 8.57541710e-003 6.72071520e-003 -4.72076843e-003
      -4.10823675e-004 1.50091955e-002 1.09490231e-002 -1.90640427e-003
      9.34841635e-004 -9.35352687e-003 8.57541710e-003 6.72071520e-003
      -4.72076843e-003 -4.10823675e-004 1.50091955e-002 1.09490231e-002
      -1.90640427e-003 9.34841635e-004 -9.35352687e-003 8.57541710e-003
      6.72071520e-003 -4.72076843e-003 -4.10823675e-004 1.50091955e-002
      1.09490231e-002 -1.90640427e-003 9.34841635e-004 -9.35352687e-003
      8.57541710e-003 6.72071520e-003 -4.72076843e-003 -4.10823675e-004
      1.50091955e-002 1.09490231e-002 -1.90640427e-003 9.34841635e-004
      -9.35352687e-003 8.57541710e-003 6.72071520e-003 -4.72076843e-003
      -4.10823675e-004 1.50091955e-002 1.09490231e-002 -1.90640427e-003
      9.34841635e-004 -9.35352687e-003 8.57541710e-003 6.72071520e-003
      -4.72076843e-003 -4.10823675e-004 1.50091955e-002 1.09490231e-002
      -1.90640427e-003 9.34841635e-004 -9.35352687e-003 8.57541710e-003
      6.72071520e-003 -4.72076843e-003 -4.10823675e-004 1.50091955e-002
      1.09490231e-002 -1.90640427e-003 9.34841635e-004 -9.35352687e-003
      8.57541710e-003 6.72071520e-003 -4.72076843e-003 -4.10823675e-004
      1.50091955e-002 1.09490231e-002 -1.90640427e-003 9.34841635e-004
      -9.35352687e-003 8.57541710e-003 6.72071520e-003 -4.72076843e-003
      -4.10823675e-004 1.50091955e-002 1.09490231e-002 -1.90640427e-003
      9.34841635e-004 -9.35352687e-003 8.57541710e-003 6.72071520e-003
      -4.72076843e-003 -4.10823675e-004 1.50091955e-002 1.09490231e-002
      -1.90640427e-003 9.34841635e-004 -9.35352687e-003 8.57541710e-003
      6.72071520e-003 -4.72076843e-003 -4.10823675e-004 1.50091955e-002
      1.09490231e-002 -1.90640427e-003 9.34841635e-004 -9.35352687e-003
      8.57541710e-003 6.72071520e-003 -4.72076843e-003 -4.10823675e-004
      1.50091955e-002 1.09490231e-002 -1.90640427e-003 9.34841635e-004
      -9.35352687e-003 8.57541710e-003 6.72071520e-003 -4.72076843e-003
      -4.10823675e-004 1.50091955e-002 1.09490231e-002 -1.90640427e-003
      9.34841635e-004 -9.35352687e-003 8.57541710e-003 6.72071520e-003
      -4.72076843e-003 -4.10823675e-004 1.50091955e-002 1.09490231e-002
      -1.90640427e-003 9.34841635e-004 -9.35352687e-003 8.57541710e-003
      6.72071520e-003 -4.72076843e-003 -4.10823675e-004 1.50091955e-002
      1.09490231e-002 -1.90640427e-003 9.34841635e-004 -9.35352687e-003
      8.57541710e-003 6.72071520e-003 -4.72076843e-003 -4.10823675e-004
      1.50091955e-002 1.09490231e-002 -1.90640427e-003 9.34841635e-004
      -9.35352687e-003 8.57541710e-003 6.72071520e-003 -4.72076843e-003
      -4.10823675e-004 1.50091955e-002 1.09490231e-002 -1.90640427e-003
      9.34841635e-004 -9.35352687e-003 8.57541710e-003 6.72071520e-003
      -4.72076843e-003 -4.10823675e-004 1.50091955e-002 1.09490231e-002
      -1.90640427e-003 9.34841635e-004 -9.35352687e-003 8.57541710e-003
      6.72071520e-003 -4.72076843e-003 -4.10823675e-004 1.50091955e-002
      1.09490231e-002 -1.90640427e-003 9.34841635e-004 -9.35352687e-003
      8.57541710e-003 6.72071520e-003 -4.72076843e-003 -4.10823675e-004
      1.50091955e-002 1.09490231e-002 -1.90640427e-003 9.34841635e-004
      -9.35352687e-003 8.57541710e-003 6.72071520e-003 -4.72076843e-003
      -4.10823675e-004 1.50091955e-002 1.09490231e-002 -1.90640427e-003
      9.34841635e-004 -9.35352687e-003 8.57541710e-003 6.72071520e-003
      -4.72076843e-003 -4.10823675e-004 1.50091955e-002 1.09490231e-002
      -1.90640427e-003 9.34841635e-004 -9.35352687e-003 8.57541710e-003
      6.72071520e-003 -4.72076843e-003 -4.10823675e-004 1.50091955e-002
      1.09490231e-002 -1.90640427e-003 9.34841635e-004 -9.35352687e-003
      8.57541710e-003 6.72071520e-003 -4.72076843e-003 -4.10823675e-004
      1.50091955e-002 1.09490231e-002 -1.90640427e-003 9.34841635e-004
      -9.35352687e-003 8.57541710e-003 6.72071520e-003 -4.72076843e-003
      -4.10823675e-004 1.50091955e-002 1.09490231e-002 -1.90640427e-003
      9.34841635e-004 -9.35352687e-003 8.57541710e-003 6.72071520e-003
      -4.72076843e-003 -4.10823675e-004 1.50091955e-002 1.09490231e-002
      -1.90640427e-003 9.34841635e-004 -9.35352687e-003 8.57541710e-003
      6.72071520e-003 -4.72076843e-003 -4.10823675e-004 1.50091955e-002
      1.09490231e-002 -1.90640427e-003 9.34841635e-004 -9.35352687e-003
      8.57541710e-003 6.72071520e-003 -4.72076843e-003 -4.10823675e-004
      1.50091955e-002 1.09490231e-002 -1.90640427e-003 9.34841635e-004
      -9.35352687e-003 8.57541710e-003 6.72071520e-003 -4.72076843e-003
      -4.10823675e-004 1.50091955e-002 1.09490231e-002 -1.90640427e-003
      9.34841635e-004 -9.35352687e-003 8.57541710e-003 6.72071520e-003
      -4.72076843e-003 -4.10823675e-004 1.50091955e-002 1.09490231e-002
      -1.90640427e-003 9.34841635e-004 -9.35352687e-003 8.57541710e-003
      6.72071520e-003 -4.72076843e-003 -4.10823675e-004 1.50091955e-002
      1.09490231e-002 -1.90640427e-003 9.34841635e-004 -9.35352687e-003
      8.57541710e-003 6.72071520e-003 -4.72076843e-003 -4.10823675e-004
      1.50091955e-002 1.09490231e-002 -1.90640427e-003 9.34841635e-004
      -9.35352687e-003 8.57541710e-003 6.72071520e-003 -4.72076843e-003
      -4.10823675e-004 1.50091955e-002 1.09490231e-002 -1.90640427e-003
      9.34841635e-004 -9.35352687e-003 8.57541710e-003 6.72071520e-003
      -4.72076843e-003 -4.10823675e-004 1.50091955e-002 1.09490231e-002
      -1.90640427e-003 9.34841635e-004 -9.35352687e-003 8.57541710e-003
      6.72071520e-003 -4.72076843e-003 -4.10823675e-004 1.50091955e-002
      1.09490231e-002 -1.90640427e-003 9.34841635e-004 -9.35352687e-003
      8.57541710e-003 6.72071520e-003 -4.72076843e-003 -4.10823675e-004
      1.50091955e-002 1.09490231e-002 -1.90640427e-003 9.34841635e-004
      -9.35352687e-003 8.57541710e-003 6.72071520e-003 -4.72076843e-003
      -4.10823675e-004 1.50091955e-002 1.09490231e-002 -1.90640427e-003
      9.34841635e-004 -9.35352687e-003 8.57541710e-003 6.72071520e-003
      -4.72076843e-003 -4.10823675e-004 1.50091955e-002 1.09490231e-002
      -1.90640427e-003 9.34841635e-004 -9.35352687e-003 8.57541710e-003
      6.72071520e-003 -4.72076843e-003 -4.10823675e-004 1.50091955e-002
      1.09490231e-002 -1.90640427e-003 9.34841635e-004 -9.35352687e-003
      8.57541710e-003 6.72071520e-003 -4.72076843e-003 -4.10823675e-004
      1.50091955e-002 1.09490231e-002 -1.90640427e-003 9.34841635e-004
      -9.35352687e-003 8.57541710e-003 6.72071520e-003 -4.72076843e-003
      -4.10823675e-004 1.50091955e-002 1.09490231e-002 -1.90640427e-003
      9.34841635e-004 -9.35352687e-003 8.57541710e-003 6.72071520e-003
      -4.72076843e-003 -4.10823675e-004 1.50091955e-002 1.09490231e-002
      -1.90640427e-003 9.34841635e-004 -9.35352687e-003 8.57541710e-003
      6.72071520e-003 -4.72076843e-003 -4.10823675e-004 1.50091955e-002
      1.09490231e-002 -1.90640427e-003 9.34841635e-004 -9.35352687e-003
      8.57541710e-003 6.72071520e-003 -4.72076843e-003 -4.10823675e-004
      1.50091955e-002 1.09490231e-002 -1.90640427e-003 9.34841635e-004
      -9.35352687e-003 8.57541710e-003 6.72071520e-003 -4.72076843e-003
      -4.10823675e-004 1.50091955e-002 1.09490231e-002 -1.90640427e-003
      9.34841635e-004 -9.35352687e-003 8.57541710e-003 6.72071520e-003
      -4.72076843e-003 -4.10823675e-004 1.50091955e-002 1.09490231e-002
      -1.90640427e-003 9.34841635e-004 -9.35352687e-003 8.57541710e-003
      6.72071520e-003 -4.72076843e-003 -4.10823675e-004 1.50091955e-002
      1.09490231e-002 -1.90640427e-003 9.34841635e-004 -9.35352687e-003
      8.57541710e-003 6.72071520e-003 -4.72076843e-003 -4.10823675e-004
      1.50091955e-002 1.09490231e-002 -1.90640427e-003 9.34841635e-004
      -9.35352687e-003 8.57541710e-003 6.72071520e-003 -4.72076843e-003
      -4.10823675e-004 1.50091955e-002 1.09490231e-002 -1.90640427e-003
      9.34841635e-004 -9.35352687e-003 8.57541710e-003 6.72071520e-003
      -4.72076843e-003 -4.10823675e-004 1.50091955e-002 1.09490231e-002
      -1.90640427e-003 9.34841635e-004 -9.35352687e-003 8.57541710e-003
      6.72071520e-003 -4.72076843e-003 -4.10823675e-004 1.50091955e-002
      1.09490231e-002 -1.90640427e-003 9.34841635e-004 -9.35352687e-003
      8.57541710e-003 6.72071520e-003 -4.72076843e-003 -4.10823675e-004
      1.50091955e-002 1.09490231e-002 -1.90640427e-003 9.34841635e-004
      -9.35352687e-003 8.57541710e-003 6.72071520e-003 -4.72076843e-003
      -4.10823675e-004 1.50091955e-002 1.09490231e-002 -1.90640427e-003
      9.34841635e-004 -9.35352687e-003 8.57541710e-003 6.72071520e-003
      -4.72076843e-003 -4.10823675e-004 1.50091955e-002 1.09490231e-002
      -1.90640427e-003 9.34841635e-004 -9.35352687e-003 8.57541710e-003
      6.72071520e-003 -4.72076843e-003 -4.10823675e-004 1.50091955e-002
      1.09490231e-002 -1.90640427e-003 9.34841635e-004 -9.35352687e-003
      8.57541710e-003 6.72071520e-003 -4.72076843e-003 -4.10823675e-004
      1.50091955e-002 1.09490231e-002 -1.90640427e-003 9.34841635e-004
      -9.35352687e-003 8.57541710e-003 6.72071520e-003 -4.72076843e-003
      -4.10823675e-004 1.50091955e-002 1.09490231e-002 -1.90640427e-003
      9.34841635e-004 -9.35352687e-003 8.57541710e-003 6.72071520e-003
      -4.72076843e-003 -4.10823675e-004 1.50091955e-002 1.09490231e-002
      -1.90640427e-003 9.34841635e-004 -9.35352687e-003 8.57541710e-003
      6.72071520e-003 -4.72076843e-003 -4.10823675e-004 1.50091955e-002
      1.09490231e-002 -1.90640427e-003 9.34841635e-004 -9.35352687e-003
      8.57541710e-003 6.72071520e-003 -4.72076843e-003 -4.10823675e-004
      1.50091955e-002 1.09490231e-002 -1.90640427e-003 9.34841635e-004
      -9.35352687e-003 8.57541710e-003 6.72071520e-003 -4.72076843e-003
      -4.10823675e-004 1.50091955e-002 1.09490231e-002 -1.90640427e-003
      9.34841635e-004 -9.35352687e-003 8.57541710e-003 6.72071520e-003
      -4.72076843e-003 -4.10823675e-004 1.50091955e-002 1.09490231e-002
      -1.90640427e-003 9.34841635e-004 -9.35352687e-003 8.57541710e-003
      6.72071520e-003 -4.72076843e-003 -4.10823675e-004 1.50091955e-002
      1.09490231e-002 -1.90640427e-003 9.34841635e-004 -9.35352687e-003
      8.57541710e-003 6.72071520e-003 -4.72076843e-003 -4.10823675e-004
      1.50091955e-002 1.09490231e-002 -1.90640427e-003 9.34841635e-004
      -9.35352687e-003 8.57541710e-003 6.72071520e-003 -4.72076843e-003
      -4.10823675e-004 1.50091955e-002 1.09490231e-002 -1.90640427e-003
      9.34841635e-004 -9.35352687e-003 8.57541710e-003 6.72071520e-003
      -4.72076843e-003 -4.10823675e-004 1.50091955e-002 1.09490231e-002
      -1.90640427e-003 9.34841635e-004 -9.35352687e-003 8.57541710e-003
      6.72071520e-003 -4.72076843e-003 -4.10823675e-004 1.50091955e-002
      1.09490231e-002 -1.90640427e-003 9.34841635e-004 -9.35352687e-003
      8.57541710e-003 6.72071520e-003 -4.72076843e-003 -4.10823675e-004
      1.50091955e-002 1.09490231e-002 -1.90640427e-003 9.34841635e-004
      -9.35352687e-003 8.57541710e-003 6.72071520e-003 -4.72076843e-003
      -4.10823675e-004 1.50091955e-002 1.09490231e-002 -1.90640427e-003
      9.34841635e-004 -9.35352687e-003 8.57541710e-003 6.72071520e-003
      -4.72076843e-003 -4.10823675e-004 1.50091955e-002 1.09490231e-002
      -1.90640427e-003 9.34841635e-004 -9.35352687e-003 8.57541710e-003
      6.72071520e-003 -4.72076843e-003 -4.10823675e-004 1.50091955e-002
      1.09490231e-002 -1.90640427e-003 9.34841635e-004 -9.35352687e-003
      8.57541710e-003 6.72071520e-003 -4.72076843e-003 -4.10823675e-004
      1.50091955e-002 1.09490231e-002 -1.90640427e-003 9.34841635e-004
      -9.35352687e-003 8.57541710e-003 6.72071520e-003 -4.72076843e-003
      -4.10823675e-004 1.50091955e-002 1.09490231e-002 -1.90640427e-003
      9.34841635e-004 -9.35352687e-003 8.57541710e-003 6.72071520e-003
      -4.72076843e-003 -4.10823675e-004 1.50091955e-002 1.09490231e-002
      -1.90640427e-003 9.34841635e-004 -9.35352687e-003 8.57541710e-003
      6.72071520e-003 -4.72076843e-003 -4.10823675e-004 1.50091955e-002
      1.09490231e-002 -1.90640427e-003 9.34841635e-004 -9.35352687e-003
      8.57541710e-003 6.72071520e-003 -4.72076843e-003 -4.10823675e-004
      1.50091955e-002 1.09490231e-002 -1.90640427e-003 9.34841635e-004
      -9.35352687e-003 8.57541710e-003 6.72071520e-003 -4.72076843e-003
      -4.10823675e-004 1.50091955e-002 1.09490231e-002 -1.90640427e-003
      9.34841635e-004 -9.35352687e-003 8.57541710e-003 6.72071520e-003
      -4.72076843e-003 -4.10823675e-004 1.50091955e-002 1.09490231e-002
      -1.90640427e-003 9.34841635e-004 -9.35352687e-003 8.57541710e-003
      6.72071520e-003 -4.72076843e-003 -4.10823675e-004 1.50091955e-002
      1.09490231e-002 -1.90640427e-003 9.34841635e-004 -9.35352687e-003
      8.57541710e-003 6.72071520e-003 -4.72076843e-003 -4.10823675e-004
      1.50091955e-002 1.09490231e-002 -1.90640427e-003 9.34841635e-004
      -9.35352687e-003 8.57541710e-003 6.72071520e-003 -4.72076843e-003
      -4.10823675e-004 1.50091955e-002 1.09490231e-002 -1.90640427e-003
      9.34841635e-004 -9.35352687e-003 8.57541710e-003 6.72071520e-003
      -4.72076843e-003 -4.10823675e-004 1.50091955e-002 1.09490231e-002
      -1.90640427e-003 9.34841635e-004 -9.35352687e-003 8.57541710e-003
      6.72071520e-003 -4.72076843e-003 -4.10823675e-004 1.50091955e-002
      1.09490231e-002 -1.90640427e-003 9.34841635e-004 -9.35352687e-003
      8.57541710e-003 6.72071520e-003 -4.72076843e-003 -4.10823675e-004
      1.50091955e-002 1.09490231e-002 -1.90640427e-003 9.34841635e-004
      -9.35352687e-003 8.57541710e-003 6.72071520e-003 -4.72076843e-003
      -4.10823675e-004 1.50091955e-002 1.09490231e-002 -1.90640427e-003
      9.34841635e-004 -9.35352687e-003 8.57541710e-003 6.72071520e-003
      -4.72076843e-003 -4.10823675e-004 1.50091955e-002 1.09490231e-002
      -1.90640427e-003 9.34841635e-004 -9.35352687e-003 8.57541710e-003
      6.72071520e-003 -4.72076843e-003 -4.10823675e-004 1.50091955e-002
      1.09490231e-002 -1.90640427e-003 9.34841635e-004 -9.35352687e-003
      8.57541710e-003 6.72071520e-003 -4.72076843e-003 -4.10823675e-004
      1.50091955e-002 1.09490231e-002 -1.90640427e-003 9.34841635e-004
      -9.35352687e-003 8.57541710e-003 6.72071520e-003 -4.72076843e-003
      -4.10823675e-004 1.50091955e-002 1.09490231e-002 -1.90640427e-003
      9.34841635e-004 -9.35352687e-003 8.57541710e-003 6.72071520e-003
      -4.72076843e-003 -4.10823675e-004 1.50091955e-002 1.09490231e-002
      -1.90640427e-003 9.34841635e-004 -9.35352687e-003 8.57541710e-003
      6.72071520e-003 -4.72076843e-003 -4.10823675e-004 1.50091955e-002
      1.09490231e-002 -1.90640427e-003 9.34841635e-004 -9.35352687e-003
      8.57541710e-003 6.72071520e-003 -4.72076843e-003 -4.10823675e-004
      1.50091955e-002 1.09490231e-002 -1.90640427e-003 9.34841635e-004
      -9.35352687e-003 8.57541710e-003 6.72071520e-003 -4.72076843e-003
      -4.10823675e-004 1.50091955e-002 1.09490231e-002 -1.90640427e-003
      9.34841635e-004 -9.35352687e-003 8.57541710e-003 6.72071520e-003
      -4.72076843e-003 -4.10823675e-004 1.50091955e-002 1.09490231e-002
      -1.90640427e-003 9.34841635e-004 -9.35352687e-003 8.57541710e-003
      6.72071520e-003 -4.72076843e-003 -4.10823675e-004 1.50091955e-002
      1.09490231e-002 -1.90640427e-003 9.34841635e-004 -9.35352687e-003
      8.57541710e-003 6.72071520e-003 -4.72076843e-003 -4.10823675e-004
      1.50091955e-002 1.09490231e-002 -1.90640427e-003 9.34841635e-004
      -9.35352687e-003 8.57541710e-003 6.72071520e-003 -4.72076843e-003
      -4.10823675e-004 1.50091955e-002 1.09490231e-002 -1.90640427e-003
      9.34841635e-004 -9.35352687e-003 8.57541710e-003 6.72071520e-003
      -4.72076843e-003 -4.10823675e-004 1.50091955e-002 1.09490231e-002
      -1.90640427e-003 9.34841635e-004 -9.35352687e-003 8.57541710e-003
      6.72071520e-003 -4.72076843e-003 -4.10823675e-004 1.50091955e-002
      1.09490231e-002 -1.90640427e-003 9.34841635e-004 -9.35352687e-003
      8.57541710e-003 6.72071520e-003 -4.72076843e-003 -4.10823675e-004
      1.50091955e-002 1.09490231e-002 -1.90640427e-003 9.34841635e-004
      -9.35352687e-003 8.57541710e-003 6.72071520e-003 -4.72076843e-003
      -4.10823675e-004 1.50091955e-002 1.09490231e-002 -1.90640427e-003
      9.34841635e-004 -9.35352687e-003 8.57541710e-003 6.72071520e-003
      -4.72076843e-003 -4.10823675e-004 1.50091955e-002 1.09490231e-002
      -1.90640427e-003 9.34841635e-004 -9.35352687e-003 8.57541710e-003
      6.72071520e-003 -4.72076843e-003 -4.10823675e-004 1.50091955e-002
      1.09490231e-002 -1.90640427e-003 9.34841635e-004 -9.35352687e-003
      8.57541710e-003 6.72071520e-003 -4.72076843e-003 -4.10823675e-004
      1.50091955e-002 1.09490231e-002 -1.90640427e-003 9.34841635e-004
      -9.35352687e-003 8.57541710e-003 6.72071520e-003 -4.72076843e-003
      -4.10823675e-004 1.50091955e-002 1.09490231e-002 -1.90640427e-003
      9.34841635e-004 -9.35352687e-003 8.57541710e-003 6.72071520e-003
      -4.72076843e-003 -4.10823675e-004 1.50091955e-002 1.09490231e-002
      -1.90640427e-003 9.34841635e-004 -9.35352687e-003 8.57541710e-003
      6.72071520e-003 -4.72076843e-003 -4.10823675e-004 1.50091955e-002
      1.09490231e-002 -1.90640427e-003 9.34841635e-004 -9.35352687e-003
      8.57541710e-003 6.72071520e-003 -4.72076843e-003 -4.10823675e-004
      1.50091955e-002 1.09490231e-002 -1.90640427e-003 9.34841635e-004
      -9.35352687e-003 8.57541710e-003 6.72071520e-003 -4.72076843e-003
      -4.10823675e-004 1.50091955e-002 1.09490231e-002 -1.90640427e-003
      9.34841635e-004 -9.35352687e-003 8.57541710e-003 6.72071520e-003
      -4.72076843e-003 -4.10823675e-004 1.50091955e-002 1.09490231e-002
      -1.90640427e-003 9.34841635e-004 -9.35352687e-003 8.57541710e-003
      6.72071520e-003 -4.72076843e-003 -4.10823675e-004 1.50091955e-002
      1.09490231e-002 -1.90640427e-003 9.34841635e-004 -9.35352687e-003
      8.57541710e-003 6.72071520e-003 -4.72076843e-003 -4.10823675e-004
      1.50091955e-002 1.09490231e-002 -1.90640427e-003 9.34841635e-004
      -9.35352687e-003 8.57541710e-003 6.72071520e-003 -4.72076843e-003
      -4.10823675e-004 1.50091955e-002 1.09490231e-002 -1.90640427e-003
      9.34841635e-004 -9.35352687e-003 8.57541710e-003 6.72071520e-003
      -4.72076843e-003 -4.10823675e-004 1.50091955e-002 1.09490231e-002
      -1.90640427e-003 9.34841635e-004 -9.35352687e-003 8.57541710e-003
      6.72071520e-003 -4.72076843e-003 -4.10823675e-004 1.50091955e-002
      1.09490231e-002 -1.90640427e-003 9.34841635e-004 -9.35352687e-003
      8.57541710e-003 6.72071520e-003 -4.72076843e-003 -4.10823675e-004
      1.50091955e-002 1.09490231e-002 -1.90640427e-003 9.34841635e-004
      -9.35352687e-003 8.57541710e-003 6.72071520e-003 -4.72076843e-003
      -4.10823675e-004 1.50091955e-002 1.09490231e-002 -1.90640427e-003
      9.34841635e-004 -9.35352687e-003 8.57541710e-003 6.72071520e-003
      -4.72076843e-003 -4.10823675e-004 1.50091955e-002 1.09490231e-002
      -1.90640427e-003 9.34841635e-004 -9.35352687e-003 8.57541710e-003
      6.72071520e-003 -4.72076843e-003 -4.10823675e-004 1.50091955e-002
      1.09490231e-002 -1.90640427e-003 9.34841635e-004 -9.35352687e-003
      8.57541710e-003 6.72071520e-003 -4.72076843e-003 -4.10823675e-004
      1.50091955e-002 1.09490231e-002 -1.90640427e-003 9.34841635e-004
      -9.35352687e-003 8.57541710e-003 6.72071520e-003 -4.72076843e-003
      -4.10823675e-004 1.50091955e-002 1.09490231e-002 -1.90640427e-003
      9.34841635e-004 -9.35352687e-003 8.57541710e-003 6.72071520e-003
      -4.72076843e-003 -4.10823675e-004 1.50091955e-002 1.09490231e-002
      -1.90640427e-003 9.34841635e-004 -9.35352687e-003 8.57541710e-003
      6.72071520e-003 -4.72076843e-003 -4.10823675e-004 1.50091955e-002
      1.09490231e-002 -1.90640427e-003 9.34841635e-004 -9.35352687e-003
      8.57541710e-003 6.72071520e-003 -4.72076843e-003 -4.10823675e-004
      1.50091955e-002 1.09490231e-002 -1.90640427e-003 9.34841635e-004
      -9.35352687e-003 8.57541710e-003 6.72071520e-003 -4.72076843e-003
      -4.10823675e-004 1.50091955e-002 1.09490231e-002 -1.90640427e-003
      9.34841635e-004 -9.35352687e-003 8.57541710e-003 6.72071520e-003
      -4.72076843e-003 -4.10823675e-004 1.50091955e-002 1.09490231e-002
      -1.90640427e-003 9.34841635e-004 -9.35352687e-003 8.57541710e-003
      6.72071520e-003 -4.72076843e-003 -4.10823675e-004 1.50091955e-002
      1.09490231e-002 -1.90640427e-003 9.34841635e-004 -9.35352687e-003
      8.57541710e-003 6.72071520e-003 -4.72076843e-003 -4.10823675e-004
      1.50091955e-002 1.09490231e-002 -1.90640427e-003 9.34841635e-004
      -9.35352687e-003 8.57541710e-003 6.72071520e-003 -4.72076843e-003
      -4.10823675e-004 1.50091955e-002 1.09490231e-002 -1.90640427e-003
      9.34841635e-004 -9.35352687e-003 8.57541710e-003 6.72071520e-003
      -4.72076843e-003 -4.10823675e-004 1.50091955e-002 1.09490231e-002
      -1.90640427e-003 9.34841635e-004 -9.35352687e-003 8.57541710e-003
      6.72071520e-003 -4.72076843e-003 -4.10823675e-004 1.50091955e-002
      1.09490231e-002 -1.90640427e-003 9.34841635e-004 -9.35352687e-003
      8.57541710e-003 6.72071520e-003 -4.72076843e-003 -4.10823675e-004
      1.50091955e-002 1.09490231e-002 -1.90640427e-003 9.34841635e-004
      -9.35352687e-003 8.57541710e-003 6.72071520e-003 -4.72076843e-003
      -4.10823675e-004 1.50091955e-002 1.09490231e-002 -1.90640427e-003
      9.34841635e-004 -9.35352687e-003 8.57541710e-003 6.72071520e-003
      -4.72076843e-003 -4.10823675e-004 1.50091955e-002 1.09490231e-002
      -1.90640427e-003 9.34841635e-004 -9.35352687e-003 8.57541710e-003
      6.72071520e-003 -4.72076843e-003 -4.10823675e-004 1.50091955e-002
      1.09490231e-002 -1.90640427e-003 9.34841635e-004 -9.35352687e-003
      8.57541710e-003 6.72071520e-003 -4.72076843e-003 -4.10823675e-004
      1.50091955e-002 1.09490231e-002 -1.90640427e-003 9.34841635e-004
      -9.35352687e-003 8.57541710e-003 6.72071520e-003 -4.72076843e-003
      -4.10823675e-004 1.50091955e-002 1.09490231e-002 -1.90640427e-003
      9.34841635e-004 -9.35352687e-003 8.57541710e-003 6.72071520e-003
      -4.72076843e-003 -4.10823675e-004 1.50091955e-002 1.09490231e-002
      -1.90640427e-003 9.34841635e-004 -9.35352687e-003 8.57541710e-003
      6.72071520e-003 -4.72076843e-003 -4.10823675e-004 1.50091955e-002
      1.09490231e-002 -1.90640427e-003 9.34841635e-004 -9.35352687e-003
      8.57541710e-003 6.72071520e-003 -4.72076843e-003 -4.10823675e-004
      1.50091955e-002 1.09490231e-002 -1.90640427e-003 9.34841635e-004
      -9.35352687e-003 8.57541710e-003 6.72071520e-003 -4.72076843e-003
      -4.10823675e-004 1.50091955e-002 1.09490231e-002 -1.90640427e-003
      9.34841635e-004 -9.35352687e-003 8.57541710e-003 6.72071520e-003
      -4.72076843e-003 -4.10823675e-004 1.50091955e-002 1.09490231e-002
      -1.90640427e-003 9.34841635e-004 -9.35352687e-003 8.57541710e-003
      6.72071520e-003 -4.72076843e-003 -4.10823675e-004 1.50091955e-002
      1.09490231e-002 -1.90640427e-003 9.34841635e-004 -9.35352687e-003
      8.57541710e-003 6.72071520e-003 -4.72076843e-003 -4.10823675e-004
      1.50091955e-002 1.09490231e-002 -1.90640427e-003 9.34841635e-004
      -9.35352687e-003 8.57541710e-003 6.72071520e-003 -4.72076843e-003
      -4.10823675e-004 1.50091955e-002 1.09490231e-002 -1.90640427e-003
      9.34841635e-004 -9.35352687e-003 8.57541710e-003 6.72071520e-003
      -4.72076843e-003 -4.10823675e-004 1.50091955e-002 1.09490231e-002
      -1.90640427e-003 9.34841635e-004 -9.35352687e-003 8.57541710e-003
      6.72071520e-003 -4.72076843e-003 -4.10823675e-004 1.50091955e-002
      1.09490231e-002 -1.90640427e-003 9.34841635e-004 -9.35352687e-003
      8.57541710e-003 6.72071520e-003 -4.72076843e-003 -4.10823675e-004
      1.50091955e-002 1.09490231e-002 -1.90640427e-003 9.34841635e-004
      -9.35352687e-003 8.57541710e-003 6.72071520e-003 -4.72076843e-003
      -4.10823675e-004 1.50091955e-002 1.09490231e-002 -1.90640427e-003
      9.34841635e-004 -9.35352687e-003 8.57541710e-003 6.72071520e-003
      -4.72076843e-003 -4.10823675e-004 1.50091955e-002 1.09490231e-002
      -1.90640427e-003 9.34841635e-004 -9.35352687e-003 8.57541710e-003
      6.72071520e-003 -4.72076843e-003 -4.10823675e-004 1.50091955e-002
      1.09490231e-002 -1.90640427e-003 9.34841635e-004 -9.35352687e-003
      8.57541710e-003 6.72071520e-003 -4.72076843e-003 -4.10823675e-004
      1.50091955e-002 1.09490231e-002 -1.90640427e-003 9.34841635e-004
      -9.35352687e-003 8.57541710e-003 6.72071520e-003 -4.72076843e-003
      -4.10823675e-004 1.50091955e-002 1.09490231e-002 -1.90640427e-003
      9.34841635e-004 -9.35352687e-003 8.57541710e-003 6.72071520e-003
      -4.72076843e-003 -4.10823675e-004 1.50091955e-002 1.09490231e-002
      -1.90640427e-003 9.34841635e-004 -9.35352687e-003 8.57541710e-003
      6.72071520e-003 -4.72076843e-003 -4.10823675e-004 1.50091955e-002
      1.09490231e-002 -1.90640427e-003 9.34841635e-004 -9.35352687e-003
      8.57541710e-003 6.72071520e-003 -4.72076843e-003 -4.10823675e-004
      1.50091955e-002 1.09490231e-002 -1.90640427e-003 9.34841635e-004
      -9.35352687e-003 8.57541710e-003 6.72071520e-003 -4.72076843e-003
      -4.10823675e-004 1.50091955e-002 1.09490231e-002 -1.90640427e-003
      9.34841635e-004 -9.35352687e-003 8.57541710e-003 6.72071520e-003
      -4.72076843e-003 -4.10823675e-004 1.50091955e-002 1.09490231e-002
      -1.90640427e-003 9.34841635e-004 -9.35352687e-003 8.57541710e-003
      6.72071520e-003 -4.72076843e-003 -4.10823675e-004 1.50091955e-002
      1.09490231e-002 -1.90640427e-003 9.34841635e-004 -9.35352687e-003
      8.57541710e-003 6.72071520e-003 -4.72076843e-003 -4.10823675e-004
      1.50091955e-002 1.09490231e-002 -1.90640427e-003 9.34841635e-004
      -9.35352687e-003 8.57541710e-003 6.72071520e-003 -4.72076843e-003
      -4.10823675e-004 1.50091955e-002 1.09490231e-002 -1.90640427e-003
      9.34841635e-004 -9.35352687e-003 8.57541710e-003 6.72071520e-003
      -4.72076843e-003 -4.10823675e-004 1.50091955e-002 1.09490231e-002
      -1.90640427e-003 9.34841635e-004 -9.35352687e-003 8.57541710e-003
      6.72071520e-003 -4.72076843e-003 -4.10823675e-004 1.50091955e-002
      1.09490231e-002 -1.90640427e-003 9.34841635e-004 -9.35352687e-003
      8.57541710e-003 6.72071520e-003 -4.72076843e-003 -4.10823675e-004
      1.50091955e-002 1.09490231e-002 -1.90640427e-003 9.34841635e-004
      -9.35352687e-003 8.57541710e-003 6.72071520e-003 -4.72076843e-003
      -4.10823675e-004 1.50091955e-002 1.09490231e-002 -1.90640427e-003
      9.34841635e-004 -9.35352687e-003 8.57541710e-003 6.72071520e-003
      -4.72076843e-003 -4.10823675e-004 1.50091955e-002 1.09490231e-002
      -1.90640427e-003 9.34841635e-004 -9.35352687e-003 8.57541710e-003
      6.72071520e-003 -4.72076843e-003 -4.10823675e-004 1.50091955e-002
      1.09490231e-002 -1.90640427e-003 9.34841635e-004 -9.35352687e-003
      8.57541710e-003 6.72071520e-003 -4.72076843e-003 -4.10823675e-004
      1.50091955e-002 1.09490231e-002 -1.90640427e-003 9.34841635e-004
      -9.35352687e-003 8.57541710e-003 6.72071520e-003 -4.72076843e-003
      -4.10823675e-004 1.50091955e-002 1.09490231e-002 -1.90640427e-003
      9.34841635e-004 -9.35352687e-003 8.57541710e-003 6.72071520e-003
      -4.72076843e-003 -4.10823675e-004 1.50091955e-002 1.09490231e-002
      -1.90640427e-003 9.34841635e-004 -9.35352687e-003 8.57541710e-003
      6.72071520e-003 -4.72076843e-003 -4.10823675e-004 1.50091955e-002
      1.09490231e-002 -1.90640427e-003 9.34841635e-004 -9.35352687e-003
      8.57541710e-003 6.72071520e-003 -4.72076843e-003 -4.10823675e-004
      1.50091955e-002 1.09490231e-002 -1.90640427e-003 9.34841635e-004
      -9.35352687e-003 8.57541710e-003 6.72071520e-003 -4.72076843e-003
      -4.10823675e-004 1.50091955e-002 1.09490231e-002 -1.90640427e-003
      9.34841635e-004 -9.35352687e-003 8.57541710e-003 6.72071520e-003
      -4.72076843e-003 -4.10823675e-004 1.50091955e-002 1.09490231e-002
      -1.90640427e-003 9.34841635e-004 -9.35352687e-003 8.57541710e-003
      6.72071520e-003 -4.72076843e-003 -4.10823675e-004 1.50091955e-002
      1.09490231e-002 -1.90640427e-003 9.34841635e-004 -9.35352687e-003
      8.57541710e-003 6.72071520e-003 -4.72076843e-003 -4.10823675e-004
      1.50091955e-002 1.09490231e-002 -1.90640427e-003 9.34841635e-004
      -9.35352687e-003 8.57541710e-003 6.72071520e-003 -4.72076843e-003
      -4.10823675e-004 1.50091955e-002 1.09490231e-002 -1.90640427e-003
      9.34841635e-004 -9.35352687e-003 8.57541710e-003 6.72071520e-003
      -4.72076843e-003 -4.10823675e-004 1.50091955e-002 1.09490231e-002
      -1.90640427e-003 9.34841635e-004 -9.35352687e-003 8.57541710e-003
      6.72071520e-003 -4.72076843e-003 -4.10823675e-004 1.50091955e-002
      1.09490231e-002 -1.90640427e-003 9.34841635e-004 -9.35352687e-003
      8.57541710e-003 6.72071520e-003 -4.72076843e-003 -4.10823675e-004
      1.50091955e-002 1.09490231e-002 -1.90640427e-003 9.34841635e-004
      -9.35352687e-003 8.57541710e-003 6.72071520e-003 -4.72076843e-003
      -4.10823675e-004 1.50091955e-002 1.09490231e-002 -1.90640427e-003
      9.34841635e-004 -9.35352687e-003 8.57541710e-003 6.72071520e-003
      -4.72076843e-003 -4.10823675e-004 1.50091955e-002 1.09490231e-002
      -1.90640427e-003 9.34841635e-004 -9.35352687e-003 8.57541710e-003
      6.72071520e-003 -4.72076843e-003 -4.10823675e-004 1.50091955e-002
      1.09490231e-002 -1.90640427e-003 9.34841635e-004 -9.35352687e-003
      8.57541710e-003 6.72071520e-003 -4.72076843e-003 -4.10823675e-004
      1.50091955e-002 1.09490231e-002 -1.90640427e-003 9.34841635e-004
      -9.35352687e-003 8.57541710e-003 6.72071520e-003 -4.72076843e-003
      -4.10823675e-004 1.50091955e-002 1.09490231e-002 -1.90640427e-003
      9.34841635e-004 -9.35352687e-003 8.57541710e-003 6.72071520e-003
      -4.72076843e-003 -4.10823675e-004 1.50091955e-002 1.09490231e-002
      -1.90640427e-003 9.34841635e-004 -9.35352687e-003 8.57541710e-003
      6.72071520e-003 -4.72076843e-003 -4.10823675e-004 1.50091955e-002
      1.09490231e-002 -1.90640427e-003 9.34841635e-004 -9.35352687e-003
      8.57541710e-003 6.72071520e-003 -4.72076843e-003 -4.10823675e-004
      1.50091955e-002 1.09490231e-002 -1.90640427e-003 9.34841635e-004
      -9.35352687e-003 8.57541710e-003 6.72071520e-003 -4.72076843e-003
      -4.10823675e-004 1.50091955e-002 1.09490231e-002 -1.90640427e-003
      9.34841635e-004 -9.35352687e-003 8.57541710e-003 6.72071520e-003
      -4.72076843e-003 -4.10823675e-004 1.50091955e-002 1.09490231e-002
      -1.90640427e-003 9.34841635e-004 -9.35352687e-003 8.57541710e-003
      6.72071520e-003 -4.72076843e-003 -4.10823675e-004 1.50091955e-002
      1.09490231e-002 -1.90640427e-003 9.34841635e-004 -9.35352687e-003
      8.57541710e-003 6.72071520e-003 -4.72076843e-003 -4.10823675e-004
      1.50091955e-002 1.09490231e-002 -1.90640427e-003 9.34841635e-004
      -9.35352687e-003 8.57541710e-003 6.72071520e-003 -4.72076843e-003
      -4.10823675e-004 1.50091955e-002 1.09490231e-002 -1.90640427e-003
      9.34841635e-004 -9.35352687e-003 8.57541710e-003 6.72071520e-003
      -4.72076843e-003 -4.10823675e-004 1.50091955e-002 1.09490231e-002
      -1.90640427e-003 9.34841635e-004 -9.35352687e-003 8.57541710e-003
      6.72071520e-003 -4.72076843e-003 -4.10823675e-004 1.50091955e-002
      1.09490231e-002 -1.90640427e-003 9.34841635e-004 -9.35352687e-003
      8.57541710e-003 6.72071520e-003 -4.72076843e-003 -4.10823675e-004
      1.50091955e-002 1.09490231e-002 -1.90640427e-003 9.34841635e-004
      -9.35352687e-003 8.57541710e-003 6.72071520e-003 -4.72076843e-003
      -4.10823675e-004 1.50091955e-002 1.09490231e-002 -1.90640427e-003
      9.34841635e-004 -9.35352687e-003 8.57541710e-003 6.72071520e-003
      -4.72076843e-003 -4.10823675e-004 1.50091955e-002 1.09490231e-002
      -1.90640427e-003 9.34841635e-004 -9.35352687e-003 8.57541710e-003
      6.72071520e-003 -4.72076843e-003 -4.10823675e-004 1.50091955e-002
      1.09490231e-002 -1.90640427e-003 9.34841635e-004 -9.35352687e-003
      8.57541710e-003 6.72071520e-003 -4.72076843e-003 -4.10823675e-004
      1.50091955e-002 1.09490231e-002 -1.90640427e-003 9.34841635e-004
      -9.35352687e-003 8.57541710e-003 6.72071520e-003 -4.72076843e-003
      -4.10823675e-004 1.50091955e-002 1.09490231e-002 -1.90640427e-003
      9.34841635e-004 -9.35352687e-003 8.57541710e-003 6.72071520e-003
      -4.72076843e-003 -4.10823675e-004 1.50091955e-002 1.09490231e-002
      -1.90640427e-003 9.34841635e-004 -9.35352687e-003 8.57541710e-003
      6.72071520e-003 -4.72076843e-003 -4.10823675e-004 1.50091955e-002
      1.09490231e-002 -1.90640427e-003 9.34841635e-004 -9.35352687e-003
      8.57541710e-003 6.72071520e-003 -4.72076843e-003 -4.10823675e-004
      1.50091955e-002 1.09490231e-002 -1.90640427e-003 9.34841635e-004
      -9.35352687e-003 8.57541710e-003 6.72071520e-003 -4.72076843e-003
      -4.10823675e-004 1.50091955e-002 1.09490231e-002 -1.90640427e-003
      9.34841635e-004 -9.35352687e-003 8.57541710e-003 6.72071520e-003
      -4.72076843e-003 -4.10823675e-004 1.50091955e-002 1.09490231e-002
      -1.90640427e-003 9.34841635e-004 -9.35352687e-003 8.57541710e-003
      6.72071520e-003 -4.72076843e-003 -4.10823675e-004 1.50091955e-002
      1.09490231e-002 -1.90640427e-003 9.34841635e-004 -9.35352687e-003
      8.57541710e-003 6.72071520e-003 -4.72076843e-003 -4.10823675e-004
      1.50091955e-002 1.09490231e-002 -1.90640427e-003 9.34841635e-004
      -9.35352687e-003 8.57541710e-003 6.72071520e-003 -4.72076843e-003
      -4.10823675e-004 1.50091955e-002 1.09490231e-002 -1.90640427e-003
      9.34841635e-004 -9.35352687e-003 8.57541710e-003 6.72071520e-003
      -4.72076843e-003 -4.10823675e-004 1.50091955e-002 1.09490231e-002
      -1.90640427e-003 9.34841635e-004 -9.35352687e-003 8.57541710e-003
      6.72071520e-003 -4.72076843e-003 -4.10823675e-004 1.50091955e-002
      1.09490231e-002 -1.90640427e-003 9.34841635e-004 -9.35352687e-003
      8.57541710e-003 6.72071520e-003 -4.72076843e-003 -4.10823675e-004
      1.50091955e-002 1.09490231e-002 -1.90640427e-003 9.34841635e-004
      -9.35352687e-003 8.57541710e-003 6.72071520e-003 -4.72076843e-003
      -4.10823675e-004 1.50091955e-002 1.09490231e-002 -1.90640427e-003
      9.34841635e-004 -9.35352687e-003 8.57541710e-003 6.72071520e-003
      -4.72076843e-003 -4.10823675e-004 1.50091955e-002 1.09490231e-002
      -1.90640427e-003 9.34841635e-004 -9.35352687e-003 8.57541710e-003
      6.72071520e-003 -4.72076843e-003 -4.10823675e-004 1.50091955e-002
      1.09490231e-002 -1.90640427e-003 9.34841635e-004 -9.35352687e-003
      8.57541710e-003 6.72071520e-003 -4.72076843e-003 -4.10823675e-004
      1.50091955e-002 1.09490231e-002 -1.90640427e-003 9.34841635e-004
      -9.35352687e-003 8.57541710e-003 6.72071520e-003 -4.72076843e-003
      -4.10823675e-004 1.50091955e-002 1.09490231e-002 -1.90640427e-003
      9.34841635e-004 -9.35352687e-003 8.57541710e-003 6.72071520e-003
      -4.72076843e-003 -4.10823675e-004 1.50091955e-002 1.09490231e-002
      -1.90640427e-003 9.34841635e-004 -9.35352687e-003 8.57541710e-003
      6.72071520e-003 -4.72076843e-003 -4.10823675e-004 1.50091955e-002
      1.09490231e-002 -1.90640427e-003 9.34841635e-004 -9.35352687e-003
      8.57541710e-003 6.72071520e-003 -4.72076843e-003 -4.10823675e-004
      1.50091955e-002 1.09490231e-002 -1.90640427e-003 9.34841635e-004
      -9.35352687e-003 8.57541710e-003 6.72071520e-003 -4.72076843e-003
      -4.10823675e-004 1.50091955e-002 1.09490231e-002 -1.90640427e-003
      9.34841635e-004 -9.35352687e-003 8.57541710e-003 6.72071520e-003
      -4.72076843e-003 -4.10823675e-004 1.50091955e-002 1.09490231e-002
      -1.90640427e-003 9.34841635e-004 -9.35352687e-003 8.57541710e-003
      6.72071520e-003 -4.72076843e-003 -4.10823675e-004 1.50091955e-002
      1.09490231e-002 -1.90640427e-003 9.34841635e-004 -9.35352687e-003
      8.57541710e-003 6.72071520e-003 -4.72076843e-003 -4.10823675e-004
      1.50091955e-002 1.09490231e-002 -1.90640427e-003 9.34841635e-004
      -9.35352687e-003 8.57541710e-003 6.72071520e-003 -4.72076843e-003
      -4.10823675e-004 1.50091955e-002 1.09490231e-002 -1.90640427e-003
      9.34841635e-004 -9.35352687e-003 8.57541710e-003 6.72071520e-003
      -4.72076843e-003 -4.10823675e-004 1.50091955e-002 1.09490231e-002
      -1.90640427e-003 9.34841635e-004 -9.35352687e-003 8.57541710e-003
      6.72071520e-003 -4.72076843e-003 -4.10823675e-004 1.50091955e-002
      1.09490231e-002 -1.90640427e-003 9.34841635e-004 -9.35352687e-003
      8.57541710e-003 6.72071520e-003 -4.72076843e-003 -4.10823675e-004
      1.50091955e-002 1.09490231e-002 -1.90640427e-003 9.34841635e-004
      -9.35352687e-003 8.57541710e-003 6.72071520e-003 -4.72076843e-003
      -4.10823675e-004 1.50091955e-002 1.09490231e-002 -1.90640427e-003
      9.34841635e-004 -9.35352687e-003 8.57541710e-003 6.72071520e-003
      -4.72076843e-003 -4.10823675e-004 1.50091955e-002 1.09490231e-002
      -1.90640427e-003 9.34841635e-004 -9.35352687e-003 8.57541710e-003
      6.72071520e-003 -4.72076843e-003 -4.10823675e-004 1.50091955e-002
      1.09490231e-002 -1.90640427e-003 9.34841635e-004 -9.35352687e-003
      8.57541710e-003 6.72071520e-003 -4.72076843e-003 -4.10823675e-004
      1.50091955e-002 1.09490231e-002 -1.90640427e-003 9.34841635e-004
      -9.35352687e-003 8.57541710e-003 6.72071520e-003 -4.72076843e-003
      -4.10823675e-004 1.50091955e-002 1.09490231e-002 -1.90640427e-003
      9.34841635e-004 -9.35352687e-003 8.57541710e-003 6.72071520e-003
      -4.72076843e-003 -4.10823675e-004 1.50091955e-002 1.09490231e-002
      -1.90640427e-003 9.34841635e-004 -9.35352687e-003 8.57541710e-003
      6.72071520e-003 -4.72076843e-003 -4.10823675e-004 1.50091955e-002
      1.09490231e-002 -1.90640427e-003 9.34841635e-004 -9.35352687e-003
      8.57541710e-003 6.72071520e-003 -4.72076843e-003 -4.10823675e-004
      1.50091955e-002 1.09490231e-002 -1.90640427e-003 9.34841635e-004
      -9.35352687e-003 8.57541710e-003 6.72071520e-003 -4.72076843e-003
      -4.10823675e-004 1.50091955e-002 1.09490231e-002 -1.90640427e-003
      9.34841635e-004 -9.35352687e-003 8.57541710e-003 6.72071520e-003
      -4.72076843e-003 -4.10823675e-004 1.50091955e-002 1.09490231e-002
      -1.90640427e-003 9.34841635e-004 -9.35352687e-003 8.57541710e-003
      6.72071520e-003 -4.72076843e-003 -4.10823675e-004 1.50091955e-002
      1.09490231e-002 -1.90640427e-003 9.34841635e-004 -9.35352687e-003
      8.57541710e-003 6.72071520e-003 -4.72076843e-003 -4.10823675e-004
      1.50091955e-002 1.09490231e-002 -1.90640427e-003 9.34841635e-004
      -9.35352687e-003 8.57541710e-003 6.72071520e-003 -4.72076843e-003
      -4.10823675e-004 1.50091955e-002 1.09490231e-002 -1.90640427e-003
      9.34841635e-004 -9.35352687e-003 8.57541710e-003 6.72071520e-003
      -4.72076843e-003 -4.10823675e-004 1.50091955e-002 1.09490231e-002
      -1.90640427e-003 9.34841635e-004 -9.35352687e-003 8.57541710e-003
      6.72071520e-003 -4.72076843e-003 -4.10823675e-004 1.50091955e-002
      1.09490231e-002 -1.90640427e-003 9.34841635e-004 -9.35352687e-003
      8.57541710e-003 6.72071520e-003 -4.72076843e-003 -4.10823675e-004
      1.50091955e-002 1.09490231e-002 -1.90640427e-003 9.34841635e-004
      -9.35352687e-003 8.57541710e-003 6.72071520e-003 -4.72076843e-003
      -4.10823675e-004 1.50091955e-002 1.09490231e-002 -1.90640427e-003
      9.34841635e-004 -9.35352687e-003 8.57541710e-003 6.72071520e-003
      -4.72076843e-003 -4.10823675e-004 1.50091955e-002 1.09490231e-002
      -1.90640427e-003 9.34841635e-004 -9.35352687e-003 8.57541710e-003
      6.72071520e-003 -4.72076843e-003 -4.10823675e-004 1.50091955e-002
      1.09490231e-002 -1.90640427e-003 9.34841635e-004 -9.35352687e-003
      8.57541710e-003 6.72071520e-003 -4.72076843e-003 -4.10823675e-004
      1.50091955e-002 1.09490231e-002 -1.90640427e-003 9.34841635e-004
      -9.35352687e-003 8.57541710e-003 6.72071520e-003 -4.72076843e-003
      -4.10823675e-004 1.50091955e-002 1.09490231e-002 -1.90640427e-003
      9.34841635e-004 -9.35352687e-003 8.57541710e-003 6.72071520e-003
      -4.72076843e-003 -4.10823675e-004 1.50091955e-002 1.09490231e-002
      -1.90640427e-003 9.34841635e-004 -9.35352687e-003 8.57541710e-003
      6.72071520e-003 -4.72076843e-003 -4.10823675e-004 1.50091955e-002
      1.09490231e-002 -1.90640427e-003 9.34841635e-004 -9.35352687e-003
      8.57541710e-003 6.72071520e-003 -4.72076843e-003 -4.10823675e-004
      1.50091955e-002 1.09490231e-002 -1.90640427e-003 9.34841635e-004
      -9.35352687e-003 8.57541710e-003 6.72071520e-003 -4.72076843e-003
      -4.10823675e-004 1.50091955e-002 1.09490231e-002 -1.90640427e-003
      9.34841635e-004 -9.35352687e-003 8.57541710e-003 6.72071520e-003
      -4.72076843e-003 -4.10823675e-004 1.50091955e-002 1.09490231e-002
      -1.90640427e-003 9.34841635e-004 -9.35352687e-003 8.57541710e-003
      6.72071520e-003 -4.72076843e-003 -4.10823675e-004 1.50091955e-002
      1.09490231e-002 -1.90640427e-003 9.34841635e-004 -9.35352687e-003
      8.57541710e-003 6.72071520e-003 -4.72076843e-003 -4.10823675e-004
      1.50091955e-002 1.09490231e-002 -1.90640427e-003 9.34841635e-004
      -9.35352687e-003 8.57541710e-003 6.72071520e-003 -4.72076843e-003
      -4.10823675e-004 1.50091955e-002 1.09490231e-002 -1.90640427e-003
      9.34841635e-004 -9.35352687e-003 8.57541710e-003 6.72071520e-003
      -4.72076843e-003 -4.10823675e-004 1.50091955e-002 1.09490231e-002
      -1.90640427e-003 9.34841635e-004 -9.35352687e-003 8.57541710e-003
      6.72071520e-003 -4.72076843e-003 -4.10823675e-004 1.50091955e-002
      1.09490231e-002 -1.90640427e-003 9.34841635e-004 -9.35352687e-003
      8.57541710e-003 6.72071520e-003 -4.72076843e-003 -4.10823675e-004
      1.50091955e-002 1.09490231e-002 -1.90640427e-003 9.34841635e-004
      -9.35352687e-003 8.57541710e-003 6.72071520e-003 -4.72076843e-003
      -4.10823675e-004 1.50091955e-002 1.09490231e-002 -1.90640427e-003
      9.34841635e-004 -9.35352687e-003 8.57541710e-003 6.72071520e-003
      -4.72076843e-003 -4.10823675e-004 1.50091955e-002 1.09490231e-002
      -1.90640427e-003 9.34841635e-004 -9.35352687e-003 8.57541710e-003
      6.72071520e-003 -4.72076843e-003 -4.10823675e-004 1.50091955e-002
      1.09490231e-002 -1.90640427e-003 9.34841635e-004 -9.35352687e-003
      8.57541710e-003 6.72071520e-003 -4.72076843e-003 -4.10823675e-004
      1.50091955e-002 1.09490231e-002 -1.90640427e-003 9.34841635e-004
      -9.35352687e-003 8.57541710e-003 6.72071520e-003 -4.72076843e-003
      -4.10823675e-004 1.50091955e-002 1.09490231e-002 -1.90640427e-003
      9.34841635e-004 -9.35352687e-003 8.57541710e-003 6.72071520e-003
      -4.72076843e-003 -4.10823675e-004 1.50091955e-002 1.09490231e-002
      -1.90640427e-003 9.34841635e-004 -9.35352687e-003 8.57541710e-003
      6.72071520e-003 -4.72076843e-003 -4.10823675e-004 1.50091955e-002
      1.09490231e-002 -1.90640427e-003 9.34841635e-004 -9.35352687e-003
      8.57541710e-003 6.72071520e-003 -4.72076843e-003 -4.10823675e-004
      1.50091955e-002 1.09490231e-002 -1.90640427e-003 9.34841635e-004
      -9.35352687e-003 8.57541710e-003 6.72071520e-003 -4.72076843e-003
      -4.10823675e-004 1.50091955e-002 1.09490231e-002 -1.90640427e-003
      9.34841635e-004 -9.35352687e-003 8.57541710e-003 6.72071520e-003
      -4.72076843e-003 -4.10823675e-004 1.50091955e-002 1.09490231e-002
      -1.90640427e-003 9.34841635e-004 -9.35352687e-003 8.57541710e-003
      6.72071520e-003 -4.72076843e-003 -4.10823675e-004 1.50091955e-002
      1.09490231e-002 -1.90640427e-003 9.34841635e-004 -9.35352687e-003
      8.57541710e-003 6.72071520e-003 -4.72076843e-003 -4.10823675e-004
      1.50091955e-002 1.09490231e-002 -1.90640427e-003 9.34841635e-004
      -9.35352687e-003 8.57541710e-003 6.72071520e-003 -4.72076843e-003
      -4.10823675e-004 1.50091955e-002 1.09490231e-002 -1.90640427e-003
      9.34841635e-004 -9.35352687e-003 8.57541710e-003 6.72071520e-003
      -4.72076843e-003 -4.10823675e-004 1.50091955e-002 1.09490231e-002
      -1.90640427e-003 9.34841635e-004 -9.35352687e-003 8.57541710e-003
      6.72071520e-003 -4.72076843e-003 -4.10823675e-004 1.50091955e-002
      1.09490231e-002 -1.90640427e-003 9.34841635e-004 -9.35352687e-003
      8.57541710e-003 6.72071520e-003 -4.72076843e-003 -4.10823675e-004
      1.50091955e-002 1.09490231e-002 -1.90640427e-003 9.34841635e-004
      -9.35352687e-003 8.57541710e-003 6.72071520e-003 -4.72076843e-003
      -4.10823675e-004 1.50091955e-002 1.09490231e-002 -1.90640427e-003
      9.34841635e-004 -9.35352687e-003 8.57541710e-003 6.72071520e-003
      -4.72076843e-003 -4.10823675e-004 1.50091955e-002 1.09490231e-002
      -1.90640427e-003 9.34841635e-004 -9.35352687e-003 8.57541710e-003
      6.72071520e-003 -4.72076843e-003 -4.10823675e-004 1.50091955e-002
      1.09490231e-002 -1.90640427e-003 9.34841635e-004 -9.35352687e-003
      8.57541710e-003 6.72071520e-003 -4.72076843e-003 -4.10823675e-004
      1.50091955e-002 1.09490231e-002 -1.90640427e-003 9.34841635e-004
      -9.35352687e-003 8.57541710e-003 6.72071520e-003 -4.72076843e-003
      -4.10823675e-004 1.50091955e-002 1.09490231e-002 -1.90640427e-003
      9.34841635e-004 -9.35352687e-003 8.57541710e-003 6.72071520e-003
      -4.72076843e-003 -4.10823675e-004 1.50091955e-002 1.09490231e-002
      -1.90640427e-003 9.34841635e-004 -9.35352687e-003 8.57541710e-003
      6.72071520e-003 -4.72076843e-003 -4.10823675e-004 1.50091955e-002
      1.09490231e-002 -1.90640427e-003 9.34841635e-004 -9.35352687e-003
      8.57541710e-003 6.72071520e-003 -4.72076843e-003 -4.10823675e-004
      1.50091955e-002 1.09490231e-002 -1.90640427e-003 9.34841635e-004
      -9.35352687e-003 8.57541710e-003 6.72071520e-003 -4.72076843e-003
      -4.10823675e-004 1.50091955e-002 1.09490231e-002 -1.90640427e-003
      9.34841635e-004 -9.35352687e-003 8.57541710e-003 6.72071520e-003
      -4.72076843e-003 -4.10823675e-004 1.50091955e-002 1.09490231e-002
      -1.90640427e-003 9.34841635e-004 -9.35352687e-003 8.57541710e-003
      6.72071520e-003 -4.72076843e-003 -4.10823675e-004 1.50091955e-002
      1.09490231e-002 -1.90640427e-003 9.34841635e-004 -9.35352687e-003
      8.57541710e-003 6.72071520e-003 -4.72076843e-003 -4.10823675e-004
      1.50091955e-002 1.09490231e-002 -1.90640427e-003 9.34841635e-004
      -9.35352687e-003 8.57541710e-003 6.72071520e-003 -4.72076843e-003
      -4.10823675e-004 1.50091955e-002 1.09490231e-002 -1.90640427e-003
      9.34841635e-004 -9.35352687e-003 8.57541710e-003 6.72071520e-003
      -4.72076843e-003 -4.10823675e-004 1.50091955e-002 1.09490231e-002
      -1.90640427e-003 9.34841635e-004 -9.35352687e-003 8.57541710e-003
      6.72071520e-003 -4.72076843e-003 -4.10823675e-004 1.50091955e-002
      1.09490231e-002 -1.90640427e-003 9.34841635e-004 -9.35352687e-003
      8.57541710e-003 6.72071520e-003 -4.72076843e-003 -4.10823675e-004
      1.50091955e-002 1.09490231e-002 -1.90640427e-003 9.34841635e-004
      -9.35352687e-003 8.57541710e-003 6.72071520e-003 -4.72076843e-003
      -4.10823675e-004 1.50091955e-002 1.09490231e-002 -1.90640427e-003
      9.34841635e-004 -9.35352687e-003 8.57541710e-003 6.72071520e-003
      -4.72076843e-003 -4.10823675e-004 1.50091955e-002 1.09490231e-002
      -1.90640427e-003 9.34841635e-004 -9.35352687e-003 8.57541710e-003
      6.72071520e-003 -4.72076843e-003 -4.10823675e-004 1.50091955e-002
      1.09490231e-002 -1.90640427e-003 9.34841635e-004 -9.35352687e-003
      8.57541710e-003 6.72071520e-003 -4.72076843e-003 -4.10823675e-004
      1.50091955e-002 1.09490231e-002 -1.90640427e-003 9.34841635e-004
      -9.35352687e-003 8.57541710e-003 6.72071520e-003 -4.72076843e-003
      -4.10823675e-004 1.50091955e-002 1.09490231e-002 -1.90640427e-003
      9.34841635e-004 -9.35352687e-003 8.57541710e-003 6.72071520e-003
      -4.72076843e-003 -4.10823675e-004 1.50091955e-002 1.09490231e-002
      -1.90640427e-003 9.34841635e-004 -9.35352687e-003 8.57541710e-003
      6.72071520e-003 -4.72076843e-003 -4.10823675e-004 1.50091955e-002
      1.09490231e-002 -1.90640427e-003 9.34841635e-004 -9.35352687e-003
      8.57541710e-003 6.72071520e-003 -4.72076843e-003 -4.10823675e-004
      1.50091955e-002 1.09490231e-002 -1.90640427e-003 9.34841635e-004
      -9.35352687e-003 8.57541710e-003 6.72071520e-003 -4.72076843e-003
      -4.10823675e-004 1.50091955e-002 1.09490231e-002 -1.90640427e-003
      9.34841635e-004 -9.35352687e-003 8.57541710e-003 6.72071520e-003
      -4.72076843e-003 -4.10823675e-004 1.50091955e-002 1.09490231e-002
      -1.90640427e-003 9.34841635e-004 -9.35352687e-003 8.57541710e-003
      6.72071520e-003 -4.72076843e-003 -4.10823675e-004 1.50091955e-002
      1.09490231e-002 -1.90640427e-003 9.34841635e-004 -9.35352687e-003
      8.57541710e-003 6.72071520e-003 -4.72076843e-003 -4.10823675e-004
      1.50091955e-002 1.09490231e-002 -1.90640427e-003 9.34841635e-004
      -9.35352687e-003 8.57541710e-003 6.72071520e-003 -4.72076843e-003
      -4.10823675e-004 1.50091955e-002 1.09490231e-002 -1.90640427e-003
      9.34841635e-004 -9.35352687e-003 8.57541710e-003 6.72071520e-003
      -4.72076843e-003 -4.10823675e-004 1.50091955e-002 1.09490231e-002
      -1.90640427e-003 9.34841635e-004 -9.35352687e-003 8.57541710e-003
      6.72071520e-003 -4.72076843e-003 -4.10823675e-004 1.50091955e-002
      1.09490231e-002 -1.90640427e-003 9.34841635e-004 -9.35352687e-003
      8.57541710e-003 6.72071520e-003 -4.72076843e-003 -4.10823675e-004
      1.50091955e-002 1.09490231e-002 -1.90640427e-003 9.34841635e-004
      -9.35352687e-003 8.57541710e-003 6.72071520e-003 -4.72076843e-003
      -4.10823675e-004 1.50091955e-002 1.09490231e-002 -1.90640427e-003
      9.34841635e-004 -9.35352687e-003 8.57541710e-003 6.72071520e-003
      -4.72076843e-003 -4.10823675e-004 1.50091955e-002 1.09490231e-002
      -1.90640427e-003 9.34841635e-004 -9.35352687e-003 8.57541710e-003
      6.72071520e-003 -4.72076843e-003 -4.10823675e-004 1.50091955e-002
      1.09490231e-002 -1.90640427e-003 9.34841635e-004 -9.35352687e-003
      8.57541710e-003 6.72071520e-003 -4.72076843e-003 -4.10823675e-004
      1.50091955e-002 1.09490231e-002 -1.90640427e-003 9.34841635e-004
      -9.35352687e-003 8.57541710e-003 6.72071520e-003 -4.72076843e-003
      -4.10823675e-004 1.50091955e-002 1.09490231e-002 -1.90640427e-003
      9.34841635e-004 -9.35352687e-003 8.57541710e-003 6.72071520e-003
      -4.72076843e-003 -4.10823675e-004 1.50091955e-002 1.09490231e-002
      -1.90640427e-003 9.34841635e-004 -9.35352687e-003 8.57541710e-003
      6.72071520e-003 -4.72076843e-003 -4.10823675e-004 1.50091955e-002
      1.09490231e-002 -1.90640427e-003 9.34841635e-004 -9.35352687e-003
      8.57541710e-003 6.72071520e-003 -4.72076843e-003 -4.10823675e-004
      1.50091955e-002 1.09490231e-002 -1.90640427e-003 9.34841635e-004
      -9.35352687e-003 8.57541710e-003 6.72071520e-003 -4.72076843e-003
      -4.10823675e-004 1.50091955e-002 1.09490231e-002 -1.90640427e-003
      9.34841635e-004 -9.35352687e-003 8.57541710e-003 6.72071520e-003
      -4.72076843e-003 -4.10823675e-004 1.50091955e-002 1.09490231e-002
      -1.90640427e-003 9.34841635e-004 -9.35352687e-003 8.57541710e-003
      6.72071520e-003 -4.72076843e-003 -4.10823675e-004 1.50091955e-002
      1.09490231e-002 -1.90640427e-003 9.34841635e-004 -9.35352687e-003
      8.57541710e-003 6.72071520e-003 -4.72076843e-003 -4.10823675e-004
      1.50091955e-002 1.09490231e-002 -1.90640427e-003 9.34841635e-004
      -9.35352687e-003 8.57541710e-003 6.72071520e-003 -4.72076843e-003
      -4.10823675e-004 1.50091955e-002 1.09490231e-002 -1.90640427e-003
      9.34841635e-004 -9.35352687e-003 8.57541710e-003 6.72071520e-003
      -4.72076843e-003 -4.10823675e-004 1.50091955e-002 1.09490231e-002
      -1.90640427e-003 9.34841635e-004 -9.35352687e-003 8.57541710e-003
      6.72071520e-003 -4.72076843e-003 -4.10823675e-004 1.50091955e-002
      1.09490231e-002 -1.90640427e-003 9.34841635e-004 -9.35352687e-003
      8.57541710e-003 6.72071520e-003 -4.72076843e-003 -4.10823675e-004
      1.50091955e-002 1.09490231e-002 -1.90640427e-003 9.34841635e-004
      -9.35352687e-003 8.57541710e-003 6.72071520e-003 -4.72076843e-003
      -4.10823675e-004 1.50091955e-002 1.09490231e-002 -1.90640427e-003
      9.34841635e-004 -9.35352687e-003 8.57541710e-003 6.72071520e-003
      -4.72076843e-003 -4.10823675e-004 1.50091955e-002 1.09490231e-002
      -1.90640427e-003 9.34841635e-004 -9.35352687e-003 8.57541710e-003
      6.72071520e-003 -4.72076843e-003 -4.10823675e-004 1.50091955e-002
      1.09490231e-002 -1.90640427e-003 9.34841635e-004 -9.35352687e-003
      8.57541710e-003 6.72071520e-003 -4.72076843e-003 -4.10823675e-004
      1.50091955e-002 1.09490231e-002 -1.90640427e-003 9.34841635e-004
      -9.35352687e-003 8.57541710e-003 6.72071520e-003 -4.72076843e-003
      -4.10823675e-004 1.50091955e-002 1.09490231e-002 -1.90640427e-003
      9.34841635e-004 -9.35352687e-003 8.57541710e-003 6.72071520e-003
      -4.72076843e-003 -4.10823675e-004 1.50091955e-002 1.09490231e-002
      -1.90640427e-003 9.34841635e-004 -9.35352687e-003 8.57541710e-003
      6.72071520e-003 -4.72076843e-003 -4.10823675e-004 1.50091955e-002
      1.09490231e-002 -1.90640427e-003 9.34841635e-004 -9.35352687e-003
      8.57541710e-003 6.72071520e-003 -4.72076843e-003 -4.10823675e-004
      1.50091955e-002 1.09490231e-002 -1.90640427e-003 9.34841635e-004
      -9.35352687e-003 8.57541710e-003 6.72071520e-003 -4.72076843e-003
      -4.10823675e-004 1.50091955e-002 1.09490231e-002 -1.90640427e-003
      9.34841635e-004 -9.35352687e-003 8.57541710e-003 6.72071520e-003
      -4.72076843e-003 -4.10823675e-004 1.50091955e-002 1.09490231e-002
      -1.90640427e-003 9.34841635e-004 -9.35352687e-003 8.57541710e-003
      6.72071520e-003 -4.72076843e-003 -4.10823675e-004 1.50091955e-002
      1.09490231e-002 -1.90640427e-003 9.34841635e-004 -9.35352687e-003
      8.57541710e-003 6.72071520e-003 -4.72076843e-003 -4.10823675e-004
      1.50091955e-002 1.09490231e-002 -1.90640427e-003 9.34841635e-004
      -9.35352687e-003 8.57541710e-003 6.72071520e-003 -4.72076843e-003
      -4.10823675e-004 1.50091955e-002 1.09490231e-002 -1.90640427e-003
      9.34841635e-004 -9.35352687e-003 8.57541710e-003 6.72071520e-003
      -4.72076843e-003 -4.10823675e-004 1.50091955e-002 1.09490231e-002
      -1.90640427e-003 9.34841635e-004 -9.35352687e-003 8.57541710e-003
      6.72071520e-003 -4.72076843e-003 -4.10823675e-004 1.50091955e-002
      1.09490231e-002 -1.90640427e-003 9.34841635e-004 -9.35352687e-003
      8.57541710e-003 6.72071520e-003 -4.72076843e-003 -4.10823675e-004
      1.50091955e-002 1.09490231e-002 -1.90640427e-003 9.34841635e-004
      -9.35352687e-003 8.57541710e-003 6.72071520e-003 -4.72076843e-003
      -4.10823675e-004 1.50091955e-002 1.09490231e-002 -1.90640427e-003
      9.34841635e-004 -9.35352687e-003 8.57541710e-003 6.72071520e-003
      -4.72076843e-003 -4.10823675e-004 1.50091955e-002 1.09490231e-002
      -1.90640427e-003 9.34841635e-004 -9.35352687e-003 8.57541710e-003
      6.72071520e-003 -4.72076843e-003 -4.10823675e-004 1.50091955e-002
      1.09490231e-002 -1.90640427e-003 9.34841635e-004 -9.35352687e-003
      8.57541710e-003 6.72071520e-003 -4.72076843e-003 -4.10823675e-004
      1.50091955e-002 1.09490231e-002 -1.90640427e-003 9.34841635e-004
      -9.35352687e-003 8.57541710e-003 6.72071520e-003 -4.72076843e-003
      -4.10823675e-004 1.50091955e-002 1.09490231e-002 -1.90640427e-003
      9.34841635e-004 -9.35352687e-003 8.57541710e-003 6.72071520e-003
      -4.72076843e-003 -4.10823675e-004 1.50091955e-002 1.09490231e-002
      -1.90640427e-003 9.34841635e-004 -9.35352687e-003 8.57541710e-003
      6.72071520e-003 -4.72076843e-003 -4.10823675e-004 1.50091955e-002
      1.09490231e-002 -1.90640427e-003 9.34841635e-004 -9.35352687e-003
      8.57541710e-003 6.72071520e-003 -4.72076843e-003 -4.10823675e-004
      1.50091955e-002 1.09490231e-002 -1.90640427e-003 9.34841635e-004
      -9.35352687e-003 8.57541710e-003 6.72071520e-003 -4.72076843e-003
      -4.10823675e-004 1.50091955e-002 1.09490231e-002 -1.90640427e-003
      9.34841635e-004 -9.35352687e-003 8.57541710e-003 6.72071520e-003
      -4.72076843e-003 -4.10823675e-004 1.50091955e-002 1.09490231e-002
      -1.90640427e-003 9.34841635e-004 -9.35352687e-003 8.57541710e-003
      6.72071520e-003 -4.72076843e-003 -4.10823675e-004 1.50091955e-002
      1.09490231e-002 -1.90640427e-003 9.34841635e-004 -9.35352687e-003
      8.57541710e-003 6.72071520e-003 -4.72076843e-003 -4.10823675e-004
      1.50091955e-002 1.09490231e-002 -1.90640427e-003 9.34841635e-004
      -9.35352687e-003 8.57541710e-003 6.72071520e-003 -4.72076843e-003
      -4.10823675e-004 1.50091955e-002 1.09490231e-002 -1.90640427e-003
      9.34841635e-004 -9.35352687e-003 8.57541710e-003 6.72071520e-003
      -4.72076843e-003 -4.10823675e-004 1.50091955e-002 1.09490231e-002
      -1.90640427e-003 9.34841635e-004 -9.35352687e-003 8.57541710e-003
      6.72071520e-003 -4.72076843e-003 -4.10823675e-004 1.50091955e-002
      1.09490231e-002 -1.90640427e-003 9.34841635e-004 -9.35352687e-003
      8.57541710e-003 6.72071520e-003 -4.72076843e-003 -4.10823675e-004
      1.50091955e-002 1.09490231e-002 -1.90640427e-003 9.34841635e-004
      -9.35352687e-003 8.57541710e-003 6.72071520e-003 -4.72076843e-003
      -4.10823675e-004 1.50091955e-002 1.09490231e-002 -1.90640427e-003
      9.34841635e-004 -9.35352687e-003 8.57541710e-003 6.72071520e-003
      -4.72076843e-003 -4.10823675e-004 1.50091955e-002 1.09490231e-002
      -1.90640427e-003 9.34841635e-004 -9.35352687e-003 8.57541710e-003
      6.72071520e-003 -4.72076843e-003 -4.10823675e-004 1.50091955e-002
      1.09490231e-002 -1.90640427e-003 9.34841635e-004 -9.35352687e-003
      8.57541710e-003 6.72071520e-003 -4.72076843e-003 -4.10823675e-004
      1.50091955e-002 1.09490231e-002 -1.90640427e-003 9.34841635e-004
      -9.35352687e-003 8.57541710e-003 6.72071520e-003 -4.72076843e-003
      -4.10823675e-004 1.50091955e-002 1.09490231e-002 -1.90640427e-003
      9.34841635e-004 -9.35352687e-003 8.57541710e-003 6.72071520e-003
      -4.72076843e-003 -4.10823675e-004 1.50091955e-002 1.09490231e-002
      -1.90640427e-003 9.34841635e-004 -9.35352687e-003 8.57541710e-003
      6.72071520e-003 -4.72076843e-003 -4.10823675e-004 1.50091955e-002
      1.09490231e-002 -1.90640427e-003 9.34841635e-004 -9.35352687e-003
      8.57541710e-003 6.72071520e-003 -4.72076843e-003 -4.10823675e-004
      1.50091955e-002 1.09490231e-002 -1.90640427e-003 9.34841635e-004
      -9.35352687e-003 8.57541710e-003 6.72071520e-003 -4.72076843e-003
      -4.10823675e-004 1.50091955e-002 1.09490231e-002 -1.90640427e-003
      9.34841635e-004 -9.35352687e-003 8.57541710e-003 6.72071520e-003
      -4.72076843e-003 -4.10823675e-004 1.50091955e-002 1.09490231e-002
      -1.90640427e-003 9.34841635e-004 -9.35352687e-003 8.57541710e-003
      6.72071520e-003 -4.72076843e-003 -4.10823675e-004 1.50091955e-002
      1.09490231e-002 -1.90640427e-003 9.34841635e-004 -9.35352687e-003
      8.57541710e-003 6.72071520e-003 -4.72076843e-003 -4.10823675e-004
      1.50091955e-002 1.09490231e-002 -1.90640427e-003 9.34841635e-004
      -9.35352687e-003 8.57541710e-003 6.72071520e-003 -4.72076843e-003
      -4.10823675e-004 1.50091955e-002 1.09490231e-002 -1.90640427e-003
      9.34841635e-004 -9.35352687e-003 8.57541710e-003 6.72071520e-003
      -4.72076843e-003 -4.10823675e-004 1.50091955e-002 1.09490231e-002
      -1.90640427e-003 9.34841635e-004 -9.35352687e-003 8.57541710e-003
      6.72071520e-003 -4.72076843e-003 -4.10823675e-004 1.50091955e-002
      1.09490231e-002 -1.90640427e-003 9.34841635e-004 -9.35352687e-003
      8.57541710e-003 6.72071520e-003 -4.72076843e-003 -4.10823675e-004
      1.50091955e-002 1.09490231e-002 -1.90640427e-003 9.34841635e-004
      -9.35352687e-003 8.57541710e-003 6.72071520e-003 -4.72076843e-003
      -4.10823675e-004 1.50091955e-002 1.09490231e-002 -1.90640427e-003
      9.34841635e-004 -9.35352687e-003 8.57541710e-003 6.72071520e-003
      -4.72076843e-003 -4.10823675e-004 1.50091955e-002 1.09490231e-002
