<?xml version="1.0"?>
<opencv_storage>
<opencv_ml_ann_mlp>
  <format>3</format>
  <layer_sizes>
    322 6 3</layer_sizes>
  <activation_function>SIGMOID_SYM</activation_function>
  <f_param1>6.6666666666666663e-001</f_param1>
  <f_param2>1.7159000000000000e+000</f_param2>
  <min_val>-9.4999999999999996e-001</min_val>
  <max_val>9.4999999999999996e-001</max_val>
  <min_val1>-9.7999999999999998e-001</min_val1>
  <max_val1>9.7999999999999998e-001</max_val1>
  <training_params>
    <train_method>BACKPROP</train_method>
    <dw_scale>1.0000000000000001e-001</dw_scale>
    <moment_scale>1.0000000000000001e-001</moment_scale>
    <term_criteria>
      <iterations>10000</iterations></term_criteria></training_params>
  <input_scale>
    8.7086948014368115e-002 -3.5923366055926849e+000
    6.8006408016791642e-002 -3.3776515981673181e+000
    4.4335109852147267e-002 -2.8596145854634987e+000
    3.2151021524791587e-002 -2.8641201675001837e+000
    2.5767750100560895e-002 -3.1200450746762485e+000
    2.6493229453257192e-002 -4.0976194887704454e+000
    2.8058605484432821e-002 -4.9032413084046356e+000
    2.5712501643412846e-002 -4.3539836116179087e+000
    2.1990565627712410e-002 -3.0420282451668834e+000
    2.0360636148604581e-002 -2.0089160999956523e+000
    3.0828878810803179e-002 -1.9730482438914034e+000
    7.5998091627437286e-002 -3.1285881053295013e+000
    9.1384982277129725e-002 -3.3279364379254739e+000
    6.6315550664651959e-002 -2.8294634950251503e+000
    6.8239119393494044e-002 -3.0366408130104849e+000
    4.6336881905438637e-002 -2.7145689982936134e+000
    2.4972106215146565e-002 -2.1871403026765863e+000
    1.7643033893198806e-002 -2.2127305007720168e+000
    1.8829721578662091e-002 -3.0237394568401541e+000
    2.9483139569372062e-002 -5.6779612954015697e+000
    3.7902822239982155e-002 -7.9248484166762694e+000
    3.3273310660722324e-002 -6.7378454087962707e+000
    1.9636805063720002e-002 -3.4168040810872804e+000
    1.4425160959899342e-002 -2.0099057604126416e+000
    1.8047520775094732e-002 -1.8543827596409836e+000
    3.3650033069352568e-002 -2.0919103891447510e+000
    8.4999564673483269e-002 -3.4070658839954544e+000
    5.8748053556750744e-002 -2.6485580811835128e+000
    6.0737114303578560e-002 -2.8293372413083682e+000
    2.9078031095761396e-002 -2.1590438088602837e+000
    1.6228786836418280e-002 -1.9204064423094964e+000
    1.3314443511000846e-002 -1.9993856005686270e+000
    1.6213211306678962e-002 -2.6873397740820377e+000
    2.4045247638396414e-002 -4.3401671987305530e+000
    2.0167782393334114e-002 -3.8133915208729254e+000
    2.0563386083259024e-002 -3.8110808874306725e+000
    1.7067042364866222e-002 -2.8914414273144189e+000
    1.2497965991362339e-002 -1.9059398136827568e+000
    1.3867699365919544e-002 -1.8340032411428597e+000
    2.0381417764538796e-002 -1.8309306958477352e+000
    4.0982612261681907e-002 -2.0627914838379895e+000
    4.8623260367260064e-002 -2.3420203743563595e+000
    5.1125894347611327e-002 -2.6372440500976175e+000
    2.0776705657780042e-002 -1.9547417239694722e+000
    1.3576085278513887e-002 -1.8893385345931826e+000
    1.2935872159546625e-002 -1.9554726747847981e+000
    1.7956447827459102e-002 -2.4435732751867261e+000
    1.8033392693348645e-002 -2.3623744428286724e+000
    1.2449291629199393e-002 -1.6609429915290190e+000
    1.3923296858952739e-002 -1.8506382075024681e+000
    1.9308681633208251e-002 -2.5551822027945588e+000
    1.3144350333469890e-002 -1.8456858593247303e+000
    1.2405090467126952e-002 -1.8008056328112625e+000
    1.6521044305178437e-002 -1.8985433414034221e+000
    2.7080723547171955e-002 -1.7309095800567407e+000
    4.0765657984053329e-002 -2.0348857610373288e+000
    4.5008580578587150e-002 -2.4829733619187242e+000
    1.6822321544045941e-002 -1.7957828248269043e+000
    1.2716631525589406e-002 -1.8672253956740446e+000
    1.3690212107141565e-002 -1.9531369272855299e+000
    2.1276227873844155e-002 -2.2145007178692788e+000
    1.5878197991442040e-002 -1.4991665270253194e+000
    1.1070374496346621e-002 -1.1328683234594707e+000
    1.2117262692978218e-002 -1.2389901103570229e+000
    2.1019791568896971e-002 -2.0984758582948806e+000
    1.5383705133134862e-002 -1.8306609108430485e+000
    1.2071512207700518e-002 -1.7513752294672169e+000
    1.4683021876278167e-002 -1.8928862368835269e+000
    2.2294821532943862e-002 -1.6275219719049019e+000
    4.9195617111731454e-002 -2.2015038657499826e+000
    4.7480555294935826e-002 -2.4412918847479501e+000
    1.5761188412141462e-002 -1.6431038919657475e+000
    1.2726067372188985e-002 -1.7413502187611929e+000
    1.5605182795680491e-002 -1.9415448261625812e+000
    2.7305256264305886e-002 -2.2140011954308023e+000
    1.5178993484903595e-002 -1.1978755691836420e+000
    1.0678202191962468e-002 -1.0304465115243782e+000
    1.1284322265068591e-002 -1.0898774587678748e+000
    2.0134681656420732e-002 -1.7517173041086036e+000
    1.9005360069415528e-002 -2.0003141473059842e+000
    1.1989244477458257e-002 -1.7094664417442564e+000
    1.3844127550033418e-002 -1.8770329603253644e+000
    2.1087742139615968e-002 -1.6571450698048213e+000
    4.6988420738865645e-002 -1.9030310399240586e+000
    5.2932305558041334e-002 -2.3598986227960097e+000
    1.6373485406282303e-002 -1.4176709447606093e+000
    1.3447676446449773e-002 -1.5263112766720492e+000
    1.5659299183160027e-002 -1.6037732246753063e+000
    2.7197881548849948e-002 -1.8970522380322838e+000
    1.5673825561698950e-002 -1.1716184607369966e+000
    1.0800559483472241e-002 -1.0368537104133351e+000
    1.1132453500895067e-002 -1.0928358520045325e+000
    1.9064365963645059e-002 -1.6570111416734832e+000
    1.9886665134549546e-002 -2.0499837309531488e+000
    1.2063457836294695e-002 -1.7079845719887239e+000
    1.3568454764525624e-002 -1.8464405525391954e+000
    2.0236720728367720e-002 -1.6543519195440610e+000
    4.7503987698284497e-002 -1.8922421766483326e+000
    5.8515007366674136e-002 -2.4381253069447557e+000
    1.5395145581183408e-002 -1.1341090578138444e+000
    1.2407218724292859e-002 -1.1094121409305200e+000
    1.5241736178359515e-002 -1.2422014985363006e+000
    2.8140187158193164e-002 -1.7165514166497831e+000
    1.6372250975262292e-002 -1.1979030296900244e+000
    1.1163090155055885e-002 -1.0930525776825555e+000
    1.1387864781319151e-002 -1.1672561400852131e+000
    1.8299232660640791e-002 -1.7414769748709820e+000
    1.7079069174061986e-002 -1.8374231919761685e+000
    1.2066769159408703e-002 -1.7034255796698619e+000
    1.3662048225511772e-002 -1.7703737492225673e+000
    1.9044548367745773e-002 -1.5203897780250375e+000
    5.1016276788857708e-002 -2.0576564971505942e+000
    7.1718839517284125e-002 -2.9046130004500070e+000
    1.5684639731444360e-002 -1.1750409265473734e+000
    1.2300093019805194e-002 -1.1111084027890692e+000
    1.4642827032589284e-002 -1.2287772351514508e+000
    2.7764688802964847e-002 -1.6843911207132005e+000
    1.7166503646917707e-002 -1.2259744687840397e+000
    1.1361884027272564e-002 -1.1096773399969537e+000
    1.1728042602218193e-002 -1.2734699592241920e+000
    1.6229855500153555e-002 -1.7798741531835067e+000
    1.4742203861080628e-002 -1.6867538251053085e+000
    1.2422207160965471e-002 -1.7152997721433156e+000
    1.3578344781620965e-002 -1.6022446842312739e+000
    1.8192345725383835e-002 -1.3644259294037877e+000
    5.5793438310344688e-002 -2.1712946409109142e+000
    1.0411976032410743e-001 -3.8611077786856507e+000
    1.6053529662463109e-002 -1.1866234008837315e+000
    1.2363147659998332e-002 -1.1394701093298463e+000
    1.4174270869067356e-002 -1.2296179978915931e+000
    2.7670638115254765e-002 -1.7248031091842138e+000
    1.8332515036785357e-002 -1.3046639867845580e+000
    1.1648926348521422e-002 -1.1648926348521422e+000
    1.1824714802942804e-002 -1.4573960994627007e+000
    1.3710785154140009e-002 -1.7047076208314078e+000
    1.3666300280809137e-002 -1.5909851243575304e+000
    1.2853418528485688e-002 -1.6495220444889966e+000
    1.2939481415026528e-002 -1.3823679311720007e+000
    1.7586840274692882e-002 -1.3043573203730556e+000
    6.0205046330894824e-002 -2.3279284581279329e+000
    1.2302031925266571e-001 -4.2954594805722444e+000
    1.6432452149786409e-002 -1.1954608938969613e+000
    1.2119635595305161e-002 -1.1422756548575115e+000
    1.3346959130194290e-002 -1.1912161023698404e+000
    2.6669893589753822e-002 -1.6913157518168882e+000
    1.9186767228756722e-002 -1.3718538568561056e+000
    1.1863384885214994e-002 -1.2832227984174220e+000
    1.1333087016260814e-002 -1.5771879430962965e+000
    1.2552575950904664e-002 -1.6694926014703202e+000
    1.3575251285529848e-002 -1.5045903508128915e+000
    1.3328504681916200e-002 -1.4983460679920795e+000
    1.2396191510861803e-002 -1.2540813745155193e+000
    1.6410556595876629e-002 -1.2239540127757984e+000
    5.3832230848281523e-002 -2.1218870992697632e+000
    9.8387100329051805e-002 -3.2631721609135513e+000
    1.6999094173098622e-002 -1.2225181892820092e+000
    1.1903713412312188e-002 -1.1536682248765895e+000
    1.2735581633166227e-002 -1.1907768827010423e+000
    2.5379793306535985e-002 -1.6285367371693924e+000
    2.0155233222178867e-002 -1.4746912307560871e+000
    1.1972667666461117e-002 -1.4337269530587187e+000
    1.0677090486204502e-002 -1.6220279963625672e+000
    1.1761879933888554e-002 -1.6250997441989352e+000
    1.4847994529815048e-002 -1.4538661310443901e+000
    1.3532584779269941e-002 -1.2980004234116418e+000
    1.2011470425396648e-002 -1.1380868228063323e+000
    1.5382049395462607e-002 -1.1754449413032677e+000
    4.5349582592474263e-002 -1.8631120181741512e+000
    7.9704753636398284e-002 -2.5439100535617118e+000
    1.8106159827894357e-002 -1.2855373477804994e+000
    1.1928529610535086e-002 -1.1560733280876923e+000
    1.2839696652910276e-002 -1.2326108786793863e+000
    2.5801082539379416e-002 -1.7093217182338862e+000
    2.0277359188883341e-002 -1.6441558742319575e+000
    1.1588784220091412e-002 -1.5499998894372262e+000
    1.0442966468175406e-002 -1.6621721628512520e+000
    1.1866586346264052e-002 -1.6000113923546031e+000
    1.8532050535427405e-002 -1.4933744056465250e+000
    1.4559719094607675e-002 -1.1672041474177153e+000
    1.1763236134976993e-002 -1.0606517915037590e+000
    1.5097755980226066e-002 -1.1637853568090926e+000
    4.0154895095379485e-002 -1.7166217653274729e+000
    8.2107082725596012e-002 -2.5453195644934765e+000
    1.8966744362279360e-002 -1.3245109812991751e+000
    1.2036338395945329e-002 -1.1484672886131169e+000
    1.2986564277951295e-002 -1.2737655129290562e+000
    2.6349518412972030e-002 -1.9191232577447961e+000
    1.7370320133010372e-002 -1.6516279393137361e+000
    1.1291048774177328e-002 -1.6334383893309867e+000
    1.0377660623850288e-002 -1.6612905048680338e+000
    1.2140259313262113e-002 -1.5286609851949211e+000
    2.4464539460220418e-002 -1.5942724881576973e+000
    1.4941712604624124e-002 -1.0720678793817808e+000
    1.1658097718242156e-002 -1.0540863353577283e+000
    1.5051687815822593e-002 -1.1865747228140144e+000
    3.7416054203928677e-002 -1.7149024843467311e+000
    8.5637857446110077e-002 -2.8046398313601051e+000
    2.0954601919991787e-002 -1.4371364483461033e+000
    1.2576985803865945e-002 -1.2115829657724193e+000
    1.3284548888780194e-002 -1.3505958036926531e+000
    2.1157638421810378e-002 -1.8495302253732573e+000
    1.5005158910215529e-002 -1.6255588819400155e+000
    1.1234955342659740e-002 -1.6562196667637565e+000
    1.0479601984822760e-002 -1.5632072960693948e+000
    1.2684769730088450e-002 -1.3879252213005113e+000
    3.8932526352135718e-002 -2.2743084144039281e+000
    1.5663247212814726e-002 -1.1003431167002344e+000
    1.1881147354235466e-002 -1.0702933574940448e+000
    1.5028298630282474e-002 -1.1972544575458373e+000
    3.8272693240489604e-002 -1.8466574488536234e+000
    7.5205923117504514e-002 -2.5695357065147375e+000
    2.3849554531746562e-002 -1.6098449308928928e+000
    1.3572646047756702e-002 -1.3527403894264181e+000
    1.3383025393513463e-002 -1.4699022890542286e+000
    1.7717181223545993e-002 -1.8233932342566086e+000
    1.3835429404871352e-002 -1.5887684766593935e+000
    1.1547155070106212e-002 -1.6146771839698522e+000
    1.0759134581734997e-002 -1.4112398193042404e+000
    1.2746957923064019e-002 -1.2173344816526137e+000
    3.5254646000882572e-002 -2.0242042578840076e+000
    1.6893250320491052e-002 -1.1839352932944145e+000
    1.2199683876398517e-002 -1.0837385843534015e+000
    1.4921080354176344e-002 -1.2011469685111957e+000
    4.0190913710799997e-002 -2.0932767557708334e+000
    6.8630840974401516e-002 -2.4821487485741880e+000
    2.5770780387769306e-002 -1.7867741068853384e+000
    1.4363400424629736e-002 -1.4913997440907210e+000
    1.3479640897564279e-002 -1.6400229758703206e+000
    1.5296332938194573e-002 -1.7450566493656976e+000
    1.4212633391533966e-002 -1.5882617815039206e+000
    1.2269348597086239e-002 -1.5541174889642571e+000
    1.0867483431169337e-002 -1.2542887126807944e+000
    1.2417577275978553e-002 -1.1413823112836954e+000
    3.1599524395626431e-002 -1.8907048763383150e+000
    1.8682978260939228e-002 -1.2766701811641805e+000
    1.2274970386136898e-002 -1.0781515655823575e+000
    1.4697982050473549e-002 -1.2223821738643836e+000
    3.6781447212902524e-002 -2.1333239383483464e+000
    6.6902479870005055e-002 -2.6426479548651995e+000
    2.9364263304260264e-002 -2.1460382431530207e+000
    1.4795613947845950e-002 -1.6793021830805153e+000
    1.3148200109605497e-002 -1.7914422649337489e+000
    1.4620378270894267e-002 -1.7824677841931929e+000
    1.5960721115285917e-002 -1.7077971593355932e+000
    1.3371729002078211e-002 -1.5232627954867430e+000
    1.1160941357957435e-002 -1.2388644907332753e+000
    1.2536810183147002e-002 -1.2056232459459701e+000
    3.2469571919893206e-002 -2.2160482835327113e+000
    1.9932702314877520e-002 -1.4633925616172581e+000
    1.2759237368369735e-002 -1.1408884746883938e+000
    1.4990961301376176e-002 -1.2417512944639932e+000
    3.0896655309134550e-002 -1.9052937440632971e+000
    6.3647268329465809e-002 -2.5299789160962658e+000
    3.3216283014566181e-002 -2.3998764478024066e+000
    1.5475705299208740e-002 -1.8196850147652943e+000
    1.2780864613198403e-002 -1.8510952248115689e+000
    1.3862294565483022e-002 -1.8517715157057739e+000
    2.0920182903285539e-002 -2.4249978682058488e+000
    1.6091589361436166e-002 -1.8760111263874328e+000
    1.1545578310224791e-002 -1.3825830026494188e+000
    1.2725208699883930e-002 -1.4358277149702368e+000
    2.5049026216507300e-002 -2.2523249406342813e+000
    1.6148254057266404e-002 -1.4493058016396598e+000
    1.3055739198651949e-002 -1.2457351152047069e+000
    1.6090359734182592e-002 -1.2711384190004247e+000
    2.7924501129607468e-002 -1.7452813206004667e+000
    5.2277285119685796e-002 -2.1912895346001626e+000
    2.5779818177302238e-002 -1.8303670905884588e+000
    1.6099697487849247e-002 -1.8957393791942487e+000
    1.2743794784858575e-002 -1.8712138675767342e+000
    1.2575742591469602e-002 -1.8088109760730444e+000
    1.9735133805428299e-002 -2.6313511740571065e+000
    2.1823412849848730e-002 -3.0825570650411329e+000
    1.4057035771625986e-002 -2.1319837586966077e+000
    1.5628458217147784e-002 -2.3559900762350283e+000
    2.0625499529865799e-002 -2.5988129407630907e+000
    1.3459039596078864e-002 -1.5410600337510298e+000
    1.3368567153064854e-002 -1.4081557401228313e+000
    1.8215554051244452e-002 -1.3509869254672968e+000
    2.8980181615382489e-002 -1.7025856699037212e+000
    4.9932428889549213e-002 -2.1221282278058418e+000
    2.0335945446160943e-002 -1.3930122630620245e+000
    1.5073818710231508e-002 -1.6091301473172135e+000
    1.3660136095039157e-002 -1.8703003003457779e+000
    1.2573982004827860e-002 -1.8096055768614761e+000
    1.6197134595664704e-002 -2.3985256813746818e+000
    3.2840004297844637e-002 -5.7004774127008648e+000
    2.5122200944131923e-002 -4.8527718157081496e+000
    3.0003750703271482e-002 -5.7607201350281247e+000
    2.6042993768632620e-002 -4.1950922462305718e+000
    1.3671434609181845e-002 -1.8228579478909128e+000
    1.5936002033688966e-002 -1.7011682170962972e+000
    2.4639462379366709e-002 -1.5769255922794694e+000
    1.7430172928926090e-002 -1.0850282648256491e+000
    5.1059207161977913e-002 -1.9870541453869737e+000
    1.4346976294476633e-002 -1.0820011288751128e+000
    1.3425473119911499e-002 -1.2306683693252209e+000
    1.3433521317551704e-002 -1.5437354914086501e+000
    1.2573153749288303e-002 -1.4762978027289351e+000
    1.4351161712393510e-002 -2.2447608778468848e+000
    3.1101445140624750e-002 -5.7796852219660995e+000
    4.2483798765238980e-002 -8.9782428057205053e+000
    3.9261836706011258e-002 -8.1533747559483380e+000
    2.0909604535161767e-002 -3.5616026391558879e+000
    1.3225398970067550e-002 -1.7358336148213660e+000
    1.4401674147910087e-002 -1.4989742508949748e+000
    2.1190865468254879e-002 -1.5275082191700391e+000
    2.5119173579386957e-002 -1.3375959931023556e+000
    2.5494318586796915e-002 -1.3342026727090386e+000
    1.9765200497296010e-002 -1.3539162340647768e+000
    1.4434633860878480e-002 -1.2197265612442316e+000
    1.3003205188455710e-002 -1.2082144820940097e+000
    1.3669518535419209e-002 -1.3715083597203939e+000
    1.5308077625271945e-002 -1.8407963344389513e+000
    1.8676098402828818e-002 -2.8014147604243225e+000
    1.8966933894207661e-002 -3.1769614272797830e+000
    1.7093462124994286e-002 -2.7662919538949087e+000
    1.4383196434310542e-002 -1.9537175156605153e+000
    1.2860126129109755e-002 -1.4006820708955376e+000
    1.4324879048450333e-002 -1.2689455357085586e+000
    1.5545084808082383e-002 -1.1296094960539866e+000
    1.4036451060396356e-002 -9.8372127848277791e-001</input_scale>
  <output_scale>
    5.2631578947368418e-001 4.9999999999999994e-001
    5.2631578947368418e-001 4.9999999999999994e-001
    5.2631578947368418e-001 4.9999999999999994e-001</output_scale>
  <inv_output_scale>
    1.8999999999999999e+000 -9.4999999999999996e-001
    1.8999999999999999e+000 -9.4999999999999996e-001
    1.8999999999999999e+000 -9.4999999999999996e-001</inv_output_scale>
  <weights>
    <_>
      6.8676747394762566e-002 -3.4069514837420475e-002
      1.8679726559103438e-001 -1.1141979749116017e-001
      -6.1124341757509077e-003 -2.3696694355130682e-001
      6.4119666203782039e-002 -3.6205647578680666e-002
      1.4751705105516122e-001 -1.3203120510820460e-001
      -7.7157595869757581e-002 -2.8095912279984686e-001
      -2.3827640365911902e-002 -3.5599079089021612e-003
      1.4092465963648285e-001 -1.1719391417574831e-001
      -1.2406753289079106e-001 -2.1352419712679296e-001
      -7.5314478522679890e-002 1.3699832333432841e-002
      1.2348359613071451e-001 -9.7187766718065574e-002
      -1.2886161418552952e-001 -1.5565386256670471e-001
      -8.7769658357901362e-002 1.5416528774240118e-003
      1.1576399913689102e-001 -8.7370924802643468e-002
      -1.0279023962837794e-001 -5.4581781665861265e-002
      -7.2736327142201351e-002 -3.2563969317173876e-002
      1.3431548378330180e-001 -8.5165303251142105e-002
      -4.6926300653001657e-002 -4.0874461675829338e-002
      -2.8531773149364514e-002 -8.0362538535455122e-002
      1.8690716231942420e-001 -9.8352415240392968e-002
      6.5040087833171209e-002 -2.6103929030879613e-001
      -3.1344200169034643e-002 -9.1467692418744695e-002
      2.5754918855834408e-001 -1.1616570012596651e-001
      1.2391148659933859e-001 -4.4322332583718477e-001
      -6.4818506810696036e-002 -4.4186710955185934e-002
      3.1315924539702433e-001 -1.0933830541049158e-001
      7.1661897967496599e-002 -4.2719312554588801e-001
      -9.0763105470458766e-002 8.2232487608431600e-003
      2.9805593517679724e-001 -9.0251891942960599e-002
      -1.9317227065696846e-003 -2.0901087567157220e-001
      -1.0827349096706161e-001 9.8763942135728228e-003
      2.7689629512522873e-001 -8.7717430008156419e-002
      -3.4994851026655088e-002 -1.2775814133442226e-001
      -5.7740486392166709e-002 -1.8103207343236928e-002
      2.8571234436368598e-001 -7.2637453508445818e-002
      4.9686984919231417e-002 -9.8620434321562589e-002
      7.5890814361296854e-002 -1.5283624164326850e-002
      1.2003651475629415e-001 -4.6808072861594420e-002
      7.1159986821167726e-002 -5.1585585978077698e-002
      1.1413741028275859e-001 -4.1476663865489521e-003
      4.6202820357942813e-002 -8.0729182661330529e-002
      -3.1727877543577768e-002 -8.0567060816445490e-002
      8.0842528187011473e-002 -1.1847627464532204e-002
      1.2795985366394411e-001 -1.1331200394218215e-001
      -7.4057724196167962e-002 -2.3818500108961768e-001
      3.0310431915540316e-002 -6.7978326173461466e-003
      1.0441848818698590e-001 -1.0724763756800512e-001
      -9.2135254375270120e-002 -2.3137564129110100e-001
      -4.3889581462355352e-002 1.3359745515978443e-002
      6.7066268275506782e-002 -8.6051049290681927e-002
      -8.5817785431108823e-002 -1.1298777017472328e-001
      -4.9910793621174482e-002 4.5464427801303817e-002
      5.6819489255540499e-002 -6.7426032560148744e-002
      -8.8842229909470272e-002 -4.4010110589189973e-002
      -3.6346030199667624e-002 6.4260787047554849e-002
      3.4410778415291977e-002 -5.3936724875695008e-002
      -1.1322295682299101e-001 6.3922001931061151e-002
      2.1913006691077427e-002 6.2993654241675981e-002
      -1.1538978392871439e-002 -4.7290200419225915e-002
      -1.7589400591021204e-001 2.4511540631294876e-001
      1.4192350856348709e-001 -3.0683245667134214e-002
      -2.0367331861307604e-002 -6.9632988014615121e-002
      -1.0635289553280335e-001 -1.5698688902799449e-002
      1.1355104641990887e-001 -4.9769628251607315e-002
      1.1560072073717405e-001 -1.0065852892160938e-001
      1.3371520023955733e-002 -3.4743901204638383e-001
      1.8953825953388077e-003 1.5108043779456135e-002
      1.9047484670331430e-001 -9.4508089544733456e-002
      2.9740991334739841e-002 -2.8965362132413447e-001
      -6.7993452609027394e-002 5.7530381770343371e-002
      2.1047853810772718e-001 -7.4236979708273157e-002
      -3.9523460309698012e-003 -8.4773250769915584e-002
      -7.8448612120007088e-002 2.6349171211929395e-002
      2.4558644786421915e-001 -7.4622002759722028e-002
      -2.0065264317495109e-002 -8.0531712173641884e-002
      -7.7438207048365459e-002 1.8272506116328690e-004
      2.4677583986867910e-001 -6.4410754243681742e-002
      -4.6118854817105877e-003 -1.2172732685331876e-001
      1.6844687683200913e-002 -7.0838042845592719e-003
      1.4719950785815222e-001 -4.6097901008972098e-002
      5.3153627633076440e-002 -3.6950457447504255e-002
      1.0973971112756396e-001 2.0654196766239307e-003
      1.2987374145261818e-002 -7.0431347802781402e-002
      -4.8089619790703197e-002 9.5230999958664988e-003
      1.0070350259293026e-001 -2.4341414234463385e-002
      5.6378059556090730e-002 -9.8942232442884276e-002
      -5.6517698758584672e-002 -1.8333015263626798e-001
      2.2764373100557290e-003 1.3971918732926879e-002
      4.6236142744211249e-002 -8.9856497820830564e-002
      -8.3304686224269939e-002 -1.4572302284894448e-001
      -5.1234399886036959e-002 5.4077616805450826e-002
      5.1993416200267289e-002 -6.4358036186141318e-002
      -7.6838062510793573e-002 -5.4836701949824859e-002
      -4.1453721217895846e-002 7.8639753782894950e-002
      5.9071664869919868e-002 -5.6683435510031084e-002
      -8.2369226144529462e-002 1.0713645685075173e-003
      -1.0982656146570291e-002 8.4563291669327148e-002
      3.6183348728792704e-002 -5.4816263390096071e-002
      -1.4485410079916486e-001 8.3638072372893127e-002
      1.1761105276079013e-001 4.2995794711234145e-002
      -8.7058671960239989e-002 -3.2170614244440593e-002
      -2.0578437497554092e-001 2.1544708016950601e-001
      1.8010704633142885e-001 -3.4989352853519964e-002
      -1.3300650141964127e-001 3.0995973871448669e-003
      -8.4337110476406449e-002 2.2625268938810918e-002
      1.7809690178376056e-001 -3.9185175498853780e-002
      -7.4139183851553478e-002 -2.8059457496207002e-002
      -2.0491562281955634e-002 -1.6508356463509030e-001
      8.3125030994555330e-002 1.6538333828639069e-002
      5.6843190723378449e-002 -5.9259183301604672e-002
      1.0395832316602505e-002 -2.4570914598149868e-001
      -2.3129536338458021e-002 7.2279374366299012e-002
      1.4024005761257313e-001 -6.5422389101449221e-002
      -1.4427391403670055e-002 -5.4494469917952058e-002
      -6.6090322463826595e-002 5.8844182485120952e-002
      1.9599388909681273e-001 -7.0973458225620747e-002
      -3.1595965441604458e-002 -5.1399200609622671e-002
      -7.3386724366342804e-002 1.6728737165140561e-002
      2.3947522202582058e-001 -6.3594432586252900e-002
      -4.2275805665245053e-002 -1.1709988755543242e-001
      -4.0735700105063478e-002 3.0466647829397236e-003
      1.8567635556437426e-001 -3.7553234990508312e-002
      -7.6066810914742029e-003 -7.7875043052042375e-002
      9.9794977107449806e-002 4.1380144687429669e-002
      -3.0803203721532984e-002 -4.1420236681526369e-002
      -2.2793073519772576e-002 9.2664069807414401e-002
      7.9912689439540149e-002 -1.3718779704587793e-002
      1.6610810319800523e-002 -7.3010853273106913e-002
      -5.9594272959281824e-002 -1.3309602091739420e-001
      -5.6457107826553485e-003 3.6164697326899434e-002
      1.9683776774287218e-002 -6.6298435868073824e-002
      -6.0233903731780031e-002 -6.3801355391649786e-002
      -5.5987668717944930e-002 7.4650311305907741e-002
      5.9408937648674040e-002 -6.1301314001606211e-002
      -5.2915267869518313e-002 6.1030493875780167e-003
      -3.2209008950614140e-002 9.2790338213265738e-002
      7.2569949198016348e-002 -5.3964305672145919e-002
      -6.6339394309830491e-002 2.4968157113551388e-002
      1.4875048897920018e-002 9.9530852203961420e-002
      1.9241348328725788e-002 -4.5350241955748237e-002
      -1.2833629173434205e-001 1.5502519616725047e-001
      9.0451630580277886e-002 3.1573972503410923e-002
      -1.0973643922630850e-001 3.6517281178299187e-002
      -6.9923893491347144e-002 2.4991618179379732e-001
      9.9506244022251722e-002 -2.3743848654933702e-002
      -1.4028607368940432e-001 4.3873671303568153e-002
      1.3339985937913874e-002 6.5181191747900893e-002
      1.1148118570701256e-001 -3.2663663870090939e-002
      -1.2802436269060477e-001 2.7881982224058799e-002
      5.3327526672650345e-002 -4.8291756776222973e-002
      1.1692584839788757e-001 2.3462033804219937e-002
      -4.1155008203231959e-002 -2.6414874550979094e-002
      8.4964910896899837e-002 -1.8800855104067118e-001
      8.1739185378269120e-003 8.3057617415029178e-002
      9.3009983474414137e-002 -5.4551504785572753e-002
      1.3836391455876403e-002 -1.8176013833568899e-002
      -5.6210299188155601e-002 7.3871792404147540e-002
      1.5807911238570696e-001 -6.3811609610957581e-002
      -1.9771442639502309e-002 -1.0110712460363795e-002
      -8.2304515302445994e-002 4.7425556783199964e-002
      2.1669131343395584e-001 -6.0235344139515923e-002
      -1.7788063633187863e-002 -5.2626152036460198e-002
      -6.6380461059578622e-002 1.8518003132921165e-002
      2.0959180974183053e-001 -2.8061286165814572e-002
      -1.1187187845243928e-003 -6.7984542956111241e-002
      8.0636877500157578e-002 4.9888066023263927e-002
      -9.9303639242706945e-004 -2.5516152312002049e-002
      3.0318383770689471e-002 9.0008609129724276e-002
      4.9730752997505442e-002 5.7621765874136584e-003
      1.8418260137436800e-002 -5.7881541146856771e-002
      -4.8053539165536410e-002 -7.5853470954450219e-002
      -1.8333865288516778e-002 5.1670818305270920e-002
      4.0672676811637831e-002 -4.9419432889416158e-002
      -4.4375332246012367e-002 -2.3304721426834495e-002
      -4.2957579487030627e-002 8.2960910710741589e-002
      7.9199601020729218e-002 -5.7401563556947283e-002
      -4.2570586975893429e-002 8.1641440013591124e-003
      -3.6408013055542726e-002 1.0506969860827568e-001
      1.0214107630368272e-001 -5.6909048743422321e-002
      -5.2234361503983313e-002 2.9334221618246399e-002
      2.8635579865100833e-002 9.5589074887390907e-002
      4.1050619514432667e-002 -2.5929569620433825e-002
      -1.1967074980481118e-001 1.8635293652388010e-001
      6.7679543887672361e-002 -3.1681417521318790e-002
      -6.9447274978068879e-002 4.2488882129461669e-002
      -3.8647449813455109e-002 1.8129194964688147e-001
      7.5993977412045555e-002 -7.6444356589571896e-002
      -9.8072548837203080e-002 4.1681315474753594e-002
      7.3028372261960050e-003 -2.1223244497124091e-002
      8.7149018312249013e-002 -7.5353685526738240e-002
      -1.0530919844484692e-001 2.3175058118491208e-002
      3.5770386197228977e-002 -1.0954750813377689e-001
      1.2479180486848689e-001 -4.4877638318224312e-002
      -9.4121993928732550e-002 -2.5391225536049531e-002
      7.6752138318181520e-002 -2.9173806376004302e-001
      2.3396052296345386e-002 8.1165723898734984e-002
      4.6700630156918339e-002 -4.3476260202807197e-002
      1.4467249631466703e-002 -1.6303867931672086e-002
      -3.0638329967631949e-002 8.5350561133884575e-002
      1.1473113135576893e-001 -5.8738403697591930e-002
      -1.7607305824530062e-002 1.6046797058153546e-002
      -7.2079378953002010e-002 6.4652251268114594e-002
      1.9222986178969897e-001 -6.5239215274800894e-002
      -2.2979672632870155e-002 -4.7296088439402695e-002
      -5.0120857214898937e-002 2.2597130745586197e-002
      2.0316154781629997e-001 -3.5525549135170871e-002
      -1.1419175911970709e-002 -8.7168017704607109e-002
      4.9670758024436421e-002 6.4163593053333259e-002
      8.0365055194848208e-003 6.9687544581719194e-003
      8.9342763365734601e-002 9.7495664043732833e-002
      2.1576237572754276e-002 1.0302571940159076e-002
      3.3793162050565893e-002 -3.9026778976495473e-002
      -1.8689817351340038e-002 -5.9589857065615287e-002
      -4.5444934392900004e-002 4.8950088613333158e-002
      4.7503333452577422e-002 -3.2209599202210823e-002
      -2.4043082468020192e-002 -2.2223599885576775e-002
      -6.7241964736775170e-002 9.0788384359438812e-002
      7.0106443982414640e-002 -3.9532792788499055e-002
      -3.5891808670148871e-002 8.7099152297120241e-003
      -7.9414621653376399e-002 1.0186239831845667e-001
      1.0643766358243270e-001 -4.2253540520395115e-002
      -4.9728348319542919e-002 2.6127513604852846e-002
      -2.1054463619794371e-002 9.0388404369552741e-002
      3.2261590057892787e-002 2.7820843174811854e-002
      -1.0136677939607940e-001 2.1939818057929392e-001
      6.5277594739918857e-002 -5.2134710165483232e-002
      -8.3378595708888434e-002 5.4614315726053540e-002
      -2.3614268538847835e-002 1.5577284343522876e-001
      8.0444997721274197e-002 -8.4321306082059871e-002
      -9.7360660543366492e-002 4.0818607340717399e-002
      7.0908743670278530e-003 -2.4773817047462180e-002
      8.1743685303006630e-002 -9.3614199401482287e-002
      -9.0561269737638575e-002 3.0524316788531240e-002
      3.2601099949332954e-002 -1.1963072135826526e-001
      1.3209032650782573e-001 -9.1044019649828944e-002
      -8.3011177853884593e-002 -8.3958938633768368e-003
      7.5087554096630482e-002 -3.4014757420300357e-001
      3.7783629449209592e-002 7.9562941716775082e-002
      5.4080531787909308e-002 -4.8615245972130156e-002
      2.2210671656115649e-002 -4.5291949120214149e-002
      -3.9064050256380517e-002 8.3486369922328052e-002
      1.0111958633246132e-001 -5.2628048024281636e-002
      -1.3079403810600733e-003 4.5387775150928143e-002
      -6.7617756441391563e-002 6.8857512072525537e-002
      1.6606219766052682e-001 -6.3056911823946002e-002
      -2.6274757150010503e-002 -2.0844187535387811e-002
      -6.3452544987082915e-002 4.3560035151325477e-002
      1.6893031061851360e-001 -3.9604952507324362e-002
      -3.2257154013888914e-002 -7.6378596932164561e-002
      -3.6029165098006299e-003 4.9008938719681691e-002
      7.0966560860670450e-002 3.7061483774231657e-002
      1.1075517057646775e-001 6.5579021726482986e-002
      1.0533377195916294e-002 -2.7066291692704324e-002
      4.7922379938429675e-002 -9.3072062483398194e-003
      2.7640920881876384e-002 -7.9042072384647333e-002
      -5.9235147499616704e-002 1.2167161496728231e-002
      2.8514595151932613e-002 3.6562220211481433e-003
      -6.2861442375091474e-003 -3.4200202708851969e-002
      -1.0016720808460974e-001 5.5647982952762888e-002
      6.5190928639579163e-002 -8.4148491623609097e-003
      -1.9250066171413997e-002 -1.2765297615722189e-002
      -1.2439298451837975e-001 7.6236921266693458e-002
      1.1743043672837006e-001 -5.5380606790141616e-004
      -2.3017580260263865e-002 5.1291002357741347e-003
      -5.8176140127625432e-002 4.7871334491431293e-002
      5.2749760684003340e-002 5.8906580172584287e-002
      -5.2382437986609146e-002 1.3989673844620396e-001
      6.4672556291127878e-002 -4.8077010727827808e-002
      -1.0613966379879812e-001 6.2563761023406841e-002
      -3.8267759432008518e-002 1.6676998949415095e-001
      7.9441163231707329e-002 -8.7322676399626029e-002
      -1.0387415020104783e-001 3.5117592198558700e-002
      -7.2160061779439535e-003 -1.5083092216577391e-002
      8.9162088967424280e-002 -1.0166755442753235e-001
      -8.1678799209680561e-002 2.4649813665736882e-002
      2.2760568116307601e-002 -1.1192069738987759e-001
      1.2347452546162004e-001 -1.1295960489831518e-001
      -5.8987074824053180e-002 -1.1583593433256656e-002
      7.7211335621920313e-002 -3.3158841962780894e-001
      4.2190038346770389e-002 6.1557089655755036e-002
      8.6083089029972776e-002 -6.4771544818874913e-002
      5.5093619964368554e-002 -9.1756256313460294e-002
      -3.9636518473263604e-002 8.5260070051822109e-002
      1.1040775900835338e-001 -4.8136935970967035e-002
      8.3486780056876118e-003 5.3367246395099786e-002
      -7.0786732620730319e-002 7.6460690003212123e-002
      1.6382159540577448e-001 -5.5706463819795583e-002
      -2.1902099426437303e-002 -1.3125157999795819e-002
      -8.1315511435215468e-002 4.3656578811983558e-002
      1.6078389250807262e-001 -3.9200099546123440e-002
      -3.4334292406929645e-002 -7.4149743876332039e-002
      -2.4600250946585300e-002 3.3537080755781455e-002
      1.3726370153913495e-001 3.5688082839930371e-002
      1.1030303987388677e-001 5.2312845813227676e-002
      6.0288984386402443e-003 -4.5292805267063613e-002
      1.1541505475994647e-001 3.9477125487281488e-003
      6.3611708953792312e-002 -9.8182756607300109e-002
      -5.2191663220628653e-002 -1.9856863310292086e-002
      7.0171661500201321e-002 1.6032596694056499e-002
      1.8582296250650440e-002 -4.1897298818469403e-002
      -9.0779497530716374e-002 -1.5330412610174435e-003
      5.3194181283165831e-002 2.4499423399745320e-002
      2.3408503047053195e-002 -1.7410699747544903e-002
      -9.4354470154782183e-002 6.0661810452363168e-003
      5.3795885355671799e-002 2.9151470252880268e-002
      1.5714746894972807e-003 1.6505306007343078e-002
      -1.0769097776512354e-002 -4.9094658953487752e-003
      -3.4871126419376938e-002 6.8883642676069348e-002
      -3.8632022463968657e-002 1.2370895409757499e-001
      7.5220078279394989e-002 -5.1889426447642356e-002
      -1.2521119794099553e-001 5.8475085637775308e-002
      -4.5789501249265709e-002 1.6510653079301890e-001
      7.9179910878503582e-002 -8.8415919716435823e-002
      -1.0633115583009432e-001 3.2121747849269092e-002
      -1.9693848721064951e-002 -1.1476724052180571e-002
      8.2477714797513008e-002 -9.8553878833992747e-002
      -8.1749314270797388e-002 2.9595505928899698e-002
      2.5672201751376227e-002 -9.1910354498216218e-002
      1.3464429285030996e-001 -9.5621640185337350e-002
      -2.7574670179223975e-002 -2.9459705950519482e-002
      7.1806433150170088e-002 -2.9258514807499802e-001
      5.7631550237976732e-002 5.1817433677719980e-002
      7.5141938992774118e-002 -6.8692522712496179e-002
      5.2641724973767692e-002 -9.2706802294911420e-002
      -3.2202048437273589e-002 9.5933508415443444e-002
      1.1443588947138572e-001 -4.5787148112995890e-002
      7.0796208510790371e-003 6.7379307161458041e-002
      -7.0237374513849135e-002 7.0470602429116194e-002
      1.5064337363552363e-001 -4.7137959701586171e-002
      -1.7439807763954679e-002 -1.5315129132649631e-002
      -7.8639736873466246e-002 2.9232373034073184e-002
      1.4395006216771494e-001 -3.3993280274567966e-002
      -4.6133187023010475e-002 -8.8937812157855720e-002
      -1.3147761628202508e-002 3.2448953725336252e-002
      1.0555246023650573e-001 5.3524651585446286e-003
      6.9419362237596149e-002 6.2426918277548949e-003
      -7.3013503136156038e-003 -9.7939479115158237e-003
      1.3761776022972302e-001 8.1438043851226240e-003
      9.3650904240077118e-002 -7.9108697242545808e-002
      -5.0184959123371016e-002 -1.2701132499971388e-002
      6.1035529235587173e-002 2.4196410346174240e-002
      3.0197504873409126e-002 -3.5641438176643815e-002
      -9.0343901993120340e-002 -6.1514878616315887e-003
      5.8765057966159065e-002 2.9054234508193041e-002
      1.7088458368579203e-002 -1.2750069769308446e-002
      -9.2933043496166629e-002 4.0722831390811402e-003
      4.3701897908622445e-002 3.0476019045194102e-002
      -1.0828802274602471e-003 9.8529456036096086e-003
      1.9194305622894680e-003 -1.9422525307496450e-003
      -3.9781179952249779e-002 6.5530906300000025e-002
      -3.3381169442283087e-002 8.8657949130068858e-002
      7.9689283154759774e-002 -5.8842261148197364e-002
      -1.1823662585221786e-001 4.6057178326248276e-002
      -5.8453316702828086e-002 1.6028206975718781e-001
      7.7532204707920091e-002 -9.1128059209310469e-002
      -1.0784068118680860e-001 3.2300883220057620e-002
      -1.5500232472542359e-002 -2.3706986499000592e-003
      9.8868948709383342e-002 -9.0784663145509370e-002
      -7.3039712383410019e-002 1.7132628425436568e-002
      1.6344454251513599e-002 -9.3602820678382923e-002
      1.4201988629822176e-001 -7.4579420921943654e-002
      -2.1893419447798889e-002 -4.9782666787240672e-002
      4.9705524520301567e-002 -2.6304367807428219e-001
      5.6030337826450963e-002 5.7505503089516942e-002
      5.2613491833138848e-002 -7.0402252803018053e-002
      4.4445092428187429e-002 -7.6947387735993800e-002
      -3.4459613800540516e-002 1.0430309234353523e-001
      1.1294441487574705e-001 -3.9448351125344033e-002
      2.4121997552221826e-002 6.7417219955895433e-002
      -9.0255162031737501e-002 6.8059905601823054e-002
      1.5716610217299593e-001 -2.1599153693269479e-002
      -1.1088053634471002e-002 -1.9249846085512654e-002
      -8.8434663371065481e-002 1.2663202949473436e-002
      1.3824971220516663e-001 -2.9005762076920849e-002
      -5.1520088253217543e-002 -1.3371761857018674e-001
      6.6191023818762415e-003 2.1569834129268911e-002
      8.1129993617617954e-002 2.2766844875723035e-003
      3.9635847147683263e-002 -1.2720123655160703e-002
      7.3065764615537791e-003 -3.3489835097346436e-003
      1.5894351963545064e-001 -1.8607499046555863e-002
      9.2444028527291264e-002 -1.1288614113457732e-001
      -5.1470977160515831e-002 -1.0301125556701742e-002
      6.1392227444287219e-002 2.1200770986950140e-002
      3.0995390653431380e-002 -1.8182359772729847e-002
      -8.6194099160924020e-002 -6.8366399064877193e-003
      6.0832324579899386e-002 2.4968201352386317e-002
      2.8512815079573563e-002 -7.6498466245028098e-003
      -8.7012970818994576e-002 6.4384853000033736e-003
      6.2019534919987580e-002 2.0847866644027605e-002
      -4.5404134323062862e-004 -9.3566645465092777e-003
      1.1428422666475318e-002 -2.6866159664212480e-003
      -1.0709487721322134e-002 5.8093765408205600e-002
      -5.4305928198236132e-002 4.8063227624048500e-002
      8.1117029903264443e-002 -5.0771129450321043e-002
      -1.1202403798681983e-001 5.1458065990616385e-002
      -6.5390812492515937e-002 1.6856993622684130e-001
      8.8304764285344076e-002 -7.9851717363464456e-002
      -9.5959410903104558e-002 2.6707524283128305e-002
      -2.7015237866004654e-002 -4.6382751938567343e-003
      1.1436985691245438e-001 -8.3704277653646922e-002
      -4.6106683276468226e-002 -1.3069360196277418e-002
      -4.0851944769304399e-003 -9.8115837308804160e-002
      1.3612877549838190e-001 -4.6326630354444794e-002
      -2.0312964324606532e-002 -6.9401209632732594e-002
      1.0996963076335339e-002 -2.1774001124138681e-001
      6.5471718399781179e-002 5.8578196717467113e-002
      4.6289768176709017e-002 -7.3505637357893214e-002
      8.1373419703918200e-003 -7.5676139681961532e-002
      -4.1432844768119724e-002 9.7883151727194362e-002
      8.7409196117115784e-002 -2.8077493321189133e-002
      2.1997309530835622e-002 7.9622885818385586e-002
      -1.0724521112257947e-001 4.3732378258443227e-002
      1.2815502456997313e-001 2.4513318328610524e-003
      -3.9942308846041621e-003 -3.8322143701751875e-002
      -7.4385997797046619e-002 4.0768962120859911e-003
      1.2319038051497445e-001 -2.2030035809166182e-002
      -4.8511297603996403e-002 -1.1865839901368629e-001
      2.0456844627410355e-002 -3.7287403809655481e-004
      5.8789543073660758e-002 -1.6865268049923016e-002
      3.6958547101161782e-002 -3.0778403754291091e-002
      2.5277396322255605e-002 9.7941732567889111e-003
      1.6292265672123940e-001 -5.0965191365948410e-002
      8.1087217569648345e-002 -6.5780648362818384e-002
      -4.4281981447495969e-002 -1.5163328177050741e-002
      5.4219530090953531e-002 2.7305506210859930e-002
      3.1597515135222853e-002 -2.0329992591722221e-002
      -9.3334992178822962e-002 -1.1828874501088654e-003
      6.3462460190806078e-002 3.1097722288433109e-002
      3.3184883905013757e-002 3.4119689449493552e-005
      -8.3481108928866593e-002 4.2744862116592735e-003
      6.5763622281679202e-002 2.6792705037123929e-002
      1.4493102173513974e-003 -1.8605315063079379e-002
      2.2017631384772900e-002 7.4203875142536246e-003
      2.4485500610289070e-003 4.9993078497498407e-002
      -6.7546202754161871e-002 3.9401031156438247e-002
      7.7353944885246634e-002 -5.0836776140209962e-002
      -9.1473693154395616e-002 2.5760464175160029e-002
      -8.0584600462036166e-002 1.5222310509543965e-001
      9.3434877979717640e-002 -8.5971408956703230e-002
      -9.0072592063271451e-002 1.7266845064938204e-002
      -2.2525571629898277e-002 -2.1420207552783194e-002
      1.3452663614523258e-001 -7.6233799843121827e-002
      -6.9137331893616857e-002 -3.1034926667428291e-002
      -1.5969456161421682e-002 -8.2601069590246948e-002
      1.2975289274406882e-001 -2.3356781686881985e-002
      -2.9869557608601056e-002 -8.0329311034005257e-002
      -1.0877503055026857e-002 -1.8765491424317787e-001
      5.3907016974859966e-002 7.6018151646106813e-002
      5.0354378383029169e-002 -7.3530562697494500e-002
      -1.0595624351580681e-002 -7.3519873891136331e-002
      -6.9769155620519607e-002 9.4127683072309509e-002
      9.3802197812728430e-002 -2.0388489079312300e-003
      4.5904426506066597e-002 8.0876230356095993e-002
      -1.1039232015161322e-001 2.4233196629907094e-002
      1.2877539470918262e-001 5.9246271687033039e-003
      9.4091608599074540e-003 -3.9341704290879756e-002
      -7.2450199491815123e-002 -3.7895513575908770e-003
      8.7342773008468197e-002 -3.6669097483627315e-003
      -3.2547259717087454e-002 -9.7044903132904065e-002
      2.2821156402075611e-002 -9.5487399097869546e-003
      4.7236514151011905e-002 -9.1241904842669450e-003
      2.7354822368651117e-002 -5.7200408828946191e-002
      3.8110908400676505e-002 1.4767527318873720e-002
      1.3221581087508866e-001 -2.4460209239145752e-002
      7.9100454738102885e-002 6.3116506777686973e-002
      -4.2602265343018607e-002 -7.4030139511113684e-003
      4.9393702267809474e-002 3.5864422060016617e-002
      3.0879960029985592e-002 -2.6484060143972051e-003
      -9.8342644902910059e-002 6.4564679453657792e-003
      6.5703641951979599e-002 3.6690363114678499e-002
      3.5862799093679988e-002 4.0666992908940797e-003
      -8.5196019905522710e-002 -4.3216596190574271e-003
      6.3624640008155445e-002 2.5595369498132889e-002
      4.4414860323721810e-003 -3.0135002556232367e-002
      4.0412978348389880e-003 2.0146172279274392e-002
      -1.7180789971817309e-003 4.3820248129901769e-002
      -7.5988804052035550e-002 7.2530092065484414e-002
      8.7542012701678995e-002 -4.8213818329520153e-002
      -1.0803734110010402e-001 1.0236623213885554e-002
      -1.0336004118695830e-001 1.3110269423413562e-001
      1.1220844349993157e-001 -7.7398083195545017e-002
      -1.1092795124212351e-001 -4.4287652231249199e-003
      -4.9053297785821147e-002 2.7094757620393416e-003
      1.3834067714031076e-001 -5.1434632423813804e-002
      -9.7249265491326772e-002 -3.7677747465579933e-002
      -2.6940231479312255e-002 -6.7695460755235193e-002
      1.1466311123249989e-001 -1.3558194483691990e-002
      -3.4502696848648345e-002 -7.5720542855293699e-002
      -1.3541299609811069e-002 -1.8096146843983982e-001
      4.1339567445161839e-002 7.7988855158196355e-002
      6.5935090323961457e-002 -6.0786429165164642e-002
      1.5692339275824435e-003 -7.7236445067136936e-002
      -9.5219435344988251e-002 7.1966152668051647e-002
      1.5008025681610940e-001 3.5615275549184706e-002
      8.5440231172527858e-002 8.2427545624020285e-002
      -1.0275026098818320e-001 8.8259917173399774e-003
      1.1441146295761204e-001 1.9781938576753352e-002
      1.9036706803894896e-002 -2.9943116871565711e-002
      -5.5149543525121518e-002 -1.2879844621926151e-002
      6.7450857589277297e-002 -6.6412803200943385e-003
      -3.3231996903765444e-002 -9.1981762181805704e-002
      2.7131992970379524e-002 -6.0608267626157276e-003
      3.8992204454145162e-002 -2.5074606700805809e-005
      1.8621769116177446e-002 -6.4573879185938265e-002
      5.0450175916597985e-002 1.4618500486236571e-002
      1.0440685921320436e-001 -7.6442101447520300e-003
      6.2206712759008187e-002 7.4415086171343792e-002
      -4.8620365498303633e-002 -1.3906993886507738e-002
      5.1502044121470768e-002 3.2994285992033030e-002
      3.7373401996482619e-002 7.2191483556953611e-003
      -9.9760518779002189e-002 2.1027488856047221e-003
      6.3397042775874476e-002 3.0572281444068181e-002
      3.5208678450530009e-002 1.6505569994720016e-002
      -8.0827197234353818e-002 -1.0922332986277661e-003
      6.8845884742244234e-002 1.4939264217270435e-002
      6.7579952970054430e-003 -1.8665413775507581e-002
      -1.0576197187961442e-002 2.5728166821686081e-002
      2.5103985093755544e-002 2.6865333380736676e-002
      -6.1487906389893626e-002 3.0576139741875456e-002
      1.0060743811700212e-001 -2.8412436016812672e-002
      -1.1378720444961869e-001 3.9517503142272824e-004
      -1.1544596407519388e-001 1.3802088002138763e-001
      1.3144874756681976e-001 -5.1017418720494326e-002
      -1.3555171250347289e-001 -2.6555506201939697e-002
      -6.8858171479081118e-002 2.1445063078305182e-002
      1.3329415762804592e-001 -2.4205240702565373e-002
      -8.5491484712729549e-002 -4.7764775108385941e-002
      -4.5234024040273255e-002 -6.8990809178631513e-002
      1.1334838627951194e-001 -1.6629105578739541e-002
      -3.0479266954716498e-002 -7.7986030511910387e-002
      -2.3384548310004773e-002 -1.8073207673497690e-001
      -5.4812218423439139e-003 6.4693934602163855e-002
      1.1846538205126436e-001 -4.0144891658271599e-002
      3.2959479096070721e-002 -1.1227084439072781e-001
      -1.0851076024464630e-001 4.4038710593627239e-002
      1.3991659106710544e-001 5.5896407341147099e-002
      1.0671482011898704e-001 9.3046044605872222e-002
      -8.8193945133112503e-002 5.5660726965753565e-003
      6.9125118387525469e-002 2.6471286801852307e-002
      2.2668059545139708e-002 -9.1364254477489318e-003
      -5.1903799028980867e-002 -1.3644054160224862e-002
      6.9381230447634196e-002 -3.8402786957528476e-003
      -4.2875254962347682e-002 -8.5775238579549343e-002
      2.0070011433627119e-002 -3.8154560688897045e-004
      5.0415748836234141e-002 6.3147345871090903e-003
      1.8001096257643172e-002 -2.9046355537718602e-002
      5.9569503124357284e-002 2.3480199077216640e-002
      1.0410255919333880e-001 -1.3447485140450044e-002
      6.6649918056350926e-002 2.3902290643954230e-002
      -5.5740093079286318e-002 -4.5309997024395318e-005
      7.7269973824945340e-002 4.1686562335766800e-002
      6.4009626514867066e-002 1.1549287828929880e-002
      -9.4711873536289182e-002 2.7811527306327247e-003
      6.1952292876368276e-002 3.5781577314422740e-002
      3.8906001505229174e-002 1.0256521524803081e-002
      -7.6025911726831139e-002 8.1259177362574507e-003
      6.8401499690153439e-002 1.7347444980551491e-002
      8.0521470267890614e-003 -3.0447927876322395e-003
      -5.6553103916503842e-003 2.6855222996045661e-002
      6.0726355752415480e-002 -2.1219794873261351e-003
      -5.5852260771155959e-002 -3.6936465884037993e-003
      1.2418111840968232e-001 1.8173518860298938e-003
      -1.2741636833416403e-001 -3.0555946964248321e-002
      -1.2622542263732314e-001 1.2906641743943190e-001
      1.2612025789999781e-001 -2.0241470272393983e-002
      -1.1645144205464804e-001 -3.5399320191115233e-002
      -7.7421233617532975e-002 2.8413421265137930e-002
      1.2833239339041758e-001 -1.6585685045738312e-002
      -8.3739251854267185e-002 -3.6394476303661577e-002
      -5.0400264028118952e-002 -4.2344779197210365e-002
      1.0452276538176081e-001 -2.0785228862032119e-002
      -3.4972036921015935e-002 -5.2737104462767123e-002
      -2.2760625497168414e-002 -1.4970301407656550e-001
      -3.7883802927920006e-002 1.4237998873296683e-002
      1.5358751060094350e-001 -6.7471694032213191e-003
      8.6945997188418250e-002 -2.1544694657470545e-001
      -1.0648608834621458e-001 3.3489809428338832e-002
      7.7602244220955352e-002 7.2391122994832732e-002
      1.2631536838503721e-001 1.2529493154754118e-001
      -1.0306099416290807e-001 6.2824394472663705e-003
      5.7980770006654088e-002 3.4943470498634041e-002
      3.5948526261121355e-002 2.4045477515498365e-002
      -6.2018527445860429e-002 -2.9901235847704529e-003
      5.9421836797811552e-002 -8.7521038625874310e-003
      -3.6014877553144531e-002 -7.1710497124743630e-002
      1.1456966555446001e-002 6.9455163422484766e-003
      6.4021639684446713e-002 -7.7911132292594019e-003
      -5.3611770259820333e-003 -4.7858554740917436e-002
      7.3339290563669585e-002 1.9256303291344319e-002
      1.2530086301785090e-001 -3.4641358111934230e-002
      7.7281935376700139e-002 -3.7955103365748158e-002
      -6.2193440156787509e-002 -5.2739920374918793e-003
      7.5029022055774566e-002 3.1044189383826803e-002
      6.5435986174352728e-002 1.5259380521785449e-002
      -9.0815058037523155e-002 7.0769520228515376e-003
      8.0612469590885943e-002 3.5544028246035933e-002
      4.7020742712698523e-002 1.5164141922174234e-002
      -6.9872022628021474e-002 9.8793809755594389e-003
      8.2365572106024215e-002 1.1450392631247823e-002
      4.6391442128062782e-003 -6.3033969535562888e-003
      4.1605114503842015e-002 2.4110093260896238e-002
      2.1842741522945686e-002 -3.8954648089321482e-002
      -6.6357233331214266e-002 -1.0948741760098246e-002
      1.1657634457315497e-001 3.5667769409799259e-002
      -9.6233707541704058e-002 -5.6068528019150937e-002
      -1.1157363728341352e-001 1.0711627455463951e-001
      1.2605293459379743e-001 -5.6511190891445386e-003
      -8.4354347529892362e-002 -5.1376589580649605e-002
      -7.6579434463273616e-002 2.6898522369269446e-002
      1.1243971651955562e-001 -2.2698845872818396e-002
      -9.2139734868837600e-002 -2.8740155771155376e-002
      -5.4513265971916018e-002 -3.2560814195905584e-002
      8.0610990521399528e-002 -4.7341196687671783e-002
      -3.8735084143478135e-002 -2.1765304228954879e-002
      -8.4300093959177660e-003 -1.6385295245438000e-001
      2.2882006693622828e-003 -8.0075114874872969e-002
      1.2858834202737296e-001 1.9889821957870951e-002
      1.4029930654840850e-001 -3.8016911657745522e-001
      -9.9538765634727674e-002 2.4900701398614423e-002
      7.1197326955446144e-002 8.4628882320427659e-002
      1.3914651679594503e-001 1.2696687836504142e-001
      -1.0292803637372366e-001 6.9994279614156501e-003
      5.8354513660044731e-002 4.0779366908641881e-002
      3.8360507229761552e-002 2.6734174703088445e-002
      -6.9242380662185035e-002 -3.6639875884477745e-003
      5.7623934255388358e-002 -5.4703065639754751e-003
      -2.5597678159846985e-002 -7.5579210660497442e-002
      9.7186967183752007e-005 -7.7159976356264105e-004
      9.8501146344065996e-002 -3.3510403184979075e-002
      -1.4947848105695131e-002 -1.1735052222319338e-001
      8.6464582579533933e-002 1.1517780719498008e-002
      1.1054931519645898e-001 -1.5290148230526627e-002
      8.8013588442938523e-002 -2.1038559443602910e-002
      -7.3850579392655172e-002 1.0123963478827038e-002
      8.0015282395570042e-002 3.3327010745176196e-002
      7.6689317528801912e-002 3.0595072910108427e-002
      -9.1802295077221333e-002 1.2752837600608117e-002
      9.3662446195289462e-002 1.8587618233628748e-002
      4.5225454709021423e-002 1.1961488839284946e-002
      -6.1804356647574353e-002 1.3185185007143297e-002
      8.8870950888802966e-002 1.2244675904301999e-003
      5.2789676484093174e-003 -7.0091124011410150e-003
      5.1538810099745341e-002 4.1320778712178527e-002
      1.9129840609356356e-002 -6.0667991381017826e-002
      -7.7306688463654377e-002 -9.2164442442654437e-003
      1.0486916221855827e-001 5.1616332017249703e-002
      -4.3146337769145809e-002 -7.7067259596448695e-002
      -9.5434128186343850e-002 6.2241713283822109e-002
      1.0456701562190455e-001 1.0052098390945790e-002
      -7.2392225559773218e-002 -3.8887789566145345e-002
      -7.0452526872903543e-002 3.4537994123495029e-002
      7.9367483390205190e-002 -3.7611333207315106e-002
      -5.7954777137294598e-002 -3.1362131618607875e-003
      -3.7964431210878939e-002 -5.6417434400281290e-002
      7.2762349158860762e-002 -8.0772999093862319e-002
      -4.2038225636109351e-002 -1.5562096369288083e-003
      6.0764930795864204e-003 -1.5288371793236841e-001
      4.5719498160033761e-002 -1.0726599668528847e-001
      9.4562388583308513e-003 3.6438912022873478e-002
      1.1789732570405698e-001 -3.2844336231606447e-001
      -8.4610208905669226e-002 2.0985218180233228e-002
      6.5784688243901587e-002 7.4368869319842976e-002
      1.3313775770497288e-001 1.1696956570039901e-001
      -9.0384767522667137e-002 1.1775243559802161e-002
      6.7482565886251414e-002 4.0095150864998243e-002
      4.4123877223870102e-002 2.2293843091287669e-002
      -7.4939567411624150e-002 -7.2062141719331820e-003
      6.6884643855239415e-002 -2.4718145364629909e-003
      -2.6443792196213480e-002 -7.8138923234973956e-002
      1.6157266843506708e-004 -1.6442752106272180e-002
      1.0581070454880362e-001 -5.2428419314876226e-002
      -4.0659491622602718e-002 -1.7312948462077465e-001
      9.9624366657423746e-002 8.3149930602524867e-003
      8.9205563541628813e-002 -1.1800586946877472e-002
      7.8029272604734218e-002 1.6286053738023862e-002
      -6.1025173477102186e-002 1.4163873778129160e-002
      8.2392046849330339e-002 3.9938778144268244e-002
      8.4214168024550964e-002 5.7356181921422923e-002
      -8.8414644202125636e-002 1.3082428582676912e-002
      9.5258777888009891e-002 8.4315253489976091e-003
      3.9482102084314186e-002 8.6405497878282427e-003
      -4.5082924073959772e-002 2.8196204211129151e-002
      8.1549464284693091e-002 -1.7173678515422397e-002
      -8.7623509726033558e-003 2.9430500917218810e-003
      6.0906427713927500e-002 6.7372627917140923e-002
      1.1104032633200374e-002 -7.8651346404080058e-002
      -7.4521931475143702e-002 -5.0735353303892321e-003
      9.3901200300989307e-002 6.4754809309472763e-002
      -3.6749514809386929e-002 -7.3607945264765232e-002
      -9.0110255065750863e-002 6.1284260371054257e-002
      8.1473847061104054e-002 3.7451082003720276e-003
      -4.7151991157390341e-002 -2.5583826365779001e-002
      -5.0177330421480516e-002 2.8837717394137825e-002
      6.7354143721900850e-002 -6.3901274265655367e-002
      -3.2786062313190353e-002 1.7602996798686248e-002
      -7.0077014172030662e-003 -6.4598715070760218e-002
      7.2144694083567981e-002 -9.5202942929285286e-002
      -4.4966583855134148e-002 2.2858635928647883e-002
      1.4714056707364273e-002 -1.3772428103303627e-001
      5.2253919296053310e-002 -1.0510492607534834e-001
      -2.4567152137732778e-002 3.8547503137991490e-002
      8.0740689050264644e-002 -2.7692314746670293e-001
      -8.4356036382723876e-002 3.3155317657562820e-002
      6.7093582568638052e-002 7.9572427552493302e-002
      1.4293463393378814e-001 1.1240706766097826e-001
      -9.7859173319103002e-002 1.1358115289499319e-002
      6.8182380055011593e-002 4.4240035651279333e-002
      5.3630365922393994e-002 3.4033012846239857e-002
      -7.7859913783558971e-002 -1.2816395084002459e-002
      8.1555032879396389e-002 5.6564698448968616e-003
      -5.5826040458427746e-003 -6.9399182493380937e-002
      3.4593992884119950e-003 -1.7135456172648732e-002
      8.0687674939866144e-002 -6.0837102791465814e-002
      -6.9834359982282407e-002 -1.6908913637594003e-001
      9.6534193810859523e-002 3.2733493607817847e-002
      1.0379331632610868e-001 -4.2574869682854552e-002
      4.3086336547835703e-002 -2.2418256880972560e-002
      -4.3060198458342983e-002 2.7409029610809644e-002
      9.4436179469229581e-002 1.1782121497203394e-002
      7.0517585848168099e-002 4.7609815449684768e-002
      -7.1085530181922277e-002 2.5481684055185860e-002
      9.8425055138095824e-002 -1.3202554742536406e-002
      2.9027675067270046e-002 1.2949029770524851e-002
      -3.3841574617959294e-002 5.1477605797563566e-002
      6.6972918343999349e-002 -3.7724800978987443e-002
      -2.7894357437089564e-002 1.9478041095019209e-002
      3.2480515604880869e-002 9.2410058323906516e-002
      3.2187650553918382e-002 -7.6524595794913025e-002
      -6.3154439042634652e-002 1.6537172290819392e-002
      6.8128801268578537e-002 8.9174520344978400e-002
      -2.4149113598666699e-002 -5.8695226307243803e-002
      -8.7345685268619105e-002 9.4694128628230193e-002
      6.2261268611427834e-002 -1.4228351967728967e-002
      -3.3402388981142873e-002 -3.3033281109694111e-003
      -4.1060680037052516e-002 2.8953307805714486e-002
      7.3015560036165814e-002 -8.3555754899481374e-002
      -4.6517691196323853e-002 2.5460641335332039e-002
      2.8918990283318523e-003 -5.1495957162410948e-002
      8.2667465199378454e-002 -9.9058320186169821e-002
      -6.0133809375733510e-002 2.8254888412246274e-002
      1.8596377553487583e-002 -1.0716311033359499e-001
      5.2538531165877388e-002 -9.9234220510675361e-002
      -3.6030584748311105e-002 5.4308765893489964e-002
      1.1435943522303552e-001 -2.0091547372015739e-001
      -9.4798284806821106e-002 3.5834964888772684e-002
      6.8274194799792839e-002 7.8290462331135124e-002
      1.5073865042184065e-001 1.2329544246745423e-001
      -9.0250268577639278e-002 1.4771260950042010e-002
      6.5397928389906809e-002 3.8339341379629313e-002
      4.9762577781250580e-002 3.9615962348303647e-002
      -7.1179632551623712e-002 -5.4331385674723761e-003
      7.7535189344007688e-002 -6.0824260474537937e-004
      -1.7455866270202187e-002 -8.9885338972208767e-002
      1.6901858588612040e-002 -2.3707257838489492e-002
      5.8245854410128590e-002 -7.5642112466465017e-002
      -8.8281164791414596e-002 -1.9545338340514290e-001
      1.0064304379844376e-001 3.7426122308053533e-002
      8.8257049897124504e-002 -8.1511097009666411e-002
      1.1447766463390347e-002 -7.0402265891576568e-002
      1.1352891436908060e-002 3.6174617156754414e-002
      7.4899495796017720e-002 -4.7603840346022337e-002
      1.9349494635340289e-002 9.5851663330895204e-003
      -4.4849726410098080e-002 4.1191409473468929e-002
      4.8979284731073200e-002 -3.6015158967041702e-002
      1.0141145218814488e-002 2.9349092514874740e-002
      -4.1644309571193250e-002 6.8231544105430642e-002
      6.3952849394079803e-002 -4.9481273949357231e-002
      -2.5819939821718433e-002 3.2463840749179504e-002
      -1.9782649354200026e-002 1.0477868354836521e-001
      8.1867113344717843e-002 -4.5986258307807920e-002
      -1.8404689135222859e-002 4.4950403053834020e-002
      1.9636699406206694e-002 1.0040851614735165e-001
      7.0507004818322033e-002 -2.7758324774518187e-002
      -4.7536569996390152e-002 1.3769012396757563e-001
      7.1345863436592036e-002 -5.2529571925338997e-002
      -5.3348565647327014e-003 2.4322587158186127e-002
      -2.0076127195800444e-002 2.7228244565811105e-002
      8.9368290102121786e-002 -9.5743403496993770e-002
      -6.6261084147010221e-002 3.4218901473784591e-002
      1.2891880559412986e-002 -2.5926987450629668e-002
      8.2597075135014186e-002 -1.0015589972559676e-001
      -7.1704681759812150e-002 2.9700138883327502e-002
      3.9433983424549061e-002 -6.9585826820866573e-002
      -3.0313044302629905e-003 -5.5637463094837324e-002
      1.7982851657851209e-002 5.0512143768529007e-002
      1.6489036531754597e-001 -6.6711728328048517e-002
      -9.6339080022393497e-002 2.9237991241539193e-002
      9.3478134427926199e-002 5.8658291455472911e-002
      1.2479226769504448e-001 1.1749959104688638e-001
      -8.7600025069957399e-002 1.3408606165049155e-002
      8.0460581197925624e-002 3.8653849754579195e-002
      5.5549918307608158e-002 5.0085082558571199e-002
      -5.6649979541705808e-002 -1.9074369323294427e-002
      7.6271735827595527e-002 -1.5513502129820347e-002
      -4.3326907985754663e-002 -1.2407761945292548e-001
      4.9750807992744686e-002 -1.8845123775755177e-002
      4.0795857031828017e-002 -8.4724490039825920e-002
      -9.3251133298188571e-002 -1.7411842358558469e-001
      9.1623899222356600e-002 4.2282993462724620e-002
      8.6207755386459362e-002 -8.5345824217989155e-002
      3.7948391405784362e-002 -5.2808762328597859e-002
      6.4622898409621807e-002 5.4952439256927658e-002
      1.3397240879235776e-002 -9.4906981944910859e-002
      -4.8797018654709881e-002 -1.1088764852636476e-002
      -3.5937343463203195e-003 6.6848317801081844e-002
      4.2184070729635412e-002 -7.4581979760438233e-002
      -3.5450011085413159e-002 -5.8767264249081697e-004
      -4.4630343107431497e-002 8.0066039279530390e-002
      8.9135298917014438e-002 -5.7068042116755195e-002
      -2.7161411719110400e-002 1.6048162934600171e-003
      -6.6418114985963783e-002 7.9468673913047239e-002
      1.2387791355404894e-001 -4.3223448921153165e-002
      -2.4639232860013131e-002 7.7737973072833652e-003
      -7.7151321571035492e-002 7.4134388922387121e-002
      1.3268677051436464e-001 -2.6059138273042703e-003
      -1.6549208698702154e-002 1.1790588011401823e-001
      3.3765420392834512e-002 -6.8870840208095502e-002
      -6.2430693837183093e-003 6.7447466425821834e-002
      4.5318761689263402e-002 1.3899422482765963e-001
      6.9273696954034403e-002 -8.7817531785663497e-002
      -9.2205379525770473e-002 7.4578267475241752e-002
      6.3226658045053619e-002 4.6180331513515006e-002
      4.4982222454840071e-002 -8.7307057105870903e-002
      -6.7857669875980464e-002 7.3906750591454129e-002
      1.2141693099116489e-001 4.7321085130138649e-002
      -5.2624709022488524e-002 -1.6274784416007288e-002
      6.7060388148521430e-002 6.1999480432840502e-002
      1.8170906447547486e-001 4.9365995331976859e-002
      -7.0673846466599813e-002 2.4702118620844829e-002
      9.5756486326021129e-002 2.2746965903815020e-002
      6.7601580979757409e-002 6.3746152004211756e-002
      -5.3165828227066961e-002 5.7287130309686416e-003
      9.5574365703180092e-002 9.3912852553517546e-003
      1.9681129216262916e-002 7.1455438217560875e-003
      -1.7217618219433500e-002 -3.8632572079377557e-002
      8.5893770946362510e-002 -4.7067542108963641e-002
      -8.3833488398491751e-002 -1.8695327469957837e-001
      8.4033457067488507e-002 -3.0615329600740322e-002
      4.7874539982161853e-002 -1.0388547930048410e-001
      -1.0667533258024045e-001 -1.9639865306421028e-001
      1.0689976166898911e-001 4.0815051564423603e-002
      8.8819842382706612e-002 -8.4437725045646700e-002
      5.4378982423692365e-002 -3.7199437747691841e-002
      8.5624710775699678e-002 5.8487147251005844e-002
      2.7951245958721612e-002 -8.9293189929594077e-002
      -3.4002108463956661e-002 -1.5370224715400447e-002
      3.1798182715181221e-002 8.0017312655623840e-002
      5.7243668815955169e-002 -1.0125295806132184e-001
      -5.7437389325962172e-002 -2.4294965989970108e-002
      -3.2848187206234239e-002 8.7745640724173943e-002
      1.2642125423758430e-001 -8.1001141631690921e-002
      -4.1048767795070912e-002 -2.6086444650401171e-002
      -6.1613367872219466e-002 7.5282966291951400e-002
      1.2590698843173312e-001 -5.8529522415480401e-002
      -3.4017834580137331e-002 -1.4919099832045677e-002
      -5.5766687535053615e-002 5.6245813919992373e-002
      9.1653526944523500e-002 -3.4165924537258682e-002
      -4.9540162684568963e-002 7.8582384981366327e-002
      1.8769361956824632e-002 -3.2633692908818956e-002
      -6.9027420412262419e-003 2.0299565303028899e-002
      6.5695605310302982e-003 1.8356002935145760e-001
      7.7058846125100999e-002 -1.0169155426132924e-001
      -9.2840089428286920e-002 6.7441667264454747e-002
      8.0985950113439412e-002 6.2723940103911621e-002
      7.7534914122947676e-002 -1.0003211524225991e-001
      -6.3424748640241113e-002 6.7079166722754394e-002
      1.2122898455905742e-001 6.5536355939465385e-002
      8.1065358796873696e-003 1.9431078136207921e-002
      6.7247141858699538e-002 9.5605739831016064e-003
      4.9921829087435060e-002 1.5975753526472258e-003
      -7.8883479189320056e-003 5.1062752358511182e-002
      7.9970138533555016e-002 -2.8484741563602721e-002
      -2.3133364702337313e-002 4.3228874014164496e-002
      2.3106294085630207e-002 2.9676186792975495e-002
      6.4720851367899762e-002 -6.1599385635068303e-002
      -8.2424468276500226e-002 -7.8033515786532573e-002
      4.3999871893747051e-002 -1.8112735750515838e-002
      4.7862529192266266e-002 -9.8524376986916240e-002
      -1.4688203094003657e-001 -2.3655025229440596e-001
      5.5727680609958037e-002 -2.6776991907736900e-002
      6.1668738419732444e-002 -8.0751054354689225e-002
      -4.6567915609207852e-002 -1.2384010170790589e-001
      1.1700737935847164e-001 1.5414687481124506e-002
      8.6833824065466983e-002 -8.1921671647789920e-002
      2.8644583200701453e-002 -9.6033365379649932e-002
      7.7203868734928252e-002 3.1917915939925059e-002
      4.9855146543395124e-002 -9.1413354889526302e-002
      -2.6751301077719059e-002 -4.5383020047205583e-002
      6.1320205841078029e-002 7.2587338494476947e-002
      4.2022442489978724e-002 -9.0885060917217125e-002
      -3.8781896179138124e-002 -2.1991835800245555e-002
      3.2119237727181345e-002 8.3028073999269716e-002
      8.8838305010205454e-002 -1.0202004678545661e-001
      -5.6461234522232243e-002 -3.9631159835688878e-002
      -1.3215095172582904e-002 8.2806791999184781e-002
      6.1542463024010258e-002 -5.5599777399342416e-002
      -5.6330303277621473e-002 -1.2276290406971178e-002
      -6.0997339526143264e-003 6.7607997173434534e-002
      7.1289097481858632e-002 -6.7340002278256719e-002
      -9.3623124085072368e-002 2.0897319593764094e-002
      4.9548604887698591e-002 3.9775826264158487e-002
      -2.5868367866089089e-002 -7.0203995173434966e-002
      -1.5902364434607322e-001 8.8353929466797002e-002
      1.4105572040788683e-001 -7.8842585661852913e-002
      -1.4069212284416152e-001 -4.3839958293547712e-002
      -1.0836469476508005e-001 -7.3713325990100997e-002
      1.6927941416897080e-001 -6.8507934406183718e-002
      -9.0340627804068180e-002 -4.6873416911962063e-002
      -7.5321002680649438e-002 -1.4402437006436977e-001
      9.3697476862203227e-002 2.4473594445805047e-002
      1.8206972745195876e-002 -5.9527636531778956e-002
      -8.9749394486644291e-002 -1.4140751170309701e-001
      5.3950564527132053e-002 4.7338046978223067e-002
      4.8197056527180267e-002 -9.0316288416726370e-002
      -1.1118580835377322e-001 -9.3659715957720407e-002
      6.3949480448061216e-002 4.1786679206579198e-002
      4.2851904659191052e-002 -1.2298630318717430e-001
      -1.3798524490529307e-001 -1.6991226513067953e-001
      5.7879991274545427e-002 1.4646218163456704e-002
      5.8984467863557322e-002 -1.2621503878049858e-001
      -1.1067233801912045e-001 -2.0965639714747214e-001
      6.3890171858507053e-002 -1.8630165698988919e-002
      1.2131955081645480e-001 -8.0634339473483502e-002
      5.1925428654209767e-003 -1.5271231058353690e-001
      7.4112054842772446e-002 -3.7986778330678254e-002
      8.0995985690946265e-002 -7.3763460752111848e-002
      -7.2761024588178444e-003 -1.3937686881283756e-001
      9.2281119105249956e-002 2.6046322959896676e-002
      6.2149947694427846e-002 -8.9948171376254202e-002
      -1.9329481679379895e-002 -7.8605898706068780e-002
      7.0617683976755802e-002 5.9418362699737860e-002
      5.8783208674113262e-002 -9.1643752809780030e-002
      -2.5690660072004393e-002 -4.8558168781076945e-002
      5.1164317426324581e-002 7.8199623494811410e-002
      6.3394806126517059e-002 -8.3850529315617747e-002
      -3.1849417285441814e-002 -3.0238849329217991e-002
      4.7091728315351168e-002 7.7657975023909434e-002
      7.6432564285062662e-002 -1.0031009653800278e-001
      -7.0539828908872212e-002 -6.4220827314032794e-002
      4.7942847042297093e-002 6.5297544068975838e-002
      6.9727406457018706e-002 -1.1370638350117179e-001
      -1.2265372045275583e-001 -1.1129471510825076e-001
      8.5732371449738956e-002 1.9730393441893299e-002
      6.4783562252684557e-002 -1.3303410378561892e-001
      -1.7623048412291073e-001 -2.1575440264594103e-001
      1.4181780170213149e-001 -2.8210410482375506e-002
      4.8746118756300083e-002 -1.2393891280927309e-001
      -1.5183187481868571e-001 -3.2437029532809880e-001
      1.3924842694597173e-001 -2.5480543097283495e-002
      5.2854213075334326e-002 -1.2582963432983749e-001
      -1.3060969834461603e-001 -3.5359983204663037e-001
      9.0183905152373206e-002 -2.4908070122457888e-003
      8.0508052970893640e-002 -1.3232371201858639e-001
      -1.3483086637800445e-001 -3.2826845626815121e-001
      7.0065845603091148e-002 3.8460516229805133e-002
      7.1740069221246289e-002 -1.2950316128356015e-001
      -1.4383781156769668e-001 -2.2791818851850545e-001
      5.1889806044259065e-002 4.6809168208250027e-002
      4.7756962237541487e-002 -1.1641317393285668e-001
      -9.6183508871092088e-002 -1.3958900357980994e-001
      2.6892222582108553e-002 2.5023673117696904e-002
      8.4459005401097340e-002 -7.4244167882892523e-002
      -1.3722078939497534e-002 -1.1468478729344897e-001
      7.4403444815029862e-002 -2.8707638991657670e-002
      2.3029878416813088e-001 -7.8098833357114081e-002
      2.3262768517910603e-002 -1.4015626849647708e-001
      -3.3112857056891494e-002 7.3516016047445634e-002
      -2.9435893772786600e-002 8.6512547717293511e-002
      5.2993018067892798e-002 1.0238110632320795e-001</_>
    <_>
      1.2469109635323246e-002 -1.0877619055430945e+000
      -5.9711888527985903e-002 8.5617864112392894e-001
      -6.8503985557118896e-001 1.7189241075101969e-001
      9.2833792037921831e-002 -4.7510096609278718e-001
      -1.0533209214652322e+000 3.8973510899863589e-001
      -1.1145906665873682e-001 -1.7425990747085265e-001
      5.7249780115538818e-001 6.5054425623382997e-002
      -7.0196928101274614e-001 2.2556240186433923e-001
      -1.0912907977852977e+000 8.3454888197672006e-001
      -1.4875865351251718e+000 -1.0009582474048337e-002
      -4.1516139392689355e-001</_></weights></opencv_ml_ann_mlp>
</opencv_storage>
