<?xml version="1.0"?>
<opencv_storage>
<opencv_ml_ann_mlp>
  <format>3</format>
  <layer_sizes>
    800 6 3</layer_sizes>
  <activation_function>SIGMOID_SYM</activation_function>
  <f_param1>6.6666666666666663e-001</f_param1>
  <f_param2>1.7159000000000000e+000</f_param2>
  <min_val>-9.4999999999999996e-001</min_val>
  <max_val>9.4999999999999996e-001</max_val>
  <min_val1>-9.7999999999999998e-001</min_val1>
  <max_val1>9.7999999999999998e-001</max_val1>
  <training_params>
    <train_method>BACKPROP</train_method>
    <dw_scale>1.0000000000000001e-001</dw_scale>
    <moment_scale>1.0000000000000001e-001</moment_scale>
    <term_criteria>
      <iterations>1000</iterations></term_criteria></training_params>
  <input_scale>
    4.7294523055109444e-009 1.2247448713915914e+000
    4.7294523055109444e-009 1.2247448713915914e+000
    4.7294523055109444e-009 1.2247448713915914e+000
    4.7294523055109444e-009 1.2247448713915914e+000
    4.7294523055109444e-009 1.2247448713915914e+000
    4.7294523055109444e-009 1.2247448713915914e+000
    4.7294523055109444e-009 1.2247448713915914e+000
    4.7294523055109444e-009 1.2247448713915914e+000
    4.7294523055109444e-009 1.2247448713915914e+000
    4.7294523055109444e-009 1.2247448713915914e+000
    4.7294523055109444e-009 1.2247448713915914e+000
    4.7294523055109444e-009 1.2247448713915914e+000
    4.7294523055109444e-009 1.2247448713915914e+000
    4.7294523055109444e-009 1.2247448713915914e+000
    4.7294523055109444e-009 1.2247448713915914e+000
    4.7294523055109444e-009 1.2247448713915914e+000
    4.7294523055109444e-009 1.2247448713915914e+000
    4.7294523055109444e-009 1.2247448713915914e+000
    4.7294523055109444e-009 1.2247448713915914e+000
    4.7294523055109444e-009 1.2247448713915914e+000
    4.7294523055109444e-009 1.2247448713915914e+000
    4.7294517443752154e-009 1.2247446292042463e+000
    4.7294514099310755e-009 1.2247444848574620e+000
    4.7294511725100160e-009 1.2247443823860391e+000
    4.7294509971837118e-009 1.2247443067148414e+000
    4.7294509261856938e-009 1.2247442760719491e+000
    4.7294509565481871e-009 1.2247442891764648e+000
    4.7294511028817173e-009 1.2247443523343224e+000
    4.7294513010369756e-009 1.2247444378585446e+000
    4.7294514603830429e-009 1.2247445066326379e+000
    4.7294514475988300e-009 1.2247445011149451e+000
    4.7294512825455250e-009 1.2247444298775965e+000
    4.7294510752586833e-009 1.2247443404121652e+000
    4.7294508739073961e-009 1.2247442535085298e+000
    4.7294507408146493e-009 1.2247441960654246e+000
    4.7294507259758290e-009 1.2247441896609603e+000
    4.7294509394264492e-009 1.2247442817866920e+000
    4.7294513103968261e-009 1.2247444418982787e+000
    4.7294517277100614e-009 1.2247446220115343e+000
    4.7294523055109444e-009 1.2247448713915914e+000
    4.7294523055109444e-009 1.2247448713915914e+000
    4.7294516003245225e-009 1.2247445670316690e+000
    4.7294511604106656e-009 1.2247443771639357e+000
    4.7294509118034499e-009 1.2247442698645441e+000
    4.7294508284778105e-009 1.2247442339010239e+000
    4.7294509207067506e-009 1.2247442737072252e+000
    4.7294511350705385e-009 1.2247443662270836e+000
    4.7294514019409235e-009 1.2247444814088992e+000
    4.7294516165330671e-009 1.2247445740273124e+000
    4.7294517685738995e-009 1.2247446396484496e+000
    4.7294517404942834e-009 1.2247446275292295e+000
    4.7294515932475201e-009 1.2247445639772248e+000
    4.7294513969185393e-009 1.2247444792412303e+000
    4.7294511394080213e-009 1.2247443680991530e+000
    4.7294508666021215e-009 1.2247442503555601e+000
    4.7294506472159634e-009 1.2247441556680412e+000
    4.7294506618264902e-009 1.2247441619739741e+000
    4.7294509586027507e-009 1.2247442900632259e+000
    4.7294514807008023e-009 1.2247445154018262e+000
    4.7294523055109444e-009 1.2247448713915914e+000
    4.7294523055109444e-009 1.2247448713915914e+000
    4.7294514126705529e-009 1.2247444860398253e+000
    4.7294509423942334e-009 1.2247442830675903e+000
    4.7294508435449045e-009 1.2247442404040145e+000
    4.7294509896501511e-009 1.2247443034633423e+000
    4.7294512930468534e-009 1.2247444344099894e+000
    4.7294515941606861e-009 1.2247445643713477e+000
    4.7294517455166354e-009 1.2247446296968902e+000
    4.7294517742811273e-009 1.2247446421117025e+000
    4.7294517637798080e-009 1.2247446375793116e+000
    4.7294516994021525e-009 1.2247446097937835e+000
    4.7294516384488328e-009 1.2247445834862072e+000
    4.7294516293172460e-009 1.2247445795449963e+000
    4.7294515519271213e-009 1.2247445461432545e+000
    4.7294513001238112e-009 1.2247444374644221e+000
    4.7294509204784148e-009 1.2247442736086829e+000
    4.7294506933304248e-009 1.2247441755711388e+000
    4.7294507638718638e-009 1.2247442060169693e+000
    4.7294512647389470e-009 1.2247444221922401e+000
    4.7294523055109444e-009 1.2247448713915914e+000
    4.7294523055109444e-009 1.2247448713915914e+000
    4.7294513024067321e-009 1.2247444384497308e+000
    4.7294508697981878e-009 1.2247442517349865e+000
    4.7294509579179113e-009 1.2247442897676428e+000
    4.7294512946448745e-009 1.2247444350996997e+000
    4.7294516393620236e-009 1.2247445838803366e+000
    4.7294517240574204e-009 1.2247446204350485e+000
    4.7294515140310525e-009 1.2247445297872341e+000
    4.7294512976126166e-009 1.2247444363805871e+000
    4.7294511878053763e-009 1.2247443889875540e+000
    4.7294511585843269e-009 1.2247443763756880e+000
    4.7294511971652450e-009 1.2247443930272928e+000
    4.7294513818514213e-009 1.2247444727382328e+000
    4.7294516042054133e-009 1.2247445687066749e+000
    4.7294516028356832e-009 1.2247445681154951e+000
    4.7294512177112981e-009 1.2247444018950120e+000
    4.7294508389790801e-009 1.2247442384334013e+000
    4.7294507193554178e-009 1.2247441868035800e+000
    4.7294511496810545e-009 1.2247443725330143e+000
    4.7294523055109444e-009 1.2247448713915914e+000
    4.7294523055109444e-009 1.2247448713915914e+000
    4.7294512514981784e-009 1.2247444164774932e+000
    4.7294508919422611e-009 1.2247442612924151e+000
    4.7294511686290756e-009 1.2247443807110203e+000
    4.7294516110541172e-009 1.2247445716625864e+000
    4.7294517398094092e-009 1.2247446272336375e+000
    4.7294513953205099e-009 1.2247444785515180e+000
    4.7294509031284197e-009 1.2247442661203884e+000
    4.7294506218758602e-009 1.2247441447311960e+000
    4.7294505664015293e-009 1.2247441207883603e+000
    4.7294505944811372e-009 1.2247441329075754e+000
    4.7294506677620495e-009 1.2247441645357680e+000
    4.7294509051830404e-009 1.2247442670071644e+000
    4.7294513056027561e-009 1.2247444398291465e+000
    4.7294516674416166e-009 1.2247445959995502e+000
    4.7294515240757978e-009 1.2247445341225660e+000
    4.7294510791395856e-009 1.2247443420871738e+000
    4.7294507942343455e-009 1.2247442191214819e+000
    4.7294511209165807e-009 1.2247443601182078e+000
    4.7294523055109444e-009 1.2247448713915914e+000
    4.7294523055109444e-009 1.2247448713915914e+000
    4.7294512355179158e-009 1.2247444095803786e+000
    4.7294509430790902e-009 1.2247442833631781e+000
    4.7294513578810481e-009 1.2247444623925661e+000
    4.7294517391245442e-009 1.2247446269380475e+000
    4.7294515633415991e-009 1.2247445510697663e+000
    4.7294509366869866e-009 1.2247442806043325e+000
    4.7294504643561854e-009 1.2247440767453739e+000
    4.7294503367424307e-009 1.2247440216670091e+000
    4.7294504371897427e-009 1.2247440650202817e+000
    4.7294504865002439e-009 1.2247440863027981e+000
    4.7294504524851369e-009 1.2247440716218048e+000
    4.7294505645752287e-009 1.2247441200001223e+000
    4.7294509558633030e-009 1.2247442888808699e+000
    4.7294514512514611e-009 1.2247445026914283e+000
    4.7294516802258237e-009 1.2247446015172416e+000
    4.7294512772948547e-009 1.2247444276113983e+000
    4.7294509102053750e-009 1.2247442691748200e+000
    4.7294511638349990e-009 1.2247443786418866e+000
    4.7294523055109444e-009 1.2247448713915914e+000
    4.7294523055109444e-009 1.2247448713915914e+000
    4.7294512489869954e-009 1.2247444153936613e+000
    4.7294510154468447e-009 1.2247443145972514e+000
    4.7294514756784313e-009 1.2247445132341606e+000
    4.7294516295455694e-009 1.2247445796435352e+000
    4.7294511636067046e-009 1.2247443785433549e+000
    4.7294505330713023e-009 1.2247441064029603e+000
    4.7294502872036302e-009 1.2247440002859606e+000
    4.7294504974581495e-009 1.2247440910322505e+000
    4.7294508636343555e-009 1.2247442490746667e+000
    4.7294509047264607e-009 1.2247442668101038e+000
    4.7294506424219257e-009 1.2247441535989174e+000
    4.7294504849022310e-009 1.2247440856130900e+000
    4.7294506926455912e-009 1.2247441752755572e+000
    4.7294512046988148e-009 1.2247443962787943e+000
    4.7294516649304278e-009 1.2247445949157167e+000
    4.7294514354994747e-009 1.2247444958928404e+000
    4.7294510188711533e-009 1.2247443160751958e+000
    4.7294512391705221e-009 1.2247444111568553e+000
    4.7294523055109444e-009 1.2247448713915914e+000
    4.7294523055109444e-009 1.2247448713915914e+000
    4.7294511857508052e-009 1.2247443881007911e+000
    4.7294509695606629e-009 1.2247442947926803e+000
    4.7294513510323632e-009 1.2247444594366594e+000
    4.7294513133645971e-009 1.2247444431791734e+000
    4.7294507928646469e-009 1.2247442185303106e+000
    4.7294503367424340e-009 1.2247440216670100e+000
    4.7294503910752996e-009 1.2247440451171896e+000
    4.7294508978777841e-009 1.2247442638541997e+000
    4.7294514195192246e-009 1.2247444889957286e+000
    4.7294514259113339e-009 1.2247444917545758e+000
    4.7294510202409329e-009 1.2247443166663883e+000
    4.7294506335186300e-009 1.2247441497562381e+000
    4.7294506207344304e-009 1.2247441442385496e+000
    4.7294510492336920e-009 1.2247443291797238e+000
    4.7294515747560753e-009 1.2247445559962777e+000
    4.7294515279567200e-009 1.2247445357975799e+000
    4.7294510668119442e-009 1.2247443367665400e+000
    4.7294512834586787e-009 1.2247444302717161e+000
    4.7294523055109444e-009 1.2247448713915914e+000
    4.7294523055109444e-009 1.2247448713915914e+000
    4.7294510127073731e-009 1.2247443134148894e+000
    4.7294507419560783e-009 1.2247441965580710e+000
    4.7294509469599784e-009 1.2247442850381829e+000
    4.7294508314455294e-009 1.2247442351819051e+000
    4.7294504682371018e-009 1.2247440784203862e+000
    4.7294502972483689e-009 1.2247440046212896e+000
    4.7294506319205998e-009 1.2247441490665256e+000
    4.7294512919053830e-009 1.2247444339173326e+000
    4.7294517605837666e-009 1.2247446361998915e+000
    4.7294517071640158e-009 1.2247446131438164e+000
    4.7294512439646070e-009 1.2247444132259915e+000
    4.7294507501745197e-009 1.2247442001051634e+000
    4.7294505901436486e-009 1.2247441310355045e+000
    4.7294509318929133e-009 1.2247442785351996e+000
    4.7294515051277759e-009 1.2247445259445591e+000
    4.7294515695054107e-009 1.2247445537300810e+000
    4.7294510875862826e-009 1.2247443457327880e+000
    4.7294512887093333e-009 1.2247444325379102e+000
    4.7294523055109444e-009 1.2247448713915914e+000
    4.7294523055109444e-009 1.2247448713915914e+000
    4.7294509786922232e-009 1.2247442987338837e+000
    4.7294506033843717e-009 1.2247441367502392e+000
    4.7294506065804007e-009 1.2247441381296558e+000
    4.7294505294186067e-009 1.2247441048264605e+000
    4.7294504442666997e-009 1.2247440680747135e+000
    4.7294505764462705e-009 1.2247441251236901e+000
    4.7294510716060341e-009 1.2247443388356773e+000
    4.7294516647021425e-009 1.2247445948171876e+000
    4.7294519302028985e-009 1.2247447094078601e+000
    4.7294517756508764e-009 1.2247446427028872e+000
    4.7294513275185599e-009 1.2247444492880506e+000
    4.7294508172916113e-009 1.2247442290730401e+000
    4.7294505999600929e-009 1.2247441352723025e+000
    4.7294508960514735e-009 1.2247442630659593e+000
    4.7294514912021158e-009 1.2247445199342153e+000
    4.7294515902797606e-009 1.2247445626963329e+000
    4.7294510832487799e-009 1.2247443438607133e+000
    4.7294512663369623e-009 1.2247444228819488e+000
    4.7294523055109444e-009 1.2247448713915914e+000
    4.7294523055109444e-009 1.2247448713915914e+000
    4.7294513069724812e-009 1.2247444404203247e+000
    4.7294509300665399e-009 1.2247442777469431e+000
    4.7294508298474503e-009 1.2247442344921800e+000
    4.7294507748297140e-009 1.2247442107464077e+000
    4.7294508394356482e-009 1.2247442386304590e+000
    4.7294510882711492e-009 1.2247443460283782e+000
    4.7294514843534069e-009 1.2247445169783024e+000
    4.7294518496166611e-009 1.2247446746266777e+000
    4.7294519135377618e-009 1.2247447022151523e+000
    4.7294517288515252e-009 1.2247446225041896e+000
    4.7294512907639582e-009 1.2247444334246873e+000
    4.7294507997133276e-009 1.2247442214862156e+000
    4.7294505958508871e-009 1.2247441334987601e+000
    4.7294509042698959e-009 1.2247442666130470e+000
    4.7294515243040914e-009 1.2247445342210972e+000
    4.7294515653962074e-009 1.2247445519565390e+000
    4.7294510588218014e-009 1.2247443333179799e+000
    4.7294512291257767e-009 1.2247444068215239e+000
    4.7294523055109444e-009 1.2247448713915914e+000
    4.7294523055109444e-009 1.2247448713915914e+000
    4.7294517624100664e-009 1.2247446369881292e+000
    4.7294515295547386e-009 1.2247445364872895e+000
    4.7294514690579986e-009 1.2247445103767745e+000
    4.7294514195191750e-009 1.2247444889957158e+000
    4.7294514354994507e-009 1.2247444958928342e+000
    4.7294515478178832e-009 1.2247445443697034e+000
    4.7294517341021269e-009 1.2247446247703702e+000
    4.7294518413982379e-009 1.2247446710795891e+000
    4.7294518375173439e-009 1.2247446694045823e+000
    4.7294516523745334e-009 1.2247445894965614e+000
    4.7294511946540885e-009 1.2247443919434677e+000
    4.7294507307699254e-009 1.2247441917300992e+000
    4.7294506047541753e-009 1.2247441373414376e+000
    4.7294509768659391e-009 1.2247442979456504e+000
    4.7294515996396269e-009 1.2247445667360712e+000
    4.7294514934850143e-009 1.2247445209195185e+000
    4.7294509859974530e-009 1.2247443018868418e+000
    4.7294511558448528e-009 1.2247443751933254e+000
    4.7294523055109444e-009 1.2247448713915914e+000
    4.7294523055109444e-009 1.2247448713915914e+000
    4.7294519891015925e-009 1.2247447348286602e+000
    4.7294519114831436e-009 1.2247447013283772e+000
    4.7294519391061834e-009 1.2247447132505376e+000
    4.7294518984706372e-009 1.2247446957121528e+000
    4.7294518224501994e-009 1.2247446629015777e+000
    4.7294517633231845e-009 1.2247446373822397e+000
    4.7294517468863373e-009 1.2247446302880625e+000
    4.7294517701719033e-009 1.2247446403381552e+000
    4.7294517635515335e-009 1.2247446374807853e+000
    4.7294515382297755e-009 1.2247445402314472e+000
    4.7294510665836986e-009 1.2247443366680213e+000
    4.7294506588587663e-009 1.2247441606930918e+000
    4.7294506540646905e-009 1.2247441586239582e+000
    4.7294511174922383e-009 1.2247443586402544e+000
    4.7294516644738531e-009 1.2247445947186573e+000
    4.7294513857323658e-009 1.2247444744132525e+000
    4.7294508627211489e-009 1.2247442486805333e+000
    4.7294510759435393e-009 1.2247443407077525e+000
    4.7294523055109444e-009 1.2247448713915914e+000
    4.7294523055109444e-009 1.2247448713915914e+000
    4.7294520569035905e-009 1.2247447640921434e+000
    4.7294520187792323e-009 1.2247447476375917e+000
    4.7294520799608481e-009 1.2247447740437016e+000
    4.7294520377272692e-009 1.2247447558156030e+000
    4.7294519219844389e-009 1.2247447058607621e+000
    4.7294517726830516e-009 1.2247446414219785e+000
    4.7294516932382962e-009 1.2247446071334571e+000
    4.7294516971192515e-009 1.2247446088084795e+000
    4.7294516742903255e-009 1.2247445989554633e+000
    4.7294514005712026e-009 1.2247444808177219e+000
    4.7294509236745034e-009 1.2247442749881152e+000
    4.7294506173100946e-009 1.2247441427605983e+000
    4.7294507545120306e-009 1.2247442019772401e+000
    4.7294512923619685e-009 1.2247444341143947e+000
    4.7294516459824091e-009 1.2247445867377105e+000
    4.7294512393987867e-009 1.2247444112553791e+000
    4.7294507198119553e-009 1.2247441870006297e+000
    4.7294509992382803e-009 1.2247443076016036e+000
    4.7294523055109444e-009 1.2247448713915914e+000
    4.7294523055109444e-009 1.2247448713915914e+000
    4.7294520890924117e-009 1.2247447779849066e+000
    4.7294520591864775e-009 1.2247447650774437e+000
    4.7294521240207318e-009 1.2247447930600392e+000
    4.7294520676332017e-009 1.2247447687230655e+000
    4.7294519149074629e-009 1.2247447028063245e+000
    4.7294517325040917e-009 1.2247446240806563e+000
    4.7294516382205193e-009 1.2247445833876707e+000
    4.7294516217837118e-009 1.2247445762935039e+000
    4.7294515425672748e-009 1.2247445421035212e+000
    4.7294512124606641e-009 1.2247443996288234e+000
    4.7294507889837338e-009 1.2247442168552991e+000
    4.7294506321489033e-009 1.2247441491650595e+000
    4.7294509218481763e-009 1.2247442741998706e+000
    4.7294515208797324e-009 1.2247445327431394e+000
    4.7294515192817328e-009 1.2247445320534351e+000
    4.7294510095112754e-009 1.2247443120354549e+000
    4.7294505743915928e-009 1.2247441242368995e+000
    4.7294509446771039e-009 1.2247442840528859e+000
    4.7294523055109444e-009 1.2247448713915914e+000
    4.7294523055109444e-009 1.2247448713915914e+000
    4.7294520854397765e-009 1.2247447764084221e+000
    4.7294520610127889e-009 1.2247447658656843e+000
    4.7294521329240225e-009 1.2247447969027183e+000
    4.7294520669483326e-009 1.2247447684274746e+000
    4.7294518904804819e-009 1.2247446922635887e+000
    4.7294516959777712e-009 1.2247446083158200e+000
    4.7294515854856443e-009 1.2247445606271887e+000
    4.7294515263586989e-009 1.2247445351078698e+000
    4.7294513569679102e-009 1.2247444619984502e+000
    4.7294510092830315e-009 1.2247443119369366e+000
    4.7294507022337453e-009 1.2247441794138247e+000
    4.7294507291719002e-009 1.2247441910403880e+000
    4.7294511515073551e-009 1.2247443733212520e+000
    4.7294516115106704e-009 1.2247445718596401e+000
    4.7294512720442008e-009 1.2247444253452044e+000
    4.7294507533704966e-009 1.2247442014845666e+000
    4.7294504684653118e-009 1.2247440785188959e+000
    4.7294509622553991e-009 1.2247442916397135e+000
    4.7294523055109444e-009 1.2247448713915914e+000
    4.7294523055109444e-009 1.2247448713915914e+000
    4.7294520872660887e-009 1.2247447771966629e+000
    4.7294520603279164e-009 1.2247447655700927e+000
    4.7294521226509910e-009 1.2247447924688568e+000
    4.7294520457174029e-009 1.2247447592641616e+000
    4.7294518580633680e-009 1.2247446782722948e+000
    4.7294516521461827e-009 1.2247445893980156e+000
    4.7294515106066869e-009 1.2247445283092748e+000
    4.7294513772856581e-009 1.2247444707676354e+000
    4.7294511213731662e-009 1.2247443603152699e+000
    4.7294508202593641e-009 1.2247442303539300e+000
    4.7294506972113751e-009 1.2247441772461598e+000
    4.7294509175106736e-009 1.2247442723277959e+000
    4.7294514277376039e-009 1.2247444925428057e+000
    4.7294514772764433e-009 1.2247445139238684e+000
    4.7294509378283966e-009 1.2247442810969740e+000
    4.7294505143514664e-009 1.2247440983234583e+000
    4.7294504819344013e-009 1.2247440843321802e+000
    4.7294510948915745e-009 1.2247443488857623e+000
    4.7294523055109444e-009 1.2247448713915914e+000
    4.7294523055109444e-009 1.2247448713915914e+000
    4.7294520765364759e-009 1.2247447725657403e+000
    4.7294520486851425e-009 1.2247447605450483e+000
    4.7294520968542692e-009 1.2247447813349384e+000
    4.7294520160397607e-009 1.2247447464552295e+000
    4.7294518187975684e-009 1.2247446613250941e+000
    4.7294516092277537e-009 1.2247445708743323e+000
    4.7294514215737832e-009 1.2247444898824884e+000
    4.7294511839244715e-009 1.2247443873125448e+000
    4.7294508935402822e-009 1.2247442619821252e+000
    4.7294507143330633e-009 1.2247441846359193e+000
    4.7294508134106933e-009 1.2247442273980274e+000
    4.7294511996764247e-009 1.2247443941111240e+000
    4.7294515169987921e-009 1.2247445310681209e+000
    4.7294511405494528e-009 1.2247443685918000e+000
    4.7294505931113336e-009 1.2247441323163770e+000
    4.7294503901620417e-009 1.2247440447230429e+000
    4.7294506513251560e-009 1.2247441574415801e+000
    4.7294513396178870e-009 1.2247444545101480e+000
    4.7294523055109444e-009 1.2247448713915914e+000
    4.7294523055109444e-009 1.2247448713915914e+000
    4.7294520610127831e-009 1.2247447658656827e+000
    4.7294520094193371e-009 1.2247447435978456e+000
    4.7294520653503081e-009 1.2247447677377634e+000
    4.7294519895581714e-009 1.2247447350257208e+000
    4.7294517859238772e-009 1.2247446471367405e+000
    4.7294515519270898e-009 1.2247445461432462e+000
    4.7294512775231242e-009 1.2247444277099233e+000
    4.7294509522106703e-009 1.2247442873043866e+000
    4.7294507239212256e-009 1.2247441887741890e+000
    4.7294507641001591e-009 1.2247442061155012e+000
    4.7294510734323703e-009 1.2247443396239241e+000
    4.7294514688297092e-009 1.2247445102782444e+000
    4.7294513339106154e-009 1.2247444520468838e+000
    4.7294507478915905e-009 1.2247441991198527e+000
    4.7294503410798366e-009 1.2247440235390585e+000
    4.7294504755422953e-009 1.2247440815733344e+000
    4.7294509798336547e-009 1.2247442992265307e+000
    4.7294516078580443e-009 1.2247445702831581e+000
    4.7294523055109444e-009 1.2247448713915914e+000
    4.7294523055109444e-009 1.2247448713915914e+000
    4.7294520438910659e-009 1.2247447584759141e+000
    4.7294519888732758e-009 1.2247447347301230e+000
    4.7294520377272717e-009 1.2247447558156037e+000
    4.7294519598805308e-009 1.2247447222167893e+000
    4.7294517507672917e-009 1.2247446319630848e+000
    4.7294514450876131e-009 1.2247445000311044e+000
    4.7294510496902485e-009 1.2247443293767781e+000
    4.7294507204968981e-009 1.2247441872962397e+000
    4.7294506636528156e-009 1.2247441627622182e+000
    4.7294509506126343e-009 1.2247442866146725e+000
    4.7294513816231575e-009 1.2247444726397092e+000
    4.7294515167704977e-009 1.2247445309695895e+000
    4.7294509770941739e-009 1.2247442980441663e+000
    4.7294504086535270e-009 1.2247440527039986e+000
    4.7294502835509255e-009 1.2247439987094586e+000
    4.7294507234646079e-009 1.2247441885771184e+000
    4.7294513355086473e-009 1.2247444527365967e+000
    4.7294518080679646e-009 1.2247446566941742e+000
    4.7294523055109444e-009 1.2247448713915914e+000
    4.7294523055109444e-009 1.2247448713915914e+000
    4.7294520327048791e-009 1.2247447536479323e+000
    4.7294519722081400e-009 1.2247447275374157e+000
    4.7294520128437110e-009 1.2247447450758071e+000
    4.7294519272351291e-009 1.2247447081269656e+000
    4.7294516699528063e-009 1.2247445970833841e+000
    4.7294512590316927e-009 1.2247444197289803e+000
    4.7294507839613545e-009 1.2247442146876317e+000
    4.7294505460837914e-009 1.2247441120191789e+000
    4.7294507200403068e-009 1.2247441870991760e+000
    4.7294512366593316e-009 1.2247444100730214e+000
    4.7294516368508249e-009 1.2247445827965004e+000
    4.7294513172454812e-009 1.2247444448541775e+000
    4.7294505933396511e-009 1.2247441324149144e+000
    4.7294501988555990e-009 1.2247439621547738e+000
    4.7294504278298252e-009 1.2247440609805307e+000
    4.7294510658987873e-009 1.2247443363724195e+000
    4.7294516468955380e-009 1.2247445871318239e+000
    4.7294519212995846e-009 1.2247447055651750e+000
    4.7294523055109444e-009 1.2247448713915914e+000
    4.7294523055109444e-009 1.2247448713915914e+000
    4.7294520164963247e-009 1.2247447466522861e+000
    4.7294519459548451e-009 1.2247447162064384e+000
    4.7294519795134368e-009 1.2247447306903914e+000
    4.7294518674232707e-009 1.2247446823120429e+000
    4.7294515336639684e-009 1.2247445382608382e+000
    4.7294510074567135e-009 1.2247443111486942e+000
    4.7294505481383980e-009 1.2247441129059509e+000
    4.7294505065897271e-009 1.2247440949734580e+000
    4.7294509234461982e-009 1.2247442748895809e+000
    4.7294515537534525e-009 1.2247445469315001e+000
    4.7294516927817595e-009 1.2247446069364074e+000
    4.7294509791487872e-009 1.2247442989309403e+000
    4.7294502842358261e-009 1.2247439990050575e+000
    4.7294501742003559e-009 1.2247439515135179e+000
    4.7294507040600203e-009 1.2247441802020558e+000
    4.7294514202040582e-009 1.2247444892913102e+000
    4.7294518377455937e-009 1.2247446695031023e+000
    4.7294519806548758e-009 1.2247447311830404e+000
    4.7294523055109444e-009 1.2247448713915914e+000
    4.7294523055109444e-009 1.2247448713915914e+000
    4.7294520023423727e-009 1.2247447405434109e+000
    4.7294519199298380e-009 1.2247447049739912e+000
    4.7294519242673672e-009 1.2247447068460731e+000
    4.7294517751942950e-009 1.2247446425058262e+000
    4.7294513460100013e-009 1.2247444572689963e+000
    4.7294507867008303e-009 1.2247442158699948e+000
    4.7294504513436972e-009 1.2247440711291557e+000
    4.7294506319206081e-009 1.2247441490665278e+000
    4.7294512327784161e-009 1.2247444083980092e+000
    4.7294518082962772e-009 1.2247446567927103e+000
    4.7294514670034317e-009 1.2247445094900127e+000
    4.7294506168534652e-009 1.2247441425635246e+000
    4.7294501016043442e-009 1.2247439201809271e+000
    4.7294503114022796e-009 1.2247440107301524e+000
    4.7294510337099802e-009 1.2247443224796621e+000
    4.7294517174370117e-009 1.2247446175776684e+000
    4.7294519133094500e-009 1.2247447021166165e+000
    4.7294520352160795e-009 1.2247447547317691e+000
    4.7294523055109444e-009 1.2247448713915914e+000
    4.7294523055109444e-009 1.2247448713915914e+000
    4.7294519795134186e-009 1.2247447306903867e+000
    4.7294518772396926e-009 1.2247446865488361e+000
    4.7294518375173414e-009 1.2247446694045816e+000
    4.7294516379922861e-009 1.2247445832891550e+000
    4.7294511421475004e-009 1.2247443692815170e+000
    4.7294506296377137e-009 1.2247441480812258e+000
    4.7294504828476318e-009 1.2247440847263198e+000
    4.7294508695698958e-009 1.2247442516364557e+000
    4.7294515672225279e-009 1.2247445527447820e+000
    4.7294518028173282e-009 1.2247446544279847e+000
    4.7294510958047256e-009 1.2247443492798813e+000
    4.7294503324048842e-009 1.2247440197949235e+000
    4.7294501219221094e-009 1.2247439289501147e+000
    4.7294505864910026e-009 1.2247441294590178e+000
    4.7294513482928734e-009 1.2247444582542926e+000
    4.7294518564653527e-009 1.2247446775825861e+000
    4.7294519722081606e-009 1.2247447275374210e+000
    4.7294520706009645e-009 1.2247447700039584e+000
    4.7294523055109444e-009 1.2247448713915914e+000
    4.7294523055109444e-009 1.2247448713915914e+000
    4.7294519530318343e-009 1.2247447192608794e+000
    4.7294518181127067e-009 1.2247446610295054e+000
    4.7294517393528411e-009 1.2247446270365798e+000
    4.7294514599264632e-009 1.2247445064355771e+000
    4.7294509433073846e-009 1.2247442834617095e+000
    4.7294505504212949e-009 1.2247441138912536e+000
    4.7294506118311439e-009 1.2247441403958725e+000
    4.7294511677159120e-009 1.2247443803168980e+000
    4.7294517799883691e-009 1.2247446445749595e+000
    4.7294514998771228e-009 1.2247445236783654e+000
    4.7294507287152799e-009 1.2247441908433168e+000
    4.7294501794510155e-009 1.2247439537797129e+000
    4.7294502947371644e-009 1.2247440035374522e+000
    4.7294509213915792e-009 1.2247442740028054e+000
    4.7294516137935681e-009 1.2247445728449431e+000
    4.7294519621634260e-009 1.2247447232020916e+000
    4.7294520320200274e-009 1.2247447533523461e+000
    4.7294520906904444e-009 1.2247447786746199e+000
    4.7294523055109444e-009 1.2247448713915914e+000
    4.7294523055109444e-009 1.2247448713915914e+000
    4.7294519240390629e-009 1.2247447067475388e+000
    4.7294517519087430e-009 1.2247446324557369e+000
    4.7294515895949130e-009 1.2247445624007476e+000
    4.7294512378007846e-009 1.2247444105656740e+000
    4.7294507853310887e-009 1.2247442152788124e+000
    4.7294505773594465e-009 1.2247441255178155e+000
    4.7294508394356879e-009 1.2247442386304692e+000
    4.7294514962244661e-009 1.2247445221018756e+000
    4.7294517167521649e-009 1.2247446172820833e+000
    4.7294511106435277e-009 1.2247443556843414e+000
    4.7294504554528534e-009 1.2247440729026853e+000
    4.7294502333273146e-009 1.2247439770328346e+000
    4.7294506152554664e-009 1.2247441418738205e+000
    4.7294512585751006e-009 1.2247444195319164e+000
    4.7294517886633472e-009 1.2247446483191022e+000
    4.7294520258562149e-009 1.2247447506920308e+000
    4.7294520717424117e-009 1.2247447704966095e+000
    4.7294521126062448e-009 1.2247447881335245e+000
    4.7294523055109444e-009 1.2247448713915914e+000
    4.7294523055109444e-009 1.2247448713915914e+000
    4.7294518980140575e-009 1.2247446955150920e+000
    4.7294516471238539e-009 1.2247445872303608e+000
    4.7294513861889620e-009 1.2247444746103175e+000
    4.7294510254915661e-009 1.2247443189325766e+000
    4.7294507052014964e-009 1.2247441806947144e+000
    4.7294507079409904e-009 1.2247441818770819e+000
    4.7294511439737994e-009 1.2247443700697542e+000
    4.7294516532876531e-009 1.2247445898906726e+000
    4.7294513820797372e-009 1.2247444728367698e+000
    4.7294507638718415e-009 1.2247442060169635e+000
    4.7294503575167078e-009 1.2247440306332404e+000
    4.7294504490607846e-009 1.2247440701438490e+000
    4.7294509734415718e-009 1.2247442964676907e+000
    4.7294515313810360e-009 1.2247445372755263e+000
    4.7294518783811399e-009 1.2247446870414871e+000
    4.7294520660351781e-009 1.2247447680333545e+000
    4.7294520868095247e-009 1.2247447769996065e+000
    4.7294521169437475e-009 1.2247447900055994e+000
    4.7294523055109444e-009 1.2247448713915914e+000
    4.7294523055109444e-009 1.2247448713915914e+000
    4.7294518297554864e-009 1.2247446660545509e+000
    4.7294514813856698e-009 1.2247445156974164e+000
    4.7294511578994710e-009 1.2247443760801007e+000
    4.7294508764185452e-009 1.2247442545923528e+000
    4.7294507558817524e-009 1.2247442025684174e+000
    4.7294509663646264e-009 1.2247442934132617e+000
    4.7294514731672144e-009 1.2247445121503198e+000
    4.7294515669942112e-009 1.2247445526462446e+000
    4.7294509974119764e-009 1.2247443068133650e+000
    4.7294505335278200e-009 1.2247441066000047e+000
    4.7294504358199771e-009 1.2247440644290930e+000
    4.7294507885271409e-009 1.2247442166582350e+000
    4.7294513227244510e-009 1.2247444472189084e+000
    4.7294517083054076e-009 1.2247446136364530e+000
    4.7294519066890422e-009 1.2247446992592366e+000
    4.7294520676332067e-009 1.2247447687230668e+000
    4.7294520797325504e-009 1.2247447739451691e+000
    4.7294521021049264e-009 1.2247447836011331e+000
    4.7294523055109444e-009 1.2247448713915914e+000
    4.7294523055109444e-009 1.2247448713915914e+000
    4.7294517208613790e-009 1.2247446190556281e+000
    4.7294512843718323e-009 1.2247444306658359e+000
    4.7294509709303962e-009 1.2247442953838608e+000
    4.7294508355547343e-009 1.2247442369554473e+000
    4.7294509296100181e-009 1.2247442775498976e+000
    4.7294513035481545e-009 1.2247444389423756e+000
    4.7294516046619681e-009 1.2247445689037288e+000
    4.7294512252448554e-009 1.2247444051465102e+000
    4.7294506826008459e-009 1.2247441709402260e+000
    4.7294504785100836e-009 1.2247440828542335e+000
    4.7294506780350512e-009 1.2247441689696208e+000
    4.7294511492244690e-009 1.2247443723359521e+000
    4.7294515398277585e-009 1.2247445409211475e+000
    4.7294517306777886e-009 1.2247446232924180e+000
    4.7294518900239129e-009 1.2247446920665310e+000
    4.7294520491417545e-009 1.2247447607421174e+000
    4.7294520667200464e-009 1.2247447683289454e+000
    4.7294520927450552e-009 1.2247447795613933e+000
    4.7294523055109444e-009 1.2247448713915914e+000
    4.7294523055109444e-009 1.2247448713915914e+000
    4.7294515674508223e-009 1.2247445528433134e+000
    4.7294510649856494e-009 1.2247443359783039e+000
    4.7294508348698867e-009 1.2247442366598622e+000
    4.7294509131731510e-009 1.2247442704557163e+000
    4.7294512181678993e-009 1.2247444020920781e+000
    4.7294516021508132e-009 1.2247445678199040e+000
    4.7294514745369502e-009 1.2247445127415006e+000
    4.7294508636343778e-009 1.2247442490746725e+000
    4.7294505100140662e-009 1.2247440964514102e+000
    4.7294506298659799e-009 1.2247441481797501e+000
    4.7294510378192199e-009 1.2247443242532137e+000
    4.7294514023975074e-009 1.2247444816059607e+000
    4.7294515606021068e-009 1.2247445498873988e+000
    4.7294516261212021e-009 1.2247445781655755e+000
    4.7294517845541546e-009 1.2247446465455629e+000
    4.7294519607936952e-009 1.2247447226109118e+000
    4.7294520066798944e-009 1.2247447424154909e+000
    4.7294520502831967e-009 1.2247447612347671e+000
    4.7294523055109444e-009 1.2247448713915914e+000
    4.7294523055109444e-009 1.2247448713915914e+000
    4.7294514005712026e-009 1.2247444808177219e+000
    4.7294508839521174e-009 1.2247442578438545e+000
    4.7294508122692370e-009 1.2247442269053741e+000
    4.7294511184053820e-009 1.2247443590343716e+000
    4.7294515761258285e-009 1.2247445565874633e+000
    4.7294517462015103e-009 1.2247446299924827e+000
    4.7294511951106475e-009 1.2247443921405230e+000
    4.7294506743824557e-009 1.2247441673931470e+000
    4.7294506011015525e-009 1.2247441357649567e+000
    4.7294509693323908e-009 1.2247442946941547e+000
    4.7294513355087044e-009 1.2247444527366114e+000
    4.7294514007994813e-009 1.2247444809162493e+000
    4.7294513603922262e-009 1.2247444634763966e+000
    4.7294514126705273e-009 1.2247444860398189e+000
    4.7294515711034567e-009 1.2247445544197977e+000
    4.7294517306778382e-009 1.2247446232924308e+000
    4.7294517941423244e-009 1.2247446506838353e+000
    4.7294518868278790e-009 1.2247446906871127e+000
    4.7294523055109444e-009 1.2247448713915914e+000
    4.7294523055109444e-009 1.2247448713915914e+000
    4.7294512517264604e-009 1.2247444165760215e+000
    4.7294507636435843e-009 1.2247442059184419e+000
    4.7294508784731766e-009 1.2247442554791315e+000
    4.7294513526304001e-009 1.2247444601263737e+000
    4.7294518612594557e-009 1.2247446796517272e+000
    4.7294516936949272e-009 1.2247446073305308e+000
    4.7294510403304162e-009 1.2247443253370489e+000
    4.7294507264324426e-009 1.2247441898580296e+000
    4.7294508743639973e-009 1.2247442537055957e+000
    4.7294512021876549e-009 1.2247443951949684e+000
    4.7294512647389668e-009 1.2247444221922452e+000
    4.7294511010554068e-009 1.2247443515460821e+000
    4.7294510206975085e-009 1.2247443168634478e+000
    4.7294510631593529e-009 1.2247443351900671e+000
    4.7294511864356620e-009 1.2247443883963787e+000
    4.7294512923619685e-009 1.2247444341143947e+000
    4.7294513562830179e-009 1.2247444617028533e+000
    4.7294515284133096e-009 1.2247445359946432e+000
    4.7294523055109444e-009 1.2247448713915914e+000
    4.7294523055109444e-009 1.2247448713915914e+000
    4.7294511617804089e-009 1.2247443777551186e+000
    4.7294507373903027e-009 1.2247441945874704e+000
    4.7294510348514530e-009 1.2247443229723201e+000
    4.7294515964435987e-009 1.2247445653566547e+000
    4.7294520247147760e-009 1.2247447501993820e+000
    4.7294516523745350e-009 1.2247445894965618e+000
    4.7294511410060714e-009 1.2247443687888706e+000
    4.7294509410245067e-009 1.2247442824764116e+000
    4.7294509663646488e-009 1.2247442934132675e+000
    4.7294509933027954e-009 1.2247443050398290e+000
    4.7294508716245107e-009 1.2247442525232299e+000
    4.7294507001791560e-009 1.2247441785270570e+000
    4.7294506442482462e-009 1.2247441543871602e+000
    4.7294506999508649e-009 1.2247441784285265e+000
    4.7294508102146378e-009 1.2247442260186037e+000
    4.7294508622646130e-009 1.2247442484834841e+000
    4.7294508942251274e-009 1.2247442622777096e+000
    4.7294511202316950e-009 1.2247443598226126e+000
    4.7294523055109444e-009 1.2247448713915914e+000
    4.7294523055109444e-009 1.2247448713915914e+000
    4.7294511332442279e-009 1.2247443654388432e+000
    4.7294507645567462e-009 1.2247442063125638e+000
    4.7294511738797377e-009 1.2247443829772162e+000
    4.7294517288515194e-009 1.2247446225041880e+000
    4.7294520374989905e-009 1.2247447557170756e+000
    4.7294517299929773e-009 1.2247446229968419e+000
    4.7294512971560716e-009 1.2247444361835353e+000
    4.7294510028909412e-009 1.2247443091780945e+000
    4.7294508392074208e-009 1.2247442385319449e+000
    4.7294507752863690e-009 1.2247442109434878e+000
    4.7294506784916442e-009 1.2247441691666847e+000
    4.7294505495081429e-009 1.2247441134971342e+000
    4.7294505205153847e-009 1.2247441009838000e+000
    4.7294505837515467e-009 1.2247441282766598e+000
    4.7294506577173025e-009 1.2247441602004363e+000
    4.7294506855685904e-009 1.2247441722211139e+000
    4.7294506561192649e-009 1.2247441595107220e+000
    4.7294509165975150e-009 1.2247442719336750e+000
    4.7294523055109444e-009 1.2247448713915914e+000
    4.7294523055109444e-009 1.2247448713915914e+000
    4.7294511346139629e-009 1.2247443660300239e+000
    4.7294507997133202e-009 1.2247442214862139e+000
    4.7294512562922335e-009 1.2247444185466214e+000
    4.7294517715416466e-009 1.2247446409293381e+000
    4.7294520153548957e-009 1.2247447461596397e+000
    4.7294518398002408e-009 1.2247446703898852e+000
    4.7294515124330512e-009 1.2247445290975292e+000
    4.7294512097211784e-009 1.2247443984464577e+000
    4.7294510503751450e-009 1.2247443296723761e+000
    4.7294510444396212e-009 1.2247443271105913e+000
    4.7294510327968497e-009 1.2247443220855485e+000
    4.7294509439922546e-009 1.2247442837573004e+000
    4.7294509277836902e-009 1.2247442767616528e+000
    4.7294509707021159e-009 1.2247442952853329e+000
    4.7294510140771106e-009 1.2247443140060708e+000
    4.7294509439922413e-009 1.2247442837572970e+000
    4.7294507917231864e-009 1.2247442180376562e+000
    4.7294510268613309e-009 1.2247443195237651e+000
    4.7294523055109444e-009 1.2247448713915914e+000
    4.7294523055109444e-009 1.2247448713915914e+000
    4.7294511400929070e-009 1.2247443683947481e+000
    4.7294508083883198e-009 1.2247442252303615e+000
    4.7294512435080231e-009 1.2247444130289296e+000
    4.7294517012284606e-009 1.2247446105820232e+000
    4.7294519630765706e-009 1.2247447235962090e+000
    4.7294519167338049e-009 1.2247447035945731e+000
    4.7294517325041331e-009 1.2247446240806672e+000
    4.7294515770389524e-009 1.2247445569815754e+000
    4.7294515418823767e-009 1.2247445418079228e+000
    4.7294516053468754e-009 1.2247445691993297e+000
    4.7294516224685868e-009 1.2247445765890963e+000
    4.7294515441652720e-009 1.2247445427932251e+000
    4.7294515046711771e-009 1.2247445257474936e+000
    4.7294515322942227e-009 1.2247445376696546e+000
    4.7294515142593626e-009 1.2247445298857698e+000
    4.7294513528586771e-009 1.2247444602249005e+000
    4.7294510620178800e-009 1.2247443346974094e+000
    4.7294512592600053e-009 1.2247444198275166e+000
    4.7294523055109444e-009 1.2247448713915914e+000
    4.7294523055109444e-009 1.2247448713915914e+000
    4.7294511302764528e-009 1.2247443641579472e+000
    4.7294507791672663e-009 1.2247442126184951e+000
    4.7294511213731621e-009 1.2247443603152688e+000
    4.7294514569586773e-009 1.2247445051546786e+000
    4.7294516619626452e-009 1.2247445936348187e+000
    4.7294517149258262e-009 1.2247446164938356e+000
    4.7294516781712096e-009 1.2247446006304674e+000
    4.7294516452975102e-009 1.2247445864421120e+000
    4.7294516809106871e-009 1.2247446018128310e+000
    4.7294517423205914e-009 1.2247446283174694e+000
    4.7294517530501985e-009 1.2247446329483902e+000
    4.7294516758883218e-009 1.2247445996451671e+000
    4.7294516302304038e-009 1.2247445799391172e+000
    4.7294516270343632e-009 1.2247445785596971e+000
    4.7294515987264700e-009 1.2247445663419505e+000
    4.7294514179211795e-009 1.2247444883060121e+000
    4.7294510937501264e-009 1.2247443483931111e+000
    4.7294512877961971e-009 1.2247444321437950e+000
    4.7294523055109444e-009 1.2247448713915914e+000
    4.7294523055109444e-009 1.2247448713915914e+000
    4.7294511916863199e-009 1.2247443906625737e+000
    4.7294508492521157e-009 1.2247442428672630e+000
    4.7294510743455355e-009 1.2247443400180469e+000
    4.7294512887093309e-009 1.2247444325379095e+000
    4.7294513962336495e-009 1.2247444789456341e+000
    4.7294513957770689e-009 1.2247444787485733e+000
    4.7294513594790502e-009 1.2247444630822713e+000
    4.7294513494343156e-009 1.2247444587469423e+000
    4.7294513893849836e-009 1.2247444759897324e+000
    4.7294514357277576e-009 1.2247444959913687e+000
    4.7294514343580126e-009 1.2247444954001854e+000
    4.7294513747744478e-009 1.2247444696837964e+000
    4.7294513366501003e-009 1.2247444532292491e+000
    4.7294513405310258e-009 1.2247444549042639e+000
    4.7294513327691897e-009 1.2247444515542383e+000
    4.7294512259297221e-009 1.2247444054421004e+000
    4.7294510401021044e-009 1.2247443252385131e+000
    4.7294512546942231e-009 1.2247444178569142e+000
    4.7294523055109444e-009 1.2247448713915914e+000
    4.7294523055109444e-009 1.2247448713915914e+000
    4.7294523055109444e-009 1.2247448713915914e+000
    4.7294523055109444e-009 1.2247448713915914e+000
    4.7294523055109444e-009 1.2247448713915914e+000
    4.7294523055109444e-009 1.2247448713915914e+000
    4.7294523055109444e-009 1.2247448713915914e+000
    4.7294523055109444e-009 1.2247448713915914e+000
    4.7294523055109444e-009 1.2247448713915914e+000
    4.7294523055109444e-009 1.2247448713915914e+000
    4.7294523055109444e-009 1.2247448713915914e+000
    4.7294523055109444e-009 1.2247448713915914e+000
    4.7294523055109444e-009 1.2247448713915914e+000
    4.7294523055109444e-009 1.2247448713915914e+000
    4.7294523055109444e-009 1.2247448713915914e+000
    4.7294523055109444e-009 1.2247448713915914e+000
    4.7294523055109444e-009 1.2247448713915914e+000
    4.7294523055109444e-009 1.2247448713915914e+000
    4.7294523055109444e-009 1.2247448713915914e+000
    4.7294523055109444e-009 1.2247448713915914e+000
    4.7294523055109444e-009 1.2247448713915914e+000</input_scale>
  <output_scale>
    5.2631578947368418e-001 4.9999999999999994e-001
    5.2631578947368418e-001 4.9999999999999994e-001
    5.2631578947368418e-001 4.9999999999999994e-001</output_scale>
  <inv_output_scale>
    1.8999999999999999e+000 -9.4999999999999996e-001
    1.8999999999999999e+000 -9.4999999999999996e-001
    1.8999999999999999e+000 -9.4999999999999996e-001</inv_output_scale>
  <weights>
    <_>
      7.8126376376574574e-002 6.7113462118440284e-002
      3.0241767052412598e-002 4.5382908629425601e-002
      -2.8636171952793065e-002 2.8509239480621420e-002
      8.1019817315092058e-002 7.0071765631936761e-002
      2.9049998739129779e-002 4.6315173317410349e-002
      -2.7672260362727522e-002 3.0431813023208697e-002
      7.9249342890306607e-002 6.8451616591637690e-002
      2.7627713416373403e-002 4.4120160476589683e-002
      -2.8819007834395383e-002 3.0904003352120572e-002
      7.8083799646668506e-002 6.9568790921708215e-002
      3.1189495909992000e-002 4.6811606176119694e-002
      -2.8156153324186157e-002 3.1378736328373520e-002
      7.8327409228342859e-002 6.7654041431621112e-002
      2.8165077221323904e-002 4.3633717937049690e-002
      -2.9255057711798694e-002 2.6726537614138259e-002
      7.8890786120020817e-002 7.0809892513466283e-002
      3.0409334277682460e-002 4.6879528626449993e-002
      -2.8028474766158443e-002 2.8938677336773914e-002
      8.2429466274979879e-002 6.7526324031910376e-002
      3.1260683420550751e-002 4.5466767685057197e-002
      -2.8412877223409617e-002 2.8428725552014204e-002
      7.9183181563448987e-002 6.7998352884261912e-002
      3.1907933302749845e-002 4.3543375160825321e-002
      -3.1799061015401378e-002 3.1039213584557284e-002
      7.9015420817291918e-002 6.9471201307470865e-002
      2.8966356429046120e-002 4.3937465707598593e-002
      -3.1565964488923813e-002 2.8550968933854819e-002
      8.2334878060183581e-002 7.0934363561220751e-002
      2.8294752816215352e-002 4.6246485141557235e-002
      -2.7059109630319923e-002 2.8958008147972180e-002
      8.2488794413178190e-002 6.9203377174879482e-002
      3.0458214915794972e-002 4.7419492245118135e-002
      -3.0802125503844164e-002 2.7940373346023169e-002
      8.0791014031773994e-002 6.7104442328304981e-002
      2.7900552418864927e-002 4.4585590443598139e-002
      -2.8262876847549020e-002 3.1441664542907907e-002
      7.8770551224158242e-002 6.7670769709531495e-002
      3.0413869484761283e-002 4.5504358283976531e-002
      -3.0744776050931916e-002 2.9041554997378771e-002
      7.8984631654465690e-002 6.8614188876342089e-002
      3.1814229492192335e-002 4.6587000700203628e-002
      -2.7726565103178381e-002 2.7209244365516198e-002
      7.9353250952513082e-002 6.7312614065019594e-002
      3.1251680487415744e-002 4.4659755915680832e-002
      -3.1527997464763056e-002 2.7447348892402527e-002
      7.8745808316455099e-002 7.0533644812861090e-002
      3.1629828941400311e-002 4.7605787637489044e-002
      -2.7016815361818398e-002 3.0631956919173673e-002
      7.9106869592361503e-002 7.0381223019220340e-002
      2.7663832407604061e-002 4.3944514008725594e-002
      -3.1922703280873439e-002 2.7653187384260963e-002
      8.0436236907518222e-002 6.6315268454423315e-002
      3.0282834376185546e-002 4.6972029626020984e-002
      -2.7479341019000857e-002 2.8257877276774496e-002
      7.9385876040228412e-002 6.6198836988552640e-002
      3.1759984641618270e-002 4.5433923634934571e-002
      -3.1892582725170843e-002 2.9837836749373663e-002
      7.9700604479706477e-002 6.6583400978375770e-002
      2.7506109097212066e-002 4.5569781970264858e-002
      -2.8412631010669025e-002 2.8180822329719944e-002
      8.1997002670427435e-002 6.9680759037142465e-002
      3.1623285231735757e-002 4.4358162351814251e-002
      -2.7428284123996369e-002 3.0143529921499285e-002
      7.8990038138472440e-002 6.6690713978637031e-002
      2.7617645564812880e-002 4.3090990587900134e-002
      -2.9133287687990152e-002 2.9685032617914626e-002
      7.9789920841021114e-002 6.9515061922307483e-002
      2.8449952861906314e-002 4.3421378832852624e-002
      -2.9884720687747290e-002 2.9450633524383943e-002
      7.8589939526816477e-002 7.0348902560562393e-002
      2.9168450390872264e-002 4.6702543372184289e-002
      -2.7209828784028150e-002 2.9910795062403017e-002
      8.2222907746899915e-002 6.6538690676462009e-002
      3.0411429992814008e-002 4.3870493590362054e-002
      -3.0294606980102147e-002 2.6962425333754637e-002
      7.8149558256873308e-002 7.0049814602795649e-002
      3.1345743749577319e-002 4.5541526074782991e-002
      -2.7104512645937752e-002 2.7974486441819085e-002
      7.8352054697116688e-002 6.7798122160626487e-002
      2.9344617164704313e-002 4.6558153257638867e-002
      -2.8068245471013303e-002 2.6858171502131104e-002
      7.8122295810862677e-002 6.7064570934172826e-002
      2.7695861429577383e-002 4.3285428387839726e-002
      -3.1838121015225117e-002 2.9615430336034042e-002
      8.2432242107457782e-002 6.9964380378150129e-002
      2.8675470081270138e-002 4.6428222306685411e-002
      -3.0443781697615413e-002 2.7715655487670181e-002
      7.8407046434556996e-002 6.9076952029313965e-002
      3.0155321210559444e-002 4.7414295652686900e-002
      -2.7711369726434593e-002 2.9673309925456092e-002
      7.8437203137368142e-002 6.9112572749979409e-002
      2.8466085731539480e-002 4.3905768475498687e-002
      -3.1447973289502718e-002 2.8926193226563056e-002
      8.1594182532221088e-002 6.7356294351922960e-002
      2.9150798176368731e-002 4.3443886474376761e-002
      -3.1275752651669035e-002 2.9993270440797984e-002
      8.0079673096149467e-002 6.6702199644348065e-002
      3.0534952384463809e-002 4.4497296989535889e-002
      -2.9073434769199616e-002 2.8059824429439443e-002
      8.1528804937438928e-002 6.7315694722791031e-002
      3.0290449481429668e-002 4.7668824409053699e-002
      -2.8349512130248465e-002 2.7709132587801590e-002
      8.0895308207536820e-002 6.8033379643630279e-002
      3.1435338385218392e-002 4.4472459527998255e-002
      -2.8390989852644207e-002 3.0558572197580115e-002
      7.8630086642233823e-002 6.9963149219029491e-002
      2.7149869166780884e-002 4.5958372542048279e-002
      -2.8608090548241396e-002 2.9361785401917091e-002
      7.9578780370142640e-002 6.7659892103009031e-002
      2.7675455839819701e-002 4.4071103820466799e-002
      -3.1103460417309318e-002 3.1681589154697723e-002
      8.2540464094055327e-002 6.7519607674973336e-002
      3.1359360222805173e-002 4.3788936241453559e-002
      -2.9423726774264851e-002 3.0667475337611164e-002
      8.1468499636139419e-002 6.8066627769371973e-002
      2.9066409235113614e-002 4.5176233243277443e-002
      -3.0915553386947674e-002 2.8556938646906498e-002
      8.2224264598091526e-002 6.6430462293306389e-002
      2.9924529848861490e-002 4.3777772254752476e-002
      -2.7679884655326645e-002 2.8893754511886253e-002
      7.8055318391436063e-002 6.7262660866691443e-002
      3.1630325846899482e-002 4.4375243509070787e-002
      -3.1629458100803441e-002 2.7698823210254419e-002
      7.8640328914602292e-002 6.8160426955682890e-002
      2.8520999041481278e-002 4.5699424626812091e-002
      -2.8575048895826228e-002 2.8606714821987962e-002
      8.1429329585716428e-002 6.7920989543778912e-002
      2.9690053708523709e-002 4.6351661177656753e-002
      -2.7025933236812790e-002 3.1412027733899554e-002
      8.1966401584522036e-002 7.0086740383519572e-002
      2.8689965727063418e-002 4.3001041179736590e-002
      -2.8538884112290195e-002 3.0545766026250157e-002
      7.8348736611072278e-002 6.7708690394886487e-002
      3.0771871639129166e-002 4.4921795843674860e-002
      -3.0847696405473198e-002 3.0478369718986504e-002
      8.3002068852411057e-002 6.8211199694064417e-002
      3.1608348127472034e-002 4.6812501444234746e-002
      -2.9793554183910251e-002 2.7341804464362952e-002
      8.0083425791045534e-002 6.9617300730874798e-002
      2.6959541341166644e-002 4.4481718048765932e-002
      -2.7927999247500761e-002 2.7247284417028741e-002
      7.8538014183792512e-002 7.1051963829477843e-002
      2.7691145561716281e-002 4.4616386477644508e-002
      -2.9032500181532885e-002 2.9176537657835882e-002
      8.1490383495517765e-002 6.7765863379771668e-002
      3.1565891580741266e-002 4.6786782066885170e-002
      -3.1459213166911165e-002 2.7972696568478176e-002
      8.1950781848602772e-002 6.9882868618231148e-002
      3.0456296046490156e-002 4.6804457778729047e-002
      -3.1099946858040756e-002 2.6967286361029314e-002
      7.9552040360821169e-002 6.9792203144904849e-002
      2.9214418800583477e-002 4.6000157989144676e-002
      -2.7034581295787466e-002 2.8667230339094969e-002
      8.1843601456569354e-002 6.8811647219581926e-002
      2.9150089411762080e-002 4.5190252073463263e-002
      -3.0576988351839158e-002 3.1726032280997678e-002
      8.0091035467804966e-002 6.7190389387861496e-002
      2.9855412792173727e-002 4.7862503971778728e-002
      -2.9335066284263901e-002 3.0954043597115195e-002
      8.1443063952240810e-002 6.6662862701607345e-002
      2.7238907170129698e-002 4.3251511671403765e-002
      -3.0420102119798554e-002 2.7166376848901566e-002
      7.8005466127983369e-002 7.0201118936074405e-002
      2.9967703684533310e-002 4.3065873104964507e-002
      -2.9939772356044354e-002 3.0864805322537624e-002
      7.9857390076733065e-002 6.9679124505374446e-002
      2.8753109500097952e-002 4.4744730866056411e-002
      -2.8645600074137384e-002 2.7593495567721862e-002
      7.9759334324459419e-002 6.6912115826967516e-002
      2.9047678106809954e-002 4.7533395738314901e-002
      -3.1609347623682192e-002 2.7660529962076127e-002
      7.8752294768343625e-002 6.7897707102084162e-002
      3.0183239122140375e-002 4.4357884403935913e-002
      -2.7436149740088459e-002 3.0184922532100686e-002
      8.2181104371083752e-002 6.6610400398294078e-002
      2.7911906876682838e-002 4.4490519243452806e-002
      -3.0864148415863452e-002 3.0057153000605276e-002
      8.1052162200394434e-002 6.8713247684607806e-002
      3.0029468690352182e-002 4.5748051042810101e-002
      -2.9311245282833121e-002 2.8620170537552631e-002
      8.2009498816924292e-002 7.0178691220025458e-002
      2.9791136878006618e-002 4.4906899367379439e-002
      -3.0197492756500761e-002 2.7585974604222799e-002
      7.8980569462563904e-002 7.0899225609754091e-002
      3.1101870048544034e-002 4.6974599035717872e-002
      -2.8521418975174930e-002 2.9585638198654691e-002
      7.9433922995054890e-002 6.9506165112310572e-002
      2.8993976787496961e-002 4.3979139332050381e-002
      -2.8431792463022382e-002 2.6860157272418948e-002
      8.0787016677168144e-002 6.8203552309066801e-002
      3.0227849977721787e-002 4.5527115224427615e-002
      -3.0490966165739809e-002 2.9131764119532371e-002
      7.9362624601159837e-002 6.6960116852844670e-002
      2.8221732070017703e-002 4.4327500437938656e-002
      -3.0078930945530741e-002 2.8324848265600118e-002
      7.8858536373549143e-002 6.7830685461321830e-002
      2.8422557676960707e-002 4.3973488484729123e-002
      -2.6989730584279507e-002 2.9049860458122169e-002
      8.2609994352099411e-002 6.9214597540821127e-002
      3.1516632801452345e-002 4.4970889193713712e-002
      -2.8679236085899031e-002 2.9443942509620107e-002
      7.8869605998544728e-002 6.7963014295016957e-002
      2.8444420045267125e-002 4.5388404470859157e-002
      -3.0032789105055222e-002 2.8474272518675330e-002
      8.1633591067914638e-002 6.7448342425216232e-002
      2.8430070865463779e-002 4.6439066068885988e-002
      -2.8030548367452911e-002 3.1402594136170095e-002
      7.8622699170029745e-002 7.1021773353564591e-002
      3.0434846432942468e-002 4.6230002689872707e-002
      -2.8930107212896176e-002 2.8475189773100068e-002
      7.8716281350438261e-002 6.6776542204322081e-002
      2.9171461635816319e-002 4.5373802827227687e-002
      -2.7187366388066618e-002 3.1518257119907647e-002
      7.8686805897148770e-002 6.7301163207206041e-002
      2.9300182947917613e-002 4.3600124895268613e-002
      -3.0297259682649947e-002 3.0225641798190740e-002
      8.2289299753707190e-002 6.9145990349226860e-002
      2.7433738464166427e-002 4.6176452264890290e-002
      -2.8431886867824788e-002 3.1102620590676852e-002
      7.9234159850566477e-002 6.8965553287124073e-002
      2.7971589329076792e-002 4.5319787472459551e-002
      -2.7446000788025823e-002 2.9366132658619676e-002
      7.9168069330478097e-002 6.6822207240395740e-002
      3.1046778755750550e-002 4.4225168201932154e-002
      -2.8750756560460757e-002 2.8119250735111328e-002
      8.0790893135455510e-002 7.1107330762240711e-002
      2.7688457090065222e-002 4.6966567915918099e-002
      -2.8587266770507200e-002 3.0063561573107685e-002
      8.1435454194355217e-002 6.7293183550263452e-002
      2.8799400889703886e-002 4.2934488718970584e-002
      -2.9522692973930346e-002 2.8859131147738307e-002
      7.9428873474791786e-002 6.6592307656651265e-002
      2.9833176471884541e-002 4.2919253596837396e-002
      -2.7862699555518386e-002 2.6915620198307819e-002
      8.1533841835224802e-002 6.9963735017649797e-002
      2.9816196758773440e-002 4.4300122980255222e-002
      -2.9939342473414822e-002 2.7703054433532673e-002
      8.0970962075056108e-002 7.0294267457717136e-002
      3.0760900257658857e-002 4.4608256038413369e-002
      -3.1184764456942158e-002 2.8736751636047723e-002
      7.8234810845124292e-002 6.9363107741064356e-002
      2.7815583977171234e-002 4.7744515659897284e-002
      -3.0588541434216802e-002 2.7032018780186757e-002
      7.8693713841933105e-002 7.0585175811244016e-002
      2.8595303807305714e-002 4.4621465595272081e-002
      -2.9502474752019014e-002 3.0612407780069257e-002
      7.9806680396388233e-002 6.7449262817978056e-002
      2.8883779927886679e-002 4.7568674585376822e-002
      -2.9151658786732065e-002 2.8253651586854417e-002
      7.9581297756767297e-002 7.0983286504894716e-002
      2.9894407038661103e-002 4.4318133762154564e-002
      -2.9972347584155311e-002 2.7288656811064627e-002
      7.8882049258580722e-002 6.7009747425529759e-002
      2.8254260984087270e-002 4.5109946905229285e-002
      -2.7526757671358006e-002 2.8472556857132306e-002
      7.9292542458043888e-002 7.1045659813691847e-002
      3.0073826304730336e-002 4.6783644954303878e-002
      -3.1879221661560972e-002 2.8362459939938692e-002
      8.2776036752871610e-002 7.0492516613472930e-002
      2.8057618380598261e-002 4.7540337032537433e-002
      -3.0159934187913448e-002 2.9872047772136825e-002
      8.0100311071800059e-002 6.6988315758088363e-002
      3.1326308563644441e-002 4.6363716925783199e-002
      -2.7057743134538327e-002 3.1454304518248190e-002
      7.9374052152575161e-002 6.7115379849397569e-002
      2.7406485949254707e-002 4.5554386649828263e-002
      -3.0978244838602471e-002 3.0193596849523014e-002
      7.9753611002776933e-002 6.7981124928562620e-002
      2.9163219480167753e-002 4.6858553491640420e-002
      -2.7868811020100828e-002 3.1566471372180029e-002
      7.9071711539882975e-002 6.6325301143172061e-002
      2.7618096838297437e-002 4.4216334547701241e-002
      -2.8121886647413170e-002 2.9620223511866370e-002
      8.1558041402637449e-002 7.0304792292089913e-002
      2.7647793609976511e-002 4.7223177130871541e-002
      -3.1337469947940719e-002 3.1800069935649107e-002
      7.8699776353962997e-002 6.7542808643347649e-002
      2.9742297659956403e-002 4.3168324153016212e-002
      -2.7090320695451069e-002 2.9674031550560091e-002
      7.9868705186301819e-002 6.7029265223986417e-002
      3.1491616393891426e-002 4.5150190537376955e-002
      -2.7033932295908787e-002 3.0614654977495628e-002
      7.9517521768982635e-002 6.7274071178393929e-002
      3.1482045725930545e-002 4.3285211248605071e-002
      -2.7439778388901395e-002 2.7099046342775983e-002
      7.9237662531250683e-002 6.8758401986531145e-002
      3.1604059363538786e-002 4.5620282219184093e-002
      -3.0174212375246014e-002 2.8232664606852999e-002
      7.9264756569140032e-002 6.7231552398491864e-002
      3.0010263024350212e-002 4.7647142884087175e-002
      -2.7230016584673375e-002 2.9242753471392963e-002
      8.1897780337514617e-002 6.6383885185383545e-002
      3.1749871569363174e-002 4.6015017509976289e-002
      -2.7382325749603444e-002 3.0270282457662244e-002
      8.1496007835350548e-002 6.9198045608975287e-002
      3.1045042717808728e-002 4.5882669272179454e-002
      -3.1394573791918498e-002 2.6908287618061372e-002
      8.1340200069886737e-002 6.7823755257688176e-002
      2.9999212614238352e-002 4.3276841802412841e-002
      -2.8112399124930510e-002 2.7548186081185953e-002
      8.2010802776109365e-002 6.8842295078595836e-002
      3.0460294279678151e-002 4.7648760043433956e-002
      -3.1173551975121085e-002 3.0978960979199135e-002
      8.3003035636361966e-002 6.9725376526955207e-002
      3.0076166403542107e-002 4.3354036143304235e-002
      -2.7343615702273085e-002 3.0519630366545175e-002
      8.1834913227847542e-002 7.0508782683689292e-002
      3.1786018561471063e-002 4.4629061872523239e-002
      -3.0281443286713325e-002 2.9993302004778136e-002
      8.1691955259160495e-002 6.9572430184197703e-002
      3.1809783511125650e-002 4.5745508944699399e-002
      -2.8390489337059066e-002 2.9224065155878002e-002
      7.8822065557160717e-002 6.9227749278829853e-002
      2.8962548782516716e-002 4.5982446488254933e-002
      -2.8527507484251462e-002 2.9637814151692109e-002
      7.8080916855353913e-002 6.8157469422828409e-002
      2.8364816635293996e-002 4.3556198509756019e-002
      -2.9312776277304626e-002 2.8056925135187628e-002
      7.9887201495471821e-002 6.8897808048976758e-002
      2.8395022492494468e-002 4.5823632195528333e-002
      -2.8379894875128747e-002 2.9661220450610468e-002
      8.1055477843570548e-002 7.0597615291577959e-002
      2.8618569555380009e-002 4.4994121477340727e-002
      -2.7978546993757479e-002 2.8858953719316925e-002
      8.0758863133537181e-002 6.8257278114653638e-002
      2.9382259237035007e-002 4.5601253698536744e-002
      -2.8207064258909818e-002 2.7008989057532403e-002
      8.2713958801022489e-002 6.8094295998285898e-002
      2.7555827394124273e-002 4.4648452763485107e-002
      -2.9626539675915001e-002 2.8441975516419131e-002
      8.2919031846791211e-002 6.8392198972361679e-002
      3.1902742896729008e-002 4.6133180584487392e-002
      -2.7817207995483303e-002 2.9285995367635223e-002
      8.2530211567882386e-002 6.6683638669864223e-002
      2.9530186371052630e-002 4.6405855892876928e-002
      -2.7744049201591250e-002 3.0341800294493067e-002
      7.9561748934233137e-002 6.9800665298942521e-002
      3.1119793126305105e-002 4.6802914330035958e-002
      -2.8977970446897754e-002 3.0111683681429711e-002
      8.2343617873737104e-002 6.9704583605219722e-002
      2.7808407757460362e-002 4.5219618110353924e-002
      -2.9922453331542344e-002 2.8685494101758763e-002
      8.1348524655113899e-002 6.6329626398231173e-002
      2.9489019257508079e-002 4.7610846114274616e-002
      -3.0151904447270741e-002 2.9757508626237748e-002
      7.9981024787408025e-002 7.0641917315486732e-002
      3.1947829960034209e-002 4.4490284504027720e-002
      -2.7542214411055369e-002 2.9154522771817001e-002
      8.1826165151809793e-002 6.9432526547528989e-002
      2.9611058170847596e-002 4.7629895959721426e-002
      -3.1799804279527846e-002 2.8590968346155685e-002
      8.2043679590578511e-002 6.9908826444001732e-002
      2.9030844743308165e-002 4.4901638482043850e-002
      -2.9652346197694964e-002 2.9837668017460336e-002
      7.8414237209553136e-002 6.7452618437814124e-002
      2.9605590429915209e-002 4.5734111315458244e-002
      -2.9583732070859643e-002 2.9520635991020991e-002
      8.2282491828685300e-002 6.6662113386178445e-002
      3.1272992673232913e-002 4.6412191736011126e-002
      -2.8096690947056528e-002 2.8546095264683938e-002
      8.1071040207809086e-002 7.0410091283047344e-002
      2.7944141233623623e-002 4.7814908015050936e-002
      -3.1666698421341836e-002 2.7222685545309929e-002
      8.0317020719556986e-002 6.7823354361165961e-002
      3.1769747169214303e-002 4.7044466242402605e-002
      -2.6991099440500134e-002 3.0728077353358720e-002
      8.2027561153896172e-002 6.9230836928725878e-002
      2.8125429930192718e-002 4.7441683125860987e-002
      -2.8331922515584737e-002 2.8344061824955719e-002
      8.2965682944040525e-002 6.9012480919909289e-002
      3.1992703191726514e-002 4.6881996457573266e-002
      -2.7249329770385213e-002 2.8579721421910023e-002
      7.8405166370887444e-002 7.0371334398752997e-002
      2.8788281337620642e-002 4.3792819053059817e-002
      -2.8723324766083309e-002 2.8045394161638121e-002
      7.9574481480837650e-002 6.8272088236646308e-002
      2.9953209538553280e-002 4.3971452863065495e-002
      -2.9984951823932553e-002 2.9840710994715105e-002
      8.0263741907647304e-002 6.8980837515831922e-002
      2.8257466757328598e-002 4.6980390074894976e-002
      -3.0972360174950524e-002 3.1701758472429967e-002
      8.0081207892756343e-002 6.7609931001251317e-002
      2.9996489401834060e-002 4.5394322317486108e-002
      -2.7039206317416842e-002 2.8643936988713776e-002
      8.1898133583720695e-002 7.0898823150760751e-002
      3.0122270678646888e-002 4.6418985088890086e-002
      -2.7939610564254508e-002 2.8575909142978789e-002
      8.1493110195875657e-002 6.9705917837031450e-002
      2.8475447006150668e-002 4.3475927770268270e-002
      -2.9098470729157108e-002 3.0539703601691594e-002
      8.1132394234850108e-002 6.6870225996550597e-002
      2.8380937933770337e-002 4.3099810509973253e-002
      -3.1931042235228468e-002 3.0725781594588355e-002
      8.1556627589097347e-002 6.7207741317286629e-002
      3.1706958122740353e-002 4.3560872282463359e-002
      -3.0255128669096305e-002 2.8315336391443961e-002
      8.2524383172414645e-002 6.6674345855506981e-002
      2.6934879179359605e-002 4.3774177667666003e-002
      -3.0860645144759044e-002 2.8566072853901645e-002
      8.1069327054539744e-002 6.7509437849327253e-002
      2.9083569934005855e-002 4.4731258966536222e-002
      -2.8727854553850449e-002 2.9109723873247315e-002
      8.0351633637970890e-002 6.9001110078227443e-002
      2.9760835973880562e-002 4.7052560982431359e-002
      -2.9822765462932693e-002 2.6871712514013584e-002
      8.2717262668828714e-002 6.9022478580819793e-002
      2.7570557640887734e-002 4.3378349014896830e-002
      -2.8112530290348586e-002 2.7249913258873392e-002
      8.1409150796263069e-002 6.6315888638662251e-002
      3.1604199285363753e-002 4.6685902566773033e-002
      -3.0507357495862687e-002 3.0025945357956590e-002
      8.1976082822561372e-002 6.9419564472616532e-002
      2.8814919310993975e-002 4.7506915341131557e-002
      -3.0057673580156468e-002 2.9708400952212787e-002
      8.2208609962519677e-002 6.9484845570323292e-002
      2.8499566392284424e-002 4.5061225661575575e-002
      -2.9650573116561284e-002 2.8334456463071853e-002
      7.9256648679050273e-002 6.9123515906180794e-002
      3.1760910526359667e-002 4.3519458188697367e-002
      -3.0118359497137041e-002 2.9621373418493521e-002
      8.1609053379304894e-002 7.0795398594868927e-002
      3.1822502367123903e-002 4.6371855324147442e-002
      -2.9835854982884640e-002 3.0790926630185945e-002
      8.1179297078645227e-002 6.6206546831293123e-002
      3.0960614826986355e-002 4.3898116019198026e-002
      -3.1084611955759553e-002 3.1679479878646249e-002
      7.9749648804447543e-002 7.0831368725501082e-002
      3.0164761625929286e-002 4.7826476108207179e-002
      -2.7685725372392622e-002 2.6809376079285664e-002
      8.1343642350251349e-002 6.6545053058937251e-002
      2.9415348113751912e-002 4.6943790935092412e-002
      -2.9653753595870917e-002 3.0641787530737433e-002
      8.2206381946926060e-002 7.0832061398436466e-002
      2.7072609651913451e-002 4.7236335047970666e-002
      -3.0267817266089340e-002 2.7647725456998472e-002
      7.8965919232706169e-002 6.7588868456202628e-002
      3.1424908916263469e-002 4.7021746452756585e-002
      -2.8216543644071352e-002 3.1786064723228542e-002
      8.0046602081331450e-002 6.6955707841002229e-002
      2.8772692494544189e-002 4.7789806407067488e-002
      -3.0942156797373079e-002 3.0274595246337188e-002
      8.2311950820609547e-002 7.0562667784149727e-002
      2.7185199875066093e-002 4.4770892432231472e-002
      -2.8708013332619121e-002 3.1394907832756606e-002
      8.0922988972189497e-002 6.8669822066077663e-002
      3.0776576990258337e-002 4.7070798500761381e-002
      -3.0607091103451257e-002 3.1143513819011873e-002
      8.1055885039035339e-002 7.0773002847076966e-002
      2.9154818907772904e-002 4.3952654294924107e-002
      -2.8751876096169821e-002 2.9108713131146047e-002
      8.2381679347598630e-002 6.8486988668143081e-002
      2.7044138651741819e-002 4.6543550798162470e-002
      -2.8266182640673557e-002 3.0655778772475654e-002
      8.2328171261707300e-002 6.6493837232011826e-002
      3.1550881303940938e-002 4.6508354667549441e-002
      -2.7201823283146926e-002 2.7277205532364016e-002
      8.0086339730398762e-002 7.0057076758847772e-002
      2.7539456652764773e-002 4.7195897526101559e-002
      -3.0530863241744352e-002 2.9546726030517941e-002
      8.2461173588341846e-002 6.9970754931996643e-002
      2.8452915152617064e-002 4.5245347062881809e-002
      -2.6965984569602898e-002 3.1500308150345657e-002
      8.2469340995862284e-002 6.9142369013718522e-002
      2.7564422402225296e-002 4.3827731381246328e-002
      -2.8483452992180122e-002 3.0789340540242904e-002
      8.0408812047847056e-002 7.0990416255702807e-002
      3.0921538810699215e-002 4.3271070521295502e-002
      -3.0213126715370853e-002 2.7493793630327595e-002
      7.9311534049773480e-002 6.7563693428845162e-002
      2.9651873192703064e-002 4.6302090735388012e-002
      -2.9560088781579223e-002 2.9675878162096960e-002
      7.9401177559873456e-002 7.0402866390183408e-002
      2.9291353990238349e-002 4.3559459950454849e-002
      -3.1594917914160865e-002 3.1353191835362365e-002
      8.2081546205954647e-002 6.9801743984168260e-002
      2.9789241048778056e-002 4.3468001492741014e-002
      -2.9774924243450931e-002 2.8820185772620459e-002
      7.9530827062171169e-002 7.0741148816038435e-002
      2.7062106205928343e-002 4.3770549589601776e-002
      -2.8141723468504600e-002 2.7836523784163469e-002
      7.9173665210739610e-002 7.0704320720895705e-002
      2.9438847059198740e-002 4.7060222130508665e-002
      -2.8850565323656558e-002 3.0571658244194225e-002
      8.1692753187488129e-002 6.6936006588669342e-002
      2.9834489445669767e-002 4.6768214898431811e-002
      -2.7315632477589499e-002 2.8026684813216119e-002
      7.8104021026636938e-002 7.0005712172618056e-002
      2.7843484238780778e-002 4.4050337507606944e-002
      -2.8327365782251753e-002 3.0853330618242469e-002
      8.1653458711329438e-002 7.0643491367585215e-002
      2.9384082324556138e-002 4.6676091699720618e-002
      -2.7101301732694712e-002 2.8580811532748478e-002
      8.1514334599464458e-002 6.6496624544660196e-002
      2.7577018085514868e-002 4.3085003578771437e-002
      -2.9471820404785361e-002 2.7195835029782740e-002
      7.9884085710852121e-002 6.9901368720630103e-002
      3.1127332938801763e-002 4.3661223897211068e-002
      -2.9537568839321227e-002 3.0606187446743541e-002
      8.1515934979252525e-002 6.9547642245149088e-002
      3.1358434691872474e-002 4.6364311979545325e-002
      -2.9381132938404383e-002 3.1720039310317437e-002
      8.2274695489472652e-002 6.8074754668190712e-002
      3.0997992123913007e-002 4.3644237938754403e-002
      -2.9705298638039293e-002 3.0846487161696665e-002
      8.0401738509197698e-002 7.0715524459859708e-002
      3.0464705783317506e-002 4.4262442941546867e-002
      -2.7145692019543817e-002 3.1078478896717866e-002
      7.9898765094335578e-002 6.9854167310832022e-002
      2.7513000616552249e-002 4.7118009074188526e-002
      -3.0485156907367552e-002 2.9710938971210594e-002
      8.0415231016236044e-002 6.9346474943592085e-002
      2.8959704105001254e-002 4.5485788966138085e-002
      -3.1011252701207550e-002 2.9034748093365394e-002
      8.1875902093229647e-002 6.9542345656130974e-002
      3.1841820622428615e-002 4.3274032107833746e-002
      -2.8756015729041216e-002 3.0011695972361151e-002
      8.0575933090663104e-002 6.6396408671536705e-002
      3.1800538018523831e-002 4.6408766587670534e-002
      -2.8065232155960292e-002 2.7007608947470795e-002
      7.8056851513120640e-002 6.9169143336287625e-002
      3.1403348749945457e-002 4.5568793433692648e-002
      -2.7271166946409481e-002 2.7454346420640204e-002
      7.9717231635768840e-002 6.8418360936928643e-002
      2.7569480990386114e-002 4.7767459886044271e-002
      -3.1929700354375846e-002 2.7123862536200853e-002
      8.2440415578108148e-002 6.7486077825289467e-002
      2.9933337169594131e-002 4.4773871340305922e-002
      -2.8976311284312911e-002 2.7162789498320877e-002
      8.0243327426346794e-002 7.0412094915273615e-002
      2.7490714688524698e-002 4.4728287564510756e-002
      -2.9899987769966808e-002 2.7142241053013466e-002
      7.8365065183953503e-002 6.9451531796981172e-002
      3.0413015775783727e-002 4.5592632529002773e-002
      -2.9822090639168918e-002 2.8548449716531549e-002
      8.1607348768862248e-002 6.8335164188816702e-002
      2.8492061505134541e-002 4.6975386806399871e-002
      -2.9950578340959780e-002 2.9789969146899079e-002
      8.2229384828165303e-002 6.8369135876076167e-002
      2.8250306362075761e-002 4.4705371026493183e-002
      -3.0976825763897656e-002 2.9412965767568248e-002
      8.2624819640843700e-002 7.0244195766148543e-002
      2.8148577348882129e-002 4.2948293763938425e-002
      -2.9287900712257443e-002 2.9894137894030625e-002
      8.0097059724156081e-002 6.8687004855365469e-002
      3.1993920182653894e-002 4.4584037850954404e-002
      -2.7825417805421599e-002 2.7120752144642799e-002
      8.0512957771148350e-002 6.9259574379223171e-002
      2.8270920162140219e-002 4.6333268912376158e-002
      -3.0139266135720599e-002 3.0674469911367692e-002
      8.0700819179099922e-002 6.9876960452346856e-002
      3.1968483775876841e-002 4.6953741333161284e-002
      -3.0420693378732214e-002 3.1048831547415990e-002
      7.9706943248796042e-002 6.6878476913755203e-002
      3.0417925159757244e-002 4.7293100034256130e-002
      -2.8179958293846143e-002 3.1483855090624638e-002
      8.2296204840745929e-002 6.9056953124154455e-002
      2.8730723900296386e-002 4.4119125833054426e-002
      -2.9316196563811719e-002 2.9301811250757495e-002
      7.8181423261884334e-002 6.9486939256203681e-002
      2.9915789216888408e-002 4.5712445665736838e-002
      -2.9598661359741905e-002 3.1703670333840570e-002
      8.1709015890052764e-002 6.9403983952771808e-002
      3.0255989336040737e-002 4.3911886540219588e-002
      -2.9049711829370710e-002 3.1489212423778064e-002
      7.8659434173036280e-002 6.6964815303747621e-002
      2.7852267189842839e-002 4.4202787635843135e-002
      -3.0135386746472200e-002 3.1054103241889352e-002
      8.2951637282392257e-002 6.8155982071131091e-002
      3.1011277873292616e-002 4.5754262683532630e-002
      -2.9184117381600934e-002 3.1637233471231811e-002
      8.2178198302481492e-002 6.6721391375893224e-002
      2.9173653809302803e-002 4.4727845406702806e-002
      -3.1681460714644068e-002 2.9393664446708309e-002
      8.0888161099120462e-002 6.7342002599974637e-002
      2.8511794757533803e-002 4.3679705580524676e-002
      -2.8974388665019828e-002 2.7263840878654265e-002
      7.8015208308988893e-002 6.7665516364898259e-002
      2.7654470731272716e-002 4.6509874319668569e-002
      -3.0444492621027375e-002 3.0994592034214497e-002
      7.8260579302857666e-002 6.9402799546734603e-002
      3.0215985575501866e-002 4.5505420141472720e-002
      -2.8763455515092191e-002 3.1724088583711202e-002
      8.2984355932282483e-002 6.6312438257287137e-002
      3.0413823780250770e-002 4.6578465927004577e-002
      -2.7504744774437449e-002 3.0413806750964237e-002
      8.1823173425147319e-002 6.7291095500660786e-002
      2.7575410618241800e-002 4.7663506692622044e-002
      -2.9624210891248483e-002 2.8178898195749997e-002
      8.0616066561817787e-002 6.7224374348960808e-002
      2.8661165073816639e-002 4.4298789029731764e-002
      -2.7717185847471570e-002 3.0248791210941279e-002
      8.1926653282911793e-002 6.6803369254951894e-002
      2.7778851936955087e-002 4.4635760065857427e-002
      -2.7280099666434646e-002 3.1645240943795970e-002
      8.1691464223670046e-002 7.0141200188969230e-002
      3.0721879581862149e-002 4.6242255401370655e-002
      -3.0781903796292434e-002 3.0408779972980780e-002
      8.2315110197080335e-002 7.0411588961391408e-002
      3.1513558737123991e-002 4.4588303965751988e-002
      -2.9682555532857504e-002 2.7438106372097679e-002
      8.1754375527629389e-002 6.8390956933713609e-002
      2.7071278191903702e-002 4.4380568436493587e-002
      -2.7534460003765932e-002 3.0799309743041740e-002
      7.9614389340937994e-002 6.7637787883497780e-002
      2.9046535475525697e-002 4.6289028994801112e-002
      -3.1741497985172194e-002 3.0090831596049174e-002
      8.1989415879359109e-002 7.0333815562292346e-002
      3.0209124585252895e-002 4.5672649577451756e-002
      -3.0528226691463992e-002 2.9710582634609947e-002
      8.0427383768775229e-002 6.6688103523246070e-002
      2.9175699104922861e-002 4.5423626624083460e-002
      -3.1047204886702904e-002 2.9014971289381769e-002
      8.1007988892581997e-002 7.0726206017476589e-002
      3.1385092392154437e-002 4.3229415207751642e-002
      -3.0365040354207409e-002 2.8249986546425840e-002
      7.8739057407555865e-002 6.8795857644972924e-002
      2.9272131816382430e-002 4.5466389150433599e-002
      -2.9023473983142992e-002 2.7798699417211400e-002
      7.9836448276405569e-002 6.7390644113566656e-002
      3.1848933680374357e-002 4.7150382089047899e-002
      -2.8269175960968014e-002 3.1768818655019869e-002
      7.9113434718047992e-002 7.1089654088853996e-002
      3.1749616650596356e-002 4.4417445342305698e-002
      -3.1083446876829054e-002 3.1622529900998751e-002
      8.0595525100925491e-002 6.7755514578924578e-002
      2.9047351725771029e-002 4.4569345809073062e-002
      -2.8810522044259556e-002 3.0713237581150198e-002
      8.0695352000625720e-002 7.0373086239794477e-002
      2.7190433887676651e-002 4.7012851908397810e-002
      -3.0661051617318223e-002 2.8626597035583456e-002
      7.8847978264073471e-002 7.0356218231734255e-002
      3.0315455576060132e-002 4.3636504924366264e-002
      -2.8452747190730796e-002 3.0192090917466934e-002
      8.0553009126390421e-002 6.7597600489125567e-002
      2.8715507052137611e-002 4.3603659475698664e-002
      -2.8337933090329063e-002 2.7672642287580755e-002
      8.2745591192472351e-002 6.8338725625367386e-002
      2.8319642164095701e-002 4.3497672044290600e-002
      -2.7685954642732432e-002 2.7243794522329799e-002
      8.0572883966565617e-002 7.0992029028589976e-002
      3.0953735997956068e-002 4.6084231171026821e-002
      -2.7498975449303537e-002 2.8425328282847218e-002
      7.8533107697094207e-002 6.8062670972431780e-002
      2.9130021394095356e-002 4.3585075694524120e-002
      -3.1189194272848730e-002 3.0821510290894243e-002
      8.1260366661605257e-002 7.0373104787427102e-002
      2.8314694579799710e-002 4.4665342008031565e-002
      -2.8960952173130196e-002 3.0624198851032257e-002
      7.8564240263056404e-002 6.8873039445116011e-002
      3.0507787879336137e-002 4.7592401005437601e-002
      -3.0354483224906255e-002 2.9026222102699176e-002
      7.8089455386122025e-002 6.8676045756775966e-002
      2.7683141507078138e-002 4.7384618363546537e-002
      -3.1550927113416075e-002 2.8677243005608050e-002
      8.2213601310079071e-002 6.7798949535319980e-002
      3.1627379203366855e-002 4.4048572769881833e-002
      -3.0380402525266938e-002 2.7487285995533028e-002
      8.2081434408838777e-002 6.7560899384541961e-002
      2.9146632180959340e-002 4.6935712190621141e-002
      -2.8783475069634867e-002 2.7009020077481679e-002
      8.1797329131066104e-002 6.6820532725040765e-002
      2.8072136241733606e-002 4.4865070576156532e-002
      -2.9587210616031746e-002 3.1658863123339598e-002
      8.2361458163159665e-002 6.7634938358146837e-002
      2.7442032767078198e-002 4.6595438189818199e-002
      -2.8228164624640041e-002 2.9058881760249951e-002
      7.8885916512357490e-002 6.8015444415088139e-002
      2.8820642054746617e-002 4.6729552137551887e-002
      -2.9632022891924327e-002 3.0902349270494935e-002
      8.1919019400275808e-002 7.1017854608798059e-002
      3.0503107816838682e-002 4.3329223249943087e-002
      -2.8566081301060132e-002 2.8426305872762875e-002
      8.1361721141249135e-002 6.7707056693276813e-002
      3.1467600895518998e-002 4.3987123788874781e-002
      -2.9984103089172542e-002 2.8735951125884021e-002
      8.2604923347948805e-002 6.9491523398225771e-002
      2.9076724029058396e-002 4.5670078753344362e-002
      -3.1629875154688195e-002 2.6974521172021197e-002
      7.9668181335346602e-002 7.0910564746943322e-002
      3.1720638314744622e-002 4.6737952278534473e-002
      -2.9528659542648550e-002 2.7336095386081106e-002
      7.8062391859849825e-002 7.0423842244598467e-002
      3.0462292947204556e-002 4.7165815696859625e-002
      -3.1001570742172968e-002 3.0384027343454908e-002
      8.1028509206748395e-002 6.7384447250538451e-002
      2.9035978795996828e-002 4.5596227152131491e-002
      -2.9973307680828773e-002 3.0455611243580056e-002
      8.0797543275068412e-002 6.6701340576900414e-002
      3.0965033170160298e-002 4.4503508364074428e-002
      -2.9572901576673003e-002 2.7857429481671421e-002
      7.8162527856986144e-002 7.0652577890636642e-002
      2.7746680985851639e-002 4.4108465146238333e-002
      -3.0104569672110990e-002 3.1171453810823209e-002
      8.2112295773618227e-002 6.9136626933658074e-002
      3.0399553584613111e-002 4.5171499284191403e-002
      -2.8034802537834858e-002 2.7896251323990803e-002
      8.1026226125661530e-002 6.7746085425213848e-002
      3.1024041975822383e-002 4.4021002347094891e-002
      -3.0184005481109374e-002 2.6869105307550854e-002
      7.9560154690229229e-002 7.0817530537073778e-002
      2.7321293212471603e-002 4.4178732967078818e-002
      -3.1513666453088209e-002 2.8252391085965167e-002
      8.2303164511310145e-002 6.8133572656077002e-002
      2.7854846217820306e-002 4.7758983865482135e-002
      -3.1225197722410867e-002 2.8644158804210302e-002
      7.8956506211718167e-002 6.7139663161376276e-002
      2.9832174549381647e-002 4.7402234207635993e-002
      -2.8592779517223062e-002 2.9125851916913744e-002
      7.9143050063907469e-002 6.9431900520750267e-002
      2.9690750043438675e-002 4.5225548125395129e-002
      -2.8836136587908043e-002 2.9747462997887521e-002
      8.0835714994459407e-002 7.0465244648294970e-002
      3.1434895833212816e-002 4.5379591323645045e-002
      -3.0143680285883101e-002 2.8094957587500746e-002
      8.0447696809449437e-002 6.6498022070194271e-002
      2.9893196347578064e-002 4.3602528194281426e-002
      -2.8957205955040723e-002 3.0591524322688118e-002
      8.2837409757951966e-002 6.8452433334254340e-002
      2.7656027155639140e-002 4.7029486727177196e-002
      -2.7250902224272715e-002 3.1737697188765165e-002
      7.8671131056270119e-002 7.0952153124939216e-002
      2.9714279783949832e-002 4.3143872883302889e-002
      -2.7214223092130108e-002 3.0187982852153048e-002
      7.8564947875005925e-002 6.9471884879827445e-002
      3.1518624861842350e-002 4.5424426519842506e-002
      -3.1046823787001378e-002 2.7932720874352394e-002
      7.9750826076700310e-002 7.0024301857125576e-002
      3.0063111708289163e-002 4.7332049961669384e-002
      -3.0292618135642432e-002 3.1603574982671537e-002
      7.8904050597471395e-002 6.6874879595510958e-002
      3.0641308293789148e-002 4.4214754028027305e-002
      -2.7904013343076343e-002 2.9125270588189797e-002
      7.9480746961650139e-002 6.9778639105773949e-002
      3.0166380535161141e-002 4.5933249253453809e-002
      -3.1531100956759948e-002 3.0281631475319187e-002
      8.1824100122033921e-002 7.0679822999866831e-002
      3.0437332292801367e-002 4.3453830510785989e-002
      -3.0569972567843468e-002 3.1718244403614114e-002
      8.0439408899710491e-002 7.0232553818198984e-002
      3.1889835182656007e-002 4.7134238069552414e-002
      -2.9617688522477783e-002 3.1100418998230506e-002
      8.0614916729833064e-002 7.0582151715839203e-002
      2.7688409459529884e-002 4.5536916177968255e-002
      -2.8550360948957812e-002 3.0908176306934411e-002
      8.2972059580081872e-002 6.7864652216604496e-002
      2.8993590824826169e-002 4.3349737809037010e-002
      -2.7464677293224892e-002 3.0824295733385059e-002
      8.2811866755241340e-002 6.7342296115230835e-002
      2.9962185382340169e-002 4.4061029626264264e-002
      -2.8981913522835460e-002 2.8830275050587377e-002
      8.0517237693447374e-002 6.9453645910637310e-002
      3.1311799520245188e-002 4.6766236479856227e-002
      -2.7030161989383125e-002 2.8628622013852304e-002
      7.8492838688931893e-002 7.1060784367068933e-002
      3.0484534871857302e-002 4.6707711186585538e-002
      -3.0531570487164761e-002 2.9898155749483499e-002
      7.9591766522781632e-002 6.6753633970783682e-002
      2.9605261211002671e-002 4.7070780142067108e-002
      -2.9609503466306773e-002 3.1558971809050242e-002
      8.2494488525125004e-002 7.0370563261215532e-002
      2.8146589077246844e-002 4.4633799066738283e-002
      -3.1783408959356323e-002 2.6734035941060007e-002
      7.8437825877765308e-002 6.9696179569994882e-002
      2.8487010210411345e-002 4.3136334790672047e-002
      -2.9435898649310257e-002 2.8338596667533439e-002
      8.0127356089961160e-002 7.0280618276849866e-002
      2.9649715592273536e-002 4.4187363321188042e-002
      -3.1634521109331834e-002 2.7583220759259165e-002
      8.1834206261565345e-002 7.0048377855617142e-002
      3.0477968975367330e-002 4.5803885550787952e-002
      -2.7943219894389408e-002 3.0754036082888143e-002
      8.0924282331446204e-002 7.0325230134020769e-002
      3.0703731744125575e-002 4.7751138256007915e-002
      -2.7495617626566899e-002 2.7253775563799071e-002
      7.9967415461011215e-002 6.9003280473266954e-002
      3.0457667012908526e-002 4.3792450744403730e-002
      -3.1722910000498379e-002 2.6979194894158016e-002
      8.1889768406097768e-002 6.9194393667760132e-002
      2.9782084544576783e-002 4.6499895038606305e-002
      -2.8480738225687970e-002 2.8107720438252073e-002
      8.2611435192066013e-002 6.9091974924454208e-002
      2.8681017839767117e-002 4.3025415603747369e-002
      -3.1275466748126403e-002 2.9063620647031167e-002
      8.1959903195820055e-002 6.8468759094791026e-002
      2.8370619780807717e-002 4.5571015519263673e-002
      -2.8470953570815583e-002 2.8530544681471637e-002
      8.0105450756233126e-002 6.8086804511674828e-002
      2.7870936446923317e-002 4.5421067842504999e-002
      -2.9794093672872331e-002 3.0689971259555398e-002
      8.0424513355994112e-002 6.8177051194053623e-002
      2.7720749376477227e-002 4.6161121044965003e-002
      -3.0363893273026191e-002 2.7659137509661015e-002
      7.9003854940963444e-002 6.6720962037530807e-002
      2.8552019627162858e-002 4.6987598436671614e-002
      -2.9984606415739461e-002 2.6614709342028614e-002
      7.8785356339887105e-002 7.0631486664902210e-002
      2.8595313916171559e-002 4.3030401571518315e-002
      -2.9945035623206467e-002 2.8407078815377521e-002
      7.9557841316299338e-002 6.6544887392971735e-002
      3.1242771452437323e-002 4.3601102786149148e-002
      -2.8904671183595656e-002 2.8007771456833499e-002
      7.8146823214562913e-002 6.6795294789206802e-002
      2.8207502663069556e-002 4.4134735746980021e-002
      -3.0217226516550715e-002 2.8704878579277178e-002
      7.8700980192310852e-002 6.8733463428223798e-002
      3.0323058012717157e-002 4.6093420904048096e-002
      -2.7873488682347458e-002 2.9035876618230642e-002
      8.1166823709002842e-002 6.8115506474336701e-002
      3.0001934636272234e-002 4.3369389026549909e-002
      -2.9963514924193881e-002 2.9896725871310842e-002
      8.0426611663434178e-002 6.7437341956606750e-002
      3.1438989992026357e-002 4.5660587421238651e-002
      -2.9328617917054649e-002 2.7983252565393010e-002
      8.1779964401120189e-002 7.0715782413630413e-002
      2.8763999745848839e-002 4.3622333402420103e-002
      -2.7658138761097625e-002 2.8519650805052379e-002
      8.0739597797829230e-002 6.8320930440078712e-002
      3.1951332804413007e-002 4.5807047347874628e-002
      -2.9740699606063861e-002 2.9664179390300083e-002
      7.8609417217830477e-002 7.1020801516006635e-002
      2.7576372223762715e-002 4.4399558666518367e-002
      -3.0976802005238273e-002 3.0262460304040586e-002
      8.1253312023280483e-002 6.6538992091682250e-002
      2.9687929932854160e-002 4.7900414471586501e-002
      -2.8291700383719177e-002 3.0108837017526549e-002
      7.9762890962407726e-002 6.9253286487658230e-002
      3.1070979936457153e-002 4.7543377017595832e-002
      -2.7605286063721018e-002 2.7350077004527757e-002
      8.1803907377357932e-002 6.8347894888387301e-002
      3.1443318474365503e-002 4.7630322350522704e-002
      -2.8754066392964496e-002 2.7774951728046362e-002
      8.2187071825967267e-002 6.7423062988337251e-002
      2.8415377684966044e-002 4.7400098314005421e-002
      -3.0489551508359969e-002 2.7719834538715512e-002
      8.0010824844725131e-002 6.8581548496539163e-002
      3.1486589562444024e-002 4.7880431168861509e-002
      -2.6966464690567141e-002 2.8378225013461478e-002
      8.0570727200406006e-002 6.6331036235625293e-002
      2.9495872312942272e-002 4.6449059474986579e-002
      -2.7735235487661287e-002 3.0097396087090559e-002
      7.8937571823463754e-002 6.9090368789192433e-002
      3.0519964862907388e-002 4.7245799788804325e-002
      -2.9272186800400137e-002 3.0854435597906817e-002
      8.0467887011425834e-002 6.9516079046556267e-002
      2.9846269676150426e-002 4.7676412091113084e-002
      -2.7467435554779172e-002 3.0740097343336090e-002
      7.8753512691067576e-002 7.0235993447430048e-002
      2.8208174463235657e-002 4.5950975909099002e-002
      -3.0028040783010725e-002 2.9367713343735533e-002
      7.9157881230113761e-002 6.9403854715658020e-002
      3.0187684445218198e-002 4.5690318640167898e-002
      -2.9847594485810706e-002 2.8992469196456157e-002
      7.8834464491936679e-002 6.9143975435139018e-002
      3.0705147622998589e-002 4.3815323560075170e-002
      -2.7338159214281513e-002 2.8960011408100207e-002
      8.0758539761886808e-002 6.7429138999178795e-002
      3.1353964344271200e-002 4.3116907000627362e-002
      -3.1504811538618241e-002 3.1176629171424101e-002
      8.0626072132992055e-002 6.9455850159549429e-002
      2.8431977033324087e-002 4.5030769093873824e-002
      -3.1032819824079662e-002 2.9535800970601926e-002
      7.9061785641105178e-002 6.9224985628722188e-002
      2.9915270994745287e-002 4.4097660061468015e-002
      -2.8174994872194548e-002 2.9385148594946873e-002
      8.1643285694613960e-002 6.8993723526063769e-002
      2.8654647110411661e-002 4.7141759546400583e-002
      -2.7699607378307164e-002 2.8077984122337422e-002
      8.0867308926964407e-002 7.0869486617741478e-002
      2.7500720532589555e-002 4.4990596467117117e-002
      -2.8363986823060388e-002 3.0452779013791093e-002
      8.0243533827627556e-002 6.9512542159927665e-002
      3.0086176079756059e-002 4.3846566032661759e-002
      -3.1857988652169177e-002 2.7026147691980803e-002
      8.1762879120939894e-002 7.0444877893678370e-002
      2.9416569409993390e-002 4.7525635823241465e-002
      -2.9849235718502350e-002 3.0818942629110502e-002
      8.1080172838370351e-002 6.9834426326019258e-002
      3.1416841559683016e-002 4.5922836443589882e-002
      -2.8802323278433097e-002 3.1424543370246763e-002
      8.0064106051204495e-002 7.1054512073846887e-002
      3.1736225128017881e-002 4.4803224303253800e-002
      -2.8018285792238980e-002 3.1172876838723426e-002
      7.9656355489815242e-002 7.0424172582223971e-002
      2.9933466007199844e-002 4.7341054460510484e-002
      -3.1577129907414341e-002 2.7809712222176219e-002
      8.2188913054056983e-002 6.7414153149339365e-002
      3.0532110853860758e-002 4.7083556822399127e-002
      -3.1169328320889863e-002 2.8043422808840295e-002
      7.9881151414846890e-002 6.7892466583852340e-002
      2.7680263870025607e-002 4.5555930460426351e-002
      -2.9879601186790283e-002 3.0844588851932475e-002
      8.1154132466683057e-002 6.6374314587423044e-002
      2.7433138976300901e-002 4.4298261494310792e-002
      -2.8676087591463978e-002 2.8112141738121366e-002
      7.8071807301470245e-002 6.9861793461123006e-002
      2.9072862733221717e-002 4.4819933219928249e-002
      -2.9446135112590241e-002 2.9130473263141970e-002
      7.9586410183139916e-002 7.0768028665461488e-002
      2.9734835041662942e-002 4.5921874898980398e-002
      -3.1335975700856160e-002 2.8140142779122423e-002
      7.9961829435196002e-002 6.9255282719591693e-002
      2.8122327447105439e-002 4.5094221745023165e-002
      -2.9997527318215370e-002 3.0441208960436079e-002
      8.0547376707012397e-002 6.6691793551791487e-002
      3.1525506923689980e-002 4.2987997580421551e-002
      -2.7269785046741237e-002 3.0143921348436541e-002
      8.1547911736002218e-002 6.9289412143396484e-002
      2.7920884281251713e-002 4.4389803983313755e-002
      -2.9574041198606203e-002 3.0451668470293625e-002
      8.2779138481258493e-002 7.1112687041386013e-002
      3.1729028944429576e-002 4.6986958225784574e-002
      -2.8411351968043095e-002 3.0202815593433324e-002
      7.8904679845266806e-002 6.9400136796322287e-002
      2.9360147421927843e-002 4.6592686294204343e-002
      -2.7398040400520195e-002 3.1101610184185103e-002
      7.9263518058469373e-002 7.1091219462555824e-002
      3.1310197663432453e-002 4.6310388515260925e-002
      -3.0092630266791244e-002 2.9707180603324859e-002
      8.2057955241744307e-002 6.7896047514269114e-002
      3.0673836272803675e-002 4.5392563243246489e-002
      -2.8119172355268160e-002 2.9950489220536149e-002
      8.2069971941227893e-002 6.6316128613263511e-002
      3.0036732471954149e-002 4.5491102619279446e-002
      -3.1908795059032262e-002 2.8821068603199346e-002
      8.0276763615326208e-002 6.7827530066881830e-002
      2.8131958776714660e-002 4.3348486597706577e-002
      -2.7940721028986738e-002 3.1618014303155584e-002
      8.1916178152254368e-002 6.8666502675173061e-002
      3.2010032669599363e-002 4.6825588470400255e-002
      -3.1284832494254192e-002 3.0422899363721792e-002
      8.2577382867692159e-002 6.9793660214682141e-002
      2.8544786659548876e-002 4.7501094160509454e-002
      -2.9110312246975290e-002 2.8811227679338029e-002
      8.2063330521305752e-002 6.9619049212743783e-002
      2.7915688990655219e-002 4.6835619288070590e-002
      -2.9726694161488227e-002 2.8886729487574155e-002
      8.2973955690937615e-002 7.0398223709605939e-002
      2.9031421071875878e-002 4.6073230420029372e-002
      -2.8030402598028650e-002 2.6996877713606003e-002
      8.0958794316640312e-002 6.6336328006692966e-002
      2.8548461017810209e-002 4.5230321252968018e-002
      -2.8871606236843962e-002 2.8808767413162420e-002
      7.8211524824186029e-002 6.9772136452430120e-002
      2.8989437115242243e-002 4.5144298195037590e-002
      -2.9695070369689130e-002 2.8622599111255750e-002
      8.2890993285850784e-002 6.7970038504838445e-002
      2.7332308075244508e-002 4.3708951161991860e-002
      -2.9083614799011125e-002 2.8579915568635705e-002
      8.1958359874638259e-002 6.7904010965148198e-002
      2.7029663206333220e-002 4.4806657515693939e-002
      -3.1918725947262069e-002 2.8552341164868683e-002
      7.8430544582367354e-002 6.9758404752838038e-002
      2.9211594731165028e-002 4.4159373277291011e-002
      -3.1703376383723419e-002 3.1621032133309503e-002
      8.2197103047306222e-002 6.7806492856952102e-002
      2.7665974903886871e-002 4.5113647866306311e-002
      -2.6964281478067214e-002 2.9587529878856843e-002
      8.1124431495411820e-002 6.7408745510683724e-002
      2.7808210203993641e-002 4.6776309935984736e-002
      -3.0705156374232854e-002 2.8027054040394895e-002
      8.1138382314624891e-002 7.0784785834082153e-002
      3.0394463495940032e-002 4.5541024998813490e-002
      -3.1719896417328773e-002 2.9060679863619130e-002
      8.0823714778905292e-002 6.8796367579051401e-002
      3.1430668376758904e-002 4.6478447751387895e-002
      -2.9768899541849220e-002 2.8106779500442849e-002
      8.1562531237616323e-002 6.8645635584712428e-002
      3.0762594270108575e-002 4.3790273690081025e-002
      -3.0255169674675876e-002 2.8823092379070086e-002
      8.0857880535717325e-002 7.0296736366691120e-002
      2.7248800634270220e-002 4.4439593203205389e-002
      -2.8255908574425628e-002 2.7715778892812248e-002
      7.8123275002300707e-002 7.0930974303494057e-002
      3.1133258428646112e-002 4.7069553536740777e-002
      -3.0243273038659438e-002 3.1740203442669472e-002
      7.8195740269237202e-002 7.0198633189140297e-002
      2.8132385454001322e-002 4.6467470386991498e-002
      -2.9534536379178786e-002 3.1563591009196874e-002
      8.0608306215100511e-002 7.1113139568679720e-002
      2.9156585763471823e-002 4.3102745102749244e-002
      -2.8916317642565383e-002 3.1074575322650184e-002
      8.0752076401196707e-002 6.7718074919513566e-002
      2.7774498462036445e-002 4.5171305989667017e-002
      -2.8633085614479067e-002 3.1472513041495863e-002
      7.9003352624695392e-002 6.7699219155716958e-002
      2.9056170335283169e-002 4.7752452097359357e-002
      -2.6989767444670128e-002 3.0948983726263129e-002
      8.0723165708066813e-002 7.0750368801902427e-002
      2.9756379967074528e-002 4.3465659735883184e-002
      -2.8334848483355476e-002 3.0044582239826017e-002
      7.9170767195129277e-002 7.0634171614560398e-002
      2.7208956366633480e-002 4.4139904785882922e-002
      -2.7843830915453938e-002 2.8450187398272573e-002
      7.8496438203841223e-002 7.0152643131578721e-002
      2.9290037652237585e-002 4.5075699949979960e-002
      -3.0575933388048138e-002 3.0816605862384258e-002
      8.0233274931150872e-002 6.9445046244502262e-002
      2.8888179647299249e-002 4.4107588198088035e-002
      -3.1099048859974759e-002 2.9138358168235675e-002
      8.1459681588212041e-002 6.8878008337191168e-002
      2.7966852549595099e-002 4.3776091058527707e-002
      -3.1530241128503604e-002 3.0271729679594205e-002
      8.1952183980835480e-002 6.7931485428709651e-002
      3.1266550690333204e-002 4.6804977617087011e-002
      -3.0371526163408668e-002 2.8370480266506074e-002
      8.0719843606760738e-002 6.9005774857355956e-002
      3.1746175780663355e-002 4.3298145871906890e-002
      -2.9348494069736466e-002 2.7474255076846629e-002
      8.2446240124207940e-002 6.9252067883209326e-002
      2.7203620562806067e-002 4.6723248743359772e-002
      -2.8149907916011435e-002 2.8500095801046153e-002
      8.1728260188641419e-002 6.7084462083359553e-002
      3.1003638357447297e-002 4.4450346725113291e-002
      -2.9942030067949474e-002 3.1124681391664306e-002
      8.2082145494795991e-002 6.8637108142972789e-002
      3.1514403825769040e-002 4.3553063279457918e-002
      -2.8296090788871811e-002 3.0556177633012604e-002
      7.8271974608067438e-002 6.6861088961251397e-002
      2.9092493759388972e-002 4.5413054027606897e-002
      -2.7767504474114513e-002 2.9149489801434576e-002
      8.0603240046998689e-002 7.0988406913568586e-002
      2.8964285900942462e-002 4.7827442708950771e-002
      -3.0620079156591120e-002 2.9974492403477795e-002
      8.2028536830371784e-002 7.0944944334564691e-002
      3.0870384634007406e-002 4.6114440967454470e-002
      -2.8195012710985651e-002 2.9817551568676475e-002
      8.2793704925331446e-002 6.7045231132226213e-002
      3.0506730463865647e-002 4.3594349828786128e-002
      -2.7016088560933994e-002 2.9784031541494494e-002
      8.1233804876774410e-002 6.8801224580413683e-002
      3.1835198973053223e-002 4.6424675677481000e-002
      -2.7453167086318616e-002 3.1309653319742115e-002
      8.0165855837495040e-002 6.7298781063249921e-002
      2.8396442676916694e-002 4.5420302816321659e-002
      -2.9995706906881373e-002 2.7203814482334339e-002
      8.0690117569362077e-002 6.6644931789171441e-002
      2.9920840099187072e-002 4.7358868804069483e-002
      -3.1849973210806660e-002 2.7059024129556034e-002
      8.2996596022036087e-002 6.7040531164793762e-002
      2.8444824529870141e-002 4.3714704833614962e-002
      -3.1853657915953064e-002 2.7129620163294767e-002
      7.8642162931756812e-002 6.8586481816974923e-002
      2.8406814118024034e-002 4.5402468668478392e-002
      -2.7979286115871745e-002 3.0330911994394073e-002
      8.1542475274957782e-002 6.9117484162941209e-002
      2.7138152937307241e-002 4.3731290850607119e-002
      -3.1416294004226346e-002 2.7614253345409179e-002
      7.8317702940028044e-002 6.8657746217285889e-002
      3.1470701702165767e-002 4.3652582209742725e-002
      -3.0186234926837838e-002 2.7990686637636111e-002
      7.8442130313192762e-002 7.0757560042756337e-002
      3.0933029639109384e-002 4.5154653685411231e-002
      -3.1583304824678547e-002 2.9734767083149188e-002
