<?xml version="1.0"?>
<opencv_storage>
<opencv_ml_svm>
  <format>3</format>
  <svmType>C_SVC</svmType>
  <kernel>
    <type>LINEAR</type></kernel>
  <C>1.</C>
  <term_criteria><iterations>1000</iterations></term_criteria>
  <var_count>800</var_count>
  <class_count>2</class_count>
  <class_labels type_id="opencv-matrix">
    <rows>2</rows>
    <cols>1</cols>
    <dt>i</dt>
    <data>
      0 1</data></class_labels>
  <sv_total>1</sv_total>
  <support_vectors>
    <_>
      0. 0. 0. 0. 0. 0. 0. 0. 0. 0. 0. 0. 0. 0. 0. 0. 0. 0. 0. 0. 0.
      1.95350385e-005 3.13264463e-005 3.37284764e-005 2.68493841e-005
      1.24552253e-005 -6.62244872e-007 -3.69114764e-006 8.00796442e-006
      2.46448708e-005 1.66445279e-005 -1.75204186e-005 -2.19190133e-005
      7.92335322e-006 5.00157694e-005 7.55677174e-005 6.26694382e-005
      4.27990599e-005 1.96363726e-005 0. 0. 2.88903630e-005
      4.50798252e-005 5.19301720e-005 4.33478963e-005 1.71364209e-005
      -1.05024355e-005 -2.24934465e-005 -1.15742978e-005 7.61949605e-006
      -9.71053510e-007 -3.79690609e-005 -4.28952553e-005
      -9.74561863e-006 4.01027464e-005 7.69705439e-005 7.80335467e-005
      6.47348133e-005 3.87192522e-005 0. 0. 3.95717107e-005
      5.92644719e-005 6.27154150e-005 4.20345204e-005 8.83280791e-007
      -3.90179994e-005 -5.70788652e-005 -4.48963583e-005
      -2.05452361e-005 -2.51969941e-005 -6.46471817e-005
      -7.34402129e-005 -4.17356532e-005 1.26162577e-005 5.80124943e-005
      7.34629284e-005 7.45364523e-005 5.27615848e-005 0. 0.
      4.37660492e-005 6.32296506e-005 6.27960180e-005 3.19525680e-005
      -1.94595505e-005 -6.52268573e-005 -7.49728279e-005
      -4.04151397e-005 -3.68497354e-006 -8.75816204e-006
      -5.69246949e-005 -7.96548775e-005 -5.79476509e-005
      -1.23207183e-005 3.78516816e-005 6.03029839e-005 7.51722691e-005
      5.94588928e-005 0. 0. 4.80738163e-005 6.25440516e-005
      5.42571725e-005 2.00104678e-005 -3.41027589e-005 -6.83906037e-005
      -5.37761734e-005 -1.11562131e-005 3.18923412e-005 2.67038467e-005
      -2.54805818e-005 -5.32302292e-005 -4.75471788e-005
      -2.25291315e-005 1.17031714e-005 4.09640888e-005 6.60041260e-005
      5.87034083e-005 0. 0. 4.74568878e-005 5.78723339e-005
      4.15688046e-005 6.66026335e-006 -3.31150331e-005 -4.61756608e-005
      -2.67659234e-005 1.95756529e-005 6.53999596e-005 5.92802498e-005
      3.52260145e-006 -2.86371906e-005 -2.80796539e-005 -9.58586770e-006
      8.14711314e-007 2.19023786e-005 5.03741976e-005 5.03326082e-005 0.
      0. 4.12999834e-005 5.03756746e-005 2.99724925e-005 3.81899781e-006
      -1.86466004e-005 -1.99857732e-005 -6.29490523e-006 2.32177426e-005
      5.25589930e-005 4.60881711e-005 -2.39156805e-007 -1.99342176e-005
      -1.12005027e-005 1.03774428e-005 1.05185727e-005 5.18035085e-006
      3.49671063e-005 3.82904618e-005 0. 0. 4.08358937e-005
      4.97599831e-005 2.34467079e-005 8.81473261e-006 -2.07265384e-006
      -5.12969973e-006 -5.37278265e-006 2.42415035e-006 1.46789862e-005
      1.04487872e-005 -2.63425245e-005 -3.22630403e-005 -9.07957747e-006
      2.22467024e-005 2.29865454e-005 -4.71177691e-006 2.51372130e-005
      2.99198618e-005 0. 0. 4.09545210e-005 4.78604197e-005
      1.89768562e-005 1.43575162e-005 1.11991067e-005 5.20245840e-006
      -6.36279356e-006 -1.47057408e-005 -4.12509962e-006 3.10465293e-006
      -3.59437399e-005 -4.07865227e-005 -1.12118287e-005 2.74885278e-005
      3.17713311e-005 -6.40138296e-007 1.93483447e-005 2.49615950e-005
      0. 0. 4.16656221e-005 4.92928193e-005 2.08055026e-005
      1.76121248e-005 1.62911711e-005 1.17312002e-005 -5.97427425e-006
      -2.32716520e-005 -9.04314038e-006 4.20979950e-006 -3.95154020e-005
      -4.64124751e-005 -1.43862744e-005 2.79647829e-005 3.60442064e-005
      4.48886249e-006 1.95813518e-005 2.46563959e-005 0. 0.
      4.30588370e-005 5.16729597e-005 2.09239679e-005 1.88633148e-005
      1.84417586e-005 1.44413170e-005 -4.68692133e-006 -2.51901984e-005
      -9.28734153e-006 -5.26195088e-008 -4.08185770e-005
      -4.89697559e-005 -1.69418308e-005 2.74698850e-005 3.74872980e-005
      7.86244709e-006 1.67072230e-005 2.43848481e-005 0. 0.
      4.34143039e-005 5.06093966e-005 1.99854712e-005 1.82863350e-005
      1.98992166e-005 1.42740664e-005 -7.60383546e-006 -2.90836288e-005
      -1.66447971e-005 -2.79795245e-006 -4.02881014e-005
      -5.06609795e-005 -2.03021755e-005 2.51177207e-005 3.76205317e-005
      1.11912541e-005 1.59564661e-005 2.43138911e-005 0. 0.
      4.21401055e-005 4.98507943e-005 2.02972351e-005 1.75655150e-005
      2.04425869e-005 1.61059961e-005 -6.30142995e-006 -2.95172231e-005
      -1.97979862e-005 -3.62018272e-006 -3.75301242e-005
      -4.89043341e-005 -1.95071552e-005 2.69910342e-005 4.18053569e-005
      1.62404140e-005 1.67221115e-005 2.55296563e-005 0. 0.
      4.29223583e-005 5.07634759e-005 2.22987728e-005 1.79248254e-005
      2.07363828e-005 1.87011283e-005 -2.36006463e-006 -2.63230140e-005
      -1.87322221e-005 -2.26277734e-006 -3.65071028e-005
      -4.94281740e-005 -1.93147753e-005 2.88012343e-005 4.74872541e-005
      1.99843198e-005 1.63749646e-005 2.74331069e-005 0. 0.
      4.58404247e-005 5.49087526e-005 2.52647060e-005 1.75771620e-005
      2.13894873e-005 2.27605196e-005 3.90421292e-006 -2.26672382e-005
      -2.32162856e-005 -2.17568345e-006 -3.55791672e-005
      -4.96595785e-005 -1.86606758e-005 3.07092414e-005 4.87997859e-005
      2.04828229e-005 1.60650798e-005 2.69133870e-005 0. 0.
      4.90749007e-005 6.00646490e-005 2.82034671e-005 1.77035545e-005
      2.44320618e-005 2.46875315e-005 5.03240108e-006 -2.27295168e-005
      -2.73222668e-005 -6.12544909e-006 -3.85189669e-005
      -5.26951553e-005 -2.00141221e-005 3.16718615e-005 5.02954535e-005
      1.93694286e-005 1.52944649e-005 2.64830778e-005 0. 0.
      5.07837285e-005 6.19210696e-005 2.91618526e-005 1.74042743e-005
      2.75466355e-005 2.62913381e-005 3.17669264e-006 -2.56867661e-005
      -2.87899638e-005 -8.00848284e-006 -4.10994544e-005
      -5.59848631e-005 -2.20160709e-005 3.25095025e-005 5.11145990e-005
      1.77344809e-005 1.40468837e-005 2.60568941e-005 0. 0.
      5.24542120e-005 6.44507745e-005 2.87997791e-005 1.68011047e-005
      3.14277349e-005 2.75856237e-005 5.93163691e-007 -2.93952507e-005
      -3.24906068e-005 -7.27241013e-006 -4.49582549e-005
      -6.15384488e-005 -2.45012743e-005 3.48119211e-005 5.19853711e-005
      1.45646763e-005 1.08129707e-005 2.46954532e-005 0. 0.
      5.32479171e-005 6.34084208e-005 2.79930700e-005 1.69561099e-005
      3.60619415e-005 3.32908057e-005 2.70188502e-006 -3.19539649e-005
      -3.81735008e-005 -8.74094167e-006 -4.56804009e-005
      -6.46767148e-005 -2.74463182e-005 3.48382564e-005 5.22274968e-005
      1.25677388e-005 6.38910660e-006 2.21108821e-005 0. 0.
      5.23213894e-005 6.05047208e-005 2.81314205e-005 1.56362894e-005
      3.83439474e-005 3.61885432e-005 5.03652473e-006 -3.21503867e-005
      -4.01100842e-005 -1.11341633e-005 -4.50013649e-005
      -6.48263958e-005 -2.82929686e-005 3.42584681e-005 5.23592898e-005
      1.21983821e-005 3.62924402e-006 1.85812514e-005 0. 0.
      4.93217558e-005 5.74501792e-005 2.73703790e-005 1.35466635e-005
      3.84605300e-005 3.90675923e-005 7.86310284e-006 -3.07459632e-005
      -3.93868213e-005 -1.17540858e-005 -4.23354722e-005
      -6.16375110e-005 -2.81684224e-005 3.06148977e-005 5.07292752e-005
      1.56422084e-005 1.98785392e-006 1.58901457e-005 0. 0.
      4.73022046e-005 5.67067837e-005 2.84375528e-005 1.12572507e-005
      3.77378310e-005 4.27555569e-005 1.21579842e-005 -3.07584523e-005
      -4.10078865e-005 -7.68995778e-006 -3.58107318e-005
      -5.78528270e-005 -2.85429469e-005 2.54701281e-005 4.81680909e-005
      1.77199090e-005 2.35180187e-006 1.57947325e-005 0. 0.
      4.74834560e-005 5.93000805e-005 2.90116641e-005 1.02969434e-005
      3.69603076e-005 4.30201035e-005 1.51970371e-005 -2.74859631e-005
      -4.38132593e-005 -5.39172970e-006 -2.89647414e-005
      -5.41310183e-005 -3.13825840e-005 1.99062124e-005 4.74430381e-005
      2.24161577e-005 6.00897829e-006 1.50983597e-005 0. 0.
      4.84280026e-005 5.95093989e-005 2.79176438e-005 1.08918593e-005
      3.44776781e-005 4.19527460e-005 1.51967188e-005 -2.66080988e-005
      -4.30196415e-005 -4.56072075e-006 -2.61811438e-005
      -5.28978890e-005 -3.37443998e-005 1.44276655e-005 4.49368417e-005
      2.41837406e-005 8.41173551e-006 1.25341239e-005 0. 0.
      4.75378511e-005 5.72139397e-005 2.80375098e-005 1.13517417e-005
      3.24614484e-005 3.64516709e-005 9.64941864e-006 -2.91443666e-005
      -4.10675711e-005 -7.46817659e-006 -2.63559141e-005
      -5.25459836e-005 -3.55707743e-005 1.09533803e-005 4.26441875e-005
      2.50331959e-005 9.89768523e-006 1.21435187e-005 0. 0.
      4.60466945e-005 5.57222666e-005 2.88749980e-005 7.85216344e-006
      3.21396838e-005 3.31565643e-005 5.77208266e-006 -3.00807842e-005
      -4.16215917e-005 -9.42953102e-006 -2.38335742e-005
      -4.97880428e-005 -3.52484858e-005 8.08553978e-006 4.03311642e-005
      2.64743267e-005 1.09758994e-005 1.21056983e-005 0. 0.
      4.48945248e-005 5.57060193e-005 2.89764066e-005 5.68965424e-006
      3.06920374e-005 2.98807463e-005 2.66315146e-006 -2.95551090e-005
      -3.94863018e-005 -1.13533861e-005 -2.11082479e-005
      -4.69295301e-005 -3.64702973e-005 3.83039878e-006 3.55088050e-005
      2.59535700e-005 1.09666144e-005 1.06197094e-005 0. 0.
      4.37225026e-005 5.47623167e-005 2.77486743e-005 5.77309538e-006
      3.08026974e-005 2.86027516e-005 6.59687771e-007 -3.05360736e-005
      -3.78166587e-005 -4.36555592e-006 -1.27753083e-005
      -4.28350759e-005 -3.81998179e-005 -1.60896991e-006 3.09318966e-005
      2.45174142e-005 1.27570038e-005 1.14125714e-005 0. 0.
      4.60828778e-005 5.64382863e-005 3.00500960e-005 5.56978830e-006
      2.95532373e-005 2.69681659e-005 -2.13387420e-006 -3.31570627e-005
      -3.69702502e-005 5.20532467e-006 -2.73786350e-006 -3.85372732e-005
      -4.02937294e-005 -7.76827983e-006 2.44077928e-005 2.21924656e-005
      1.56035912e-005 1.33431950e-005 0. 0. 4.85087621e-005
      5.97782564e-005 3.23772874e-005 5.24521420e-006 2.59313929e-005
      2.23072093e-005 -6.17725982e-006 -3.29901341e-005 -2.91899632e-005
      1.29062500e-005 3.61262801e-006 -3.73548828e-005 -4.33242931e-005
      -1.35590317e-005 1.78994160e-005 1.60977488e-005 1.66663176e-005
      1.72172513e-005 0. 0. 5.08512057e-005 6.43782987e-005
      4.04155908e-005 8.05934451e-006 1.59920401e-005 1.13767710e-005
      -1.29729833e-005 -2.87415187e-005 -1.64310368e-005 1.74242032e-005
      5.35103254e-006 -3.79270641e-005 -4.51178785e-005 -1.84297351e-005
      1.04021938e-005 1.25245297e-005 1.79703238e-005 1.95356733e-005 0.
      0. 5.43662318e-005 6.92890244e-005 4.83514377e-005 1.43778943e-005
      6.20352648e-006 -2.85037504e-006 -2.42917849e-005 -3.20528743e-005
      -1.10606697e-005 2.58509481e-005 2.00038085e-005 -2.74146023e-005
      -4.18813615e-005 -2.23887946e-005 3.03952720e-006 1.22609854e-005
      1.95423090e-005 2.38708853e-005 0. 0. 5.78728941e-005
      7.60899929e-005 5.95523379e-005 2.68698022e-005 7.12652673e-006
      -1.71093379e-005 -3.84631348e-005 -4.22799749e-005
      -1.52800658e-005 2.81366410e-005 3.18296443e-005 -1.74567522e-005
      -4.13549133e-005 -3.28581045e-005 -1.24378785e-005 1.25414908e-005
      2.89010331e-005 3.36251396e-005 0. 0. 5.49529468e-005
      7.80120172e-005 6.85076157e-005 3.86974789e-005 1.16558094e-005
      -2.30696623e-005 -5.11852850e-005 -5.62030727e-005
      -2.64646351e-005 2.26703050e-005 3.19801693e-005 -2.11704355e-005
      -5.21980983e-005 -4.88621481e-005 -1.82297117e-005 1.71306019e-005
      4.49848922e-005 4.59072617e-005 0. 0. 5.18606321e-005
      8.04341034e-005 8.21702633e-005 5.84741756e-005 2.77218223e-005
      -2.36997184e-005 -6.42407686e-005 -7.57430389e-005
      -4.84102311e-005 2.02879778e-006 1.63392815e-005 -4.08027227e-005
      -7.64975848e-005 -6.42818122e-005 -1.64448229e-005 3.48551621e-005
      6.04389716e-005 5.51202356e-005 0. 0. 5.03445081e-005
      8.10500351e-005 9.48644447e-005 8.18718327e-005 5.22784139e-005
      2.70924602e-006 -6.05174428e-005 -8.51009245e-005 -6.59565048e-005
      -2.02926822e-005 -6.07948505e-006 -5.95208548e-005
      -8.36035688e-005 -6.13815719e-005 3.78341815e-006 5.63166686e-005
      6.68222056e-005 5.39799657e-005 0. 0. 2.09283171e-005
      5.14294989e-005 8.29316850e-005 9.67769010e-005 8.76222039e-005
      4.89356462e-005 -1.66189275e-005 -6.20592036e-005 -6.36600162e-005
      -3.33533098e-005 -2.06814384e-005 -5.55238330e-005
      -6.22902007e-005 -2.11156330e-005 4.17485935e-005 7.71085106e-005
      7.08806110e-005 5.04030395e-005 0. 0. -2.22035055e-006
      1.66416139e-005 4.49001163e-005 7.38294984e-005 9.42774641e-005
      8.17565087e-005 2.93613448e-005 -1.92220505e-005 -3.39485632e-005
      -2.43427203e-005 -2.08823130e-005 -3.18492421e-005
      -2.03142299e-005 1.90084829e-005 6.18604245e-005 7.59247414e-005
      6.26544570e-005 4.09707609e-005 0. 0. 0. 0. 0. 0. 0. 0. 0. 0. 0.
      0. 0. 0. 0. 0. 0. 0. 0. 0. 0.</_></support_vectors>
  <uncompressed_sv_total>5</uncompressed_sv_total>
  <uncompressed_support_vectors>
    <_>
      0. 0. 0. 0. 0. 0. 0. 0. 0. 0. 0. 0. 0. 0. 0. 0. 0. 0. 0. 0. 0. 28.
      57. 88. 119. 149. 168. 169. 150. 126. 110. 105. 109. 124. 146.
      165. 160. 133. 78. 0. 0. 40. 85. 130. 163. 172. 153. 124. 93. 71.
      60. 60. 69. 93. 127. 164. 183. 175. 120. 0. 0. 67. 121. 155. 163.
      137. 91. 46. 20. 23. 28. 24. 16. 28. 67. 117. 162. 183. 143. 0. 0.
      94. 151. 169. 153. 105. 50. 22. 52. 78. 89. 83. 60. 28. 16. 68.
      125. 169. 142. 0. 0. 116. 167. 161. 122. 61. 5. 58. 103. 131. 142.
      135. 113. 80. 36. 18. 81. 140. 126. 0. 0. 118. 161. 138. 86. 17.
      50. 107. 148. 164. 166. 162. 151. 124. 81. 23. 47. 116. 109. 0. 0.
      106. 145. 116. 57. 20. 93. 147. 165. 149. 135. 142. 159. 154. 122.
      60. 17. 96. 95. 0. 0. 101. 139. 106. 42. 41. 116. 159. 150. 98.
      58. 83. 132. 157. 143. 86. 3. 83. 87. 0. 0. 100. 137. 99. 31. 56.
      129. 166. 140. 78. 33. 54. 105. 150. 155. 105. 18. 72. 81. 0. 0.
      98. 137. 100. 31. 60. 140. 178. 148. 77. 34. 58. 103. 147. 156.
      112. 23. 70. 81. 0. 0. 99. 138. 102. 32. 65. 150. 190. 151. 63.
      19. 63. 102. 143. 158. 118. 28. 69. 82. 0. 0. 98. 138. 102. 31.
      70. 158. 195. 147. 50. 27. 64. 95. 135. 155. 121. 30. 71. 85. 0.
      0. 98. 138. 101. 30. 73. 164. 201. 148. 46. 34. 63. 90. 132. 157.
      125. 33. 73. 89. 0. 0. 100. 138. 101. 31. 73. 171. 213. 157. 48.
      43. 67. 94. 139. 164. 130. 32. 79. 95. 0. 0. 112. 150. 106. 33.
      77. 177. 221. 162. 52. 36. 68. 103. 153. 174. 133. 32. 82. 98. 0.
      0. 125. 165. 113. 34. 80. 183. 228. 167. 58. 21. 56. 105. 166.
      185. 137. 33. 86. 102. 0. 0. 133. 175. 116. 33. 88. 199. 238. 166.
      51. 18. 50. 109. 176. 192. 139. 35. 85. 102. 0. 0. 141. 183. 118.
      32. 94. 211. 246. 165. 49. 18. 50. 117. 188. 199. 141. 35. 81. 98.
      0. 0. 141. 181. 114. 28. 100. 222. 254. 165. 44. 17. 48. 123. 197.
      206. 143. 37. 73. 92. 0. 0. 137. 175. 110. 26. 100. 221. 255. 168.
      46. 13. 49. 129. 204. 208. 142. 38. 65. 82. 0. 0. 129. 166. 106.
      27. 93. 208. 249. 175. 58. 10. 54. 133. 202. 204. 140. 40. 58. 74.
      0. 0. 129. 166. 104. 22. 91. 198. 239. 171. 60. 21. 58. 128. 196.
      201. 139. 40. 56. 72. 0. 0. 132. 169. 102. 17. 91. 187. 230. 168.
      61. 27. 58. 119. 186. 197. 139. 41. 52. 68. 0. 0. 132. 169. 103.
      17. 89. 181. 217. 159. 62. 23. 45. 109. 181. 196. 138. 38. 56. 71.
      0. 0. 127. 165. 103. 18. 89. 177. 208. 150. 59. 12. 38. 105. 177.
      193. 137. 36. 59. 73. 0. 0. 119. 156. 101. 18. 91. 177. 201. 143.
      56. 12. 39. 106. 175. 188. 132. 34. 62. 75. 0. 0. 111. 146. 95.
      17. 88. 169. 191. 139. 61. 21. 46. 109. 169. 181. 127. 31. 64. 76.
      0. 0. 104. 138. 89. 15. 83. 159. 180. 136. 74. 48. 64. 113. 163.
      171. 121. 29. 66. 80. 0. 0. 105. 137. 90. 18. 72. 141. 162. 129.
      85. 73. 84. 116. 150. 153. 107. 21. 73. 84. 0. 0. 110. 142. 94.
      23. 61. 125. 149. 127. 92. 79. 86. 112. 138. 136. 92. 11. 81. 89.
      0. 0. 116. 155. 117. 49. 33. 101. 139. 138. 110. 93. 97. 118. 131.
      120. 74. 11. 94. 96. 0. 0. 114. 162. 137. 77. 3. 65. 113. 134.
      131. 126. 126. 130. 125. 103. 54. 29. 111. 108. 0. 0. 106. 159.
      150. 103. 37. 27. 75. 109. 127. 133. 132. 123. 105. 75. 21. 63.
      140. 129. 0. 0. 95. 152. 157. 121. 64. 21. 44. 77. 98. 109. 107.
      96. 75. 38. 34. 112. 176. 152. 0. 0. 91. 155. 175. 146. 93. 45.
      20. 31. 45. 53. 53. 43. 20. 32. 104. 173. 207. 157. 0. 0. 82. 151.
      194. 186. 137. 83. 45. 24. 14. 9. 7. 14. 45. 99. 167. 207. 202.
      132. 0. 0. 39. 103. 176. 210. 193. 153. 116. 88. 72. 67. 72. 92.
      130. 182. 220. 213. 163. 89. 0. 0. 14. 50. 109. 162. 191. 186.
      162. 129. 104. 95. 107. 139. 180. 210. 205. 160. 99. 44. 0. 0. 0.
      0. 0. 0. 0. 0. 0. 0. 0. 0. 0. 0. 0. 0. 0. 0. 0. 0. 0.</_>
    <_>
      0. 0. 0. 0. 0. 0. 0. 0. 0. 0. 0. 0. 0. 0. 0. 0. 0. 0. 0. 0. 0. 67.
      97. 105. 106. 105. 105. 105. 102. 103. 112. 131. 153. 173. 180.
      172. 135. 82. 29. 0. 0. 86. 123. 138. 136. 120. 104. 92. 84. 79.
      84. 99. 121. 146. 167. 183. 175. 135. 74. 0. 0. 105. 147. 149.
      125. 92. 63. 43. 27. 18. 21. 34. 55. 82. 113. 148. 171. 162. 113.
      0. 0. 105. 142. 125. 84. 43. 12. 17. 36. 44. 39. 23. 5. 29. 64.
      108. 150. 167. 132. 0. 0. 106. 131. 93. 43. 17. 51. 92. 122. 136.
      128. 105. 72. 35. 15. 58. 110. 150. 137. 0. 0. 103. 116. 67. 11.
      43. 101. 167. 214. 237. 226. 193. 144. 87. 34. 18. 72. 119. 123.
      0. 0. 88. 95. 43. 20. 87. 162. 217. 221. 202. 194. 195. 179. 136.
      81. 27. 35. 82. 89. 0. 0. 83. 87. 23. 52. 125. 192. 210. 160. 103.
      113. 144. 161. 150. 112. 55. 11. 58. 63. 0. 0. 84. 83. 11. 75.
      152. 212. 200. 112. 50. 94. 122. 150. 159. 136. 79. 13. 44. 50. 0.
      0. 90. 88. 10. 79. 160. 219. 188. 78. 31. 85. 96. 128. 157. 151.
      95. 19. 38. 44. 0. 0. 93. 91. 10. 83. 163. 216. 179. 71. 41. 74.
      79. 115. 154. 157. 105. 27. 32. 40. 0. 0. 96. 94. 10. 85. 163.
      205. 162. 63. 25. 57. 69. 108. 150. 159. 113. 37. 25. 36. 0. 0.
      92. 91. 11. 81. 161. 205. 165. 66. 19. 51. 67. 108. 154. 169. 128.
      50. 20. 34. 0. 0. 92. 92. 15. 78. 158. 210. 175. 78. 29. 49. 61.
      101. 152. 175. 141. 61. 14. 33. 0. 0. 97. 99. 21. 71. 155. 221.
      197. 95. 17. 52. 60. 96. 150. 180. 148. 67. 12. 32. 0. 0. 101.
      103. 26. 66. 152. 217. 198. 102. 12. 45. 60. 95. 147. 180. 150.
      68. 13. 34. 0. 0. 101. 105. 30. 61. 147. 209. 192. 105. 22. 39.
      62. 96. 145. 177. 148. 68. 15. 35. 0. 0. 105. 110. 33. 59. 143.
      205. 190. 105. 19. 39. 59. 90. 140. 174. 148. 69. 12. 33. 0. 0.
      107. 113. 36. 58. 143. 206. 192. 107. 15. 40. 57. 85. 136. 173.
      146. 68. 10. 31. 0. 0. 104. 109. 35. 54. 139. 206. 198. 114. 20.
      37. 55. 85. 138. 176. 148. 68. 10. 29. 0. 0. 99. 105. 35. 50. 137.
      213. 207. 119. 24. 40. 52. 85. 140. 177. 147. 70. 6. 25. 0. 0. 95.
      100. 36. 46. 135. 223. 220. 121. 25. 46. 50. 85. 144. 179. 148.
      73. 4. 21. 0. 0. 95. 103. 39. 44. 135. 226. 227. 129. 17. 49. 55.
      84. 137. 175. 153. 84. 15. 17. 0. 0. 94. 105. 44. 39. 132. 226.
      230. 133. 22. 53. 57. 78. 128. 171. 158. 93. 22. 12. 0. 0. 91.
      103. 45. 35. 123. 212. 218. 131. 33. 46. 47. 67. 119. 169. 161.
      98. 24. 8. 0. 0. 92. 106. 49. 30. 117. 200. 211. 134. 35. 32. 41.
      64. 118. 170. 165. 101. 26. 7. 0. 0. 93. 108. 53. 25. 108. 186.
      201. 139. 46. 16. 33. 62. 119. 173. 167. 104. 28. 6. 0. 0. 93.
      108. 52. 28. 106. 179. 194. 137. 48. 22. 42. 67. 116. 167. 163.
      103. 30. 5. 0. 0. 96. 110. 52. 25. 101. 172. 188. 134. 52. 42. 59.
      76. 115. 160. 157. 102. 30. 5. 0. 0. 106. 120. 59. 20. 94. 162.
      180. 137. 79. 71. 75. 80. 109. 147. 145. 93. 24. 10. 0. 0. 112.
      129. 69. 8. 76. 138. 163. 145. 115. 84. 67. 69. 104. 136. 130. 80.
      16. 17. 0. 0. 129. 145. 84. 16. 53. 108. 141. 141. 128. 102. 89.
      93. 120. 135. 119. 67. 10. 30. 0. 0. 149. 174. 117. 46. 20. 73.
      113. 128. 127. 117. 118. 128. 134. 121. 90. 38. 23. 52. 0. 0. 148.
      190. 149. 81. 15. 40. 81. 107. 122. 127. 130. 130. 118. 95. 60.
      10. 52. 75. 0. 0. 141. 201. 192. 139. 67. 9. 39. 69. 90. 103. 105.
      96. 76. 50. 15. 38. 98. 112. 0. 0. 145. 211. 231. 202. 134. 65.
      18. 31. 49. 58. 55. 44. 26. 5. 38. 93. 145. 145. 0. 0. 93. 162.
      224. 255. 232. 176. 108. 57. 21. 4. 5. 15. 39. 75. 123. 175. 204.
      178. 0. 0. 36. 81. 140. 212. 255. 249. 193. 131. 78. 46. 37. 53.
      88. 132. 181. 215. 215. 173. 0. 0. 0. 0. 0. 0. 0. 0. 0. 0. 0. 0.
      0. 0. 0. 0. 0. 0. 0. 0. 0.</_>
    <_>
      0. 0. 0. 0. 0. 0. 0. 0. 0. 0. 0. 0. 0. 0. 0. 0. 0. 0. 0. 0. 0. 13.
      22. 37. 67. 113. 142. 127. 68. 58. 131. 165. 136. 72. 21. 7. 9. 9.
      7. 0. 0. 6. 15. 33. 67. 127. 168. 150. 74. 46. 132. 171. 143. 82.
      31. 9. 7. 12. 10. 0. 0. 4. 11. 21. 61. 132. 180. 159. 73. 45. 143.
      182. 146. 77. 26. 7. 7. 10. 9. 0. 0. 9. 13. 10. 57. 135. 186. 165.
      77. 45. 148. 189. 151. 75. 21. 6. 9. 7. 10. 0. 0. 8. 11. 5. 52.
      135. 190. 169. 80. 42. 146. 196. 162. 79. 18. 14. 10. 5. 14. 0. 0.
      7. 8. 6. 51. 134. 193. 172. 82. 39. 143. 199. 172. 88. 19. 19. 13.
      10. 16. 0. 0. 6. 7. 9. 51. 132. 192. 174. 86. 36. 140. 204. 182.
      94. 19. 22. 14. 12. 16. 0. 0. 5. 5. 9. 50. 131. 193. 178. 91. 31.
      140. 210. 190. 99. 16. 23. 16. 12. 14. 0. 0. 2. 3. 10. 45. 124.
      190. 182. 99. 24. 134. 209. 195. 107. 20. 20. 15. 10. 11. 0. 0. 1.
      4. 10. 39. 116. 185. 184. 107. 15. 126. 208. 199. 114. 26. 14. 9.
      1. 6. 0. 0. 4. 2. 8. 32. 108. 182. 189. 115. 9. 121. 206. 202.
      117. 27. 16. 13. 8. 8. 0. 0. 6. 5. 8. 29. 103. 180. 193. 122. 4.
      116. 204. 203. 120. 29. 18. 12. 5. 6. 0. 0. 6. 6. 9. 26. 99. 180.
      199. 129. 2. 111. 200. 202. 122. 32. 14. 8. 1. 3. 0. 0. 8. 8. 11.
      24. 97. 183. 206. 138. 9. 105. 197. 202. 124. 36. 8. 6. 3. 0. 0.
      0. 11. 8. 10. 20. 96. 186. 214. 146. 17. 97. 194. 207. 133. 43.
      14. 10. 4. 4. 0. 0. 10. 4. 8. 12. 88. 190. 224. 157. 27. 87. 194.
      218. 148. 53. 20. 17. 13. 9. 0. 0. 9. 5. 12. 10. 80. 191. 232.
      166. 34. 82. 197. 230. 161. 56. 26. 23. 16. 8. 0. 0. 12. 4. 17.
      18. 71. 191. 238. 172. 40. 78. 201. 244. 173. 55. 35. 33. 18. 8.
      0. 0. 9. 7. 20. 14. 72. 187. 235. 175. 46. 74. 203. 252. 182. 55.
      35. 36. 21. 10. 0. 0. 4. 11. 20. 14. 68. 182. 233. 179. 53. 69.
      202. 255. 188. 58. 34. 38. 23. 11. 0. 0. 6. 14. 18. 14. 64. 172.
      231. 185. 59. 65. 198. 251. 188. 64. 26. 32. 21. 10. 0. 0. 10. 12.
      9. 13. 60. 159. 223. 187. 68. 53. 186. 247. 195. 76. 18. 31. 23.
      10. 0. 0. 12. 8. 2. 10. 54. 149. 217. 188. 74. 43. 175. 242. 202.
      88. 11. 30. 24. 11. 0. 0. 7. 3. 8. 5. 51. 142. 212. 187. 78. 35.
      163. 233. 204. 99. 9. 26. 22. 10. 0. 0. 3. 8. 6. 3. 47. 140. 211.
      190. 85. 27. 153. 226. 205. 106. 14. 22. 19. 7. 0. 0. 9. 11. 3.
      10. 42. 139. 212. 193. 91. 17. 142. 220. 205. 111. 16. 15. 17. 8.
      0. 0. 10. 7. 7. 13. 37. 135. 211. 196. 99. 9. 133. 216. 211. 123.
      26. 16. 19. 11. 0. 0. 8. 7. 9. 17. 31. 128. 208. 199. 104. 4. 127.
      211. 214. 131. 32. 13. 18. 9. 0. 0. 3. 4. 2. 16. 24. 119. 204.
      201. 109. 1. 122. 206. 212. 136. 41. 10. 16. 7. 0. 0. 8. 6. 6. 17.
      27. 120. 204. 201. 111. 4. 116. 200. 207. 135. 48. 18. 11. 2. 0.
      0. 8. 6. 4. 15. 28. 121. 203. 200. 113. 11. 109. 194. 202. 133.
      53. 21. 13. 11. 0. 0. 10. 8. 6. 18. 25. 120. 202. 201. 119. 20.
      98. 186. 200. 135. 56. 24. 19. 21. 0. 0. 10. 8. 6. 17. 23. 114.
      197. 202. 125. 27. 90. 177. 194. 134. 56. 21. 17. 20. 0. 0. 8. 8.
      6. 17. 19. 108. 193. 204. 132. 33. 83. 170. 190. 134. 56. 13. 6.
      9. 0. 0. 5. 7. 4. 13. 18. 100. 187. 204. 138. 42. 73. 166. 196.
      146. 64. 16. 11. 7. 0. 0. 8. 6. 3. 10. 17. 94. 181. 203. 142. 46.
      70. 167. 202. 153. 66. 13. 14. 10. 0. 0. 11. 10. 10. 15. 15. 89.
      178. 208. 155. 82. 102. 184. 213. 154. 59. 6. 16. 11. 0. 0. 7. 8.
      9. 16. 9. 62. 144. 186. 160. 125. 143. 182. 180. 119. 42. 2. 12.
      10. 0. 0. 0. 0. 0. 0. 0. 0. 0. 0. 0. 0. 0. 0. 0. 0. 0. 0. 0. 0. 0.</_>
    <_>
      0. 0. 0. 0. 0. 0. 0. 0. 0. 0. 0. 0. 0. 0. 0. 0. 0. 0. 0. 0. 0. 5.
      7. 22. 55. 97. 132. 146. 125. 59. 41. 158. 216. 177. 79. 5. 20.
      19. 11. 0. 0. 3. 8. 22. 58. 103. 136. 149. 129. 64. 38. 162. 226.
      185. 81. 9. 23. 22. 16. 0. 0. 6. 11. 20. 56. 106. 145. 161. 139.
      72. 34. 161. 231. 194. 87. 9. 20. 20. 22. 0. 0. 9. 15. 15. 49.
      108. 157. 178. 152. 77. 35. 162. 235. 204. 96. 6. 18. 14. 15. 0.
      0. 12. 22. 13. 32. 104. 171. 199. 165. 78. 34. 162. 235. 207. 103.
      10. 14. 7. 3. 0. 0. 10. 18. 14. 20. 92. 169. 207. 175. 81. 31.
      160. 236. 213. 108. 12. 19. 13. 7. 0. 0. 8. 12. 14. 15. 81. 164.
      211. 181. 86. 27. 158. 238. 218. 112. 11. 21. 18. 8. 0. 0. 6. 4.
      9. 16. 72. 154. 207. 184. 94. 19. 155. 240. 223. 117. 12. 22. 22.
      10. 0. 0. 4. 4. 7. 14. 66. 147. 203. 187. 101. 12. 146. 235. 228.
      128. 21. 19. 21. 13. 0. 0. 6. 4. 1. 11. 63. 142. 199. 187. 106. 5.
      137. 230. 231. 138. 31. 13. 17. 10. 0. 0. 4. 3. 6. 16. 67. 139.
      193. 186. 110. 2. 132. 226. 234. 146. 37. 11. 16. 5. 0. 0. 6. 8.
      8. 21. 68. 137. 190. 186. 115. 7. 123. 220. 235. 153. 45. 12. 16.
      5. 0. 0. 5. 6. 6. 21. 68. 135. 190. 188. 119. 14. 113. 211. 233.
      155. 49. 9. 13. 4. 0. 0. 1. 3. 2. 19. 66. 135. 191. 189. 121. 18.
      109. 210. 235. 157. 48. 6. 11. 2. 0. 0. 2. 4. 2. 18. 65. 134. 191.
      191. 123. 20. 108. 210. 236. 158. 48. 7. 12. 2. 0. 0. 4. 1. 3. 20.
      59. 124. 185. 194. 132. 23. 110. 214. 237. 156. 44. 10. 12. 6. 0.
      0. 4. 2. 2. 17. 55. 122. 188. 201. 137. 25. 115. 222. 241. 153.
      36. 14. 16. 10. 0. 0. 6. 4. 5. 9. 47. 122. 197. 209. 142. 25. 123.
      232. 245. 147. 28. 19. 20. 9. 0. 0. 7. 7. 6. 5. 33. 111. 197. 217.
      151. 35. 118. 235. 251. 152. 28. 24. 26. 10. 0. 0. 7. 6. 1. 1. 25.
      102. 193. 221. 159. 43. 111. 233. 255. 158. 32. 23. 28. 13. 0. 0.
      5. 4. 3. 5. 22. 96. 187. 220. 164. 49. 102. 223. 253. 167. 45. 16.
      25. 13. 0. 0. 6. 3. 5. 7. 24. 95. 183. 217. 165. 56. 84. 204. 247.
      179. 64. 11. 17. 7. 0. 0. 7. 2. 10. 9. 29. 97. 179. 212. 164. 60.
      71. 186. 239. 185. 76. 7. 10. 1. 0. 0. 6. 8. 16. 8. 36. 104. 181.
      211. 166. 63. 63. 177. 236. 193. 90. 12. 14. 10. 0. 0. 6. 10. 19.
      4. 36. 109. 185. 212. 164. 65. 56. 169. 233. 199. 97. 15. 16. 12.
      0. 0. 3. 11. 20. 9. 34. 109. 188. 214. 164. 66. 50. 163. 232. 205.
      105. 18. 20. 13. 0. 0. 2. 8. 15. 9. 32. 104. 183. 212. 165. 69.
      45. 157. 230. 211. 114. 20. 24. 17. 0. 0. 4. 6. 12. 7. 30. 99.
      177. 209. 167. 72. 43. 155. 227. 211. 117. 24. 21. 17. 0. 0. 3. 3.
      8. 7. 27. 91. 170. 208. 171. 75. 44. 155. 224. 207. 116. 27. 17.
      14. 0. 0. 3. 2. 6. 6. 24. 87. 168. 208. 170. 75. 44. 157. 223.
      201. 110. 27. 17. 12. 0. 0. 4. 3. 6. 5. 21. 87. 171. 208. 168. 75.
      44. 157. 222. 196. 105. 25. 13. 10. 0. 0. 6. 5. 6. 10. 14. 86.
      174. 211. 169. 78. 41. 155. 221. 195. 105. 26. 10. 10. 0. 0. 7. 6.
      7. 15. 7. 83. 175. 214. 172. 82. 35. 151. 219. 199. 110. 26. 13.
      14. 0. 0. 10. 10. 11. 20. 8. 75. 171. 216. 176. 86. 30. 146. 218.
      202. 114. 27. 17. 17. 0. 0. 14. 16. 20. 27. 23. 75. 167. 212. 174.
      85. 30. 143. 214. 199. 115. 34. 26. 26. 0. 0. 16. 24. 29. 36. 35.
      64. 153. 206. 176. 87. 31. 145. 210. 188. 103. 40. 47. 44. 0. 0.
      44. 50. 50. 50. 48. 57. 133. 194. 181. 105. 67. 158. 207. 169. 86.
      54. 62. 58. 0. 0. 60. 61. 58. 56. 50. 47. 100. 154. 150. 109. 105.
      150. 160. 117. 64. 57. 57. 53. 0. 0. 0. 0. 0. 0. 0. 0. 0. 0. 0. 0.
      0. 0. 0. 0. 0. 0. 0. 0. 0.</_>
    <_>
      0. 0. 0. 0. 0. 0. 0. 0. 0. 0. 0. 0. 0. 0. 0. 0. 0. 0. 0. 0. 0. 9.
      11. 13. 25. 63. 120. 161. 147. 76. 42. 130. 182. 167. 100. 31. 8.
      13. 9. 0. 0. 8. 12. 14. 25. 66. 131. 176. 160. 80. 45. 138. 191.
      173. 103. 32. 5. 9. 9. 0. 0. 4. 9. 14. 24. 65. 138. 190. 173. 85.
      40. 139. 195. 178. 106. 35. 2. 7. 9. 0. 0. 2. 5. 8. 15. 60. 143.
      206. 187. 91. 39. 141. 199. 182. 109. 37. 1. 2. 2. 0. 0. 3. 4. 4.
      4. 52. 148. 219. 199. 95. 37. 140. 205. 191. 114. 38. 4. 9. 11. 0.
      0. 15. 16. 12. 6. 46. 153. 231. 207. 97. 33. 139. 211. 199. 117.
      37. 7. 11. 9. 0. 0. 19. 17. 13. 10. 55. 157. 230. 203. 95. 28.
      134. 211. 202. 120. 38. 7. 10. 7. 0. 0. 1. 8. 16. 15. 56. 156.
      228. 201. 96. 25. 131. 211. 205. 123. 38. 7. 8. 3. 0. 0. 14. 19.
      17. 10. 51. 153. 227. 203. 100. 21. 129. 213. 212. 130. 40. 13.
      13. 5. 0. 0. 17. 15. 9. 4. 51. 148. 219. 199. 103. 17. 124. 209.
      213. 136. 45. 12. 17. 9. 0. 0. 10. 4. 3. 7. 55. 145. 208. 191.
      106. 14. 114. 198. 209. 144. 56. 5. 17. 11. 0. 0. 2. 7. 10. 12.
      59. 141. 199. 186. 109. 10. 105. 191. 207. 149. 63. 1. 15. 11. 0.
      0. 8. 10. 10. 12. 63. 139. 194. 182. 112. 11. 97. 182. 203. 152.
      70. 7. 11. 9. 0. 0. 10. 5. 4. 10. 59. 134. 190. 182. 116. 14. 92.
      178. 202. 153. 72. 7. 12. 10. 0. 0. 12. 5. 2. 8. 56. 131. 187.
      182. 119. 18. 89. 176. 200. 153. 73. 9. 12. 12. 0. 0. 16. 11. 2.
      5. 50. 127. 188. 186. 122. 20. 89. 180. 204. 152. 68. 4. 15. 12.
      0. 0. 18. 16. 5. 2. 44. 125. 191. 191. 126. 22. 92. 186. 208. 151.
      64. 5. 17. 12. 0. 0. 19. 19. 5. 4. 40. 127. 200. 200. 130. 22.
      100. 198. 216. 149. 59. 12. 22. 15. 0. 0. 20. 22. 5. 9. 33. 127.
      209. 211. 137. 23. 107. 211. 227. 150. 54. 19. 27. 18. 0. 0. 23.
      23. 3. 19. 21. 124. 219. 226. 146. 22. 117. 229. 239. 149. 47. 25.
      31. 19. 0. 0. 24. 23. 1. 24. 11. 116. 219. 233. 155. 25. 121. 237.
      245. 149. 41. 27. 33. 21. 0. 0. 24. 23. 1. 23. 12. 109. 211. 233.
      161. 32. 120. 238. 248. 152. 40. 27. 34. 20. 0. 0. 22. 20. 1. 16.
      23. 104. 196. 221. 161. 42. 111. 224. 239. 154. 50. 20. 31. 19. 0.
      0. 21. 19. 4. 5. 27. 98. 176. 203. 155. 45. 97. 206. 228. 160. 63.
      15. 28. 20. 0. 0. 18. 13. 2. 4. 32. 101. 173. 194. 148. 42. 89.
      191. 215. 156. 69. 17. 25. 18. 0. 0. 13. 8. 4. 1. 39. 105. 169.
      184. 139. 40. 81. 178. 204. 154. 72. 11. 19. 15. 0. 0. 10. 6. 5.
      2. 36. 101. 164. 182. 141. 45. 72. 168. 198. 155. 79. 12. 15. 15.
      0. 0. 5. 2. 5. 2. 34. 97. 160. 181. 144. 52. 63. 160. 195. 159.
      86. 18. 15. 17. 0. 0. 2. 0. 6. 5. 28. 89. 156. 184. 154. 64. 54.
      155. 197. 166. 94. 22. 13. 16. 0. 0. 7. 3. 7. 6. 22. 80. 151. 187.
      164. 74. 46. 151. 198. 170. 97. 24. 12. 14. 0. 0. 11. 7. 4. 6. 19.
      71. 147. 192. 173. 82. 42. 151. 200. 171. 96. 24. 9. 11. 0. 0. 8.
      7. 2. 6. 12. 59. 141. 200. 189. 95. 41. 155. 205. 171. 92. 21. 8.
      8. 0. 0. 7. 8. 3. 6. 2. 42. 134. 210. 208. 109. 40. 161. 213. 174.
      89. 16. 6. 5. 0. 0. 8. 8. 5. 8. 6. 25. 125. 222. 231. 125. 43.
      175. 231. 184. 84. 8. 10. 5. 0. 0. 9. 8. 4. 9. 16. 9. 109. 232.
      255. 141. 37. 188. 251. 193. 72. 13. 15. 6. 0. 0. 5. 3. 2. 13. 16.
      8. 110. 222. 241. 141. 35. 163. 234. 196. 90. 6. 14. 9. 0. 0. 4.
      5. 8. 16. 15. 13. 107. 207. 225. 144. 50. 143. 213. 191. 100. 13.
      12. 11. 0. 0. 4. 7. 10. 16. 11. 22. 103. 182. 197. 133. 52. 120.
      183. 173. 102. 25. 7. 11. 0. 0. 0. 0. 0. 0. 0. 0. 0. 0. 0. 0. 0.
      0. 0. 0. 0. 0. 0. 0. 0.</_></uncompressed_support_vectors>
  <decision_functions>
    <_>
      <sv_count>1</sv_count>
      <rho>1.3217731290051515e-001</rho>
      <alpha>
        1.</alpha></_></decision_functions></opencv_ml_svm>
</opencv_storage>
